{"learner":{"attributes":{"scikit_learn":"{\"_estimator_type\": \"classifier\"}"},"feature_names":[],"feature_types":[],"gradient_booster":{"model":{"gbtree_model_param":{"num_parallel_tree":"1","num_trees":"500"},"iteration_indptr":[0,5,10,15,20,25,30,35,40,45,50,55,60,65,70,75,80,85,90,95,100,105,110,115,120,125,130,135,140,145,150,155,160,165,170,175,180,185,190,195,200,205,210,215,220,225,230,235,240,245,250,255,260,265,270,275,280,285,290,295,300,305,310,315,320,325,330,335,340,345,350,355,360,365,370,375,380,385,390,395,400,405,410,415,420,425,430,435,440,445,450,455,460,465,470,475,480,485,490,495,500],"tree_info":[0,1,2,3,4,0,1,2,3,4,0,1,2,3,4,0,1,2,3,4,0,1,2,3,4,0,1,2,3,4,0,1,2,3,4,0,1,2,3,4,0,1,2,3,4,0,1,2,3,4,0,1,2,3,4,0,1,2,3,4,0,1,2,3,4,0,1,2,3,4,0,1,2,3,4,0,1,2,3,4,0,1,2,3,4,0,1,2,3,4,0,1,2,3,4,0,1,2,3,4,0,1,2,3,4,0,1,2,3,4,0,1,2,3,4,0,1,2,3,4,0,1,2,3,4,0,1,2,3,4,0,1,2,3,4,0,1,2,3,4,0,1,2,3,4,0,1,2,3,4,0,1,2,3,4,0,1,2,3,4,0,1,2,3,4,0,1,2,3,4,0,1,2,3,4,0,1,2,3,4,0,1,2,3,4,0,1,2,3,4,0,1,2,3,4,0,1,2,3,4,0,1,2,3,4,0,1,2,3,4,0,1,2,3,4,0,1,2,3,4,0,1,2,3,4,0,1,2,3,4,0,1,2,3,4,0,1,2,3,4,0,1,2,3,4,0,1,2,3,4,0,1,2,3,4,0,1,2,3,4,0,1,2,3,4,0,1,2,3,4,0,1,2,3,4,0,1,2,3,4,0,1,2,3,4,0,1,2,3,4,0,1,2,3,4,0,1,2,3,4,0,1,2,3,4,0,1,2,3,4,0,1,2,3,4,0,1,2,3,4,0,1,2,3,4,0,1,2,3,4,0,1,2,3,4,0,1,2,3,4,0,1,2,3,4,0,1,2,3,4,0,1,2,3,4,0,1,2,3,4,0,1,2,3,4,0,1,2,3,4,0,1,2,3,4,0,1,2,3,4,0,1,2,3,4,0,1,2,3,4,0,1,2,3,4,0,1,2,3,4,0,1,2,3,4,0,1,2,3,4,0,1,2,3,4,0,1,2,3,4,0,1,2,3,4,0,1,2,3,4,0,1,2,3,4,0,1,2,3,4,0,1,2,3,4,0,1,2,3,4,0,1,2,3,4,0,1,2,3,4,0,1,2,3,4,0,1,2,3,4,0,1,2,3,4,0,1,2,3,4,0,1,2,3,4,0,1,2,3,4,0,1,2,3,4,0,1,2,3,4],"trees":[{"base_weights":[1.2689117E-1,1.1298481E0,-2.7683997E-1,1.3636363E0,1.7241378E-1,-4.71394E-1,6.603773E-1,4.5197737E-1,1.7601246E0,-1.2328767E-1,5.670103E-1,-5.447298E-1,2.1897809E-1,-2.892562E-1,1.2426035E0,-1.15384616E-1,7.6642334E-1,9.4890505E-1,6.244019E-1,2.8947368E-1,-0E0,2.6315792E-2,-5.6517774E-1,4.2105266E-1,-1.4285713E-1,-1.3483146E-1,2.6315792E-2,1.6279069E0,-0E0,-2.0547945E-2,3.7078652E-1,-1.05263166E-1,4.2857143E-1,2.6315792E-2,-5.8685446E-1,5.56701E-1,1.5789473E-1,-1.8292682E-1,-0E0],"categories":[],"categories_nodes":[],"categories_segments":[],"categories_sizes":[],"default_left":[0,0,0,0,0,0,0,0,0,0,0,0,0,0,0,0,0,0,0,0,0,0,0,0,0,0,0,0,0,0,0,0,0,0,0,0,0,0,0],"id":0,"left_children":[1,3,5,7,9,11,13,15,17,-1,19,21,23,25,27,-1,29,31,-1,-1,-1,-1,33,-1,-1,-1,-1,35,-1,-1,-1,-1,-1,-1,37,-1,-1,-1,-1],"loss_changes":[3.3500443E1,5.074295E0,1.1113086E1,6.0433235E0,1.5681596E0,2.6325083E0,6.220187E0,2.157266E0,1.3708038E0,0E0,8.753841E-1,6.335974E-1,5.1808357E0,3.3168632E-1,3.2365484E0,0E0,2.2329223E0,3.9178238E0,0E0,0E0,0E0,0E0,6.724968E-1,0E0,0E0,0E0,0E0,3.1798458E-1,0E0,0E0,0E0,0E0,0E0,0E0,5.725403E-1,0E0,0E0,0E0,0E0],"parents":[2147483647,0,0,1,1,2,2,3,3,4,4,5,5,6,6,7,7,8,8,10,10,11,11,12,12,13,13,14,14,16,16,17,17,22,22,27,27,34,34],"right_children":[2,4,6,8,10,12,14,16,18,-1,20,22,24,26,28,-1,30,32,-1,-1,-1,-1,34,-1,-1,-1,-1,36,-1,-1,-1,-1,-1,-1,38,-1,-1,-1,-1],"split_conditions":[-6.059269E-1,-4.2525932E-1,1.0277436E0,-6.3683264E-2,-2.3866114E-1,1.2659744E0,-1.3047281E-1,-1.1957146E0,-3.7674963E-1,-1.2328767E-1,1.8506728E-1,-1.2118347E0,-1.841273E-2,5.0250757E-1,-1.4616904E-1,-1.15384616E-1,-5.2297574E-1,-9.2310697E-1,6.244019E-1,2.8947368E-1,-0E0,2.6315792E-2,-1.7585238E0,4.2105266E-1,-1.4285713E-1,-1.3483146E-1,2.6315792E-2,1.2256422E0,-0E0,-2.0547945E-2,3.7078652E-1,-1.05263166E-1,4.2857143E-1,2.6315792E-2,1.9111629E0,5.56701E-1,1.5789473E-1,-1.8292682E-1,-0E0],"split_indices":[0,7,16,24,5,10,6,3,12,0,2,3,12,0,13,0,12,6,0,0,0,0,13,0,0,0,0,3,0,0,0,0,0,0,13,0,0,0,0],"split_type":[0,0,0,0,0,0,0,0,0,0,0,0,0,0,0,0,0,0,0,0,0,0,0,0,0,0,0,0,0,0,0,0,0,0,0,0,0,0,0],"sum_hessian":[8.096001E1,2.2720001E1,5.8240005E1,1.7920002E1,4.8E0,4.8640003E1,9.6E0,6.0800004E0,1.1840001E1,1.9200001E0,2.88E0,4.4160004E1,4.4800005E0,3.8400002E0,5.76E0,1.6000001E0,4.4800005E0,4.4800005E0,7.3600006E0,1.2800001E0,1.6000001E0,1.2800001E0,4.2880005E1,1.2800001E0,3.2000003E0,2.5600002E0,1.2800001E0,4.1600003E0,1.6000001E0,1.9200001E0,2.5600002E0,1.2800001E0,3.2000003E0,1.2800001E0,4.1600002E1,2.88E0,1.2800001E0,4.0000004E1,1.6000001E0],"tree_param":{"num_deleted":"0","num_feature":"30","num_nodes":"39","size_leaf_vector":"1"}},{"base_weights":[1.3909224E-1,8.4729975E-1,-1.1060507E-1,1.445783E0,3.0351436E-1,5.809128E-1,-2.346707E-1,5.502959E-1,4.7619045E-1,-9.433962E-2,4.9315068E-1,1.0946745E0,-1.3917525E-1,-4.5992114E-2,-4.7008544E-1,3.4615386E-1,-1.15384616E-1,2.3076923E-1,-3.333333E-1,-1.05263166E-1,1.4963503E0,2.6894864E-1,-3.8461536E-1,-5.482041E-1,5.5555556E-2,-1.583851E-1,1.12359546E-1,2.6315792E-2,5.7142854E-1,-0E0,3.7078652E-1,-1.692607E-1,-0E0,-1.7806841E-1,2.6315792E-2,1.5789473E-1,-1.05263166E-1,2.8651685E-1,-9.0747334E-2,-1.3483146E-1,1.4814815E-1],"categories":[],"categories_nodes":[],"categories_segments":[],"categories_sizes":[],"default_left":[0,0,0,0,0,0,0,0,0,0,0,0,0,0,0,0,0,0,0,0,0,0,0,0,0,0,0,0,0,0,0,0,0,0,0,0,0,0,0,0,0],"id":1,"left_children":[1,3,5,7,9,11,13,-1,15,17,-1,19,-1,21,23,-1,-1,-1,25,-1,27,29,31,33,-1,-1,35,-1,-1,37,-1,-1,39,-1,-1,-1,-1,-1,-1,-1,-1],"loss_changes":[1.458732E1,6.551773E0,5.4109144E0,2.8786697E0,6.831396E0,5.6825314E0,2.325412E0,0E0,2.8937728E0,2.4441216E0,0E0,4.450183E0,0E0,3.349754E0,1.2993388E0,0E0,0E0,0E0,8.399749E-1,0E0,2.9855652E0,4.254828E0,1.041604E0,6.6240025E-1,0E0,0E0,8.6733687E-1,0E0,0E0,4.2756605E0,0E0,0E0,1.5092247E0,0E0,0E0,0E0,0E0,0E0,0E0,0E0,0E0],"parents":[2147483647,0,0,1,1,2,2,3,3,4,4,5,5,6,6,8,8,9,9,11,11,13,13,14,14,18,18,20,20,21,21,22,22,23,23,26,26,29,29,32,32],"right_children":[2,4,6,8,10,12,14,-1,16,18,-1,20,-1,22,24,-1,-1,-1,26,-1,28,30,32,34,-1,-1,36,-1,-1,38,-1,-1,40,-1,-1,-1,-1,-1,-1,-1,-1],"split_conditions":[-7.2467744E-1,-3.7709886E-1,-9.925907E-1,1.4481553E-1,1.0024437E-1,-5.2507985E-1,3.3448377E-1,5.502959E-1,-3.7509212E-1,-7.669073E-1,4.9315068E-1,-4.3980312E-1,-1.3917525E-1,2.2560913E-2,1.187259E0,3.4615386E-1,-1.15384616E-1,2.3076923E-1,-1.4034581E-1,-1.05263166E-1,1.723275E-1,8.260949E-1,-2.5302297E-1,2.4825323E0,5.5555556E-2,-1.583851E-1,9.347355E-2,2.6315792E-2,5.7142854E-1,-9.278685E-1,3.7078652E-1,-1.692607E-1,1.1270852E0,-1.7806841E-1,2.6315792E-2,1.5789473E-1,-1.05263166E-1,2.8651685E-1,-9.0747334E-2,-1.3483146E-1,1.4814815E-1],"split_indices":[5,0,3,11,20,8,0,0,12,7,0,2,0,16,27,0,0,0,28,0,25,6,15,3,0,0,0,0,0,29,0,0,4,0,0,0,0,0,0,0,0],"split_type":[0,0,0,0,0,0,0,0,0,0,0,0,0,0,0,0,0,0,0,0,0,0,0,0,0,0,0,0,0,0,0,0,0,0,0,0,0,0,0,0,0],"sum_hessian":[8.096001E1,2.0480001E1,6.0480003E1,8.960001E0,1.152E1,8.64E0,5.1840004E1,5.76E0,3.2000003E0,9.6E0,1.9200001E0,5.76E0,2.88E0,2.9440002E1,2.2400002E1,1.6000001E0,1.6000001E0,1.6000001E0,8.000001E0,1.2800001E0,4.4800005E0,1.5360001E1,1.4080001E1,2.0160002E1,2.2400002E0,5.4400005E0,2.5600002E0,1.2800001E0,3.2000003E0,1.2800001E1,2.5600002E0,9.280001E0,4.8E0,1.8880001E1,1.2800001E0,1.2800001E0,1.2800001E0,2.5600002E0,1.0240001E1,2.5600002E0,2.2400002E0],"tree_param":{"num_deleted":"0","num_feature":"30","num_nodes":"41","size_leaf_vector":"1"}},{"base_weights":[-4.343582E-1,3.9325842E-1,-4.6599492E-1,-1.05263166E-1,2.8947368E-1,1.15384616E-1,-4.8843184E-1,-2.2004889E-1,-5.509289E-1,-3.7940377E-1,2.3076923E-1,1.12359546E-1,-5.811623E-1,2.3809522E-1,-1.7128028E-1,-1.05263166E-1,1.5789473E-1,2.6315792E-2,-5.972696E-1,2.8947368E-1,-1.2328767E-1,-5.0561797E-2,-1.8415417E-1],"categories":[],"categories_nodes":[],"categories_segments":[],"categories_sizes":[],"default_left":[0,0,0,0,0,0,0,0,0,0,0,0,0,0,0,0,0,0,0,0,0,0,0],"id":2,"left_children":[1,3,5,-1,-1,-1,7,9,11,13,-1,15,17,19,-1,-1,-1,-1,21,-1,-1,-1,-1],"loss_changes":[2.3292227E0,1.8529469E0,1.7032146E0,0E0,0E0,0E0,1.1837158E0,2.8709466E0,1.31744E0,1.8816001E0,0E0,8.6733687E-1,6.9753265E-1,2.3778622E0,0E0,0E0,0E0,0E0,3.1303024E-1,0E0,0E0,0E0,0E0],"parents":[2147483647,0,0,1,1,2,2,6,6,7,7,8,8,9,9,11,11,12,12,13,13,18,18],"right_children":[2,4,6,-1,-1,-1,8,10,12,14,-1,16,18,20,-1,-1,-1,-1,22,-1,-1,-1,-1],"split_conditions":[-1.7898988E0,-4.5241177E-1,-1.7003219E0,-1.05263166E-1,2.8947368E-1,1.15384616E-1,-8.8573873E-1,-9.1662735E-1,-1.2465276E0,-6.529122E-1,2.3076923E-1,-1.0103272E0,-1.3263516E0,8.957754E-3,-1.7128028E-1,-1.05263166E-1,1.5789473E-1,2.6315792E-2,-1.1159952E0,2.8947368E-1,-1.2328767E-1,-5.0561797E-2,-1.8415417E-1],"split_indices":[10,0,18,0,0,0,16,16,5,27,0,1,28,1,0,0,0,0,23,0,0,0,0],"split_type":[0,0,0,0,0,0,0,0,0,0,0,0,0,0,0,0,0,0,0,0,0,0,0],"sum_hessian":[8.096001E1,2.5600002E0,7.840001E1,1.2800001E0,1.2800001E0,1.6000001E0,7.68E1,1.5360001E1,6.1440002E1,1.3760001E1,1.6000001E0,2.5600002E0,5.8880005E1,3.2000003E0,1.056E1,1.2800001E0,1.2800001E0,1.2800001E0,5.7600002E1,1.2800001E0,1.9200001E0,2.5600002E0,5.5040005E1],"tree_param":{"num_deleted":"0","num_feature":"30","num_nodes":"23","size_leaf_vector":"1"}},{"base_weights":[-8.052708E-2,6.217616E-1,-1.5151514E-1,-1.16279066E-1,4.550562E-1,2.8767124E-1,-1.9367157E-1,1.5789473E-1,-1.3917525E-1,-2.8599605E-1,2.3738872E-1,-3.9932027E-1,9.485094E-2,3.333333E-1,-3.5587188E-2,-4.8886734E-1,2.0710059E-1,-4.1450775E-1,5.7213926E-1,3.5502958E-1,-1.5328467E-1,-1.5920916E-1,1.54639175E-2,-1.4285713E-1,2.8651685E-1,-1.583851E-1,2.6315792E-2,2.843137E-1,-1.2328767E-1,-1.2328767E-1,2.231405E-1],"categories":[],"categories_nodes":[],"categories_segments":[],"categories_sizes":[],"default_left":[0,0,0,0,0,0,0,0,0,0,0,0,0,0,0,0,0,0,0,0,0,0,0,0,0,0,0,0,0,0,0],"id":3,"left_children":[1,3,5,7,-1,-1,9,-1,-1,11,13,15,17,-1,19,21,23,25,27,29,-1,-1,-1,-1,-1,-1,-1,-1,-1,-1,-1],"loss_changes":[4.18025E0,5.2763224E0,3.707795E0,1.396863E0,0E0,0E0,2.9858391E0,0E0,0E0,2.663682E0,3.2545905E0,2.6578393E0,3.825474E0,0E0,2.268493E0,9.614115E-1,3.9096308E0,4.861499E-1,3.358042E0,2.3187656E0,0E0,0E0,0E0,0E0,0E0,0E0,0E0,0E0,0E0,0E0,0E0],"parents":[2147483647,0,0,1,1,2,2,3,3,6,6,9,9,10,10,11,11,12,12,14,14,15,15,16,16,17,17,18,18,19,19],"right_children":[2,4,6,8,-1,-1,10,-1,-1,12,14,16,18,-1,20,22,24,26,28,30,-1,-1,-1,-1,-1,-1,-1,-1,-1,-1,-1],"split_conditions":[-9.7179985E-1,2.0016013E-1,-1.6704777E0,-6.62028E-1,4.550562E-1,2.8767124E-1,1.1465578E0,1.5789473E-1,-1.3917525E-1,7.6571846E-1,1.3571268E0,9.677953E-1,-1.8402949E-1,3.333333E-1,1.5344465E0,1.4024456E0,-3.1664693E-1,3.0676876E-3,5.933204E-1,1.4434481E0,-1.5328467E-1,-1.5920916E-1,1.54639175E-2,-1.4285713E-1,2.8651685E-1,-1.583851E-1,2.6315792E-2,2.843137E-1,-1.2328767E-1,-1.2328767E-1,2.231405E-1],"split_indices":[23,27,24,1,0,0,15,0,0,8,15,29,7,0,22,23,3,3,5,15,0,0,0,0,0,0,0,0,0,0,0],"split_type":[0,0,0,0,0,0,0,0,0,0,0,0,0,0,0,0,0,0,0,0,0,0,0,0,0,0,0,0,0,0,0],"sum_hessian":[8.096001E1,6.7200003E0,7.4240005E1,4.1600003E0,2.5600002E0,1.9200001E0,7.232001E1,1.2800001E0,2.88E0,5.9840004E1,1.24800005E1,4.608E1,1.3760001E1,2.2400002E0,1.0240001E1,4.0320004E1,5.76E0,6.7200003E0,7.0400004E0,5.76E0,4.4800005E0,3.7440002E1,2.88E0,3.2000003E0,2.5600002E0,5.4400005E0,1.2800001E0,5.1200004E0,1.9200001E0,1.9200001E0,3.8400002E0],"tree_param":{"num_deleted":"0","num_feature":"30","num_nodes":"31","size_leaf_vector":"1"}},{"base_weights":[2.4890189E-1,-4.2056072E-1,1.1204013E0,1.3071895E-1,-4.9094373E-1,2.2364216E-1,1.5353037E0,-1.4285713E-1,2.8767124E-1,-8.8757396E-2,-5.524862E-1,4.550562E-1,-2.6104417E-1,1.6432337E0,-0E0,3.0927834E-1,-1.3917525E-1,-5.7846504E-1,2.6315792E-2,-4.37788E-1,1.5789473E-1,8.208955E-1,5.8778626E-1,-1.15384616E-1,2.8947368E-1,-1.8192627E-1,2.6315792E-2,-1.6216215E-1,2.6315792E-2,4.7938144E-1,7.751938E-2,2.8947368E-1,-1.3917525E-1],"categories":[],"categories_nodes":[],"categories_segments":[],"categories_sizes":[],"default_left":[0,0,0,0,0,0,0,0,0,0,0,0,0,0,0,0,0,0,0,0,0,0,0,0,0,0,0,0,0,0,0,0,0],"id":4,"left_children":[1,3,5,7,9,11,13,-1,-1,15,17,-1,19,21,-1,23,-1,25,-1,27,-1,29,-1,-1,-1,-1,-1,-1,-1,-1,31,-1,-1],"loss_changes":[4.828964E1,1.890914E0,1.300642E1,3.5327373E0,9.895363E-1,8.243528E0,4.036579E0,0E0,0E0,1.1529311E0,6.528139E-1,0E0,1.6164587E0,4.307026E0,0E0,2.1362882E0,0E0,7.0353603E-1,0E0,5.161114E-1,0E0,4.5203147E0,0E0,0E0,0E0,0E0,0E0,0E0,0E0,0E0,2.9268506E0,0E0,0E0],"parents":[2147483647,0,0,1,1,2,2,3,3,4,4,5,5,6,6,9,9,10,10,12,12,13,13,15,15,17,17,19,19,21,21,30,30],"right_children":[2,4,6,8,10,12,14,-1,-1,16,18,-1,20,22,-1,24,-1,26,-1,28,-1,30,-1,-1,-1,-1,-1,-1,-1,-1,32,-1,-1],"split_conditions":[9.347355E-2,-1.2655783E0,9.2379324E-2,-1.5104421E0,-8.174413E-1,-7.02236E-1,1.7221385E0,-1.4285713E-1,2.8767124E-1,-3.0411655E-1,1.40321E0,4.550562E-1,3.444688E-1,-7.059568E-3,-0E0,-7.6971185E-1,-1.3917525E-1,8.9507604E-1,2.6315792E-2,8.373131E-1,1.5789473E-1,-3.5226697E-1,5.8778626E-1,-1.15384616E-1,2.8947368E-1,-1.8192627E-1,2.6315792E-2,-1.6216215E-1,2.6315792E-2,4.7938144E-1,-1.089105E0,2.8947368E-1,-1.3917525E-1],"split_indices":[0,6,7,6,23,9,4,0,0,2,3,0,14,3,0,3,0,7,0,0,0,1,0,0,0,0,0,0,0,0,4,0,0],"split_type":[0,0,0,0,0,0,0,0,0,0,0,0,0,0,0,0,0,0,0,0,0,0,0,0,0,0,0,0,0,0,0,0,0],"sum_hessian":[8.096001E1,4.608E1,3.488E1,5.1200004E0,4.0960003E1,1.152E1,2.3360003E1,3.2000003E0,1.9200001E0,5.76E0,3.52E1,2.5600002E0,8.960001E0,2.1760002E1,1.6000001E0,2.88E0,2.88E0,3.3920002E1,1.2800001E0,7.6800003E0,1.2800001E0,7.0400004E0,1.4720001E1,1.6000001E0,1.2800001E0,3.2640003E1,1.2800001E0,6.4000006E0,1.2800001E0,2.88E0,4.1600003E0,1.2800001E0,2.88E0],"tree_param":{"num_deleted":"0","num_feature":"30","num_nodes":"33","size_leaf_vector":"1"}},{"base_weights":[1.0200626E-1,7.6737136E-1,-2.4442312E-1,8.5338354E-1,-1.480415E-1,-4.3471035E-1,4.9460742E-1,9.857902E-1,1.7160788E-1,4.4741303E-2,-1.04577474E-1,-5.11593E-1,1.955777E-1,-2.6392615E-1,8.655749E-1,1.1353701E0,1.580547E-1,-1.2874343E-1,6.5054107E-1,4.249696E-2,-5.3474635E-1,3.112815E-1,-1.3380599E-1,-1.3009E-1,3.5846744E-2,3.530926E-1,1.0937885E-1,5.074957E-2,1.1828237E0,2.3817556E-1,-1.2775627E-1,2.540688E-1,3.5822682E-2,3.6370642E-2,-5.589848E-1,1.7909434E-1,-1.1083475E-1,3.7399065E-1,3.682636E-2,-1.75181E-1,-1.1578568E-3],"categories":[],"categories_nodes":[],"categories_segments":[],"categories_sizes":[],"default_left":[0,0,0,0,0,0,0,0,0,0,0,0,0,0,0,0,0,0,0,0,0,0,0,0,0,0,0,0,0,0,0,0,0,0,0,0,0,0,0,0,0],"id":5,"left_children":[1,3,5,7,9,11,13,15,17,-1,-1,19,21,23,25,27,29,-1,31,-1,33,-1,-1,-1,-1,-1,35,-1,37,-1,-1,-1,-1,-1,39,-1,-1,-1,-1,-1,-1],"loss_changes":[1.9137758E1,2.3617077E0,7.9245567E0,2.1869068E0,2.4810681E-1,2.238472E0,3.5188072E0,2.5004215E0,1.8487684E0,0E0,0E0,6.748171E-1,3.44552E0,3.5157007E-1,1.7754483E0,6.3300514E-1,1.9994024E0,0E0,2.5688756E-1,0E0,6.7930794E-1,0E0,0E0,0E0,0E0,0E0,1.0286492E0,0E0,1.0072536E0,0E0,0E0,0E0,0E0,0E0,5.13978E-1,0E0,0E0,0E0,0E0,0E0,0E0],"parents":[2147483647,0,0,1,1,2,2,3,3,4,4,5,5,6,6,7,7,8,8,11,11,12,12,13,13,14,14,15,15,16,16,18,18,20,20,26,26,28,28,34,34],"right_children":[2,4,6,8,10,12,14,16,18,-1,-1,20,22,24,26,28,30,-1,32,-1,34,-1,-1,-1,-1,-1,36,-1,38,-1,-1,-1,-1,-1,40,-1,-1,-1,-1,-1,-1],"split_conditions":[-6.059269E-1,1.2857548E0,1.0277436E0,7.4394816E-1,-1.311282E0,1.2659744E0,-1.3047281E-1,1.1612233E0,2.3004532E-1,4.4741303E-2,-1.04577474E-1,-1.6312331E0,-1.841273E-2,2.3305264E-1,-4.2684373E-2,-1.6545494E0,-1.7478735E0,-1.2874343E-1,-5.3660655E-1,4.249696E-2,-1.6963296E0,3.112815E-1,-1.3380599E-1,-1.3009E-1,3.5846744E-2,3.530926E-1,2.1472856E-1,5.074957E-2,1.7308121E0,2.3817556E-1,-1.2775627E-1,2.540688E-1,3.5822682E-2,3.6370642E-2,1.9580188E0,1.7909434E-1,-1.1083475E-1,3.7399065E-1,3.682636E-2,-1.75181E-1,-1.1578568E-3],"split_indices":[0,25,16,21,0,10,6,22,19,0,0,15,12,29,12,25,21,0,7,0,6,0,0,0,0,0,14,0,28,0,0,0,0,0,13,0,0,0,0,0,0],"split_type":[0,0,0,0,0,0,0,0,0,0,0,0,0,0,0,0,0,0,0,0,0,0,0,0,0,0,0,0,0,0,0,0,0,0,0,0,0,0,0,0,0],"sum_hessian":[8.121271E1,2.7390469E1,5.382224E1,2.5099848E1,2.2906199E0,4.3129055E1,1.0693183E1,2.0644579E1,4.45527E0,1.0262535E0,1.2643664E0,3.8607967E1,4.521088E0,3.6067824E0,7.0864005E0,1.7170113E1,3.4744658E0,2.0224078E0,2.4328618E0,1.1463602E0,3.746161E1,1.6882381E0,2.83285E0,2.4093714E0,1.197411E0,4.625276E0,2.4611244E0,1.0175037E0,1.6152609E1,1.4910662E0,1.9833995E0,1.3421645E0,1.0906973E0,1.1922807E0,3.6269325E1,1.0971327E0,1.363992E0,1.5069493E1,1.0831151E0,3.4659546E1,1.6097825E0],"tree_param":{"num_deleted":"0","num_feature":"30","num_nodes":"41","size_leaf_vector":"1"}},{"base_weights":[1.169525E-1,6.2272036E-1,-9.283172E-2,7.9230917E-1,-1.3515952E-1,4.497101E-1,-2.0463459E-1,9.636121E-1,-4.1569334E-2,1.7236884E-1,-1.3889113E-1,8.0436695E-1,-1.3196895E-1,1.7492962E-1,-3.0146873E-1,-1.6394319E-2,1.0860581E0,1.5754113E-1,-1.2707691E-1,-9.7507715E-2,1.0495682E0,-2.8500673E-1,1.080733E0,1.7020792E-1,-3.619942E-1,-1.54521605E-2,1.2395297E0,2.267896E-2,3.8224593E-1,-1.552768E-1,1.4877012E-1,4.8412457E-2,4.0797532E-1,1.8147342E-1,-4.0700683E-1,3.9602646E-1,4.4914585E-2,-1.7165716E-1,-7.760443E-2],"categories":[],"categories_nodes":[],"categories_segments":[],"categories_sizes":[],"default_left":[0,0,0,0,0,0,0,0,0,0,0,0,0,0,0,0,0,0,0,0,0,0,0,0,0,0,0,0,0,0,0,0,0,0,0,0,0,0,0],"id":6,"left_children":[1,3,5,7,9,11,13,15,17,-1,-1,19,-1,21,23,-1,25,-1,-1,-1,27,29,31,-1,33,-1,35,-1,-1,-1,-1,-1,-1,-1,37,-1,-1,-1,-1],"loss_changes":[8.804338E0,3.2300434E0,3.679151E0,2.8970747E0,1.4984163E0,3.6404674E0,1.8801866E0,2.133255E0,1.167905E0,0E0,0E0,2.5015593E0,0E0,4.7820363E0,2.307834E0,0E0,2.6644382E0,0E0,0E0,0E0,1.3574662E0,1.6940224E0,7.62372E-1,0E0,1.8995414E0,0E0,9.581795E-1,0E0,0E0,0E0,0E0,0E0,0E0,0E0,7.559638E-1,0E0,0E0,0E0,0E0],"parents":[2147483647,0,0,1,1,2,2,3,3,4,4,5,5,6,6,7,7,8,8,11,11,13,13,14,14,16,16,20,20,21,21,22,22,24,24,26,26,34,34],"right_children":[2,4,6,8,10,12,14,16,18,-1,-1,20,-1,22,24,-1,26,-1,-1,-1,28,30,32,-1,34,-1,36,-1,-1,-1,-1,-1,-1,-1,38,-1,-1,-1,-1],"split_conditions":[-7.2467744E-1,1.3720967E-1,-9.925907E-1,7.085367E-1,-9.3096745E-1,-5.2507985E-1,-7.370966E-1,-1.2813535E0,-9.426067E-1,1.7236884E-1,-1.3889113E-1,-4.3980312E-1,-1.3196895E-1,4.361079E-1,-1.4345199E0,-1.6394319E-2,-9.5724696E-1,1.5754113E-1,-1.2707691E-1,-9.7507715E-2,1.723275E-1,5.1763123E-1,7.0780927E-1,1.7020792E-1,-1.6662655E0,-1.54521605E-2,1.3833662E0,2.267896E-2,3.8224593E-1,-1.552768E-1,1.4877012E-1,4.8412457E-2,4.0797532E-1,1.8147342E-1,6.670671E-2,3.9602646E-1,4.4914585E-2,-1.7165716E-1,-7.760443E-2],"split_indices":[5,0,3,26,10,8,21,6,23,0,0,2,0,6,4,0,8,0,0,0,25,4,9,0,20,0,15,0,0,0,0,0,0,0,8,0,0,0,0],"split_type":[0,0,0,0,0,0,0,0,0,0,0,0,0,0,0,0,0,0,0,0,0,0,0,0,0,0,0,0,0,0,0,0,0,0,0,0,0,0,0],"sum_hessian":[8.143501E1,2.3297878E1,5.813714E1,1.9000711E1,4.297167E0,9.417043E0,4.8720097E1,1.5633546E1,3.3671646E0,1.1198738E0,3.177293E0,6.8013754E0,2.615667E0,9.73906E0,3.8981037E1,1.7375774E0,1.3895968E1,1.2049925E0,2.162172E0,1.155164E0,5.6462116E0,6.913814E0,2.8252466E0,1.993333E0,3.69877E1,1.7308574E0,1.2165112E1,1.308436E0,4.337775E0,5.5869975E0,1.3268166E0,1.0256829E0,1.7995636E0,1.0920007E0,3.5895702E1,1.1131018E1,1.0340937E0,1.5630741E1,2.0264961E1],"tree_param":{"num_deleted":"0","num_feature":"30","num_nodes":"39","size_leaf_vector":"1"}},{"base_weights":[-3.9504406E-1,-9.3834944E-2,-4.8655185E-1,-2.6537746E-1,7.704728E-1,9.091729E-2,-5.1805335E-1,1.7569596E-1,-3.6892208E-1,2.6956799E-2,3.4432483E-1,5.2899573E-2,-5.344917E-1,8.850825E-2,-4.773703E-1,3.0002277E-2,-5.5159E-1,-1.1335578E-1,1.990308E-1,3.1506933E-2,-1.6547714E-1,1.0475197E-2,-5.6953996E-1,-1.7636637E-1,-9.305361E-2],"categories":[],"categories_nodes":[],"categories_segments":[],"categories_sizes":[],"default_left":[0,0,0,0,0,0,0,0,0,0,0,0,0,0,0,0,0,0,0,0,0,0,0,0,0],"id":7,"left_children":[1,3,5,7,9,-1,11,-1,13,-1,-1,-1,15,17,19,-1,21,-1,-1,-1,-1,-1,23,-1,-1],"loss_changes":[1.9731455E0,2.9185374E0,1.5483875E0,1.6275434E0,7.4108136E-1,0E0,7.1246624E-1,0E0,7.810974E-1,0E0,0E0,0E0,6.3184834E-1,1.2421844E0,5.8510184E-1,0E0,5.664377E-1,0E0,0E0,0E0,0E0,0E0,5.763817E-2,0E0,0E0],"parents":[2147483647,0,0,1,1,2,2,3,3,4,4,6,6,8,8,12,12,13,13,14,14,16,16,22,22],"right_children":[2,4,6,8,10,-1,12,-1,14,-1,-1,-1,16,18,20,-1,22,-1,-1,-1,-1,-1,24,-1,-1],"split_conditions":[-6.529122E-1,-4.5980546E-1,-1.7003219E0,-2.0003803E0,-2.1217133E-1,9.091729E-2,-1.7685527E0,1.7569596E-1,-7.796514E-1,2.6956799E-2,3.4432483E-1,5.2899573E-2,-1.3164855E0,6.2180553E-2,-1.0643303E0,3.0002277E-2,-1.785232E0,-1.1335578E-1,1.990308E-1,3.1506933E-2,-1.6547714E-1,1.0475197E-2,1.4065326E0,-1.7636637E-1,-9.305361E-2],"split_indices":[27,10,18,10,8,0,2,0,5,0,0,0,5,20,6,0,6,0,0,0,0,0,10,0,0],"split_type":[0,0,0,0,0,0,0,0,0,0,0,0,0,0,0,0,0,0,0,0,0,0,0,0,0],"sum_hessian":[7.224316E1,1.7305481E1,5.493767E1,1.5017799E1,2.287681E0,1.7769396E0,5.3160732E1,1.1239595E0,1.389384E1,1.2574246E0,1.0302565E0,1.0044395E0,5.2156292E1,2.697932E0,1.1195908E1,1.2413723E0,5.091492E1,1.6788728E0,1.0190592E0,1.218615E0,9.977293E0,1.4838994E0,4.9431023E1,4.498218E1,4.4488387E0],"tree_param":{"num_deleted":"0","num_feature":"30","num_nodes":"25","size_leaf_vector":"1"}},{"base_weights":[-6.264716E-2,4.985259E-1,-1.268557E-1,-1.0002886E-1,3.2388073E-1,-4.1779464E-1,1.8007169E-2,1.8616457E-1,-1.366287E-1,1.3732654E-1,-4.9196264E-1,3.4897158E-1,-4.3841474E-2,-5.3259516E-1,4.356019E-2,-3.84146E-1,1.94206E-1,-1.7282906E-1,2.8757812E-2,1.8788464E-1,-4.751227E-1,8.341608E-1,4.9729865E-2,8.038019E-2,-1.7273898E-1,4.0815794E-1,-1.0487535E-1,-2.9397115E-2,1.759845E-1],"categories":[],"categories_nodes":[],"categories_segments":[],"categories_sizes":[],"default_left":[0,0,0,0,0,0,0,0,0,0,0,0,0,0,0,0,0,0,0,0,0,0,0,0,0,0,0,0,0],"id":8,"left_children":[1,3,5,7,-1,9,11,-1,-1,-1,13,-1,15,17,-1,19,21,-1,-1,-1,23,25,27,-1,-1,-1,-1,-1,-1],"loss_changes":[2.9144433E0,3.004225E0,3.0337238E0,1.5674583E0,0E0,1.7777834E0,3.5141778E0,0E0,0E0,0E0,6.6046E-1,0E0,3.910525E0,6.399374E-1,0E0,2.1200469E0,2.5960088E0,0E0,0E0,0E0,1.5573978E0,3.709773E0,1.9875209E0,0E0,0E0,0E0,0E0,0E0,0E0],"parents":[2147483647,0,0,1,1,2,2,3,3,5,5,6,6,10,10,12,12,13,13,15,15,16,16,20,20,21,21,22,22],"right_children":[2,4,6,8,-1,10,12,-1,-1,-1,14,-1,16,18,-1,20,22,-1,-1,-1,24,26,28,-1,-1,-1,-1,-1,-1],"split_conditions":[-9.7179985E-1,2.0016013E-1,-4.4463894E-1,-7.636411E-1,3.2388073E-1,-1.229914E0,-1.6092079E0,1.8616457E-1,-1.366287E-1,1.3732654E-1,4.4470727E-1,3.4897158E-1,-1.6947442E-1,1.5975946E0,4.356019E-2,-1.9266393E0,-2.7941388E-1,-1.7282906E-1,2.8757812E-2,1.8788464E-1,-8.915683E-1,7.0689714E-1,5.520659E-1,8.038019E-2,-1.7273898E-1,4.0815794E-1,-1.0487535E-1,-2.9397115E-2,1.759845E-1],"split_indices":[23,27,14,15,0,18,1,0,0,0,0,0,13,25,0,13,15,0,0,0,28,5,16,0,0,0,0,0,0],"split_type":[0,0,0,0,0,0,0,0,0,0,0,0,0,0,0,0,0,0,0,0,0,0,0,0,0,0,0,0,0],"sum_hessian":[7.812951E1,7.3271494E0,7.080236E1,4.0170875E0,3.310062E0,2.290881E1,4.789355E1,1.0804361E0,2.9366515E0,1.3851626E0,2.1523647E1,1.5415393E0,4.6352013E1,2.0387625E1,1.1360224E0,1.8825699E1,2.7526312E1,1.914567E1,1.2419546E0,1.0689937E0,1.7756706E1,4.1905675E0,2.3335745E1,1.920491E0,1.5836215E1,2.7973523E0,1.393215E0,1.8941582E1,4.3941627E0],"tree_param":{"num_deleted":"0","num_feature":"30","num_nodes":"29","size_leaf_vector":"1"}},{"base_weights":[1.872239E-1,-3.8429943E-1,7.459057E-1,1.1861813E-1,-4.564574E-1,9.746781E-3,9.055977E-1,2.9690918E-1,-2.9312143E-1,-6.710565E-2,-5.215535E-1,-2.7879608E-1,3.003109E-1,-1.3068227E-1,9.903002E-1,4.9056612E-2,-1.3652718E-1,2.8602105E-1,-1.309345E-1,-5.5014986E-1,5.3118307E-2,1.5574135E-1,-1.54284E-1,1.0432297E0,-1.0197726E-1,-1.10495046E-1,2.5044447E-1,-1.7410094E-1,2.1993913E-2,1.238213E0,6.4803326E-1,1.15392E-1,3.8537663E-1,-6.1910678E-2,3.4037152E-1],"categories":[],"categories_nodes":[],"categories_segments":[],"categories_sizes":[],"default_left":[0,0,0,0,0,0,0,0,0,0,0,0,0,0,0,0,0,0,0,0,0,0,0,0,0,0,0,0,0,0,0,0,0,0,0],"id":9,"left_children":[1,3,5,7,9,11,13,-1,15,17,19,21,-1,-1,23,-1,-1,25,-1,27,-1,-1,-1,29,-1,-1,-1,-1,-1,31,33,-1,-1,-1,-1],"loss_changes":[2.7342342E1,1.5981112E0,5.0683746E0,2.4894621E0,9.1326094E-1,2.7702804E0,4.4619274E0,0E0,4.3945625E-1,9.7349125E-1,7.348366E-1,1.6815221E0,0E0,0E0,2.72575E0,0E0,0E0,1.7189301E0,0E0,6.240082E-1,0E0,0E0,0E0,1.7122688E0,0E0,0E0,0E0,0E0,0E0,3.2746315E-1,5.5882025E0,0E0,0E0,0E0,0E0],"parents":[2147483647,0,0,1,1,2,2,3,3,4,4,5,5,6,6,8,8,9,9,10,10,11,11,14,14,17,17,19,19,23,23,29,29,30,30],"right_children":[2,4,6,8,10,12,14,-1,16,18,20,22,-1,-1,24,-1,-1,26,-1,28,-1,-1,-1,30,-1,-1,-1,-1,-1,32,34,-1,-1,-1,-1],"split_conditions":[9.347355E-2,-1.2655783E0,-1.779822E-1,-7.414896E-1,-8.174413E-1,1.3173509E-1,-1.2453438E0,2.9690918E-1,-6.085388E-1,-3.0411655E-1,9.126759E-1,-7.02236E-1,3.003109E-1,-1.3068227E-1,2.1913E0,4.9056612E-2,-1.3652718E-1,-2.249989E-1,-1.309345E-1,1.40321E0,5.3118307E-2,1.5574135E-1,-1.54284E-1,1.293067E-1,-1.0197726E-1,-1.10495046E-1,2.5044447E-1,-1.7410094E-1,2.1993913E-2,2.6874393E-1,2.3965435E-1,1.15392E-1,3.8537663E-1,-6.1910678E-2,3.4037152E-1],"split_indices":[0,6,7,29,23,17,13,0,11,2,7,9,0,0,21,0,0,24,0,3,0,0,0,20,0,0,0,0,0,0,2,0,0,0,0],"split_type":[0,0,0,0,0,0,0,0,0,0,0,0,0,0,0,0,0,0,0,0,0,0,0,0,0,0,0,0,0,0,0,0,0,0,0],"sum_hessian":[8.3734474E1,4.154583E1,4.218865E1,5.132199E0,3.641363E1,7.709574E0,3.4479073E1,1.1967175E0,3.9354813E0,5.506876E0,3.0906755E1,6.528131E0,1.1814431E0,1.8020512E0,3.267702E1,1.027903E0,2.9075782E0,2.9305687E0,2.5763075E0,2.9895555E1,1.0111996E0,1.2130774E0,5.3150535E0,3.1634054E1,1.0429674E0,1.4867492E0,1.4438195E0,2.8580908E1,1.3146478E0,1.9754408E1,1.1879648E1,1.4969075E0,1.82575E1,4.519271E0,7.360377E0],"tree_param":{"num_deleted":"0","num_feature":"30","num_nodes":"35","size_leaf_vector":"1"}},{"base_weights":[8.1112996E-2,4.0384126E-1,-4.2139876E-1,-1.9313814E-1,6.362302E-1,-4.7622573E-1,1.6519143E-1,1.1123917E-1,-1.5157287E-1,2.9062E-1,8.2879883E-1,1.6248697E-1,-5.333552E-1,-3.1138995E-1,5.3785175E-1,2.7042428E-1,-9.665502E-2,-9.6061245E-2,9.050289E-1,-1.6926879E-1,3.0668506E-3,-1.3873792E-1,3.179809E-2,2.1722108E-1,1.2900445E-2,2.9663965E-1,-1.5592082E-1,9.760256E-1,-8.307704E-3,2.487633E-1,-6.0543776E-2,3.1166017E-1,6.7725144E-2],"categories":[],"categories_nodes":[],"categories_segments":[],"categories_sizes":[],"default_left":[0,0,0,0,0,0,0,0,0,0,0,0,0,0,0,0,0,0,0,0,0,0,0,0,0,0,0,0,0,0,0,0,0],"id":10,"left_children":[1,3,5,7,9,11,-1,13,-1,15,17,-1,19,21,23,-1,25,-1,27,-1,-1,-1,-1,-1,-1,29,-1,31,-1,-1,-1,-1,-1],"loss_changes":[1.3070902E1,6.913758E0,1.9462323E0,1.4320397E0,2.1195917E0,2.0593777E0,0E0,1.6372344E0,0E0,3.4533145E0,2.23744E0,0E0,4.980526E-1,3.47158E-1,3.7648427E-1,0E0,1.7535611E0,0E0,1.4252129E0,0E0,0E0,0E0,0E0,0E0,0E0,1.6586987E0,0E0,6.91864E-1,0E0,0E0,0E0,0E0,0E0],"parents":[2147483647,0,0,1,1,2,2,3,3,4,4,5,5,7,7,9,9,10,10,12,12,13,13,14,14,16,16,18,18,25,25,27,27],"right_children":[2,4,6,8,10,12,-1,14,-1,16,18,-1,20,22,24,-1,26,-1,28,-1,-1,-1,-1,-1,-1,30,-1,32,-1,-1,-1,-1,-1],"split_conditions":[-2.253026E-4,-6.763705E-1,2.099384E0,-5.674223E-1,-3.1013325E-1,-1.135954E0,1.6519143E-1,4.6732527E-1,-1.5157287E-1,-1.2968965E0,-1.5066035E0,1.6248697E-1,1.9580188E0,9.2929825E-2,2.3305827E-1,2.7042428E-1,-2.1347462E-1,-9.6061245E-2,2.250896E0,-1.6926879E-1,3.0668506E-3,-1.3873792E-1,3.179809E-2,2.1722108E-1,1.2900445E-2,1.8586088E-2,-1.5592082E-1,8.09219E-1,-8.307704E-3,2.487633E-1,-6.0543776E-2,3.1166017E-1,6.7725144E-2],"split_indices":[0,5,4,7,20,7,0,22,0,7,27,0,13,4,23,0,24,0,4,0,0,0,0,0,0,4,0,25,0,0,0,0,0],"split_type":[0,0,0,0,0,0,0,0,0,0,0,0,0,0,0,0,0,0,0,0,0,0,0,0,0,0,0,0,0,0,0,0,0],"sum_hessian":[7.854829E1,4.7949818E1,3.0598469E1,1.3482861E1,3.4466957E1,2.9447577E1,1.150893E0,7.1517577E0,6.331103E0,1.3230628E1,2.1236328E1,1.1142827E0,2.8333294E1,3.728329E0,3.4234288E0,4.6186705E0,8.611958E0,1.1221311E0,2.0114199E1,2.6774565E1,1.5587294E0,2.658208E0,1.070121E0,2.1508322E0,1.2725966E0,4.617969E0,3.993989E0,1.8648302E1,1.4658955E0,1.9117684E0,2.7062004E0,1.6852148E1,1.796154E0],"tree_param":{"num_deleted":"0","num_feature":"30","num_nodes":"33","size_leaf_vector":"1"}},{"base_weights":[9.9969506E-2,4.7530806E-1,-7.434508E-2,7.380721E-1,1.7705724E-1,3.7172547E-1,-1.7407385E-1,-1.0125292E-1,8.5553914E-1,-1.1033903E-1,2.7215233E-1,6.5027726E-1,-1.2501298E-1,-4.434641E-1,-3.0066093E-2,6.4764624E-3,2.8886238E-1,-3.988154E-1,3.7163162E-1,-9.0701826E-2,8.319848E-1,7.732129E-2,-1.6500105E-1,1.9220705E-1,-3.3120424E-1,-1.5461734E-1,4.094375E-2,7.0210725E-1,-9.583746E-2,2.6340777E-2,2.9380313E-1,1.49044E-1,-1.0446696E-1,-3.0932337E-1,3.6895368E-1,-1.5961704E-1,1.4259212E-1,2.6800066E-1,4.1885465E-2,-1.3884889E-1,4.5463342E-2,2.6522335E-1,-6.1843204E-3,2.085073E-1,-1.17674425E-1],"categories":[],"categories_nodes":[],"categories_segments":[],"categories_sizes":[],"default_left":[0,0,0,0,0,0,0,0,0,0,0,0,0,0,0,0,0,0,0,0,0,0,0,0,0,0,0,0,0,0,0,0,0,0,0,0,0,0,0,0,0,0,0,0,0],"id":11,"left_children":[1,3,5,7,9,11,13,-1,15,17,-1,19,-1,21,23,-1,-1,25,27,-1,29,31,-1,33,35,-1,-1,37,-1,-1,-1,-1,-1,39,41,-1,43,-1,-1,-1,-1,-1,-1,-1,-1],"loss_changes":[5.305567E0,1.8819246E0,2.550161E0,1.9738336E0,2.900078E0,2.5830493E0,1.7845014E0,0E0,1.0808277E0,1.6034379E0,0E0,1.66571E0,0E0,9.342041E-1,2.1568441E0,0E0,0E0,5.090215E-1,1.237554E0,0E0,6.9563675E-1,8.1673163E-1,0E0,1.76509E0,1.374582E0,0E0,0E0,2.3174644E-1,0E0,0E0,0E0,0E0,0E0,4.5197093E-1,2.8733373E0,0E0,1.7060955E0,0E0,0E0,0E0,0E0,0E0,0E0,0E0,0E0],"parents":[2147483647,0,0,1,1,2,2,3,3,4,4,5,5,6,6,8,8,9,9,11,11,13,13,14,14,17,17,18,18,20,20,21,21,23,23,24,24,27,27,33,33,34,34,36,36],"right_children":[2,4,6,8,10,12,14,-1,16,18,-1,20,-1,22,24,-1,-1,26,28,-1,30,32,-1,34,36,-1,-1,38,-1,-1,-1,-1,-1,40,42,-1,44,-1,-1,-1,-1,-1,-1,-1,-1],"split_conditions":[-7.2467744E-1,-3.7709886E-1,-9.925907E-1,-1.34476E0,1.0024437E-1,-5.2507985E-1,-4.6337652E-1,-1.0125292E-1,-9.5724696E-1,6.3085777E-1,2.7215233E-1,-4.3980312E-1,-1.2501298E-1,-3.7711513E-1,3.1801382E-1,6.4764624E-3,2.8886238E-1,1.0772363E0,1.2334636E0,-9.0701826E-2,1.723275E-1,-1.0728064E0,-1.6500105E-1,-5.8062804E-1,1.1543121E0,-1.5461734E-1,4.094375E-2,-2.828896E-1,-9.583746E-2,2.6340777E-2,2.9380313E-1,1.49044E-1,-1.0446696E-1,3.101288E-1,-1.0998108E-1,-1.5961704E-1,1.3364956E0,2.6800066E-1,4.1885465E-2,-1.3884889E-1,4.5463342E-2,2.6522335E-1,-6.1843204E-3,2.085073E-1,-1.17674425E-1],"split_indices":[5,0,3,6,20,8,10,0,8,15,0,2,0,5,0,0,0,8,13,0,25,12,0,14,3,0,0,17,0,0,0,0,0,17,14,0,14,0,0,0,0,0,0,0,0],"split_type":[0,0,0,0,0,0,0,0,0,0,0,0,0,0,0,0,0,0,0,0,0,0,0,0,0,0,0,0,0,0,0,0,0,0,0,0,0,0,0,0,0,0,0,0,0],"sum_hessian":[7.955132E1,2.4680952E1,5.4870373E1,1.2337093E1,1.2343859E1,9.5276E0,4.534277E1,1.0302674E0,1.1306826E1,9.466452E0,2.8774073E0,7.1697726E0,2.3578274E0,1.5070838E1,3.0271933E1,1.4262887E0,9.880537E0,6.0298853E0,3.436566E0,1.0421801E0,6.1275926E0,2.6060758E0,1.2464762E1,1.7624695E1,1.2647238E1,4.982077E0,1.0478079E0,2.3140547E0,1.1225114E0,1.2765725E0,4.85102E0,1.2280324E0,1.3780434E0,4.397213E0,1.3227483E1,8.795619E0,3.8516188E0,1.2879949E0,1.02606E0,3.2953415E0,1.1018715E0,5.14926E0,8.078222E0,1.7473232E0,2.1042955E0],"tree_param":{"num_deleted":"0","num_feature":"30","num_nodes":"45","size_leaf_vector":"1"}},{"base_weights":[-3.5884902E-1,-6.257051E-2,-4.5525542E-1,-2.2964752E-1,6.555627E-1,7.8151405E-2,-4.8915482E-1,3.3787876E-1,-3.8222566E-1,2.901855E-1,1.9603413E-2,-9.32541E-2,-5.240695E-1,-1.0095752E-1,2.5790295E-1,1.4329474E-1,-1.5809947E-1,1.9650996E-1,-1.3348623E-1,1.3876633E-2,-5.4498726E-1,-1.01346366E-1,1.8330452E-1,-1.6983317E-1,-2.6860747E-1,-1.306365E-1,5.088548E-2],"categories":[],"categories_nodes":[],"categories_segments":[],"categories_sizes":[],"default_left":[0,0,0,0,0,0,0,0,0,0,0,0,0,0,0,0,0,0,0,0,0,0,0,0,0,0,0],"id":12,"left_children":[1,3,5,7,9,-1,11,13,15,-1,-1,17,19,-1,-1,21,-1,-1,-1,-1,23,-1,-1,-1,25,-1,-1],"loss_changes":[1.8313189E0,2.2076333E0,1.3155642E0,1.3976645E0,5.798856E-1,0E0,6.0218716E-1,1.5683784E0,9.895989E-1,0E0,0E0,1.6161754E0,5.389919E-1,0E0,0E0,9.6727395E-1,0E0,0E0,0E0,0E0,9.0927124E-2,0E0,0E0,0E0,4.2906842E-1,0E0,0E0],"parents":[2147483647,0,0,1,1,2,2,3,3,4,4,6,6,7,7,8,8,11,11,12,12,15,15,20,20,24,24],"right_children":[2,4,6,8,10,-1,12,14,16,-1,-1,18,20,-1,-1,22,-1,-1,-1,-1,24,-1,-1,-1,26,-1,-1],"split_conditions":[-6.529122E-1,-4.5980546E-1,-1.7003219E0,-1.7898988E0,-5.344076E-1,7.8151405E-2,-1.1931721E0,-7.16585E-1,-7.796514E-1,2.901855E-1,1.9603413E-2,-1.0316669E0,-1.785232E0,-1.0095752E-1,2.5790295E-1,2.0397129E-2,-1.5809947E-1,1.9650996E-1,-1.3348623E-1,1.3876633E-2,1.4065326E0,-1.01346366E-1,1.8330452E-1,-1.6983317E-1,-4.079232E-1,-1.306365E-1,5.088548E-2],"split_indices":[27,10,18,10,7,0,11,7,5,0,0,8,6,0,0,17,0,0,0,0,10,0,0,0,5,0,0],"split_type":[0,0,0,0,0,0,0,0,0,0,0,0,0,0,0,0,0,0,0,0,0,0,0,0,0,0,0],"sum_hessian":[6.411206E1,1.6144726E1,4.7967335E1,1.3649356E1,2.4953697E0,1.8667918E0,4.610054E1,2.6347466E0,1.1014608E1,1.2148752E0,1.2804945E0,4.033638E0,4.2066902E1,1.3041927E0,1.3305539E0,2.3811843E0,8.633425E0,1.0139183E0,3.0197196E0,1.4454452E0,4.062146E1,1.310687E0,1.0704974E0,3.6763382E1,3.8580751E0,2.7987993E0,1.0592759E0],"tree_param":{"num_deleted":"0","num_feature":"30","num_nodes":"27","size_leaf_vector":"1"}},{"base_weights":[-4.4372275E-2,4.821997E-1,-1.0056431E-1,-1.250481E-1,9.799512E-1,-2.2026393E-1,2.3010252E-1,1.0793963E-1,3.4254712E-1,2.2533812E-1,-3.169485E-1,-9.2819184E-2,5.5196923E-1,-2.875316E-1,5.724604E-1,-1.6973375E-1,-9.4422705E-2,6.549771E-1,-4.0453297E-1,7.4165595E-1,-1.0306311E-1,3.914167E-2,-1.327582E-1,-1.0458612E-1,9.0535915E-1,-3.6664674E-1,3.6386448E-1,2.6871058E-1,2.5611142E-2,3.8309094E-2,-1.5493865E-1,9.279022E-1,-8.86667E-2,3.235032E-1,1.05189234E-1,1.7504168E-1,-1.4460635E-1,-7.315783E-2,2.1684349E-1,3.469572E-1,7.68947E-3],"categories":[],"categories_nodes":[],"categories_segments":[],"categories_sizes":[],"default_left":[0,0,0,0,0,0,0,0,0,0,0,0,0,0,0,0,0,0,0,0,0,0,0,0,0,0,0,0,0,0,0,0,0,0,0,0,0,0,0,0,0],"id":13,"left_children":[1,3,5,-1,7,9,11,-1,-1,13,15,17,19,21,23,-1,25,27,29,31,-1,-1,-1,-1,33,35,37,-1,-1,-1,-1,39,-1,-1,-1,-1,-1,-1,-1,-1,-1],"loss_changes":[2.276809E0,3.7351549E0,2.7767844E0,0E0,9.946346E-2,2.2720826E0,2.0047154E0,0E0,0E0,1.8899655E0,2.2936697E0,2.65143E0,1.8781579E0,3.5430717E-1,2.1903496E0,0E0,3.0748293E0,3.8889956E-1,5.332422E-1,1.8588395E0,0E0,0E0,0E0,0E0,7.95238E-2,1.9572506E0,2.20234E0,0E0,0E0,0E0,0E0,1.4546704E0,0E0,0E0,0E0,0E0,0E0,0E0,0E0,0E0,0E0],"parents":[2147483647,0,0,1,1,2,2,4,4,5,5,6,6,9,9,10,10,11,11,12,12,13,13,14,14,16,16,17,17,18,18,19,19,24,24,25,25,26,26,31,31],"right_children":[2,4,6,-1,8,10,12,-1,-1,14,16,18,20,22,24,-1,26,28,30,32,-1,-1,-1,-1,34,36,38,-1,-1,-1,-1,40,-1,-1,-1,-1,-1,-1,-1,-1,-1],"split_conditions":[-1.5627129E0,-6.255035E-1,7.494088E-1,-1.250481E-1,-2.360063E-1,-9.6589655E-1,-9.5917445E-1,1.0793963E-1,3.4254712E-1,-3.7567616E-1,-1.8402949E-1,4.0289E-1,5.783181E-1,8.1761114E-2,-4.1306674E-1,-1.6973375E-1,7.6571846E-1,1.8918535E-1,-7.585728E-1,-9.226001E-4,-1.0306311E-1,3.914167E-2,-1.327582E-1,-1.0458612E-1,-3.4039304E-2,-6.194462E-1,3.6590192E-1,2.6871058E-1,2.5611142E-2,3.8309094E-2,-1.5493865E-1,5.6611824E-1,-8.86667E-2,3.235032E-1,1.05189234E-1,1.7504168E-1,-1.4460635E-1,-7.315783E-2,2.1684349E-1,3.469572E-1,7.68947E-3],"split_indices":[24,22,10,0,16,8,21,0,0,28,7,22,14,12,4,0,8,12,23,19,0,0,0,0,27,0,18,0,0,0,0,6,0,0,0,0,0,0,0,0,0],"split_type":[0,0,0,0,0,0,0,0,0,0,0,0,0,0,0,0,0,0,0,0,0,0,0,0,0,0,0,0,0,0,0,0,0,0,0,0,0,0,0,0,0],"sum_hessian":[7.430858E1,6.4340663E0,6.787451E1,2.3507602E0,4.083306E0,5.007978E1,1.7794733E1,1.5122868E0,2.5710192E0,8.691509E0,4.138827E1,9.238037E0,8.556696E0,3.5774837E0,5.1140256E0,1.8811039E1,2.257723E1,2.3938992E0,6.844138E0,7.2028112E0,1.3538842E0,1.0105033E0,2.5669801E0,1.3451025E0,3.768923E0,1.4289303E1,8.287928E0,1.2803226E0,1.1135767E0,1.1647602E0,5.6793776E0,6.1956763E0,1.0071349E0,2.153476E0,1.6154473E0,1.1079582E0,1.3181345E1,3.1965528E0,5.091375E0,4.7183304E0,1.4773461E0],"tree_param":{"num_deleted":"0","num_feature":"30","num_nodes":"41","size_leaf_vector":"1"}},{"base_weights":[1.4653403E-1,-3.5044894E-1,5.5216527E-1,-1.1787883E-1,-5.1834947E-1,-1.4052532E-2,6.6452944E-1,6.32339E-1,-2.8805137E-1,-1.6761297E-1,2.6338715E-2,-1.420573E-1,4.0861815E-1,-1.0204632E-1,7.0147735E-1,3.0229751E-2,2.566765E-1,-4.5932E-1,3.889149E-1,-9.3964055E-2,6.887116E-1,-1.0098729E-1,7.4016994E-1,-1.6060813E-1,5.5005163E-2,2.420608E-1,-9.115082E-2,2.6675284E-1,2.5703972E-2,7.971505E-1,-1.3011533E-1,-9.9094E-2,2.5232032E-1,4.7876865E-2,-1.037975E-1],"categories":[],"categories_nodes":[],"categories_segments":[],"categories_sizes":[],"default_left":[0,0,0,0,0,0,0,0,0,0,0,0,0,0,0,0,0,0,0,0,0,0,0,0,0,0,0,0,0,0,0,0,0,0,0],"id":14,"left_children":[1,3,5,7,9,11,13,15,17,-1,-1,-1,19,-1,21,-1,-1,23,25,-1,27,-1,29,-1,-1,-1,-1,-1,-1,31,33,-1,-1,-1,-1],"loss_changes":[1.6980122E1,1.4240379E0,2.9510698E0,2.3831203E0,5.822029E-1,1.8705624E0,1.671545E0,3.292024E-1,1.8875827E0,0E0,0E0,0E0,1.2336309E0,0E0,1.7577839E0,0E0,0E0,6.954315E-1,1.2636312E0,0E0,4.0008795E-1,0E0,1.9148197E0,0E0,0E0,0E0,0E0,0E0,0E0,1.982029E0,2.4933936E-1,0E0,0E0,0E0,0E0],"parents":[2147483647,0,0,1,1,2,2,3,3,4,4,5,5,6,6,7,7,8,8,12,12,14,14,17,17,18,18,20,20,22,22,29,29,30,30],"right_children":[2,4,6,8,10,12,14,16,18,-1,-1,-1,20,-1,22,-1,-1,24,26,-1,28,-1,30,-1,-1,-1,-1,-1,-1,32,34,-1,-1,-1,-1],"split_conditions":[9.347355E-2,-3.4870642E-1,-1.287539E-1,-1.2655783E0,2.1224396E0,-5.115501E-1,-1.5112484E0,-1.3971652E0,5.1606014E-2,-1.6761297E-1,2.6338715E-2,-1.420573E-1,-2.9665545E-1,-1.0204632E-1,-2.0303986E0,3.0229751E-2,2.566765E-1,1.0095116E0,4.5162144E-1,-9.3964055E-2,-3.735764E-1,-1.0098729E-1,1.7221385E0,-1.6060813E-1,5.5005163E-2,2.420608E-1,-9.115082E-2,2.6675284E-1,2.5703972E-2,-1.024837E0,-7.632154E-1,-9.9094E-2,2.5232032E-1,4.7876865E-2,-1.037975E-1],"split_indices":[0,29,14,6,27,8,21,6,22,0,0,0,18,0,16,0,0,14,15,0,27,0,4,0,0,0,0,0,0,5,25,0,0,0,0],"split_type":[0,0,0,0,0,0,0,0,0,0,0,0,0,0,0,0,0,0,0,0,0,0,0,0,0,0,0,0,0,0,0,0,0,0,0],"sum_hessian":[8.2270325E1,3.7033092E1,4.5237232E1,1.6240032E1,2.079306E1,7.635564E0,3.760167E1,2.5005054E0,1.3739526E1,1.9568354E1,1.2247071E0,3.6008642E0,4.0346994E0,1.0426896E0,3.655898E1,1.1688194E0,1.331686E0,1.1221941E1,2.5175848E0,1.0948651E0,2.9398344E0,1.0369945E0,3.5521984E1,1.0183957E1,1.0379843E0,1.4674829E0,1.050102E0,1.8502501E0,1.0895842E0,3.341803E1,2.1039557E0,1.0084097E0,3.240962E1,1.0096915E0,1.0942641E0],"tree_param":{"num_deleted":"0","num_feature":"30","num_nodes":"35","size_leaf_vector":"1"}},{"base_weights":[6.736236E-2,3.2704318E-1,-3.8938534E-1,-1.6878802E-1,5.0396913E-1,-5.0098777E-1,1.2237857E-1,1.9610435E-1,-4.0996832E-1,-7.163872E-2,5.6319374E-1,-1.6227086E-1,5.3793113E-3,-9.804293E-2,3.2066098E-1,-2.2726667E-1,1.9101192E-1,-1.4844073E-1,2.2311782E-2,-1.18781954E-1,1.2377055E-1,6.635426E-1,6.8276845E-2,6.0659266E-1,-9.209727E-2,4.0473655E-2,-1.21846244E-1,3.2771E-1,8.3699304E-1,1.6647366E-1,-3.1392542E-1,2.2127971E-1,4.416877E-2,-4.994683E-2,1.9223201E-1,2.6337498E-1,2.903996E-2,-1.3243334E-1,1.3788986E-2],"categories":[],"categories_nodes":[],"categories_segments":[],"categories_sizes":[],"default_left":[0,0,0,0,0,0,0,0,0,0,0,0,0,0,0,0,0,0,0,0,0,0,0,0,0,0,0,0,0,0,0,0,0,0,0,0,0,0,0],"id":15,"left_children":[1,3,5,7,9,11,13,15,17,19,21,-1,-1,-1,23,25,-1,-1,-1,-1,-1,27,29,31,-1,-1,-1,33,35,-1,37,-1,-1,-1,-1,-1,-1,-1,-1],"loss_changes":[8.963235E0,4.299164E0,1.6295953E0,1.258103E0,1.2558317E0,4.806881E-1,6.1422515E-1,1.2642623E0,3.8114333E-1,8.2498986E-1,1.5658894E0,0E0,0E0,0E0,9.889368E-1,3.008446E-1,0E0,0E0,0E0,0E0,0E0,1.2901936E0,1.3987153E0,9.6553326E-2,0E0,0E0,0E0,1.7761722E0,4.3200874E-1,0E0,2.1883035E-1,0E0,0E0,0E0,0E0,0E0,0E0,0E0,0E0],"parents":[2147483647,0,0,1,1,2,2,3,3,4,4,5,5,6,6,7,7,8,8,9,9,10,10,14,14,15,15,21,21,22,22,23,23,27,27,28,28,30,30],"right_children":[2,4,6,8,10,12,14,16,18,20,22,-1,-1,-1,24,26,-1,-1,-1,-1,-1,28,30,32,-1,-1,-1,34,36,-1,38,-1,-1,-1,-1,-1,-1,-1,-1],"split_conditions":[-2.253026E-4,-6.763705E-1,1.0277436E0,-6.059269E-1,-1.0718346E0,1.4566982E0,-4.7439757E-1,1.4481553E-1,1.1387738E0,-1.5162475E-1,-1.6588375E-1,-1.6227086E-1,5.3793113E-3,-9.804293E-2,4.0975595E-1,-1.0327522E0,1.9101192E-1,-1.4844073E-1,2.2311782E-2,-1.18781954E-1,1.2377055E-1,-3.5294837E-1,6.670671E-2,2.0568786E0,-9.209727E-2,4.0473655E-2,-1.21846244E-1,-2.7405545E-1,2.5111554E0,1.6647366E-1,4.9671727E-1,2.2127971E-1,4.416877E-2,-4.994683E-2,1.9223201E-1,2.6337498E-1,2.903996E-2,-1.3243334E-1,1.3788986E-2],"split_indices":[0,5,16,0,8,25,27,11,6,20,7,0,0,0,27,5,0,0,0,0,0,20,8,1,0,0,0,12,28,0,6,0,0,0,0,0,0,0,0],"split_type":[0,0,0,0,0,0,0,0,0,0,0,0,0,0,0,0,0,0,0,0,0,0,0,0,0,0,0,0,0,0,0,0,0,0,0,0,0,0,0],"sum_hessian":[7.349619E1,4.7037384E1,2.645881E1,1.2382289E1,3.4655094E1,2.1739128E1,4.7196817E0,5.0017767E0,7.380512E0,3.2134757E0,3.1441618E1,2.0147055E1,1.5920728E0,1.2468557E0,3.4728262E0,2.7976894E0,2.2040875E0,6.262086E0,1.1184264E0,2.0336902E0,1.1797854E0,2.5857965E1,5.5836535E0,2.4089587E0,1.0638674E0,1.0062479E0,1.7914416E0,9.790696E0,1.6067268E1,2.2574706E0,3.3261828E0,1.4031069E0,1.0058519E0,3.9784837E0,5.812212E0,1.5049172E1,1.0180969E0,2.288638E0,1.0375447E0],"tree_param":{"num_deleted":"0","num_feature":"30","num_nodes":"39","size_leaf_vector":"1"}},{"base_weights":[8.618324E-2,3.8512686E-1,-6.104852E-2,4.430944E-1,-1.0740604E-1,3.1224135E-1,-1.484774E-1,-8.9696355E-2,5.299456E-1,5.314385E-1,-1.1575383E-1,-4.1111475E-1,-2.0834401E-2,1.0281724E-1,-1.1701764E-1,-3.675083E-2,6.0346854E-1,-3.2136697E-2,7.224701E-1,7.426484E-2,-1.5740216E-1,-2.0736724E-1,2.6882932E-1,7.758247E-1,1.2699601E-1,6.2093935E-3,2.591542E-1,1.2948392E-1,-9.7480446E-2,3.3906052E-1,-4.6770108E-1,-3.1183746E-1,6.1049557E-1,2.5040403E-1,1.3057272E-2,1.18403465E-1,-1.1457994E-1,-1.16169E-1,2.1544524E-1,4.3016147E-2,-1.6026564E-1,3.5706773E-2,-1.3377841E-1,2.94538E-1,-4.734571E-2],"categories":[],"categories_nodes":[],"categories_segments":[],"categories_sizes":[],"default_left":[0,0,0,0,0,0,0,0,0,0,0,0,0,0,0,0,0,0,0,0,0,0,0,0,0,0,0,0,0,0,0,0,0,0,0,0,0,0,0,0,0,0,0,0,0],"id":16,"left_children":[1,3,5,7,-1,9,11,13,15,17,-1,19,21,-1,-1,-1,23,-1,25,27,-1,29,31,33,35,-1,-1,-1,-1,37,39,41,43,-1,-1,-1,-1,-1,-1,-1,-1,-1,-1,-1,-1],"loss_changes":[3.398531E0,1.2545671E0,1.7512891E0,1.1602473E0,0E0,1.7713085E0,1.43311E0,6.825259E-1,1.0726972E0,1.0789397E0,0E0,8.1126547E-1,1.6763257E0,0E0,0E0,0E0,1.4520278E0,0E0,6.219442E-1,6.4418066E-1,0E0,2.834213E0,2.6076448E0,5.5282784E-1,9.96912E-1,0E0,0E0,0E0,0E0,2.1088028E0,6.1151934E-1,3.5207874E-1,2.4396436E0,0E0,0E0,0E0,0E0,0E0,0E0,0E0,0E0,0E0,0E0,0E0,0E0],"parents":[2147483647,0,0,1,1,2,2,3,3,5,5,6,6,7,7,8,8,9,9,11,11,12,12,16,16,18,18,19,19,21,21,22,22,23,23,24,24,29,29,30,30,31,31,32,32],"right_children":[2,4,6,8,-1,10,12,14,16,18,-1,20,22,-1,-1,-1,24,-1,26,28,-1,30,32,34,36,-1,-1,-1,-1,38,40,42,44,-1,-1,-1,-1,-1,-1,-1,-1,-1,-1,-1,-1],"split_conditions":[-7.2467744E-1,1.4078634E0,-9.925907E-1,-1.4404205E0,-1.0740604E-1,-5.2507985E-1,-4.6337652E-1,-1.2794968E0,-1.3246236E0,-4.0342593E-1,-1.1575383E-1,-3.7711513E-1,4.7580642E-1,1.0281724E-1,-1.1701764E-1,-3.675083E-2,3.0392945E-1,-3.2136697E-2,-1.311282E0,-1.0728064E0,-1.5740216E-1,-3.9822972E-1,2.7866508E-3,6.6032106E-1,2.0016013E-1,6.2093935E-3,2.591542E-1,1.2948392E-1,-9.7480446E-2,-5.709324E-1,-1.0155164E0,-7.02313E-1,5.436792E-3,2.5040403E-1,1.3057272E-2,1.18403465E-1,-1.1457994E-1,-1.16169E-1,2.1544524E-1,4.3016147E-2,-1.6026564E-1,3.5706773E-2,-1.3377841E-1,2.94538E-1,-4.734571E-2],"split_indices":[5,13,3,24,0,8,10,12,16,2,0,5,6,0,0,0,8,0,0,12,0,29,9,18,27,0,0,0,0,15,28,7,16,0,0,0,0,0,0,0,0,0,0,0,0],"split_type":[0,0,0,0,0,0,0,0,0,0,0,0,0,0,0,0,0,0,0,0,0,0,0,0,0,0,0,0,0,0,0,0,0,0,0,0,0,0,0,0,0,0,0,0,0],"sum_hessian":[7.568059E1,2.4440369E1,5.124022E1,2.3046442E1,1.3939272E0,9.235705E0,4.2004513E1,3.225679E0,1.9820763E1,7.210389E0,2.0253165E0,1.3011443E1,2.899307E1,1.2643733E0,1.9613056E0,1.9398851E0,1.7880877E1,1.7614932E0,5.448896E0,2.532583E0,1.047886E1,1.78089E1,1.1184171E1,1.2669592E1,5.211285E0,1.105883E0,4.343013E0,1.2934976E0,1.2390854E0,5.649169E0,1.2159732E1,4.175371E0,7.008799E0,1.1597675E1,1.0719166E0,3.5621755E0,1.6491097E0,1.9300183E0,3.7191505E0,1.0802265E0,1.1079505E1,1.0176921E0,3.157679E0,4.537933E0,2.4708664E0],"tree_param":{"num_deleted":"0","num_feature":"30","num_nodes":"45","size_leaf_vector":"1"}},{"base_weights":[-3.2614127E-1,-3.920183E-2,-4.2555958E-1,-1.9975112E-1,5.504834E-1,7.045316E-2,-4.8136872E-1,2.9759237E-1,-3.4951395E-1,2.4096178E-1,1.378796E-2,2.1991983E-1,-1.2512948E-1,-5.9161346E-2,-5.2411735E-1,-9.175148E-2,2.0922881E-1,1.2733367E-1,-1.5037644E-1,1.9020498E-1,-1.2911054E-1,-1.6453546E-1,-2.5699157E-1,-9.493854E-2,1.545893E-1,5.289722E-2,-1.271497E-1],"categories":[],"categories_nodes":[],"categories_segments":[],"categories_sizes":[],"default_left":[0,0,0,0,0,0,0,0,0,0,0,0,0,0,0,0,0,0,0,0,0,0,0,0,0,0,0],"id":17,"left_children":[1,3,5,7,9,11,13,15,17,-1,-1,-1,-1,19,21,-1,-1,23,-1,-1,-1,-1,25,-1,-1,-1,-1],"loss_changes":[1.6195836E0,1.6115824E0,1.210331E0,1.0872372E0,4.298147E-1,1.9760835E0,6.607485E-1,1.0807247E0,8.312026E-1,0E0,0E0,0E0,0E0,1.4696413E0,8.4456444E-2,0E0,0E0,7.4116546E-1,0E0,0E0,0E0,0E0,4.2007384E-1,0E0,0E0,0E0,0E0],"parents":[2147483647,0,0,1,1,2,2,3,3,4,4,5,5,6,6,7,7,8,8,13,13,14,14,17,17,22,22],"right_children":[2,4,6,8,10,12,14,16,18,-1,-1,-1,-1,20,22,-1,-1,24,-1,-1,-1,-1,26,-1,-1,-1,-1],"split_conditions":[-6.529122E-1,-4.5980546E-1,-1.1931721E0,-1.7898988E0,-2.6378626E-1,-8.8156027E-1,-1.0268562E0,-7.16585E-1,-7.796514E-1,2.4096178E-1,1.378796E-2,2.1991983E-1,-1.2512948E-1,-7.5836617E-1,1.4065326E0,-9.175148E-2,2.0922881E-1,2.0397129E-2,-1.5037644E-1,1.9020498E-1,-1.2911054E-1,-1.6453546E-1,1.5858557E0,-9.493854E-2,1.545893E-1,5.289722E-2,-1.271497E-1],"split_indices":[27,10,11,10,10,8,5,7,5,0,0,0,0,23,10,0,0,17,0,0,0,0,10,0,0,0,0],"split_type":[0,0,0,0,0,0,0,0,0,0,0,0,0,0,0,0,0,0,0,0,0,0,0,0,0,0,0],"sum_hessian":[5.635848E1,1.4861058E1,4.149742E1,1.2200559E1,2.660499E0,4.170353E0,3.7327065E1,2.5951848E0,9.605374E0,1.3781545E0,1.2823446E0,1.5543404E0,2.6160128E0,3.6510775E0,3.3675987E1,1.1279639E0,1.4672209E0,2.35756E0,7.247814E0,1.0264109E0,2.6246665E0,2.9899126E1,3.7768636E0,1.1856198E0,1.17194E0,1.0341496E0,2.742714E0],"tree_param":{"num_deleted":"0","num_feature":"30","num_nodes":"27","size_leaf_vector":"1"}},{"base_weights":[-2.9662702E-2,-2.6680055E-1,7.09859E-2,-3.9252105E-1,1.9402975E-1,3.252776E-1,-1.2284163E-1,-4.8181647E-1,1.2943843E-1,2.3071276E-1,-2.213747E-1,5.6944305E-1,-1.1472992E-1,4.4960687E-1,-2.2987312E-1,-1.6001715E-1,2.5744252E-2,-1.1493314E-1,3.4522913E-2,-9.863957E-2,6.800713E-1,-1.4231987E-1,3.649971E-1,2.74713E-1,-1.0592112E-1,-4.356913E-1,5.0229073E-2,1.1837509E-1,8.727598E-1,2.2045954E-1,-9.3210585E-2,3.9351657E-2,-9.024108E-2,9.878867E-2,-1.6301097E-1,4.9849343E-1,-2.700704E-1,2.1969952E-1,-1.209228E-1,8.567027E-3,3.0048472E-1,-9.4615266E-2,1.3444944E-1,-2.773782E-2,2.5076425E-1,4.1672952E-2,-1.4486383E-1],"categories":[],"categories_nodes":[],"categories_segments":[],"categories_sizes":[],"default_left":[0,0,0,0,0,0,0,0,0,0,0,0,0,0,0,0,0,0,0,0,0,0,0,0,0,0,0,0,0,0,0,0,0,0,0,0,0,0,0,0,0,0,0,0,0,0,0],"id":18,"left_children":[1,3,5,7,9,11,13,15,-1,-1,17,19,21,23,25,-1,-1,-1,-1,-1,27,-1,29,-1,31,33,35,37,39,-1,-1,-1,-1,41,-1,43,45,-1,-1,-1,-1,-1,-1,-1,-1,-1,-1],"loss_changes":[1.7029054E0,1.3063083E0,2.520244E0,1.4596434E0,1.417168E0,2.433191E0,1.8974351E0,5.089524E-1,0E0,0E0,2.5126186E-1,1.6487966E0,1.6739134E0,1.3789026E0,1.4822104E0,0E0,0E0,0E0,0E0,0E0,1.3140268E0,0E0,1.300999E0,0E0,1.852356E-1,8.999803E-1,1.8038551E0,1.7364256E0,1.0149894E0,0E0,0E0,0E0,0E0,6.205868E-1,0E0,1.1133585E0,7.1368986E-1,0E0,0E0,0E0,0E0,0E0,0E0,0E0,0E0,0E0,0E0],"parents":[2147483647,0,0,1,1,2,2,3,3,4,4,5,5,6,6,7,7,10,10,11,11,12,12,13,13,14,14,20,20,22,22,24,24,25,25,26,26,27,27,28,28,33,33,35,35,36,36],"right_children":[2,4,6,8,10,12,14,16,-1,-1,18,20,22,24,26,-1,-1,-1,-1,-1,28,-1,30,-1,32,34,36,38,40,-1,-1,-1,-1,42,-1,44,46,-1,-1,-1,-1,-1,-1,-1,-1,-1,-1],"split_conditions":[-4.5241177E-1,-1.43279E-1,-2.79308E-1,1.5142742E0,-7.869907E-1,-1.3962104E-2,-3.3069766E-1,1.2580253E0,1.2943843E-1,2.3071276E-1,5.612075E-1,-2.2281502E-1,1.594143E0,-1.06969E0,4.4470727E-1,-1.6001715E-1,2.5744252E-2,-1.1493314E-1,3.4522913E-2,-9.863957E-2,-6.103507E-1,-1.4231987E-1,2.2540114E0,2.74713E-1,-3.7456748E-1,-1.1499897E0,-6.000096E-2,-7.173267E-1,-9.9653476E-1,2.2045954E-1,-9.3210585E-2,3.9351657E-2,-9.024108E-2,-6.041999E-2,-1.6301097E-1,-5.963085E-1,-5.754991E-1,2.1969952E-1,-1.209228E-1,8.567027E-3,3.0048472E-1,-9.4615266E-2,1.3444944E-1,-2.773782E-2,2.5076425E-1,4.1672952E-2,-1.4486383E-1],"split_indices":[0,7,24,27,10,3,0,12,0,0,7,0,7,26,0,0,0,0,0,0,11,0,3,0,0,22,7,3,27,0,0,0,0,14,0,6,11,0,0,0,0,0,0,0,0,0,0],"split_type":[0,0,0,0,0,0,0,0,0,0,0,0,0,0,0,0,0,0,0,0,0,0,0,0,0,0,0,0,0,0,0,0,0,0,0,0,0,0,0,0,0,0,0,0,0,0,0],"sum_hessian":[6.9554504E1,2.0232935E1,4.932157E1,1.6012695E1,4.22024E0,2.1039999E1,2.8281572E1,1.4821716E1,1.1909788E0,1.4130092E0,2.8072312E0,1.3342126E1,7.6978726E0,3.9507322E0,2.4330841E1,1.3642503E1,1.1792136E0,1.8022085E0,1.0050225E0,1.2467867E0,1.2095339E1,4.4057894E0,3.292083E0,1.795717E0,2.1550152E0,1.3704987E1,1.0625854E1,3.5017896E0,8.59355E0,2.0709255E0,1.2211577E0,1.1197041E0,1.0353111E0,2.3119261E0,1.1393061E1,4.196478E0,6.429375E0,1.4225122E0,2.0792773E0,1.2997583E0,7.2937913E0,1.1023834E0,1.2095429E0,1.7889632E0,2.407515E0,2.31932E0,4.1100554E0],"tree_param":{"num_deleted":"0","num_feature":"30","num_nodes":"47","size_leaf_vector":"1"}},{"base_weights":[1.1583601E-1,-3.1769714E-1,4.2710492E-1,-1.2599865E-1,-1.6022299E-1,9.924418E-2,5.755711E-1,2.6232108E-1,-3.724307E-1,-2.673116E-1,4.581428E-1,-9.795085E-2,6.156211E-1,-1.6838832E-1,2.5578055E-1,-1.5446311E-1,8.604972E-2,-1.566274E-1,2.6619968E-1,6.230535E-1,-1.0151122E-1,7.222069E-1,1.7667922E-1,-1.3290331E-1,1.267827E-1,4.5112334E-3,1.19646735E-1,2.3337728E-1,-1.2311642E-2,6.1815877E-2,7.8735656E-1,-2.154426E-1,2.0241837E-1,1.2461049E-1,-1.0256674E-1,3.7565436E-3,2.501633E-1,1.0411679E-1,-1.527448E-1],"categories":[],"categories_nodes":[],"categories_segments":[],"categories_sizes":[],"default_left":[0,0,0,0,0,0,0,0,0,0,0,0,0,0,0,0,0,0,0,0,0,0,0,0,0,0,0,0,0,0,0,0,0,0,0,0,0,0,0],"id":19,"left_children":[1,3,5,7,-1,9,11,13,15,17,19,-1,21,23,-1,-1,-1,-1,25,27,-1,29,31,-1,-1,-1,-1,-1,-1,33,35,37,-1,-1,-1,-1,-1,-1,-1],"loss_changes":[1.0821933E1,1.3292601E0,2.207344E0,1.9313085E0,0E0,2.1890147E0,1.3503265E0,2.1840243E0,1.2873129E0,1.2811623E0,1.3017942E0,0E0,1.3136911E0,1.0758379E0,0E0,0E0,0E0,0E0,1.065284E-1,7.758193E-1,0E0,1.0038662E0,1.5794058E0,0E0,0E0,0E0,0E0,0E0,0E0,6.104411E-1,7.8912735E-1,9.806668E-1,0E0,0E0,0E0,0E0,0E0,0E0,0E0],"parents":[2147483647,0,0,1,1,2,2,3,3,5,5,6,6,7,7,8,8,9,9,10,10,12,12,13,13,18,18,19,19,21,21,22,22,29,29,30,30,31,31],"right_children":[2,4,6,8,-1,10,12,14,16,18,20,-1,22,24,-1,-1,-1,-1,26,28,-1,30,32,-1,-1,-1,-1,-1,-1,34,36,38,-1,-1,-1,-1,-1,-1,-1],"split_conditions":[9.347355E-2,-1.563537E-1,-4.5521593E-1,-3.1013325E-1,-1.6022299E-1,4.0521246E-1,-2.0303986E0,1.19218916E-1,1.0095116E0,1.069098E0,-5.3133124E-1,-9.795085E-2,5.865202E-1,-3.4025863E-1,2.5578055E-1,-1.5446311E-1,8.604972E-2,-1.566274E-1,-1.6970962E-1,1.1986861E0,-1.0151122E-1,-6.248979E-1,1.6855925E-1,-1.3290331E-1,1.267827E-1,4.5112334E-3,1.19646735E-1,2.3337728E-1,-1.2311642E-2,6.929949E-3,-7.947884E-1,-3.5226697E-1,2.0241837E-1,1.2461049E-1,-1.0256674E-1,3.7565436E-3,2.501633E-1,1.0411679E-1,-1.527448E-1],"split_indices":[0,29,8,20,0,7,16,27,14,13,8,0,27,3,0,0,0,0,27,12,0,5,28,0,0,0,0,0,0,11,14,1,0,0,0,0,0,0,0],"split_type":[0,0,0,0,0,0,0,0,0,0,0,0,0,0,0,0,0,0,0,0,0,0,0,0,0,0,0,0,0,0,0,0,0,0,0,0,0,0,0],"sum_hessian":[7.8189384E1,3.2668407E1,4.5520977E1,1.8161118E1,1.4507291E1,1.470846E1,3.081252E1,7.025727E0,1.113539E1,7.402854E0,7.305606E0,1.0058008E0,2.9806717E1,4.4751105E0,2.5506165E0,9.336971E0,1.7984184E0,5.0247006E0,2.3781533E0,6.2329135E0,1.0726924E0,2.34638E1,6.342918E0,3.226317E0,1.2487935E0,1.2065543E0,1.171599E0,4.9152374E0,1.3176763E0,2.281919E0,2.118188E1,3.8663242E0,2.4765935E0,1.2011224E0,1.0807966E0,1.2716104E0,1.991027E1,1.263968E0,2.602356E0],"tree_param":{"num_deleted":"0","num_feature":"30","num_nodes":"39","size_leaf_vector":"1"}},{"base_weights":[5.4718502E-2,2.732055E-1,-3.6275017E-1,-1.4709054E-1,4.1574723E-1,-4.7787064E-1,1.0582473E-1,1.1817146E-1,-1.3915938E-1,1.5366285E-1,5.197746E-1,-1.568157E-1,1.9925363E-2,1.461821E-1,-1.08313575E-1,-2.5393546E-1,4.367129E-1,1.6933356E-1,-1.2274006E-1,6.691847E-1,1.1446942E-1,4.0458553E-2,-1.04574434E-1,-1.193249E-1,2.7998412E-2,1.7653024E-1,3.0810924E-3,-1.3754848E-1,1.8745142E-1,7.21406E-1,-6.1012893E-3,1.619262E-1,-2.2603671E-1,1.8340227E-1,-1.0944899E-1,5.327273E-2,2.2737512E-1,-1.3801168E-1,8.079015E-2],"categories":[],"categories_nodes":[],"categories_segments":[],"categories_sizes":[],"default_left":[0,0,0,0,0,0,0,0,0,0,0,0,0,0,0,0,0,0,0,0,0,0,0,0,0,0,0,0,0,0,0,0,0,0,0,0,0,0,0],"id":20,"left_children":[1,3,5,7,9,11,13,15,-1,17,19,-1,-1,-1,21,23,25,-1,27,29,31,-1,-1,-1,-1,-1,-1,-1,33,35,-1,-1,37,-1,-1,-1,-1,-1,-1],"loss_changes":[6.312923E0,2.7745144E0,1.336268E0,1.0806993E0,8.493409E-1,5.062065E-1,5.0362796E-1,9.9296486E-1,0E0,1.330024E0,1.3754396E0,0E0,0E0,0E0,3.0135348E-1,2.4011117E-1,2.771551E-1,0E0,8.627852E-1,6.380892E-1,1.2319564E0,0E0,0E0,0E0,0E0,0E0,0E0,0E0,1.2968543E0,1.8552494E-1,0E0,0E0,6.989756E-1,0E0,0E0,0E0,0E0,0E0,0E0],"parents":[2147483647,0,0,1,1,2,2,3,3,4,4,5,5,6,6,7,7,9,9,10,10,14,14,15,15,16,16,18,18,19,19,20,20,28,28,29,29,32,32],"right_children":[2,4,6,8,10,12,14,16,-1,18,20,-1,-1,-1,22,24,26,-1,28,30,32,-1,-1,-1,-1,-1,-1,-1,34,36,-1,-1,38,-1,-1,-1,-1,-1,-1],"split_conditions":[-2.253026E-4,-6.763705E-1,1.0277436E0,-5.674223E-1,-3.9326012E-1,1.9580188E0,-5.2814555E-1,4.6732527E-1,-1.3915938E-1,-1.3728445E0,-2.4886043E-1,-1.568157E-1,1.9925363E-2,1.461821E-1,-6.1517155E-1,9.2929825E-2,4.1206634E-1,1.6933356E-1,-2.85008E-1,8.09219E-1,6.670671E-2,4.0458553E-2,-1.04574434E-1,-1.193249E-1,2.7998412E-2,1.7653024E-1,3.0810924E-3,-1.3754848E-1,1.723275E-1,-1.4117136E0,-6.1012893E-3,1.619262E-1,2.223546E0,1.8340227E-1,-1.0944899E-1,5.327273E-2,2.2737512E-1,-1.3801168E-1,8.079015E-2],"split_indices":[0,5,16,7,20,13,11,22,0,7,7,0,0,0,10,4,13,0,25,25,8,0,0,0,0,0,0,0,25,27,0,0,1,0,0,0,0,0,0],"split_type":[0,0,0,0,0,0,0,0,0,0,0,0,0,0,0,0,0,0,0,0,0,0,0,0,0,0,0,0,0,0,0,0,0,0,0,0,0,0,0],"sum_hessian":[6.71254E1,4.4290844E1,2.2834553E1,1.1208815E1,3.3082027E1,1.8315037E1,4.5195155E0,6.4416356E0,4.7671785E0,1.0103822E1,2.2978207E1,1.6957407E1,1.3576295E0,1.1663548E0,3.3531609E0,3.0645607E0,3.377075E0,3.6448443E0,6.458977E0,1.6313427E1,6.6647797E0,1.8845288E0,1.468632E0,2.064284E0,1.0002766E0,2.210683E0,1.1663918E0,2.8720906E0,3.586887E0,1.51219225E1,1.1915054E0,2.703285E0,3.961495E0,1.9688269E0,1.61806E0,1.3202647E0,1.3801658E1,2.738881E0,1.2226138E0],"tree_param":{"num_deleted":"0","num_feature":"30","num_nodes":"39","size_leaf_vector":"1"}},{"base_weights":[7.502505E-2,1.9554782E-1,-1.8856914E-1,2.9518345E-1,-3.841629E-1,-3.8579056E-1,2.5786024E-1,3.8787502E-1,-1.4328997E-1,-1.457739E-1,4.1143313E-2,-4.756707E-1,7.114908E-2,1.9907135E-1,-9.50024E-2,-1.7454892E-1,4.343886E-1,-1.3536973E-1,1.674445E-1,-1.5824777E-1,2.9193284E-2,-1.2438434E-1,1.6311106E-1,-1.086822E-1,3.8668133E-2,5.020807E-1,-2.3461457E-2,-1.0613601E-1,1.5078378E-1,1.5957579E-1,-2.0556323E-2,-1.2758902E-1,1.4784643E-1],"categories":[],"categories_nodes":[],"categories_segments":[],"categories_sizes":[],"default_left":[0,0,0,0,0,0,0,0,0,0,0,0,0,0,0,0,0,0,0,0,0,0,0,0,0,0,0,0,0,0,0,0,0],"id":21,"left_children":[1,3,5,7,9,11,13,15,17,-1,-1,19,-1,-1,21,23,25,-1,27,-1,-1,-1,-1,-1,-1,29,31,-1,-1,-1,-1,-1,-1],"loss_changes":[2.3128738E0,2.981408E0,2.123457E0,1.8006618E0,4.7597194E-1,1.0279746E0,1.1572292E0,1.0101147E0,8.624035E-1,0E0,0E0,4.853406E-1,0E0,0E0,1.2384737E0,2.4272826E-1,1.0429935E0,0E0,1.0202748E0,0E0,0E0,0E0,0E0,0E0,0E0,5.307393E-1,1.296901E0,0E0,0E0,0E0,0E0,0E0,0E0],"parents":[2147483647,0,0,1,1,2,2,3,3,4,4,5,5,6,6,7,7,8,8,11,11,14,14,15,15,16,16,18,18,25,25,26,26],"right_children":[2,4,6,8,10,12,14,16,18,-1,-1,20,-1,-1,22,24,26,-1,28,-1,-1,-1,-1,-1,-1,30,32,-1,-1,-1,-1,-1,-1],"split_conditions":[2.0360275E-1,4.0500522E-1,1.9313616E-1,6.629504E-1,2.9816298E0,6.663883E-1,2.841386E-1,-1.2813535E0,5.6611824E-1,-1.457739E-1,4.1143313E-2,1.195129E0,7.114908E-2,1.9907135E-1,5.561836E-1,1.3252439E-1,7.085367E-1,-1.3536973E-1,-6.960134E-1,-1.5824777E-1,2.9193284E-2,-1.2438434E-1,1.6311106E-1,-1.086822E-1,3.8668133E-2,1.3696855E0,4.9671727E-1,-1.0613601E-1,1.5078378E-1,1.5957579E-1,-2.0556323E-2,-1.2758902E-1,1.4784643E-1],"split_indices":[0,17,1,18,4,28,14,6,6,0,0,16,0,0,27,12,26,0,13,0,0,0,0,0,0,29,6,0,0,0,0,0,0],"split_type":[0,0,0,0,0,0,0,0,0,0,0,0,0,0,0,0,0,0,0,0,0,0,0,0,0,0,0,0,0,0,0,0,0],"sum_hessian":[7.0641914E1,4.865405E1,2.1987867E1,4.193708E1,6.716971E0,1.5344763E1,6.643104E0,3.4714058E1,7.223021E0,5.676845E0,1.0401256E0,1.3616583E1,1.7281799E0,2.6805508E0,3.9625533E0,2.4413671E0,3.227269E1,3.4007149E0,3.8223064E0,1.2560015E1,1.0565684E0,2.8748262E0,1.0877272E0,1.3884945E0,1.0528727E0,2.803167E1,4.2410207E0,1.4741915E0,2.3481147E0,2.6703074E1,1.3285975E0,2.4839425E0,1.7570784E0],"tree_param":{"num_deleted":"0","num_feature":"30","num_nodes":"33","size_leaf_vector":"1"}},{"base_weights":[-2.957324E-1,-1.6587777E-2,-3.9851272E-1,1.7291029E-1,-1.331069E-1,6.866235E-2,-4.387073E-1,-1.1609749E-1,3.5633135E-1,-1.5928955E-1,-5.026664E-1,2.096435E-1,-9.7542055E-2,1.4472948E-1,-3.3924767E-1,-1.5999064E-1,-2.0908587E-1,1.2814982E-1,-1.19068496E-1,-1.3854131E-1,5.396413E-2,5.3839196E-2,-1.14816725E-1],"categories":[],"categories_nodes":[],"categories_segments":[],"categories_sizes":[],"default_left":[0,0,0,0,0,0,0,0,0,0,0,0,0,0,0,0,0,0,0,0,0,0,0],"id":22,"left_children":[1,3,5,7,-1,-1,9,-1,11,13,15,-1,17,-1,19,-1,21,-1,-1,-1,-1,-1,-1],"loss_changes":[1.4332323E0,1.2542284E0,1.0242887E0,1.2467413E0,0E0,0E0,5.413766E-1,0E0,1.4132859E0,1.0807089E0,1.3882017E-1,0E0,8.9192456E-1,0E0,5.149981E-1,0E0,3.5709214E-1,0E0,0E0,0E0,0E0,0E0,0E0],"parents":[2147483647,0,0,1,1,2,2,3,3,6,6,8,8,9,9,10,10,12,12,14,14,16,16],"right_children":[2,4,6,8,-1,-1,10,-1,12,14,16,-1,18,-1,20,-1,22,-1,-1,-1,-1,-1,-1],"split_conditions":[-6.529122E-1,1.9495991E-1,-1.7003219E0,-3.7456748E-1,-1.331069E-1,6.866235E-2,-6.199367E-1,-1.1609749E-1,6.0509402E-2,-9.6589655E-1,8.481602E-1,2.096435E-1,-1.1513196E0,1.4472948E-1,7.500369E-1,-1.5999064E-1,8.9507604E-1,1.2814982E-1,-1.19068496E-1,-1.3854131E-1,5.396413E-2,5.3839196E-2,-1.14816725E-1],"split_indices":[27,25,18,0,0,0,24,0,0,8,7,0,26,0,13,0,7,0,0,0,0,0,0],"split_type":[0,0,0,0,0,0,0,0,0,0,0,0,0,0,0,0,0,0,0,0,0,0,0],"sum_hessian":[4.918522E1,1.3548838E1,3.563638E1,9.797155E0,3.7516823E0,1.8630068E0,3.3773373E1,2.1436634E0,7.6534925E0,6.9409575E0,2.6832415E1,4.054453E0,3.5990398E0,1.1520411E0,5.7889166E0,2.3557589E1,3.2748249E0,1.1523051E0,2.4467347E0,4.772613E0,1.0163035E0,1.0010948E0,2.2737303E0],"tree_param":{"num_deleted":"0","num_feature":"30","num_nodes":"23","size_leaf_vector":"1"}},{"base_weights":[-2.0687284E-2,-2.5205907E-1,6.051508E-2,-3.642669E-1,1.1645165E-1,5.4753786E-1,-4.3191984E-2,-5.592689E-2,-1.5357493E-1,-1.6675469E-2,6.875901E-1,-3.06672E-1,8.4930554E-2,1.5055549E-1,-2.8839776E-1,2.4397154E-1,9.089498E-3,1.707689E-1,-1.5306708E-1,-1.326358E-1,1.7767443E-1,-1.2513497E-1,2.8515095E-2,1.4650662E-1,-1.0004044E-1,-2.3208103E-1,3.006364E-1,-1.3810587E-1,1.0433344E-1,1.1127026E-1,-1.0352793E-1],"categories":[],"categories_nodes":[],"categories_segments":[],"categories_sizes":[],"default_left":[0,0,0,0,0,0,0,0,0,0,0,0,0,0,0,0,0,0,0,0,0,0,0,0,0,0,0,0,0,0,0],"id":23,"left_children":[1,3,5,7,-1,9,11,13,-1,-1,15,17,19,-1,21,-1,-1,23,-1,-1,25,-1,-1,-1,-1,27,29,-1,-1,-1,-1],"loss_changes":[1.2382858E0,1.3701894E0,2.4981167E0,6.574472E-1,0E0,7.7090216E-1,1.4208432E0,9.2303395E-1,0E0,0E0,5.629027E-1,1.4219556E0,1.4757E0,0E0,2.8009593E-1,0E0,0E0,9.402772E-1,0E0,0E0,1.3303437E0,0E0,0E0,0E0,0E0,9.992006E-1,1.0209056E0,0E0,0E0,0E0,0E0],"parents":[2147483647,0,0,1,1,2,2,3,3,5,5,6,6,7,7,10,10,11,11,12,12,14,14,17,17,20,20,25,25,26,26],"right_children":[2,4,6,8,-1,10,12,14,-1,-1,16,18,20,-1,22,-1,-1,24,-1,-1,26,-1,-1,-1,-1,28,30,-1,-1,-1,-1],"split_conditions":[-6.4983964E-1,1.8168333E0,-7.18531E-1,-5.138032E-1,1.1645165E-1,-2.441135E-1,-4.4463894E-1,-1.0850883E0,-1.5357493E-1,-1.6675469E-2,2.650527E-1,-1.1957146E0,-6.8651676E-1,1.5055549E-1,-6.51922E-2,2.4397154E-1,9.089498E-3,-4.3980312E-1,-1.5306708E-1,-1.326358E-1,1.2063041E-1,-1.2513497E-1,2.8515095E-2,1.4650662E-1,-1.0004044E-1,6.351295E-1,1.9433123E0,-1.3810587E-1,1.0433344E-1,1.1127026E-1,-1.0352793E-1],"split_indices":[22,21,15,11,0,0,14,10,0,0,21,3,11,0,10,0,0,2,0,0,13,0,0,0,0,11,22,0,0,0,0],"split_type":[0,0,0,0,0,0,0,0,0,0,0,0,0,0,0,0,0,0,0,0,0,0,0,0,0,0,0,0,0,0,0],"sum_hessian":[6.409668E1,1.6104803E1,4.799188E1,1.4069927E1,2.0348768E0,7.674009E0,4.031787E1,5.0022945E0,9.067632E0,1.559834E0,6.114175E0,1.273505E1,2.758282E1,1.1306646E0,3.8716302E0,4.933775E0,1.1803999E0,3.8547006E0,8.880349E0,3.563705E0,2.4019115E1,2.8328671E0,1.038763E0,2.3844101E0,1.4702903E0,5.3392644E0,1.8679852E1,3.9789681E0,1.3602962E0,1.7230537E1,1.4493141E0],"tree_param":{"num_deleted":"0","num_feature":"30","num_nodes":"31","size_leaf_vector":"1"}},{"base_weights":[9.730267E-2,-2.9026833E-1,3.562635E-1,-1.0647316E-1,-1.5442473E-1,7.720757E-2,4.7957036E-1,-2.4600515E-1,4.5669976E-1,-3.5304683E-1,3.0354813E-1,-4.0520348E-2,5.230752E-1,1.09021686E-1,-3.796965E-1,2.0071286E-1,1.236024E-2,-1.3950197E-1,2.1225179E-2,4.568706E-1,-6.1304662E-2,6.107108E-1,1.6184634E-1,1.3772349E-1,-1.5254799E-1,1.9556923E-1,1.4306326E-1,6.710365E-1,2.2132432E-1,-1.8566602E-1,1.7569438E-1,-9.2986375E-2,1.6308667E-1,-1.2348994E-1,1.7003101E-1,4.302925E-2,2.1557221E-1,-1.2671201E-1,1.7145061E-1,9.20289E-2,-1.3934934E-1],"categories":[],"categories_nodes":[],"categories_segments":[],"categories_sizes":[],"default_left":[0,0,0,0,0,0,0,0,0,0,0,0,0,0,0,0,0,0,0,0,0,0,0,0,0,0,0,0,0,0,0,0,0,0,0,0,0,0,0,0,0],"id":24,"left_children":[1,3,5,7,-1,9,11,13,15,17,19,-1,21,-1,23,-1,-1,-1,-1,25,-1,27,29,31,-1,-1,33,35,37,39,-1,-1,-1,-1,-1,-1,-1,-1,-1,-1,-1],"loss_changes":[7.411869E0,1.171294E0,1.4804578E0,1.4953909E0,0E0,1.5393796E0,8.833747E-1,1.34015E0,3.11661E-1,2.9538488E-1,8.856949E-1,0E0,8.062172E-1,0E0,9.0904117E-1,0E0,0E0,0E0,0E0,4.0396678E-1,0E0,3.8347435E-1,1.1311901E0,7.6744574E-1,0E0,0E0,1.2662874E0,3.764181E-1,1.2625225E0,7.7050006E-1,0E0,0E0,0E0,0E0,0E0,0E0,0E0,0E0,0E0,0E0,0E0],"parents":[2147483647,0,0,1,1,2,2,3,3,5,5,6,6,7,7,8,8,9,9,10,10,12,12,14,14,19,19,21,21,22,22,23,23,26,26,27,27,28,28,29,29],"right_children":[2,4,6,8,-1,10,12,14,16,18,20,-1,22,-1,24,-1,-1,-1,-1,26,-1,28,30,32,-1,-1,34,36,38,40,-1,-1,-1,-1,-1,-1,-1,-1,-1,-1,-1],"split_conditions":[9.347355E-2,-1.563537E-1,-4.5521593E-1,7.160405E-1,-1.5442473E-1,1.2979785E-1,-1.4962931E0,-1.2655783E0,-3.9505455E-1,8.1773907E-1,1.16248205E-1,-4.0520348E-2,5.865202E-1,1.09021686E-1,-1.0985348E0,2.0071286E-1,1.236024E-2,-1.3950197E-1,2.1225179E-2,-2.31126E-1,-6.1304662E-2,3.3477095E-1,1.6855925E-1,8.2199913E-1,-1.5254799E-1,1.9556923E-1,-3.1862232E-1,-6.248979E-1,-3.925186E-1,-3.5226697E-1,1.7569438E-1,-9.2986375E-2,1.6308667E-1,-1.2348994E-1,1.7003101E-1,4.302925E-2,2.1557221E-1,-1.2671201E-1,1.7145061E-1,9.20289E-2,-1.3934934E-1],"split_indices":[0,29,8,10,0,7,4,6,20,23,6,0,27,0,4,0,0,0,0,20,0,28,28,26,0,0,24,5,11,1,0,0,0,0,0,0,0,0,0,0,0],"split_type":[0,0,0,0,0,0,0,0,0,0,0,0,0,0,0,0,0,0,0,0,0,0,0,0,0,0,0,0,0,0,0,0,0,0,0,0,0,0,0,0,0],"sum_hessian":[7.181827E1,2.8717548E1,4.3100716E1,1.6600271E1,1.2117279E1,1.3706858E1,2.939386E1,1.3755404E1,2.8448656E0,4.5320354E0,9.174822E0,1.8038831E0,2.7589977E1,2.165603E0,1.1589802E1,1.4788668E0,1.3659986E0,3.5080369E0,1.0239986E0,7.1245503E0,2.050272E0,2.1647547E1,5.94243E0,2.2961373E0,9.293665E0,3.7293992E0,3.3951511E0,1.8117393E1,3.530153E0,3.573832E0,2.3685977E0,1.2042775E0,1.0918599E0,1.4826427E0,1.9125085E0,1.8294995E0,1.6287895E1,1.1711581E0,2.358995E0,1.2558224E0,2.3180096E0],"tree_param":{"num_deleted":"0","num_feature":"30","num_nodes":"41","size_leaf_vector":"1"}},{"base_weights":[4.8481572E-2,2.3863891E-1,-3.358964E-1,-1.2808478E-1,3.6026806E-1,-4.567745E-1,9.890062E-2,1.8685699E-1,-3.6969814E-1,-8.1804864E-2,4.055332E-1,-1.5299618E-1,1.9032618E-2,-8.772345E-2,2.6235294E-1,4.003235E-1,-9.349814E-2,-1.3592036E-1,1.1605839E-2,9.1784894E-2,-1.0704983E-1,1.9311604E-1,5.829561E-1,1.4009556E-1,-1.3690418E-2,1.8141267E-1,-9.145916E-3,3.713193E-1,-3.1878805E-1,9.021895E-3,1.939138E-1,1.4115272E-1,-1.5941253E-2,-1.301591E-1,2.0493588E-3],"categories":[],"categories_nodes":[],"categories_segments":[],"categories_sizes":[],"default_left":[0,0,0,0,0,0,0,0,0,0,0,0,0,0,0,0,0,0,0,0,0,0,0,0,0,0,0,0,0,0,0,0,0,0,0],"id":25,"left_children":[1,3,5,7,9,11,13,15,17,19,21,-1,-1,-1,23,25,-1,-1,-1,-1,-1,27,29,-1,-1,-1,-1,31,33,-1,-1,-1,-1,-1,-1],"loss_changes":[4.5830483E0,1.9106147E0,1.1386492E0,9.1741526E-1,6.665411E-1,4.8793173E-1,4.1876978E-1,7.1049106E-1,2.437489E-1,5.1143456E-1,9.75832E-1,0E0,0E0,0E0,2.922708E-1,3.9631462E-1,0E0,0E0,0E0,0E0,0E0,1.4537878E0,5.1498556E-1,0E0,0E0,0E0,0E0,5.0162745E-1,1.6477144E-1,0E0,0E0,0E0,0E0,0E0,0E0],"parents":[2147483647,0,0,1,1,2,2,3,3,4,4,5,5,6,6,7,7,8,8,9,9,10,10,14,14,15,15,21,21,22,22,27,27,28,28],"right_children":[2,4,6,8,10,12,14,16,18,20,22,-1,-1,-1,24,26,-1,-1,-1,-1,-1,28,30,-1,-1,-1,-1,32,34,-1,-1,-1,-1,-1,-1],"split_conditions":[-2.253026E-4,-6.763705E-1,1.0277436E0,-6.059269E-1,-1.0718346E0,8.405258E-1,-4.7439757E-1,1.8900128E-1,1.1144923E0,-8.510873E-2,-1.6918278E-1,-1.5299618E-1,1.9032618E-2,-8.772345E-2,-4.8746195E-2,2.930374E-1,-9.349814E-2,-1.3592036E-1,1.1605839E-2,9.1784894E-2,-1.0704983E-1,-2.3518936E-1,-1.0865667E0,1.4009556E-1,-1.3690418E-2,1.8141267E-1,-9.145916E-3,1.0706652E0,2.2185726E-1,9.021895E-3,1.939138E-1,1.4115272E-1,-1.5941253E-2,-1.301591E-1,2.0493588E-3],"split_indices":[0,5,16,0,8,4,27,25,18,12,12,0,0,0,12,21,0,0,0,0,0,13,26,0,0,0,0,21,13,0,0,0,0,0,0],"split_type":[0,0,0,0,0,0,0,0,0,0,0,0,0,0,0,0,0,0,0,0,0,0,0,0,0,0,0,0,0,0,0,0,0,0,0],"sum_hessian":[6.060555E1,4.080024E1,1.9805311E1,1.0148488E1,3.065175E1,1.5457436E1,4.347875E0,4.504076E0,5.644412E0,2.7720299E0,2.787972E1,1.4040865E1,1.4165707E0,1.0485734E0,3.2993019E0,3.291583E0,1.2124928E0,4.596618E0,1.0477935E0,1.1036259E0,1.6684041E0,1.3639029E1,1.4240691E1,1.6720904E0,1.6272116E0,1.9586854E0,1.3328977E0,1.03208E1,3.3182292E0,1.6171931E0,1.2623498E1,8.277876E0,2.0429235E0,2.2061412E0,1.112088E0],"tree_param":{"num_deleted":"0","num_feature":"30","num_nodes":"35","size_leaf_vector":"1"}},{"base_weights":[6.4345784E-2,1.1778474E-1,-3.675392E-1,2.0995882E-1,-1.317988E-1,-1.4106205E-1,4.530518E-2,2.975665E-1,-1.8142249E-1,-2.958615E-1,4.3321314E-1,-2.4294613E-1,3.5402444E-1,1.0410198E-1,-3.8908303E-1,-4.0801844E-1,1.4117847E-1,1.7751685E-1,9.957435E-3,-1.1982434E-1,3.4840964E-2,3.906299E-1,-9.4068706E-2,2.2024218E-2,-1.4652222E-1,-1.4992644E-1,-5.9198428E-2,1.3338196E-1,-4.9756886E-3,1.0044365E-1,-1.0592818E-1],"categories":[],"categories_nodes":[],"categories_segments":[],"categories_sizes":[],"default_left":[0,0,0,0,0,0,0,0,0,0,0,0,0,0,0,0,0,0,0,0,0,0,0,0,0,0,0,0,0,0,0],"id":26,"left_children":[1,3,5,7,9,-1,-1,11,13,15,17,19,21,-1,23,25,-1,-1,-1,-1,-1,27,-1,-1,-1,-1,29,-1,-1,-1,-1],"loss_changes":[1.5838351E0,1.4115937E0,4.7522485E-1,1.573561E0,1.6891088E0,0E0,0E0,1.2026258E0,1.0926677E0,1.3648955E0,2.463584E-1,2.741377E-1,9.420495E-1,0E0,3.4530997E-1,3.6842203E-1,0E0,0E0,0E0,0E0,0E0,7.159972E-1,0E0,0E0,0E0,0E0,5.494863E-1,0E0,0E0,0E0,0E0],"parents":[2147483647,0,0,1,1,2,2,3,3,4,4,7,7,8,8,9,9,10,10,11,11,12,12,14,14,15,15,21,21,26,26],"right_children":[2,4,6,8,10,-1,-1,12,14,16,18,20,22,-1,24,26,-1,-1,-1,-1,-1,28,-1,-1,-1,-1,30,-1,-1,-1,-1],"split_conditions":[8.983198E-1,2.0360275E-1,1.7991112E0,7.085367E-1,2.5921983E-1,-1.4106205E-1,4.530518E-2,-1.2813535E0,-7.370966E-1,7.0689714E-1,9.2379324E-2,1.6873574E-1,2.1049204E0,1.0410198E-1,-9.974439E-1,5.027639E-1,1.4117847E-1,1.7751685E-1,9.957435E-3,-1.1982434E-1,3.4840964E-2,1.0712769E0,-9.4068706E-2,2.2024218E-2,-1.4652222E-1,-1.4992644E-1,-6.537136E-1,1.3338196E-1,-4.9756886E-3,1.0044365E-1,-1.0592818E-1],"split_indices":[5,0,6,26,1,0,0,6,21,5,7,7,2,0,7,6,0,0,0,0,0,10,0,0,0,0,8,0,0,0,0],"split_type":[0,0,0,0,0,0,0,0,0,0,0,0,0,0,0,0,0,0,0,0,0,0,0,0,0,0,0,0,0,0,0],"sum_hessian":[6.5749535E1,5.9157055E1,6.5924754E0,4.3317986E1,1.583907E1,5.5807886E0,1.0116863E0,3.559093E1,7.727053E0,1.2643992E1,3.195078E0,3.053588E0,3.2537346E1,1.9905972E0,5.736456E0,1.1437918E1,1.2060748E0,1.9451003E0,1.2499777E0,2.048602E0,1.0049859E0,3.123928E1,1.298065E0,1.0602657E0,4.6761904E0,8.713618E0,2.7243E0,2.7502047E1,3.7372324E0,1.1044282E0,1.6198717E0],"tree_param":{"num_deleted":"0","num_feature":"30","num_nodes":"31","size_leaf_vector":"1"}},{"base_weights":[-2.6938516E-1,-7.1542338E-3,-3.7203562E-1,1.6308136E-1,-1.261102E-1,8.872252E-2,-4.3451378E-1,3.228768E-1,-1.066481E-1,1.6151042E-1,-1.08527064E-1,6.2776143E-3,-4.8854974E-1,-9.901441E-2,5.0586015E-1,1.6274518E-1,-1.1294476E-1,-1.5609549E-1,-1.9498967E-1,2.308013E-1,1.7036615E-2,5.060737E-2,-1.1146826E-1,1.1769934E-1,-9.8314434E-2],"categories":[],"categories_nodes":[],"categories_segments":[],"categories_sizes":[],"default_left":[0,0,0,0,0,0,0,0,0,0,0,0,0,0,0,0,0,0,0,0,0,0,0,0,0],"id":27,"left_children":[1,3,5,7,-1,9,11,13,-1,-1,-1,15,17,-1,19,-1,-1,-1,21,-1,23,-1,-1,-1,-1],"loss_changes":[1.1847339E0,1.0132165E0,9.505944E-1,9.626179E-1,0E0,1.1292521E0,6.716213E-1,1.1640172E0,0E0,0E0,0E0,1.0359544E0,1.3184357E-1,0E0,8.7729573E-1,0E0,0E0,0E0,3.2225156E-1,0E0,5.741575E-1,0E0,0E0,0E0,0E0],"parents":[2147483647,0,0,1,1,2,2,3,3,5,5,6,6,7,7,11,11,12,12,14,14,18,18,20,20],"right_children":[2,4,6,8,-1,10,12,14,-1,-1,-1,16,18,-1,20,-1,-1,-1,22,-1,24,-1,-1,-1,-1],"split_conditions":[-6.529122E-1,1.9495991E-1,-1.1931721E0,2.992781E-1,-1.261102E-1,-8.8156027E-1,-1.0268562E0,-5.776096E-1,-1.066481E-1,1.6151042E-1,-1.08527064E-1,-7.5836617E-1,1.4065326E0,-9.901441E-2,1.3593744E-2,1.6274518E-1,-1.1294476E-1,-1.5609549E-1,-2.634574E-1,2.308013E-1,-2.338905E0,5.060737E-2,-1.1146826E-1,1.1769934E-1,-9.8314434E-2],"split_indices":[27,25,11,5,0,8,5,17,0,0,0,23,10,0,2,0,0,0,25,0,27,0,0,0,0],"split_type":[0,0,0,0,0,0,0,0,0,0,0,0,0,0,0,0,0,0,0,0,0,0,0,0,0],"sum_hessian":[4.3111385E1,1.2429267E1,3.068212E1,9.231433E0,3.1978338E0,3.6135075E0,2.7068613E1,7.34538E0,1.8860531E0,1.7107869E0,1.9027205E0,3.0524516E0,2.4016161E1,1.4319965E0,5.913383E0,1.0975732E0,1.9548783E0,2.0973957E1,3.0422044E0,3.4694712E0,2.443912E0,1.008873E0,2.0333314E0,1.104044E0,1.3398681E0],"tree_param":{"num_deleted":"0","num_feature":"30","num_nodes":"25","size_leaf_vector":"1"}},{"base_weights":[-1.5499388E-2,-2.193558E-1,6.1601274E-2,-3.4127998E-1,1.4275761E-1,2.546224E-1,-9.713503E-2,-4.36069E-1,1.003546E-1,1.3297583E-1,-1.02097586E-1,8.037397E-2,6.483998E-1,3.8894472E-1,-2.0237806E-1,-1.4895469E-1,2.5551038E-2,2.2715294E-1,-1.2735721E-1,1.9511767E-2,2.265182E-1,2.117034E-1,-2.1252355E-2,7.17649E-2,-3.7122047E-1,-1.07322775E-1,3.5823646E-1,-1.1850711E-1,2.975377E-1,-4.6017602E-1,6.325583E-2,-9.6804254E-2,1.479767E-1,1.6307497E-1,-1.0136133E-1,-1.3934164E-3,-1.5451954E-1,-9.174879E-2,1.1571104E-1],"categories":[],"categories_nodes":[],"categories_segments":[],"categories_sizes":[],"default_left":[0,0,0,0,0,0,0,0,0,0,0,0,0,0,0,0,0,0,0,0,0,0,0,0,0,0,0,0,0,0,0,0,0,0,0,0,0,0,0],"id":28,"left_children":[1,3,5,7,9,11,13,15,-1,-1,-1,17,19,21,23,-1,-1,25,-1,-1,-1,-1,-1,27,29,-1,31,-1,33,35,37,-1,-1,-1,-1,-1,-1,-1,-1],"loss_changes":[9.620041E-1,7.8954566E-1,1.3902341E0,9.6888304E-1,8.667526E-1,1.346784E0,1.3667905E0,4.1097212E-1,0E0,0E0,0E0,1.2284364E0,3.312304E-1,7.5245E-1,1.0151232E0,0E0,0E0,1.0854592E0,0E0,0E0,0E0,0E0,0E0,1.0636659E0,5.4615426E-1,0E0,1.1428586E0,0E0,1.218832E0,2.7828074E-1,4.9316305E-1,0E0,0E0,0E0,0E0,0E0,0E0,0E0,0E0],"parents":[2147483647,0,0,1,1,2,2,3,3,4,4,5,5,6,6,7,7,11,11,12,12,13,13,14,14,17,17,23,23,24,24,26,26,28,28,29,29,30,30],"right_children":[2,4,6,8,10,12,14,16,-1,-1,-1,18,20,22,24,-1,-1,26,-1,-1,-1,-1,-1,28,30,-1,32,-1,34,36,38,-1,-1,-1,-1,-1,-1,-1,-1],"split_conditions":[-4.5241177E-1,-1.43279E-1,-2.79308E-1,1.5142742E0,-4.8051366E-1,-4.0292758E-1,-3.3069766E-1,1.2580253E0,1.003546E-1,1.3297583E-1,-1.02097586E-1,-5.2688134E-1,-5.975728E-1,-1.06969E0,-5.1205677E-1,-1.4895469E-1,2.5551038E-2,-7.148912E-1,-1.2735721E-1,1.9511767E-2,2.265182E-1,2.117034E-1,-2.1252355E-2,-3.7711513E-1,1.2904197E0,-1.07322775E-1,-7.003702E-1,-1.1850711E-1,4.5311266E-1,-1.3931413E0,-9.5672184E-1,-9.6804254E-2,1.479767E-1,1.6307497E-1,-1.0136133E-1,-1.3934164E-3,-1.5451954E-1,-9.174879E-2,1.1571104E-1],"split_indices":[0,7,24,27,29,24,0,12,0,0,0,24,28,26,11,0,0,18,0,0,0,0,0,5,12,0,22,0,23,8,8,0,0,0,0,0,0,0,0],"split_type":[0,0,0,0,0,0,0,0,0,0,0,0,0,0,0,0,0,0,0,0,0,0,0,0,0,0,0,0,0,0,0,0,0,0,0,0,0,0,0],"sum_hessian":[5.9346344E1,1.577959E1,4.3566757E1,1.1847911E1,3.9316783E0,1.938762E1,2.4179134E1,1.0701605E1,1.1463064E0,2.474746E0,1.4569323E0,1.4274981E1,5.1126394E0,3.8236036E0,2.0355532E1,9.632038E0,1.069567E0,1.1485989E1,2.7889922E0,1.0391252E0,4.0735145E0,1.9473401E0,1.8762635E0,7.977587E0,1.2377944E1,1.7863162E0,9.699673E0,2.3562841E0,5.621303E0,1.0225254E1,2.1526902E0,1.3750824E0,8.32459E0,4.156371E0,1.4649322E0,1.2162309E0,9.009023E0,1.0277867E0,1.1249034E0],"tree_param":{"num_deleted":"0","num_feature":"30","num_nodes":"39","size_leaf_vector":"1"}},{"base_weights":[8.3783135E-2,-2.6413196E-1,3.037211E-1,-8.556747E-2,-1.4928494E-1,5.6639466E-2,4.1235265E-1,2.1517347E-1,-3.1490883E-1,-1.716891E-1,4.5035627E-1,4.5028454E-1,-4.415546E-2,-1.1039927E-1,4.709548E-1,-1.428876E-1,7.0050776E-2,-4.3206662E-1,1.1994422E-1,-3.6386312E-3,1.7645139E-1,-3.1063203E-2,4.8380363E-1,-2.174318E-2,2.091658E-1,4.1373465E-3,-1.5321444E-1,2.6175737E-1,5.95007E-1,-1.2720809E-3,1.7997903E-1,-9.878693E-3,1.9571073E-1],"categories":[],"categories_nodes":[],"categories_segments":[],"categories_sizes":[],"default_left":[0,0,0,0,0,0,0,0,0,0,0,0,0,0,0,0,0,0,0,0,0,0,0,0,0,0,0,0,0,0,0,0,0],"id":29,"left_children":[1,3,5,7,-1,9,11,13,15,17,19,21,-1,-1,23,-1,-1,25,-1,-1,-1,-1,27,-1,-1,-1,-1,29,31,-1,-1,-1,-1],"loss_changes":[5.1367474E0,1.0467973E0,1.0758367E0,1.1722517E0,0E0,1.3058189E0,6.6663694E-1,1.2953796E0,9.5122546E-1,1.5675869E0,3.4444034E-1,5.464363E-1,0E0,0E0,7.4741447E-1,0E0,0E0,2.4970746E-1,0E0,0E0,0E0,0E0,4.7112846E-1,0E0,0E0,0E0,0E0,9.2520374E-1,6.024928E-1,0E0,0E0,0E0,0E0],"parents":[2147483647,0,0,1,1,2,2,3,3,5,5,6,6,7,7,8,8,9,9,10,10,11,11,14,14,17,17,22,22,27,27,28,28],"right_children":[2,4,6,8,-1,10,12,14,16,18,20,22,-1,-1,24,-1,-1,26,-1,-1,-1,-1,28,-1,-1,-1,-1,30,32,-1,-1,-1,-1],"split_conditions":[9.347355E-2,-1.563537E-1,-4.5521593E-1,-3.1013325E-1,-1.4928494E-1,5.7667255E-1,1.0387577E0,-3.8265657E-2,1.0095116E0,1.3628149E0,-1.2810254E-1,-1.5138893E0,-4.415546E-2,-1.1039927E-1,-1.0030115E0,-1.428876E-1,7.0050776E-2,-7.938705E-1,1.1994422E-1,-3.6386312E-3,1.7645139E-1,-3.1063203E-2,-3.846361E-1,-2.174318E-2,2.091658E-1,4.1373465E-3,-1.5321444E-1,1.353572E0,-2.3391132E-1,-1.2720809E-3,1.7997903E-1,-9.878693E-3,1.9571073E-1],"split_indices":[0,29,8,20,0,25,18,16,14,14,14,16,0,0,7,0,0,4,0,0,0,0,17,0,0,0,0,0,14,0,0,0,0],"split_type":[0,0,0,0,0,0,0,0,0,0,0,0,0,0,0,0,0,0,0,0,0,0,0,0,0,0,0,0,0,0,0,0,0],"sum_hessian":[6.5081314E1,2.5129139E1,3.995218E1,1.5013546E1,1.0115594E1,1.2665647E1,2.7286531E1,6.5223737E0,8.491172E0,8.373514E0,4.2921324E0,2.5737034E1,1.5494969E0,1.8547957E0,4.667578E0,6.662174E0,1.8289979E0,5.9202313E0,2.4532828E0,1.1947465E0,3.097386E0,1.3495532E0,2.4387482E1,1.5719107E0,3.0956674E0,1.0113748E0,4.9088564E0,9.257118E0,1.51303625E1,5.7342057E0,3.522913E0,1.3021224E0,1.3828239E1],"tree_param":{"num_deleted":"0","num_feature":"30","num_nodes":"33","size_leaf_vector":"1"}},{"base_weights":[4.306939E-2,2.4350989E-1,-2.6932645E-1,-3.149225E-1,3.1395963E-1,-3.7376592E-1,3.4268573E-1,-1.3052901E-2,-1.17634274E-1,8.2281105E-2,4.6194676E-1,-4.268776E-1,4.7406103E-2,1.7311981E-2,1.4454192E-1,-2.4952787E-1,2.96018E-1,5.231894E-1,3.8505822E-2,-1.8027963E-2,-4.8074824E-1,9.803239E-2,-1.3930017E-1,4.5831087E-1,-5.4142073E-2,1.689563E-1,6.030314E-1,-9.710417E-2,1.3745677E-1,7.724322E-2,-8.3746426E-2,-1.5421154E-1,1.4702872E-3,2.546475E-3,1.6510287E-1,1.4288335E-1,-9.724924E-2,1.9089088E-1,5.3680006E-2],"categories":[],"categories_nodes":[],"categories_segments":[],"categories_sizes":[],"default_left":[0,0,0,0,0,0,0,0,0,0,0,0,0,0,0,0,0,0,0,0,0,0,0,0,0,0,0,0,0,0,0,0,0,0,0,0,0,0,0],"id":30,"left_children":[1,3,5,7,9,11,13,-1,-1,15,17,19,-1,-1,-1,21,23,25,27,29,31,-1,-1,33,-1,35,37,-1,-1,-1,-1,-1,-1,-1,-1,-1,-1,-1,-1],"loss_changes":[3.5600913E0,1.4569662E0,1.55264E0,7.4418336E-2,1.0301304E0,6.186831E-1,1.216861E-1,0E0,0E0,1.0213634E0,4.6723747E-1,3.881035E-1,0E0,0E0,0E0,8.668757E-1,7.4646384E-1,3.6025238E-1,6.733584E-1,2.9750317E-1,2.5922966E-1,0E0,0E0,2.7207673E-1,0E0,8.2039976E-1,6.880617E-2,0E0,0E0,0E0,0E0,0E0,0E0,0E0,0E0,0E0,0E0,0E0,0E0],"parents":[2147483647,0,0,1,1,2,2,3,3,4,4,5,5,6,6,9,9,10,10,11,11,15,15,16,16,17,17,18,18,19,19,20,20,23,23,25,25,26,26],"right_children":[2,4,6,8,10,12,14,-1,-1,16,18,20,-1,-1,-1,22,24,26,28,30,32,-1,-1,34,-1,36,38,-1,-1,-1,-1,-1,-1,-1,-1,-1,-1,-1,-1],"split_conditions":[-2.4886043E-1,-1.0718346E0,2.158811E0,6.773029E-1,-3.5294837E-1,1.4650627E0,4.574508E-1,-1.3052901E-2,-1.17634274E-1,-2.9675466E-1,-9.104765E-2,-4.4463894E-1,4.7406103E-2,1.7311981E-2,1.4454192E-1,-1.6021146E0,7.221966E-1,-7.2467744E-1,5.280595E-1,-5.7027966E-1,2.171493E0,9.803239E-2,-1.3930017E-1,-1.5962334E0,-5.4142073E-2,2.5035864E-2,2.074006E0,-9.710417E-2,1.3745677E-1,7.724322E-2,-8.3746426E-2,-1.5421154E-1,1.4702872E-3,2.546475E-3,1.6510287E-1,1.4288335E-1,-9.724924E-2,1.9089088E-1,5.3680006E-2],"split_indices":[7,8,20,29,20,10,4,0,0,12,0,14,0,0,0,7,15,5,25,0,6,0,0,1,0,17,28,0,0,0,0,0,0,0,0,0,0,0,0],"split_type":[0,0,0,0,0,0,0,0,0,0,0,0,0,0,0,0,0,0,0,0,0,0,0,0,0,0,0,0,0,0,0,0,0,0,0,0,0,0,0],"sum_hessian":[5.480785E1,3.3520695E1,2.1287157E1,3.366372E0,3.0154324E1,1.8516596E1,2.7705612E0,1.0916593E0,2.2747128E0,1.2360138E1,1.7794186E1,1.7014557E1,1.5020375E0,1.3729542E0,1.397607E0,4.7769156E0,7.5832224E0,1.5339981E1,2.4542038E0,2.1362448E0,1.4878313E1,1.1555201E0,3.6213956E0,5.6850514E0,1.8981712E0,3.3947406E0,1.1945241E1,1.4401267E0,1.0140772E0,1.0463036E0,1.0899411E0,1.3869156E1,1.0091568E0,1.151096E0,4.533955E0,2.1124063E0,1.2823343E0,1.0612312E1,1.3329288E0],"tree_param":{"num_deleted":"0","num_feature":"30","num_nodes":"39","size_leaf_vector":"1"}},{"base_weights":[5.6369606E-2,2.570089E-1,-3.4538966E-2,3.0613348E-1,-9.068903E-2,9.672522E-2,-1.68587E-1,3.805745E-1,-1.17168024E-1,-2.3555294E-1,2.8499734E-1,-2.6775995E-1,3.2362896E-1,-3.682083E-2,4.3925008E-1,5.3677637E-2,-9.8452546E-2,-1.4002374E-1,7.34558E-2,3.879154E-1,-1.0284673E-1,-3.7963977E-1,2.1937831E-1,-8.852823E-2,1.983483E-1,3.1031271E-2,5.4421407E-1,-1.02520026E-1,1.2732369E-1,-1.0205426E-1,5.0746965E-1,-4.3057242E-1,5.131254E-2,-3.2585386E-2,1.24638885E-1,1.1911159E-1,-1.0920704E-1,4.1658983E-2,1.7622897E-1,-5.4592965E-3,1.754985E-1,5.2013616E-3,-1.4037488E-1],"categories":[],"categories_nodes":[],"categories_segments":[],"categories_sizes":[],"default_left":[0,0,0,0,0,0,0,0,0,0,0,0,0,0,0,0,0,0,0,0,0,0,0,0,0,0,0,0,0,0,0,0,0,0,0,0,0,0,0,0,0,0,0],"id":31,"left_children":[1,3,5,7,-1,9,11,13,15,17,19,21,23,-1,25,-1,-1,-1,27,29,-1,31,33,-1,-1,35,37,-1,-1,-1,39,41,-1,-1,-1,-1,-1,-1,-1,-1,-1,-1,-1],"loss_changes":[1.134479E0,6.244954E-1,7.790867E-1,6.210693E-1,0E0,1.4770826E0,1.1514124E0,5.203364E-1,2.7743363E-1,6.557491E-1,1.091794E0,1.102547E0,1.0535536E0,0E0,5.9855175E-1,0E0,0E0,0E0,8.134213E-1,1.3232372E0,0E0,5.104883E-1,3.1053752E-1,0E0,0E0,7.226508E-1,1.1751413E-1,0E0,0E0,0E0,4.8970032E-1,2.513311E-1,0E0,0E0,0E0,0E0,0E0,0E0,0E0,0E0,0E0,0E0,0E0],"parents":[2147483647,0,0,1,1,2,2,3,3,5,5,6,6,7,7,8,8,9,9,10,10,11,11,12,12,14,14,18,18,19,19,21,21,22,22,25,25,26,26,30,30,31,31],"right_children":[2,4,6,8,-1,10,12,14,16,18,20,22,24,-1,26,-1,-1,-1,28,30,-1,32,34,-1,-1,36,38,-1,-1,-1,40,42,-1,-1,-1,-1,-1,-1,-1,-1,-1,-1,-1],"split_conditions":[-7.803685E-1,1.4078634E0,-2.3391132E-1,6.107929E-1,-9.068903E-2,-8.5157104E-2,1.3857853E0,-1.4080081E0,-3.7709886E-1,2.386627E-1,1.3505092E0,9.4689655E-1,-5.4351903E-2,-3.682083E-2,-6.363944E-1,5.3677637E-2,-9.8452546E-2,-1.4002374E-1,2.8036317E-1,-9.675954E-1,-1.0284673E-1,2.4610004E0,-7.447744E-1,-8.852823E-2,1.983483E-1,-4.9821016E-1,-1.2291625E0,-1.02520026E-1,1.2732369E-1,-1.0205426E-1,-1.3193166E0,-5.074143E-1,5.131254E-2,-3.2585386E-2,1.24638885E-1,1.1911159E-1,-1.0920704E-1,4.1658983E-2,1.7622897E-1,-5.4592965E-3,1.754985E-1,5.2013616E-3,-1.4037488E-1],"split_indices":[5,13,14,7,0,18,27,14,0,21,11,23,1,0,28,0,0,0,22,23,0,3,10,0,0,4,5,0,0,0,0,7,0,0,0,0,0,0,0,0,0,0,0],"split_type":[0,0,0,0,0,0,0,0,0,0,0,0,0,0,0,0,0,0,0,0,0,0,0,0,0,0,0,0,0,0,0,0,0,0,0,0,0,0,0,0,0,0,0],"sum_hessian":[6.0711212E1,1.8360859E1,4.2350353E1,1.7294512E1,1.0663457E0,2.1538038E1,2.0812317E1,1.4793835E1,2.500678E0,7.6990285E0,1.383901E1,1.7701736E1,3.1105802E0,1.4305987E0,1.3363235E1,1.1038096E0,1.3968685E0,4.112039E0,3.5869896E0,1.221821E1,1.6208001E0,1.4575005E1,3.1267316E0,1.1423293E0,1.9682508E0,2.998256E0,1.036498E1,1.6551685E0,1.9318211E0,1.4629998E0,1.0755211E1,1.35407295E1,1.0342747E0,1.3367606E0,1.789971E0,1.5537384E0,1.4445176E0,1.4044966E0,8.960484E0,1.4806693E0,9.274541E0,1.0832856E0,1.2457444E1],"tree_param":{"num_deleted":"0","num_feature":"30","num_nodes":"43","size_leaf_vector":"1"}},{"base_weights":[-2.4843025E-1,-1.823026E-4,-3.4958106E-1,1.5479337E-1,-1.18819244E-1,7.991073E-2,-4.1462955E-1,2.9697442E-1,-9.9430636E-2,1.4300182E-1,-1.0399488E-1,-1.5277937E-1,-1.6109285E-1,-9.193483E-2,4.5852482E-1,-3.2243493E-1,9.730774E-2,2.0096171E-1,3.367576E-2,4.5770332E-2,-1.3114579E-1,1.1028113E-1,-9.066892E-2],"categories":[],"categories_nodes":[],"categories_segments":[],"categories_sizes":[],"default_left":[0,0,0,0,0,0,0,0,0,0,0,0,0,0,0,0,0,0,0,0,0,0,0],"id":32,"left_children":[1,3,5,7,-1,9,11,13,-1,-1,-1,-1,15,-1,17,19,-1,-1,21,-1,-1,-1,-1],"loss_changes":[9.672198E-1,8.0688053E-1,7.9775524E-1,7.5190115E-1,0E0,9.1639143E-1,4.921341E-1,9.04903E-1,0E0,0E0,0E0,0E0,7.285987E-1,0E0,5.6879294E-1,4.19864E-1,0E0,0E0,4.7461483E-1,0E0,0E0,0E0,0E0],"parents":[2147483647,0,0,1,1,2,2,3,3,5,5,6,6,7,7,12,12,14,14,15,15,18,18],"right_children":[2,4,6,8,-1,10,12,14,-1,-1,-1,-1,16,-1,18,20,-1,-1,22,-1,-1,-1,-1],"split_conditions":[-6.529122E-1,1.9495991E-1,-1.2685653E0,2.992781E-1,-1.18819244E-1,8.9746636E-1,7.500369E-1,-5.776096E-1,-9.9430636E-2,1.4300182E-1,-1.0399488E-1,-1.5277937E-1,1.2669218E-1,-9.193483E-2,1.3593744E-2,-1.5795515E0,9.730774E-2,2.0096171E-1,-1.8917451E0,4.5770332E-2,-1.3114579E-1,1.1028113E-1,-9.066892E-2],"split_indices":[27,25,8,5,0,29,13,17,0,0,0,0,1,0,2,6,0,0,10,0,0,0,0],"split_type":[0,0,0,0,0,0,0,0,0,0,0,0,0,0,0,0,0,0,0,0,0,0,0],"sum_hessian":[3.75211E1,1.1152366E1,2.6368734E1,8.452472E0,2.699894E0,3.4383123E0,2.2930422E1,6.841219E0,1.6112524E0,1.720511E0,1.7178013E0,1.5963321E1,6.9671016E0,1.25534E0,5.5858793E0,5.481204E0,1.4858977E0,3.3450859E0,2.2407935E0,1.0020692E0,4.4791346E0,1.0763817E0,1.1644118E0],"tree_param":{"num_deleted":"0","num_feature":"30","num_nodes":"23","size_leaf_vector":"1"}},{"base_weights":[-9.874495E-3,-1.2356184E-1,2.2992386E-2,2.5899538E-1,-3.8380366E-2,-1.05669186E-1,4.1728953E-1,-3.2397383E-1,4.9791995E-2,1.2228462E-2,5.520332E-1,-4.294571E-1,9.156864E-2,1.1707986E-1,-3.2184714E-1,1.08141564E-1,-9.1938406E-2,4.2547118E-2,1.9595335E-1,-1.4481683E-1,-1.4404731E-3,-4.326974E-2,2.6681432E-1,-1.2682971E-1,1.5833711E-2,-7.949329E-2,6.704908E-2,-1.0457359E-1,1.0875889E-1],"categories":[],"categories_nodes":[],"categories_segments":[],"categories_sizes":[],"default_left":[0,0,0,0,0,0,0,0,0,0,0,0,0,0,0,0,0,0,0,0,0,0,0,0,0,0,0,0,0],"id":33,"left_children":[1,-1,3,5,7,-1,9,11,13,15,17,19,-1,21,23,-1,-1,-1,-1,-1,-1,25,27,-1,-1,-1,-1,-1,-1],"loss_changes":[7.386306E-1,0E0,7.625886E-1,1.1970832E0,1.0765274E0,0E0,4.8874903E-1,7.992412E-1,8.639836E-1,4.7546577E-1,1.890719E-1,2.0209932E-1,0E0,7.008874E-1,2.2390878E-1,0E0,0E0,0E0,0E0,0E0,0E0,9.3008745E-1,1.0091051E0,0E0,0E0,0E0,0E0,0E0,0E0],"parents":[2147483647,0,0,2,2,3,3,4,4,6,6,7,7,8,8,9,9,10,10,11,11,13,13,14,14,21,21,22,22],"right_children":[2,-1,4,6,8,-1,10,12,14,16,18,20,-1,22,24,-1,-1,-1,-1,-1,-1,26,28,-1,-1,-1,-1,-1,-1],"split_conditions":[-1.1487904E0,-1.2356184E-1,-6.156021E-1,-6.255035E-1,-4.77215E-1,-1.05669186E-1,-1.9525994E-1,1.7865409E0,9.0283436E-1,-1.1957146E0,-8.1886166E-1,3.3878693E-1,9.156864E-2,1.8579294E-1,5.805921E-1,1.08141564E-1,-9.1938406E-2,4.2547118E-2,1.9595335E-1,-1.4481683E-1,-1.4404731E-3,1.2078963E-1,-1.3406523E0,-1.2682971E-1,1.5833711E-2,-7.949329E-2,6.704908E-2,-1.0457359E-1,1.0875889E-1],"split_indices":[0,0,20,22,14,0,0,25,5,3,18,5,0,27,27,0,0,0,0,0,0,5,8,0,0,0,0,0,0],"split_type":[0,0,0,0,0,0,0,0,0,0,0,0,0,0,0,0,0,0,0,0,0,0,0,0,0,0,0,0,0],"sum_hessian":[5.418748E1,3.2239132E0,5.0963566E1,9.853365E0,4.1110203E1,1.7748641E0,8.078501E0,9.067126E0,3.2043076E1,2.2887888E0,5.789712E0,8.037184E0,1.0299429E0,2.7710804E1,4.332271E0,1.0310351E0,1.2577537E0,1.6203377E0,4.1693745E0,7.019918E0,1.0172656E0,1.372443E1,1.3986374E1,3.3116608E0,1.0206103E0,7.498874E0,6.225556E0,1.526978E0,1.2459396E1],"tree_param":{"num_deleted":"0","num_feature":"30","num_nodes":"29","size_leaf_vector":"1"}},{"base_weights":[7.1120225E-2,-2.0211798E-1,2.9382107E-1,-1.4734493E-1,-4.713154E-2,-1.6020451E-1,3.69865E-1,-3.6496022E-1,1.4533523E-1,1.0182074E-1,-1.2878741E-1,4.89514E-1,1.2809846E-1,-1.3928305E-1,3.7726797E-2,-7.969122E-2,3.7458667E-1,-2.1828014E-2,5.337256E-1,-3.6338934E-1,3.8279727E-1,2.461026E-1,-1.2040618E-1,-1.8128747E-2,5.015244E-1,5.6400555E-1,4.9330653E-3,-1.4537264E-1,1.3809933E-3,-3.17383E-2,4.7742912E-1,-8.570107E-2,1.527524E-1,1.8211256E-1,3.263452E-2,1.9190672E-1,9.111481E-2,1.6581851E-1,1.7150724E-2],"categories":[],"categories_nodes":[],"categories_segments":[],"categories_sizes":[],"default_left":[0,0,0,0,0,0,0,0,0,0,0,0,0,0,0,0,0,0,0,0,0,0,0,0,0,0,0,0,0,0,0,0,0,0,0,0,0,0,0],"id":34,"left_children":[1,3,5,-1,7,9,11,13,15,-1,-1,17,19,-1,-1,21,23,-1,25,27,29,31,-1,-1,33,35,-1,-1,-1,-1,37,-1,-1,-1,-1,-1,-1,-1,-1],"loss_changes":[3.6807146E0,1.2005105E0,1.2053678E0,0E0,1.2084203E0,8.797379E-1,7.685356E-1,4.1945148E-1,6.73612E-1,0E0,0E0,5.078778E-1,1.4995232E0,0E0,0E0,8.451391E-1,3.8133317E-1,0E0,2.6659727E-1,1.9053453E-1,4.0399063E-1,7.2716814E-1,0E0,0E0,1.4235127E-1,1.3290024E-1,0E0,0E0,0E0,0E0,1.7681777E-1,0E0,0E0,0E0,0E0,0E0,0E0,0E0,0E0],"parents":[2147483647,0,0,1,1,2,2,4,4,5,5,6,6,7,7,8,8,11,11,12,12,15,15,16,16,18,18,19,19,20,20,21,21,24,24,25,25,30,30],"right_children":[2,4,6,-1,8,10,12,14,16,-1,-1,18,20,-1,-1,22,24,-1,26,28,30,32,-1,-1,34,36,-1,-1,-1,-1,38,-1,-1,-1,-1,-1,-1,-1,-1],"split_conditions":[2.4113768E-1,-1.9200395E-1,-1.779822E-1,-1.4734493E-1,-4.721807E-2,-7.02236E-1,7.067166E-2,1.0690113E0,-3.0970606E-1,1.0182074E-1,-1.2878741E-1,-9.024607E-1,9.569548E-2,-1.3928305E-1,3.7726797E-2,-3.1013325E-1,-9.0684897E-1,-2.1828014E-2,1.5135676E0,-1.5997241E-1,6.1596936E-1,-9.520981E-1,-1.2040618E-1,-1.8128747E-2,-2.2577232E-1,8.010444E-1,4.9330653E-3,-1.4537264E-1,1.3809933E-3,-3.17383E-2,4.6607763E-1,-8.570107E-2,1.527524E-1,1.8211256E-1,3.263452E-2,1.9190672E-1,9.111481E-2,1.6581851E-1,1.7150724E-2],"split_indices":[0,8,7,0,16,9,20,26,0,0,0,5,17,0,0,20,13,0,4,24,14,14,0,0,11,10,0,0,0,0,27,0,0,0,0,0,0,0,0],"split_type":[0,0,0,0,0,0,0,0,0,0,0,0,0,0,0,0,0,0,0,0,0,0,0,0,0,0,0,0,0,0,0,0,0,0,0,0,0,0,0],"sum_hessian":[5.851201E1,2.631625E1,3.219576E1,8.428705E0,1.7887545E1,4.460042E0,2.7735716E1,6.4085703E0,1.1478973E1,1.4697961E0,2.9902458E0,1.7868134E1,9.867582E0,5.3746653E0,1.033905E0,6.122093E0,5.3568807E0,1.2554802E0,1.6612654E1,3.2224793E0,6.6451025E0,3.1582184E0,2.9638746E0,1.3283993E0,4.0284815E0,1.560865E1,1.0040036E0,2.185839E0,1.0366404E0,1.0590721E0,5.5860305E0,1.0168535E0,2.141365E0,2.7452676E0,1.2832136E0,1.0963289E1,4.645362E0,4.4699335E0,1.1160971E0],"tree_param":{"num_deleted":"0","num_feature":"30","num_nodes":"39","size_leaf_vector":"1"}},{"base_weights":[3.991932E-2,2.5060666E-1,-2.1409857E-1,-2.3035586E-1,3.031195E-1,-3.0769563E-1,3.246853E-1,-9.280818E-2,-7.6684975E-3,1.01682454E-1,4.451284E-1,-7.424429E-2,-1.4625098E-1,4.3514273E-3,1.3821466E-1,-2.2189087E-1,3.1275058E-1,4.9255872E-1,-2.4768952E-2,-3.4155563E-1,1.3160805E-1,9.005463E-2,-1.3085382E-1,4.8120022E-1,-4.6588134E-2,1.587329E-1,1.6572863E-1,-1.2080479E-1,-1.8658234E-2,3.2608822E-1,-5.917939E-2,4.8194487E-2,1.6152257E-1,-2.5666172E-2,1.100097E-1,1.3248609E-1,-7.64667E-3],"categories":[],"categories_nodes":[],"categories_segments":[],"categories_sizes":[],"default_left":[0,0,0,0,0,0,0,0,0,0,0,0,0,0,0,0,0,0,0,0,0,0,0,0,0,0,0,0,0,0,0,0,0,0,0,0,0],"id":35,"left_children":[1,3,5,7,9,11,13,-1,-1,15,17,19,-1,-1,-1,21,23,25,-1,27,29,-1,-1,31,-1,33,-1,-1,-1,35,-1,-1,-1,-1,-1,-1,-1],"loss_changes":[2.7090552E0,7.664622E-1,1.2614962E0,4.521455E-2,6.7843676E-1,8.0914867E-1,1.576977E-1,0E0,0E0,8.7233573E-1,4.0463853E-1,5.9202003E-1,0E0,0E0,0E0,7.156277E-1,6.68438E-1,1.8185449E-1,0E0,5.35658E-2,4.6972913E-1,0E0,0E0,1.9527197E-2,0E0,2.0685247E-1,0E0,0E0,0E0,1.883524E-1,0E0,0E0,0E0,0E0,0E0,0E0,0E0],"parents":[2147483647,0,0,1,1,2,2,3,3,4,4,5,5,6,6,9,9,10,10,11,11,15,15,16,16,17,17,19,19,20,20,23,23,25,25,29,29],"right_children":[2,4,6,8,10,12,14,-1,-1,16,18,20,-1,-1,-1,22,24,26,-1,28,30,-1,-1,32,-1,34,-1,-1,-1,36,-1,-1,-1,-1,-1,-1,-1],"split_conditions":[-4.2525932E-1,-1.0798702E0,2.158811E0,-4.745594E-1,-3.5294837E-1,-1.1430685E-2,1.1034436E0,-9.280818E-2,-7.6684975E-3,-2.9675466E-1,1.7988653E0,9.081689E-2,-1.4625098E-1,4.3514273E-3,1.3821466E-1,-1.6021146E0,7.221966E-1,-7.803685E-1,-2.4768952E-2,4.3188438E-1,7.281978E-1,9.005463E-2,-1.3085382E-1,-5.4956794E-1,-4.6588134E-2,7.0780927E-1,1.6572863E-1,-1.2080479E-1,-1.8658234E-2,-2.5482496E-2,-5.917939E-2,4.8194487E-2,1.6152257E-1,-2.5666172E-2,1.100097E-1,1.3248609E-1,-7.64667E-3],"split_indices":[7,8,20,6,20,0,16,0,0,12,21,26,0,0,0,7,15,5,0,18,26,0,0,4,0,9,0,0,0,24,0,0,0,0,0,0,0],"split_type":[0,0,0,0,0,0,0,0,0,0,0,0,0,0,0,0,0,0,0,0,0,0,0,0,0,0,0,0,0,0,0,0,0,0,0,0,0],"sum_hessian":[4.861664E1,2.6582241E1,2.2034395E1,2.283266E0,2.4298975E1,1.9138567E1,2.8958278E0,1.2791916E0,1.0040743E0,1.075675E1,1.3542226E1,8.94188E0,1.0196687E1,1.2201748E0,1.675653E0,4.2263546E0,6.5303955E0,1.24864855E1,1.0557401E0,3.6034122E0,5.3384686E0,1.1132652E0,3.1130896E0,4.7814417E0,1.7489538E0,2.4541001E0,1.0032386E1,2.5943127E0,1.0090995E0,3.359991E0,1.9784775E0,1.3008115E0,3.4806302E0,1.3991768E0,1.0549233E0,2.3361835E0,1.0238075E0],"tree_param":{"num_deleted":"0","num_feature":"30","num_nodes":"37","size_leaf_vector":"1"}},{"base_weights":[5.0235853E-2,9.148358E-2,-3.1522885E-1,1.5729804E-1,-1.0161624E-1,-1.285424E-1,3.535322E-2,2.2506054E-1,-1.5770529E-1,-3.4089214E-1,2.0907928E-1,-2.0425616E-1,2.6845533E-1,-3.7097424E-1,2.5814465E-1,5.6842845E-2,-1.3863999E-1,3.6758444E-1,-8.747687E-2,-1.0423598E-1,2.080638E-2,2.9742438E-1,-8.2270525E-2,-1.8017083E-2,-1.2908414E-1,1.9117492E-3,1.1433298E-1,1.5883437E-1,1.2741866E-2,9.846605E-2,-4.9773403E-2],"categories":[],"categories_nodes":[],"categories_segments":[],"categories_sizes":[],"default_left":[0,0,0,0,0,0,0,0,0,0,0,0,0,0,0,0,0,0,0,0,0,0,0,0,0,0,0,0,0,0,0],"id":36,"left_children":[1,3,5,7,9,-1,-1,11,13,15,17,19,21,23,25,-1,-1,27,-1,-1,-1,29,-1,-1,-1,-1,-1,-1,-1,-1,-1],"loss_changes":[8.719864E-1,6.645674E-1,3.3972287E-1,8.563141E-1,1.0808489E0,0E0,0E0,6.5208733E-1,7.5167215E-1,6.0532707E-1,6.2524873E-1,1.6165417E-1,5.4608965E-1,7.186681E-2,9.3445316E-2,0E0,0E0,2.6171988E-1,0E0,0E0,0E0,4.6154428E-1,0E0,0E0,0E0,0E0,0E0,0E0,0E0,0E0,0E0],"parents":[2147483647,0,0,1,1,2,2,3,3,4,4,7,7,8,8,9,9,10,10,11,11,12,12,13,13,14,14,17,17,21,21],"right_children":[2,4,6,8,10,-1,-1,12,14,16,18,20,22,24,26,-1,-1,28,-1,-1,-1,30,-1,-1,-1,-1,-1,-1,-1,-1,-1],"split_conditions":[8.983198E-1,2.0360275E-1,6.052206E-1,7.085367E-1,9.3119785E-2,-1.285424E-1,3.535322E-2,-1.2813535E0,1.0692731E0,-1.3497852E0,7.100622E-1,8.1761114E-2,2.1049204E0,-6.0786974E-1,1.1818486E0,5.6842845E-2,-1.3863999E-1,-7.119108E-1,-8.747687E-2,-1.0423598E-1,2.080638E-2,1.2762547E0,-8.2270525E-2,-1.8017083E-2,-1.2908414E-1,1.9117492E-3,1.1433298E-1,1.5883437E-1,1.2741866E-2,9.846605E-2,-4.9773403E-2],"split_indices":[5,0,27,26,20,0,0,6,6,8,13,12,2,18,26,0,0,18,0,0,0,27,0,0,0,0,0,0,0,0,0],"split_type":[0,0,0,0,0,0,0,0,0,0,0,0,0,0,0,0,0,0,0,0,0,0,0,0,0,0,0,0,0,0,0],"sum_hessian":[5.4931747E1,5.003436E1,4.8973885E0,3.74542E1,1.2580158E1,3.890631E0,1.0067573E0,3.1058521E1,6.395679E0,7.052007E0,5.5281515E0,2.5108685E0,2.8547653E1,4.2988987E0,2.0967803E0,1.2074081E0,5.8445992E0,4.4007463E0,1.1274052E0,1.4710814E0,1.0397873E0,2.7530031E1,1.0176209E0,1.0110501E0,3.2878487E0,1.0331739E0,1.0636064E0,2.518399E0,1.8823472E0,2.6087717E1,1.442315E0],"tree_param":{"num_deleted":"0","num_feature":"30","num_nodes":"31","size_leaf_vector":"1"}},{"base_weights":[-2.3024155E-1,4.423051E-2,-3.1781343E-1,2.6918018E-1,-1.1528142E-1,-4.6423155E-1,-1.0047391E-1,4.5404863E-1,-2.771974E-3,-1.4060289E-3,-1.4927687E-1,1.2568264E-1,-2.2611217E-1,1.6698062E-1,4.8384026E-2,-9.764645E-2,1.1883173E-1,2.102824E-2,-1.3131036E-1,2.940698E-1,-1.024989E-1,1.273432E-1,-4.3246642E-4],"categories":[],"categories_nodes":[],"categories_segments":[],"categories_sizes":[],"default_left":[0,0,0,0,0,0,0,0,0,0,0,0,0,0,0,0,0,0,0,0,0,0,0],"id":37,"left_children":[1,3,5,7,-1,9,11,13,15,-1,-1,-1,17,-1,-1,-1,-1,19,-1,21,-1,-1,-1],"loss_changes":[8.2070947E-1,9.705189E-1,7.668884E-1,3.2738617E-1,0E0,2.2758436E-1,8.495345E-1,2.6358724E-2,5.947878E-1,0E0,0E0,0E0,5.301945E-1,0E0,0E0,0E0,0E0,6.500509E-1,0E0,1.4333495E-1,0E0,0E0,0E0],"parents":[2147483647,0,0,1,1,2,2,3,3,5,5,6,6,7,7,8,8,12,12,17,17,19,19],"right_children":[2,4,6,8,-1,10,12,14,16,-1,-1,-1,18,-1,-1,-1,-1,20,-1,22,-1,-1,-1],"split_conditions":[-8.8573873E-1,2.4570266E-2,2.4349894E-1,1.6873574E-1,-1.1528142E-1,-9.870768E-1,-1.0599316E0,-7.605643E-1,1.953955E-2,-1.4060289E-3,-1.4927687E-1,1.2568264E-1,-4.6415143E-2,1.6698062E-1,4.8384026E-2,-9.764645E-2,1.1883173E-1,-1.19220905E-1,-1.3131036E-1,4.1924158E-1,-1.024989E-1,1.273432E-1,-4.3246642E-4],"split_indices":[16,24,26,7,0,22,5,12,20,0,0,0,27,0,0,0,0,5,0,21,0,0,0],"split_type":[0,0,0,0,0,0,0,0,0,0,0,0,0,0,0,0,0,0,0,0,0,0,0],"sum_hessian":[3.256013E1,7.995419E0,2.456471E1,5.486824E0,2.5085948E0,1.3998304E1,1.0566406E1,2.8677716E0,2.6190524E0,1.0245425E0,1.2973762E1,1.6033397E0,8.963066E0,1.4564326E0,1.411339E0,1.5494467E0,1.0696058E0,4.5496254E0,4.413441E0,2.7035425E0,1.8460828E0,1.5729796E0,1.130563E0],"tree_param":{"num_deleted":"0","num_feature":"30","num_nodes":"23","size_leaf_vector":"1"}},{"base_weights":[-7.032823E-3,2.796381E-1,-4.7730297E-2,-5.7023097E-2,1.4730708E-1,-2.763634E-1,3.0141123E-2,8.350837E-2,-9.512028E-2,6.971525E-2,-1.3978016E-1,1.3600528E-1,-1.6003305E-1,-1.070364E-1,1.3053302E-1,-1.6093211E-1,2.7480316E-1,8.983866E-2,-1.3907275E-1,-3.6507067E-1,8.9989275E-2,3.387822E-1,-9.096327E-2,-1.0647662E-1,2.6525822E-1,3.981068E-3,-1.3591845E-1,1.4371994E-1,-1.0529921E-2,-3.2939315E-2,1.3922547E-1],"categories":[],"categories_nodes":[],"categories_segments":[],"categories_sizes":[],"default_left":[0,0,0,0,0,0,0,0,0,0,0,0,0,0,0,0,0,0,0,0,0,0,0,0,0,0,0,0,0,0,0],"id":38,"left_children":[1,3,5,7,-1,9,11,-1,-1,13,-1,15,17,-1,-1,19,21,23,-1,25,-1,27,-1,-1,29,-1,-1,-1,-1,-1,-1],"loss_changes":[6.062582E-1,4.8798698E-1,8.158615E-1,3.838327E-1,0E0,7.949468E-1,7.2107166E-1,0E0,0E0,9.3178767E-1,0E0,9.861451E-1,1.0186096E0,0E0,0E0,8.5378915E-1,6.9233084E-1,7.107075E-1,0E0,2.035386E-1,0E0,7.944902E-1,0E0,0E0,5.1625264E-1,0E0,0E0,0E0,0E0,0E0,0E0],"parents":[2147483647,0,0,1,1,2,2,3,3,5,5,6,6,9,9,11,11,12,12,15,15,16,16,17,17,19,19,21,21,24,24],"right_children":[2,4,6,8,-1,10,12,-1,-1,14,-1,16,18,-1,-1,20,22,24,-1,26,-1,28,-1,-1,30,-1,-1,-1,-1,-1,-1],"split_conditions":[-9.7179985E-1,2.0016013E-1,-4.4463894E-1,-6.3678795E-1,1.4730708E-1,-5.889218E-1,6.8250763E-1,8.350837E-2,-9.512028E-2,2.6007754E-1,-1.3978016E-1,-3.703653E-1,6.6205706E-3,-1.070364E-1,1.3053302E-1,5.211048E-1,8.2670945E-1,-1.4614417E-1,-1.3907275E-1,-2.0468353E-1,8.9989275E-2,2.731211E-1,-9.096327E-2,-1.0647662E-1,-6.4983964E-1,3.981068E-3,-1.3591845E-1,1.4371994E-1,-1.0529921E-2,-3.2939315E-2,1.3922547E-1],"split_indices":[23,27,14,20,0,1,14,0,0,12,0,23,27,0,0,0,7,0,0,11,0,5,0,0,22,0,0,0,0,0,0],"split_type":[0,0,0,0,0,0,0,0,0,0,0,0,0,0,0,0,0,0,0,0,0,0,0,0,0,0,0,0,0,0,0],"sum_hessian":[4.9820435E1,5.4636464E0,4.435679E1,2.3890262E0,3.0746205E0,1.0621814E1,3.3734974E1,1.0126086E0,1.3764175E0,3.982901E0,6.638913E0,2.1854229E1,1.1880745E1,1.8486449E0,2.1342561E0,6.9105864E0,1.4943644E1,6.902635E0,4.97811E0,4.9334097E0,1.9771764E0,1.3827045E1,1.1165981E0,1.6629919E0,5.239643E0,1.0911019E0,3.8423078E0,9.849924E0,3.977121E0,1.9704549E0,3.2691882E0],"tree_param":{"num_deleted":"0","num_feature":"30","num_nodes":"31","size_leaf_vector":"1"}},{"base_weights":[6.1955616E-2,-2.66083E-1,2.1710412E-1,-6.8807214E-2,-1.4068064E-1,-1.0940445E-1,2.581284E-1,1.8719618E-1,-1.245805E-1,-1.4403544E-1,3.1597906E-1,-9.1941774E-2,3.655374E-1,-1.2153744E-1,9.120512E-2,4.566814E-1,1.1712056E-1,-2.5138363E-2,1.6297379E-1,2.233868E-2,4.9897805E-1,-3.701688E-1,3.1934637E-1,1.7332594E-1,7.1071826E-2,-1.4340954E-1,-2.6968403E-3,-3.3188947E-2,1.18023075E-1],"categories":[],"categories_nodes":[],"categories_segments":[],"categories_sizes":[],"default_left":[0,0,0,0,0,0,0,0,0,0,0,0,0,0,0,0,0,0,0,0,0,0,0,0,0,0,0,0,0],"id":39,"left_children":[1,3,5,7,-1,-1,9,11,-1,13,15,-1,17,-1,-1,19,21,-1,-1,-1,23,25,27,-1,-1,-1,-1,-1,-1],"loss_changes":[2.7636135E0,6.688657E-1,9.6875525E-1,9.695039E-1,0E0,0E0,8.5554147E-1,6.817642E-1,0E0,7.1572393E-1,8.0693436E-1,0E0,4.615339E-1,0E0,0E0,2.4841475E-1,1.5064057E0,0E0,0E0,0E0,1.8784332E-1,1.7470461E-1,3.7766397E-1,0E0,0E0,0E0,0E0,0E0,0E0],"parents":[2147483647,0,0,1,1,2,2,3,3,6,6,7,7,9,9,10,10,12,12,15,15,16,16,20,20,21,21,22,22],"right_children":[2,4,6,8,-1,-1,10,12,-1,14,16,-1,18,-1,-1,20,22,-1,-1,-1,24,26,28,-1,-1,-1,-1,-1,-1],"split_conditions":[-2.253026E-4,-3.1013325E-1,-9.522245E-1,-1.563537E-1,-1.4068064E-1,-1.0940445E-1,-3.5830495E-1,-3.8265657E-2,-1.245805E-1,2.2623116E-1,7.067166E-2,-9.1941774E-2,-9.520981E-1,-1.2153744E-1,9.120512E-2,2.6874393E-1,1.0668573E-1,-2.5138363E-2,1.6297379E-1,2.233868E-2,8.0127746E-1,1.4268814E-1,-5.53648E-1,1.7332594E-1,7.1071826E-2,-1.4340954E-1,-2.6968403E-3,-3.3188947E-2,1.18023075E-1],"split_indices":[0,20,5,29,0,0,7,16,0,26,20,0,14,0,0,0,17,0,0,0,12,25,8,0,0,0,0,0,0],"split_type":[0,0,0,0,0,0,0,0,0,0,0,0,0,0,0,0,0,0,0,0,0,0,0,0,0,0,0,0,0],"sum_hessian":[5.2165565E1,1.6520464E1,3.5645103E1,9.054288E0,7.466176E0,1.8282576E0,3.3816845E1,5.4712324E0,3.583055E0,4.065398E0,2.9751448E1,1.2613131E0,4.2099195E0,2.6291492E0,1.4362493E0,1.6664186E1,1.308726E1,1.3429E0,2.8670194E0,1.935377E0,1.4728809E1,3.594756E0,9.492504E0,1.0398585E1,4.330225E0,2.5189607E0,1.0757952E0,1.3222871E0,8.1702175E0],"tree_param":{"num_deleted":"0","num_feature":"30","num_nodes":"29","size_leaf_vector":"1"}},{"base_weights":[4.0240724E-2,2.1303314E-1,-2.3146448E-1,2.7132308E-1,-1.1859533E-1,-3.63128E-1,1.3786657E-1,7.3917024E-2,4.0255177E-1,-1.09869786E-1,5.6610983E-2,-4.231268E-1,5.057373E-2,-1.1085522E-1,1.2719904E-1,-1.3854718E-1,3.000597E-1,6.457101E-2,5.328519E-1,-1.4513533E-1,3.711402E-2,6.340935E-2,-1.0038725E-1,-3.4033862E-1,6.4555965E-2,-2.4081506E-2,1.4103247E-1,1.09071195E-1,-1.7777376E-1,6.1257817E-2,1.731596E-1,-1.2091857E-1,-2.357751E-2,-1.0238875E-1,3.336263E-2],"categories":[],"categories_nodes":[],"categories_segments":[],"categories_sizes":[],"default_left":[0,0,0,0,0,0,0,0,0,0,0,0,0,0,0,0,0,0,0,0,0,0,0,0,0,0,0,0,0,0,0,0,0,0,0],"id":40,"left_children":[1,3,5,7,9,11,13,15,17,-1,-1,19,-1,21,-1,23,25,27,29,-1,-1,-1,-1,31,-1,-1,-1,-1,33,-1,-1,-1,-1,-1,-1],"loss_changes":[2.1419277E0,5.6891704E-1,9.159348E-1,5.8988976E-1,4.3793666E-1,4.988736E-1,4.31614E-1,5.593469E-1,5.884459E-1,0E0,0E0,4.6876502E-1,0E0,3.3634824E-1,0E0,5.186745E-1,3.957778E-1,4.3224767E-1,2.8909206E-2,0E0,0E0,0E0,0E0,3.991878E-2,0E0,0E0,0E0,0E0,2.0210561E-1,0E0,0E0,0E0,0E0,0E0,0E0],"parents":[2147483647,0,0,1,1,2,2,3,3,4,4,5,5,6,6,7,7,8,8,11,11,13,13,15,15,16,16,17,17,18,18,23,23,28,28],"right_children":[2,4,6,8,10,12,14,16,18,-1,-1,20,-1,22,-1,24,26,28,30,-1,-1,-1,-1,32,-1,-1,-1,-1,34,-1,-1,-1,-1,-1,-1],"split_conditions":[-2.2281502E-1,