{"learner":{"attributes":{"scikit_learn":"{\"_estimator_type\": \"classifier\"}"},"feature_names":[],"feature_types":[],"gradient_booster":{"model":{"gbtree_model_param":{"num_parallel_tree":"1","num_trees":"500"},"iteration_indptr":[0,5,10,15,20,25,30,35,40,45,50,55,60,65,70,75,80,85,90,95,100,105,110,115,120,125,130,135,140,145,150,155,160,165,170,175,180,185,190,195,200,205,210,215,220,225,230,235,240,245,250,255,260,265,270,275,280,285,290,295,300,305,310,315,320,325,330,335,340,345,350,355,360,365,370,375,380,385,390,395,400,405,410,415,420,425,430,435,440,445,450,455,460,465,470,475,480,485,490,495,500],"tree_info":[0,1,2,3,4,0,1,2,3,4,0,1,2,3,4,0,1,2,3,4,0,1,2,3,4,0,1,2,3,4,0,1,2,3,4,0,1,2,3,4,0,1,2,3,4,0,1,2,3,4,0,1,2,3,4,0,1,2,3,4,0,1,2,3,4,0,1,2,3,4,0,1,2,3,4,0,1,2,3,4,0,1,2,3,4,0,1,2,3,4,0,1,2,3,4,0,1,2,3,4,0,1,2,3,4,0,1,2,3,4,0,1,2,3,4,0,1,2,3,4,0,1,2,3,4,0,1,2,3,4,0,1,2,3,4,0,1,2,3,4,0,1,2,3,4,0,1,2,3,4,0,1,2,3,4,0,1,2,3,4,0,1,2,3,4,0,1,2,3,4,0,1,2,3,4,0,1,2,3,4,0,1,2,3,4,0,1,2,3,4,0,1,2,3,4,0,1,2,3,4,0,1,2,3,4,0,1,2,3,4,0,1,2,3,4,0,1,2,3,4,0,1,2,3,4,0,1,2,3,4,0,1,2,3,4,0,1,2,3,4,0,1,2,3,4,0,1,2,3,4,0,1,2,3,4,0,1,2,3,4,0,1,2,3,4,0,1,2,3,4,0,1,2,3,4,0,1,2,3,4,0,1,2,3,4,0,1,2,3,4,0,1,2,3,4,0,1,2,3,4,0,1,2,3,4,0,1,2,3,4,0,1,2,3,4,0,1,2,3,4,0,1,2,3,4,0,1,2,3,4,0,1,2,3,4,0,1,2,3,4,0,1,2,3,4,0,1,2,3,4,0,1,2,3,4,0,1,2,3,4,0,1,2,3,4,0,1,2,3,4,0,1,2,3,4,0,1,2,3,4,0,1,2,3,4,0,1,2,3,4,0,1,2,3,4,0,1,2,3,4,0,1,2,3,4,0,1,2,3,4,0,1,2,3,4,0,1,2,3,4,0,1,2,3,4,0,1,2,3,4,0,1,2,3,4,0,1,2,3,4,0,1,2,3,4,0,1,2,3,4,0,1,2,3,4,0,1,2,3,4,0,1,2,3,4,0,1,2,3,4,0,1,2,3,4,0,1,2,3,4,0,1,2,3,4,0,1,2,3,4,0,1,2,3,4,0,1,2,3,4],"trees":[{"base_weights":[1.3764305E-1,1.056338E0,-3.100775E-1,8.196721E-2,1.4012738E0,-3.68171E-1,8.4070796E-1,7.438016E-1,-3.1100476E-1,1.7417676E0,4.077253E-1,-4.1162226E-1,3.4615386E-1,-1.05263166E-1,4.2592594E-1,-1.15384616E-1,4.2592594E-1,-1.5686274E-1,5.5555556E-2,3.0927834E-1,1.9306929E0,7.462686E-2,4.2105266E-1,-1.00430414E-1,-5.5994254E-1,-1.15384616E-1,2.8947368E-1,1.4814815E-1,2.0824053E0,5.670103E-1,-3.1007752E-1,6.7415726E-1,-2.0537123E-1,-5.9348327E-1,-1.16279066E-1,1.15384616E-1,6.6748166E-1,2.8947368E-1,-0E0,2.6315792E-2,-1.3917525E-1,2.8947368E-1,2.6315792E-2,6.939502E-2,-1.5517241E-1,2.6315792E-2,-1.8377088E-1,-1.3917525E-1,1.5789473E-1],"categories":[],"categories_nodes":[],"categories_segments":[],"categories_sizes":[],"default_left":[0,0,0,0,0,0,0,0,0,0,0,0,0,0,0,0,0,0,0,0,0,0,0,0,0,0,0,0,0,0,0,0,0,0,0,0,0,0,0,0,0,0,0,0,0,0,0,0,0],"id":0,"left_children":[1,3,5,7,9,11,13,15,17,19,21,23,-1,-1,-1,-1,-1,-1,-1,25,27,29,-1,31,33,-1,-1,-1,35,37,39,41,43,45,47,-1,-1,-1,-1,-1,-1,-1,-1,-1,-1,-1,-1,-1,-1],"loss_changes":[5.351927E1,1.4202805E1,6.1738834E0,3.4043312E0,9.912365E0,6.043394E0,3.6168754E0,4.237793E0,9.757013E-1,5.6491013E0,2.9866478E0,3.7562551E0,0E0,0E0,0E0,0E0,0E0,0E0,0E0,2.1362882E0,3.3750534E0,1.6987706E0,0E0,2.4047027E0,7.60149E-1,0E0,0E0,0E0,3.4904327E0,8.753841E-1,3.5647136E-1,5.223731E-1,3.5679753E0,7.240982E-1,1.396863E0,0E0,0E0,0E0,0E0,0E0,0E0,0E0,0E0,0E0,0E0,0E0,0E0,0E0,0E0],"parents":[2147483647,0,0,1,1,2,2,3,3,4,4,5,5,6,6,7,7,8,8,9,9,10,10,11,11,19,19,20,20,21,21,23,23,24,24,28,28,29,29,30,30,31,31,32,32,33,33,34,34],"right_children":[2,4,6,8,10,12,14,16,18,20,22,24,-1,-1,-1,-1,-1,-1,-1,26,28,30,-1,32,34,-1,-1,-1,36,38,40,42,44,46,48,-1,-1,-1,-1,-1,-1,-1,-1,-1,-1,-1,-1,-1,-1],"split_conditions":[-4.4760004E-1,-6.5330094E-1,2.0073357E0,-9.0648437E-1,-3.776428E-1,1.9936055E0,-5.586837E-1,-1.3249043E0,4.2337495E-1,-1.0413086E0,1.3899205E0,-1.7671753E-1,3.4615386E-1,-1.05263166E-1,4.2592594E-1,-1.15384616E-1,4.2592594E-1,-1.5686274E-1,5.5555556E-2,-8.88363E-2,-1.0595168E0,-4.4054437E-1,4.2105266E-1,-1.2622712E0,6.627708E-1,-1.15384616E-1,2.8947368E-1,1.4814815E-1,-1.4032325E0,-8.630814E-1,-8.756314E-1,2.060679E-1,-5.34274E-1,-1.3875852E0,-3.6218497E-1,1.15384616E-1,6.6748166E-1,2.8947368E-1,-0E0,2.6315792E-2,-1.3917525E-1,2.8947368E-1,2.6315792E-2,6.939502E-2,-1.5517241E-1,2.6315792E-2,-1.8377088E-1,-1.3917525E-1,1.5789473E-1],"split_indices":[2,16,3,8,26,12,11,8,8,23,23,26,0,0,0,0,0,0,0,29,8,19,0,0,21,0,0,0,0,2,0,2,29,8,23,0,0,0,0,0,0,0,0,0,0,0,0,0,0],"split_type":[0,0,0,0,0,0,0,0,0,0,0,0,0,0,0,0,0,0,0,0,0,0,0,0,0,0,0,0,0,0,0,0,0,0,0,0,0,0,0,0,0,0,0,0,0,0,0,0,0],"sum_hessian":[1.2832E2,4.1600002E1,8.672001E1,1.1200001E1,3.0400002E1,8.3200005E1,3.5200002E0,3.8400002E0,7.3600006E0,2.2080002E1,8.320001E0,8.1600006E1,1.6000001E0,1.2800001E0,2.2400002E0,1.6000001E0,2.2400002E0,5.1200004E0,2.2400002E0,2.88E0,1.92E1,7.0400004E0,1.2800001E0,2.6880001E1,5.4720005E1,1.6000001E0,1.2800001E0,2.2400002E0,1.6960001E1,2.88E0,4.1600003E0,2.5600002E0,2.4320002E1,5.0560005E1,4.1600003E0,1.6000001E0,1.5360001E1,1.2800001E0,1.6000001E0,1.2800001E0,2.88E0,1.2800001E0,1.2800001E0,1.0240001E1,1.4080001E1,1.2800001E0,4.9280003E1,2.88E0,1.2800001E0],"tree_param":{"num_deleted":"0","num_feature":"30","num_nodes":"49","size_leaf_vector":"1"}},{"base_weights":[4.484998E-2,6.7931455E-1,-1.6796394E-1,1.3238511E0,-1.2987012E-1,-0E0,-5.387648E-1,1.4508393E0,-0E0,3.4615386E-1,-3.623188E-1,4.1226214E-1,-1.5513125E-1,-5.6927294E-1,2.6315792E-2,1.7021276E0,3.9823008E-1,-1.7032966E-1,3.0927834E-1,9.9999994E-1,-1.098901E-1,-4.188948E-1,5.54785E-2,2.6315792E-2,-1.8077475E-1,1.8686868E0,2.6315792E-2,4.2105266E-1,-1.2962963E-1,-1.15384616E-1,2.8947368E-1,1.4379084E0,5.154639E-2,-4.2288557E-1,5.670103E-1,5.5555556E-2,-4.9504948E-1,3.4482756E-1,-2.4390243E-1,1.5789473E-1,5.943396E-1,1.15384616E-1,5.176991E-1,-1.15384616E-1,1.5789473E-1,-1.5976332E-1,2.6315792E-2,-1.05263166E-1,3.4615386E-1,-3.4883723E-2,-1.7581047E-1,2.8467152E-1,-0E0,-1.6417912E-1,3.1088082E-2],"categories":[],"categories_nodes":[],"categories_segments":[],"categories_sizes":[],"default_left":[0,0,0,0,0,0,0,0,0,0,0,0,0,0,0,0,0,0,0,0,0,0,0,0,0,0,0,0,0,0,0,0,0,0,0,0,0,0,0,0,0,0,0,0,0,0,0,0,0,0,0,0,0,0,0],"id":1,"left_children":[1,3,5,7,9,11,13,15,-1,-1,17,19,21,23,-1,25,27,-1,29,31,33,35,37,-1,-1,39,-1,-1,-1,-1,-1,41,43,45,47,-1,49,51,53,-1,-1,-1,-1,-1,-1,-1,-1,-1,-1,-1,-1,-1,-1,-1,-1],"loss_changes":[1.757526E1,1.7216154E1,6.081133E0,3.0731163E0,5.013392E0,4.4256682E0,6.3173294E-1,3.7341614E0,0E0,0E0,2.0796864E0,5.9162226E0,2.8163528E0,6.9099903E-1,0E0,3.374733E0,4.379352E0,0E0,2.1362882E0,3.6639042E0,2.5533655E0,1.1239948E0,2.5823865E0,0E0,0E0,7.5050354E-1,0E0,0E0,0E0,0E0,0E0,1.1911964E0,1.0058851E0,4.968928E-1,2.4948173E0,0E0,6.2800074E-1,3.1412027E0,1.6128128E0,0E0,0E0,0E0,0E0,0E0,0E0,0E0,0E0,0E0,0E0,0E0,0E0,0E0,0E0,0E0,0E0],"parents":[2147483647,0,0,1,1,2,2,3,3,4,4,5,5,6,6,7,7,10,10,11,11,12,12,13,13,15,15,16,16,18,18,19,19,20,20,21,21,22,22,25,25,31,31,32,32,33,33,34,34,36,36,37,37,38,38],"right_children":[2,4,6,8,10,12,14,16,-1,-1,18,20,22,24,-1,26,28,-1,30,32,34,36,38,-1,-1,40,-1,-1,-1,-1,-1,42,44,46,48,-1,50,52,54,-1,-1,-1,-1,-1,-1,-1,-1,-1,-1,-1,-1,-1,-1,-1,-1],"split_conditions":[-7.541077E-1,-1.3680588E-1,2.0685878E-1,6.251382E-1,-1.18529E0,-5.516411E-1,2.1708832E0,1.3015674E-1,-0E0,3.4615386E-1,1.058931E0,-3.517652E-1,-4.3648845E-1,-5.550038E-1,2.6315792E-2,1.3601097E0,-8.375975E-1,-1.7032966E-1,1.9280964E-1,2.0560117E-1,1.2935851E0,-1.0915225E0,1.8307698E-1,2.6315792E-2,-1.8077475E-1,-7.8807443E-1,2.6315792E-2,4.2105266E-1,-1.2962963E-1,-1.15384616E-1,2.8947368E-1,-5.7476777E-1,7.3716676E-1,7.5400734E-1,-1.3774341E0,5.5555556E-2,-7.518529E-1,7.6762594E-2,-4.4789302E-1,1.5789473E-1,5.943396E-1,1.15384616E-1,5.176991E-1,-1.15384616E-1,1.5789473E-1,-1.5976332E-1,2.6315792E-2,-1.05263166E-1,3.4615386E-1,-3.4883723E-2,-1.7581047E-1,2.8467152E-1,-0E0,-1.6417912E-1,3.1088082E-2],"split_indices":[16,2,14,8,25,13,0,28,0,0,13,17,17,1,0,3,26,0,7,27,17,5,26,0,0,14,0,0,0,0,0,14,4,1,26,0,14,17,29,0,0,0,0,0,0,0,0,0,0,0,0,0,0,0,0],"split_type":[0,0,0,0,0,0,0,0,0,0,0,0,0,0,0,0,0,0,0,0,0,0,0,0,0,0,0,0,0,0,0,0,0,0,0,0,0,0,0,0,0,0,0,0,0,0,0,0,0,0,0,0,0,0,0],"sum_hessian":[1.2832E2,3.1680002E1,9.664001E1,1.728E1,1.4400001E1,6.7200005E1,2.9440002E1,1.5680001E1,1.6000001E0,1.6000001E0,1.2800001E1,1.7920002E1,4.9280003E1,2.8160002E1,1.2800001E0,1.2160001E1,3.5200002E0,9.920001E0,2.88E0,8.000001E0,9.920001E0,2.1440002E1,2.7840002E1,1.2800001E0,2.6880001E1,1.0880001E1,1.2800001E0,1.2800001E0,2.2400002E0,1.6000001E0,1.2800001E0,5.1200004E0,2.88E0,7.0400004E0,2.88E0,2.2400002E0,1.92E1,1.4080001E1,1.3760001E1,1.2800001E0,9.6E0,1.6000001E0,3.5200002E0,1.6000001E0,1.2800001E0,5.76E0,1.2800001E0,1.2800001E0,1.6000001E0,4.1600003E0,1.5040001E1,4.4800005E0,9.6E0,7.0400004E0,6.7200003E0],"tree_param":{"num_deleted":"0","num_feature":"30","num_nodes":"55","size_leaf_vector":"1"}},{"base_weights":[-4.0364984E-1,1.7241378E-1,-4.2724058E-1,-2.6548672E-1,2.8947368E-1,1.15384616E-1,-4.4093716E-1,2.6315792E-2,-1.2962963E-1,-4.9935147E-1,-2.5477704E-1,-5.183872E-1,5.5555556E-2,3.4013603E-2,-1.7479675E-1,-5.4601806E-1,-1.3513513E-1,6.20915E-1,-2.5559103E-1,2.6315792E-2,-1.6707021E-1,-1.460177E-1,9.27835E-2,3.5714287E-1,-1.2328767E-1,-1.1743772E-1,1.5789473E-1],"categories":[],"categories_nodes":[],"categories_segments":[],"categories_sizes":[],"default_left":[0,0,0,0,0,0,0,0,0,0,0,0,0,0,0,0,0,0,0,0,0,0,0,0,0,0,0],"id":2,"left_children":[1,3,5,7,-1,-1,9,-1,-1,11,13,15,-1,17,-1,19,21,23,25,-1,-1,-1,-1,-1,-1,-1,-1],"loss_changes":[1.831089E0,2.268977E0,1.5542126E0,3.03898E-1,0E0,0E0,1.2094593E0,0E0,0E0,1.3015919E0,2.9930313E0,8.822441E-1,0E0,3.1569602E0,0E0,6.2734604E-1,1.3067952E0,4.0860543E0,1.5361073E0,0E0,0E0,0E0,0E0,0E0,0E0,0E0,0E0],"parents":[2147483647,0,0,1,1,2,2,3,3,6,6,9,9,10,10,11,11,13,13,15,15,16,16,17,17,18,18],"right_children":[2,4,6,8,-1,-1,10,-1,-1,12,14,16,-1,18,-1,20,22,24,26,-1,-1,-1,-1,-1,-1,-1,-1],"split_conditions":[-1.2258654E0,9.9189155E-2,-1.0078273E0,-6.056206E-1,2.8947368E-1,1.15384616E-1,5.9263863E-2,2.6315792E-2,-1.2962963E-1,1.5825988E0,3.2109877E-1,1.1996723E0,5.5555556E-2,-5.9491336E-1,-1.7479675E-1,-2.7338846E0,1.677135E-1,-8.132138E-2,6.687311E-1,2.6315792E-2,-1.6707021E-1,-1.460177E-1,9.27835E-2,3.5714287E-1,-1.2328767E-1,-1.1743772E-1,1.5789473E-1],"split_indices":[16,1,14,0,0,0,19,0,0,20,19,1,0,0,0,1,27,16,8,0,0,0,0,0,0,0,0],"split_type":[0,0,0,0,0,0,0,0,0,0,0,0,0,0,0,0,0,0,0,0,0,0,0,0,0,0,0],"sum_hessian":[1.2832E2,4.8E0,1.2352001E2,3.5200002E0,1.2800001E0,1.6000001E0,1.21920006E2,1.2800001E0,2.2400002E0,9.1520004E1,3.0400002E1,8.928001E1,2.2400002E0,1.6640001E1,1.3760001E1,8.2880005E1,6.4000006E0,5.1200004E0,1.152E1,1.2800001E0,8.1600006E1,3.5200002E0,2.88E0,3.2000003E0,1.9200001E0,1.0240001E1,1.2800001E0],"tree_param":{"num_deleted":"0","num_feature":"30","num_nodes":"27","size_leaf_vector":"1"}},{"base_weights":[-1.5465511E-3,-3.902439E-1,1.7689206E-1,1.849315E-1,-4.5547593E-1,3.1790295E-1,-3.7634405E-1,-5.026455E-1,1.5789473E-1,6.3068914E-1,8.102955E-2,-4.734411E-1,1.5789473E-1,8.219178E-2,-5.518394E-1,-1.3513513E-1,8.374384E-1,-2.0467836E-1,3.3868092E-1,-1.7325227E-1,-1.16279066E-1,2.6315792E-2,-5.7803464E-1,-1.4876033E-1,3.9325842E-1,1.2794613E0,3.8575667E-1,-3.2769555E-1,2.3076923E-1,-7.782101E-2,6.3829786E-1,-1.3917525E-1,1.5789473E-1,-1.817058E-1,-3.7037037E-2,-1.05263166E-1,2.8947368E-1,5.309735E-2,5.167464E-1,1.981132E-1,-1.3917525E-1,-1.4117646E-1,1.849315E-1,-1.15384616E-1,1.19469024E-1,2.5622776E-1,-1.2328767E-1],"categories":[],"categories_nodes":[],"categories_segments":[],"categories_sizes":[],"default_left":[0,0,0,0,0,0,0,0,0,0,0,0,0,0,0,0,0,0,0,0,0,0,0,0,0,0,0,0,0,0,0,0,0,0,0,0,0,0,0,0,0,0,0,0,0,0,0],"id":3,"left_children":[1,3,5,-1,7,9,11,13,-1,15,17,19,-1,-1,21,23,25,27,29,-1,31,-1,33,-1,35,37,39,41,-1,43,45,-1,-1,-1,-1,-1,-1,-1,-1,-1,-1,-1,-1,-1,-1,-1,-1],"loss_changes":[9.038487E0,2.9731584E0,7.0877013E0,0E0,2.0743713E0,5.2626834E0,1.8793874E0,1.595336E0,0E0,4.983507E0,3.1581235E0,5.766082E-1,0E0,0E0,6.518154E-1,1.6055093E0,4.3700047E0,2.7105246E0,2.849984E0,0E0,1.396863E0,0E0,3.6013603E-1,0E0,1.8529469E0,5.4976063E0,3.4517584E0,2.842582E0,0E0,1.6545572E0,3.330737E0,0E0,0E0,0E0,0E0,0E0,0E0,0E0,0E0,0E0,0E0,0E0,0E0,0E0,0E0,0E0,0E0],"parents":[2147483647,0,0,1,1,2,2,4,4,5,5,6,6,7,7,9,9,10,10,11,11,14,14,15,15,16,16,17,17,18,18,20,20,22,22,24,24,25,25,26,26,27,27,29,29,30,30],"right_children":[2,4,6,-1,8,10,12,14,-1,16,18,20,-1,-1,22,24,26,28,30,-1,32,-1,34,-1,36,38,40,42,-1,44,46,-1,-1,-1,-1,-1,-1,-1,-1,-1,-1,-1,-1,-1,-1,-1,-1],"split_conditions":[-4.6126452E-1,-9.7616524E-1,7.494561E-1,1.849315E-1,2.777911E0,-3.7772414E-1,1.157197E0,-1.3062407E0,1.5789473E-1,-1.2903042E0,-4.6802793E-2,8.7043947E-1,1.5789473E-1,8.219178E-2,-1.6818764E0,-4.8423585E-1,-6.040026E-1,6.1934495E-1,2.8045255E-1,-1.7325227E-1,-1.2072245E0,2.6315792E-2,1.1357808E0,-1.4876033E-1,-1.1583698E0,-5.0125307E-1,2.9700497E-1,1.7759918E0,2.3076923E-1,-2.898224E-1,1.3084874E0,-1.3917525E-1,1.5789473E-1,-1.817058E-1,-3.7037037E-2,-1.05263166E-1,2.8947368E-1,5.309735E-2,5.167464E-1,1.981132E-1,-1.3917525E-1,-1.4117646E-1,1.849315E-1,-1.15384616E-1,1.19469024E-1,2.5622776E-1,-1.2328767E-1],"split_indices":[2,21,16,0,8,13,7,15,0,13,11,4,0,0,8,23,16,16,20,0,7,0,5,0,6,29,21,24,0,14,23,0,0,0,0,0,0,0,0,0,0,0,0,0,0,0,0],"split_type":[0,0,0,0,0,0,0,0,0,0,0,0,0,0,0,0,0,0,0,0,0,0,0,0,0,0,0,0,0,0,0,0,0,0,0,0,0,0,0,0,0,0,0,0,0,0,0],"sum_hessian":[1.2832E2,4.0000004E1,8.832001E1,1.9200001E0,3.808E1,7.072E1,1.76E1,3.6800003E1,1.2800001E0,2.9760002E1,4.0960003E1,1.6320002E1,1.2800001E0,1.9200001E0,3.488E1,6.4000006E0,2.3360003E1,1.952E1,2.1440002E1,1.2160001E1,4.1600003E0,1.2800001E0,3.3600002E1,3.8400002E0,2.5600002E0,1.0880001E1,1.24800005E1,1.7920002E1,1.6000001E0,9.280001E0,1.2160001E1,2.88E0,1.2800001E0,3.1360003E1,2.2400002E0,1.2800001E0,1.2800001E0,3.5200002E0,7.3600006E0,9.6E0,2.88E0,1.6000002E1,1.9200001E0,5.76E0,3.5200002E0,1.0240001E1,1.9200001E0],"tree_param":{"num_deleted":"0","num_feature":"30","num_nodes":"47","size_leaf_vector":"1"}},{"base_weights":[2.2270335E-1,-4.1644418E-1,1.0830325E0,-4.7751248E-1,8.2474226E-1,2.68714E-1,1.5298086E0,-5.527795E-1,1.11111104E-1,4.2105266E-1,-0E0,1.3636363E0,-5.8823526E-2,-1.05263166E-1,1.6102682E0,-5.811623E-1,-1.16279066E-1,-2.7027026E-1,3.4615386E-1,5.185185E-1,1.15384616E-1,-3.9145905E-1,5.0295854E-1,-1.05263166E-1,1.6969696E0,-1.8388589E-1,-3.333333E-1,-1.3917525E-1,1.5789473E-1,-1.511628E-1,5.5555556E-2,-1.6417912E-1,-0E0,-1.05263166E-1,7.6642334E-1,1.7834394E0,-0E0,3.3707865E-2,-1.583851E-1,1.5789473E-1,-1.2328767E-1,3.7078652E-1,-2.0547945E-2,2.586207E-1,5.751879E-1],"categories":[],"categories_nodes":[],"categories_segments":[],"categories_sizes":[],"default_left":[0,0,0,0,0,0,0,0,0,0,0,0,0,0,0,0,0,0,0,0,0,0,0,0,0,0,0,0,0,0,0,0,0,0,0,0,0,0,0,0,0,0,0,0,0],"id":4,"left_children":[1,3,5,7,9,11,13,15,17,-1,-1,19,21,-1,23,25,27,29,-1,-1,-1,31,33,-1,35,-1,37,-1,-1,-1,-1,-1,39,-1,41,43,-1,-1,-1,-1,-1,-1,-1,-1,-1],"loss_changes":[7.156114E1,6.072545E0,1.9744453E1,3.2530785E0,1.8520527E0,7.554025E0,5.945915E0,7.2581863E-1,3.8909678E0,0E0,0E0,1.0636263E0,3.3736553E0,0E0,6.424179E0,2.6745605E-1,1.396863E0,8.806481E-1,0E0,0E0,0E0,6.855401E-1,1.7896209E0,0E0,4.8423157E0,0E0,8.399749E-1,0E0,0E0,0E0,0E0,0E0,1.1247296E0,0E0,2.2329223E0,2.2196808E0,0E0,0E0,0E0,0E0,0E0,0E0,0E0,0E0,0E0],"parents":[2147483647,0,0,1,1,2,2,3,3,4,4,5,5,6,6,7,7,8,8,11,11,12,12,14,14,15,15,16,16,17,17,21,21,22,22,24,24,26,26,32,32,34,34,35,35],"right_children":[2,4,6,8,10,12,14,16,18,-1,-1,20,22,-1,24,26,28,30,-1,-1,-1,32,34,-1,36,-1,38,-1,-1,-1,-1,-1,40,-1,42,44,-1,-1,-1,-1,-1,-1,-1,-1,-1],"split_conditions":[1.2502167E-1,1.7973932E0,1.8104288E-1,-3.981806E-2,2.557997E0,-7.0975345E-1,-1.1425636E0,1.8093339E0,7.5400734E-1,4.2105266E-1,-0E0,7.752834E-1,6.396656E-3,-1.05263166E-1,-1.0136223E0,8.3319604E-1,-5.1790094E-1,3.8039136E-1,3.4615386E-1,5.185185E-1,1.15384616E-1,2.588961E-1,-4.4334102E-1,-1.05263166E-1,1.6702552E0,-1.8388589E-1,5.753356E-1,-1.3917525E-1,1.5789473E-1,-1.511628E-1,5.5555556E-2,-1.6417912E-1,-3.8295603E-1,-1.05263166E-1,-1.3641573E-1,3.28943E-1,-0E0,3.3707865E-2,-1.583851E-1,1.5789473E-1,-1.2328767E-1,3.7078652E-1,-2.0547945E-2,2.586207E-1,5.751879E-1],"split_indices":[2,5,26,2,5,10,16,29,1,0,0,2,24,0,27,18,26,7,0,0,0,27,28,0,23,0,4,0,0,0,0,0,16,0,21,2,0,0,0,0,0,0,0,0,0],"split_type":[0,0,0,0,0,0,0,0,0,0,0,0,0,0,0,0,0,0,0,0,0,0,0,0,0,0,0,0,0,0,0,0,0,0,0,0,0,0,0,0,0,0,0,0,0],"sum_hessian":[1.2832E2,7.3920006E1,5.4400005E1,7.104001E1,2.88E0,1.9840002E1,3.456E1,6.3040005E1,8.000001E0,1.2800001E0,1.6000001E0,3.8400002E0,1.6000002E1,1.2800001E0,3.3280003E1,5.8880005E1,4.1600003E0,6.4000006E0,1.6000001E0,2.2400002E0,1.6000001E0,1.0240001E1,5.76E0,1.2800001E0,3.2000004E1,5.0880005E1,8.000001E0,2.88E0,1.2800001E0,4.1600003E0,2.2400002E0,7.0400004E0,3.2000003E0,1.2800001E0,4.4800005E0,3.0400002E1,1.6000001E0,2.5600002E0,5.4400005E0,1.2800001E0,1.9200001E0,2.5600002E0,1.9200001E0,4.8E0,2.5600002E1],"tree_param":{"num_deleted":"0","num_feature":"30","num_nodes":"45","size_leaf_vector":"1"}},{"base_weights":[1.08947106E-1,6.1261034E-1,-3.545302E-1,-7.168417E-3,8.007596E-1,-4.14291E-1,6.0833484E-1,3.8640273E-1,-4.1152623E-1,3.6910707E-1,9.9700946E-1,2.6620212E-1,-4.5648116E-1,-9.858004E-2,2.9658523E-1,7.38663E-1,-1.239735E-1,4.127004E-2,-1.5634507E-1,-1.5072806E-1,6.329375E-1,2.266815E-1,1.1712782E0,-4.984471E-1,4.598895E-1,-1.4042388E-2,1.0788306E0,3.1817168E-1,1.264195E-1,2.5521606E-1,-3.018781E-1,1.2381574E0,3.5173711E-3,5.3359423E-2,-5.1272655E-1,-9.9579565E-2,3.1531486E-1,4.978668E-2,3.9140505E-1,2.0356579E-1,-1.3970289E-1,3.9113935E-2,-1.3974719E-1,1.1830043E-1,4.052926E-1,-1.6228361E-1,-2.560645E-2],"categories":[],"categories_nodes":[],"categories_segments":[],"categories_sizes":[],"default_left":[0,0,0,0,0,0,0,0,0,0,0,0,0,0,0,0,0,0,0,0,0,0,0,0,0,0,0,0,0,0,0,0,0,0,0,0,0,0,0,0,0,0,0,0,0,0,0],"id":5,"left_children":[1,3,5,7,9,11,13,15,17,19,21,-1,23,-1,-1,25,-1,-1,-1,-1,27,29,31,33,35,-1,37,-1,39,-1,41,43,-1,-1,45,-1,-1,-1,-1,-1,-1,-1,-1,-1,-1,-1,-1],"loss_changes":[3.0565058E1,7.3135185E0,4.1842327E0,2.6392963E0,3.7051773E0,3.9712E0,1.8920912E0,2.6752481E0,5.6356657E-1,4.1386547E0,4.092968E0,0E0,2.6735039E0,0E0,0E0,1.7069457E0,0E0,0E0,0E0,0E0,2.7245479E0,2.6414974E0,2.0201683E0,6.827688E-1,1.895185E0,0E0,6.8396807E-1,0E0,2.6622028E0,0E0,3.904374E-1,1.8278656E0,0E0,0E0,6.804037E-1,0E0,0E0,0E0,0E0,0E0,0E0,0E0,0E0,0E0,0E0,0E0,0E0],"parents":[2147483647,0,0,1,1,2,2,3,3,4,4,5,5,6,6,7,7,8,8,9,9,10,10,12,12,15,15,20,20,21,21,22,22,23,23,24,24,26,26,28,28,30,30,31,31,34,34],"right_children":[2,4,6,8,10,12,14,16,18,20,22,-1,24,-1,-1,26,-1,-1,-1,-1,28,30,32,34,36,-1,38,-1,40,-1,42,44,-1,-1,46,-1,-1,-1,-1,-1,-1,-1,-1,-1,-1,-1,-1],"split_conditions":[-2.046007E-1,-7.252329E-1,2.0073357E0,-5.6044316E-1,-4.2560536E-2,-1.2059653E0,4.4502515E-1,1.3162772E-1,-9.837381E-1,-5.6397724E-1,-9.4146043E-1,2.6620212E-1,1.8216465E0,-9.858004E-2,2.9658523E-1,-5.076276E-1,-1.239735E-1,4.127004E-2,-1.5634507E-1,-1.5072806E-1,-9.8745656E-1,-7.2749484E-1,1.0353763E-1,-1.3072417E0,3.7558975E-3,-1.4042388E-2,-2.965617E-1,3.1817168E-1,-7.6550704E-1,2.5521606E-1,4.98517E-1,-1.048292E0,3.5173711E-3,5.3359423E-2,1.5593388E0,-9.9579565E-2,3.1531486E-1,4.978668E-2,3.9140505E-1,2.0356579E-1,-1.3970289E-1,3.9113935E-2,-1.3974719E-1,1.1830043E-1,4.052926E-1,-1.6228361E-1,-2.560645E-2],"split_indices":[2,16,3,26,9,26,1,27,27,27,7,0,12,0,0,12,0,0,0,0,26,13,19,0,6,0,1,0,0,0,1,5,0,0,23,0,0,0,0,0,0,0,0,0,0,0,0],"split_type":[0,0,0,0,0,0,0,0,0,0,0,0,0,0,0,0,0,0,0,0,0,0,0,0,0,0,0,0,0,0,0,0,0,0,0,0,0,0,0,0,0,0,0,0,0,0,0],"sum_hessian":[1.2900482E2,6.166805E1,6.733677E1,1.4585182E1,4.7082867E1,6.393814E1,3.3986285E0,7.4136767E0,7.1715055E0,1.5616062E1,3.1466805E1,1.3784649E0,6.2559677E1,1.0204248E0,2.3782036E0,5.199473E0,2.2142038E0,1.1510653E0,6.02044E0,3.4186344E0,1.2197428E1,6.2297835E0,2.5237022E1,6.0256256E1,2.3034203E0,1.8318954E0,3.3675778E0,6.0206017E0,6.176826E0,2.5773518E0,3.6524317E0,2.3796719E1,1.4403025E0,1.0090474E0,5.9247208E1,1.1720462E0,1.1313741E0,1.0119936E0,2.3555841E0,3.1207178E0,3.0561082E0,1.0606562E0,2.5917754E0,3.3365169E0,2.0460203E1,5.532821E1,3.9189994E0],"tree_param":{"num_deleted":"0","num_feature":"30","num_nodes":"47","size_leaf_vector":"1"}},{"base_weights":[4.020232E-2,5.0331897E-1,-1.4083661E-1,8.7496406E-1,-1.03443936E-1,7.789626E-3,-5.058945E-1,-1.3138562E-2,9.52759E-1,2.5942317E-1,-3.2650635E-1,2.1672185E-1,-2.0828551E-1,-5.39619E-1,3.329174E-2,1.0491757E0,1.21315576E-1,-4.681882E-1,1.8629044E-1,5.2118075E-1,7.209361E-3,6.4491206E-3,-4.0114766E-1,2.3624534E-2,-1.727806E-1,3.5362607E-1,1.1854386E0,1.6569382E-1,-1.10778034E-1,5.194589E-2,-1.6382419E-1,-9.8338835E-2,6.237047E-1,2.8579262E-1,-1.0062568E-1,-1.4934471E-1,5.627572E-1,-4.9876663E-1,1.1572249E-1,2.873436E-1,-1.21674135E-1,3.8735774E-1,1.844082E-2,2.2661738E-1,-2.313381E-2,8.221786E-2,-8.684664E-2,7.6297715E-2,-1.3026522E-1,3.2606444E-1,-1.00058086E-1,4.2892266E-2,-1.6863288E-1,-9.847722E-2,1.3905303E-1],"categories":[],"categories_nodes":[],"categories_segments":[],"categories_sizes":[],"default_left":[0,0,0,0,0,0,0,0,0,0,0,0,0,0,0,0,0,0,0,0,0,0,0,0,0,0,0,0,0,0,0,0,0,0,0,0,0,0,0,0,0,0,0,0,0,0,0,0,0,0,0,0,0,0,0],"id":6,"left_children":[1,3,5,7,9,11,13,-1,15,-1,17,19,21,23,-1,25,27,29,-1,31,33,35,37,-1,-1,39,41,-1,-1,-1,-1,-1,43,-1,45,47,49,51,53,-1,-1,-1,-1,-1,-1,-1,-1,-1,-1,-1,-1,-1,-1,-1,-1],"loss_changes":[1.0782853E1,8.237025E0,5.030171E0,1.6505966E0,3.4390721E0,3.0616834E0,6.1779785E-1,0E0,1.5398617E0,0E0,1.9829144E0,2.1944408E0,1.3840766E0,6.202173E-1,0E0,1.3346195E0,8.9994633E-1,6.708443E-1,0E0,1.4259274E0,2.2804155E0,1.5373249E0,9.4523454E-1,0E0,0E0,2.4326506E0,1.7093182E0,0E0,0E0,0E0,0E0,0E0,1.2456203E0,0E0,1.5044031E0,1.7076907E0,2.1843677E0,6.8945384E-1,7.0895964E-1,0E0,0E0,0E0,0E0,0E0,0E0,0E0,0E0,0E0,0E0,0E0,0E0,0E0,0E0,0E0,0E0],"parents":[2147483647,0,0,1,1,2,2,3,3,4,4,5,5,6,6,8,8,10,10,11,11,12,12,13,13,15,15,16,16,17,17,19,19,20,20,21,21,22,22,25,25,26,26,32,32,34,34,35,35,36,36,37,37,38,38],"right_children":[2,4,6,8,10,12,14,-1,16,-1,18,20,22,24,-1,26,28,30,-1,32,34,36,38,-1,-1,40,42,-1,-1,-1,-1,-1,44,-1,46,48,50,52,54,-1,-1,-1,-1,-1,-1,-1,-1,-1,-1,-1,-1,-1,-1,-1,-1],"split_conditions":[-7.541077E-1,-1.3680588E-1,2.0685878E-1,-8.873006E-1,-1.18529E0,-8.716428E-2,1.4959751E0,-1.3138562E-2,1.1071272E0,2.5942317E-1,1.6593126E0,-6.058692E-1,4.0038306E-1,-5.550038E-1,3.329174E-2,-9.755271E-1,-4.1958168E-1,-6.9774747E-1,1.8629044E-1,-6.040026E-1,-1.0288407E0,2.5727934E-1,8.043952E-1,2.3624534E-2,-1.727806E-1,-8.183208E-1,6.251382E-1,1.6569382E-1,-1.10778034E-1,5.194589E-2,-1.6382419E-1,-9.8338835E-2,1.40894E0,2.8579262E-1,-4.7840697E-1,-2.468022E-1,2.4525331E-1,-1.0663813E0,1.157197E0,2.873436E-1,-1.21674135E-1,3.8735774E-1,1.844082E-2,2.2661738E-1,-2.313381E-2,8.221786E-2,-8.684664E-2,7.6297715E-2,-1.3026522E-1,3.2606444E-1,-1.00058086E-1,4.2892266E-2,-1.6863288E-1,-9.847722E-2,1.3905303E-1],"split_indices":[16,2,14,21,25,26,20,0,29,0,13,13,2,1,0,8,2,19,0,16,7,16,29,0,0,3,8,0,0,0,0,0,10,0,19,13,29,8,7,0,0,0,0,0,0,0,0,0,0,0,0,0,0,0,0],"split_type":[0,0,0,0,0,0,0,0,0,0,0,0,0,0,0,0,0,0,0,0,0,0,0,0,0,0,0,0,0,0,0,0,0,0,0,0,0,0,0,0,0,0,0,0,0,0,0,0,0,0,0,0,0,0,0],"sum_hessian":[1.2676352E2,3.5126377E1,9.1637146E1,2.1509617E1,1.3616759E1,6.581891E1,2.5818232E1,1.7132435E0,1.9796373E1,2.0110853E0,1.1605674E1,3.346103E1,3.2357883E1,2.4598633E1,1.2195978E0,1.7504612E1,2.2917616E0,1.0536015E1,1.0696601E0,1.3033478E1,2.0427551E1,1.5768093E1,1.658979E1,1.2997093E0,2.3298923E1,3.456448E0,1.4048164E1,1.1529696E0,1.1387919E0,1.0085946E0,9.527419E0,1.1675985E0,1.186588E1,1.2893196E0,1.9138231E1,1.2889842E1,2.8782516E0,1.3983764E1,2.6060264E0,1.7790568E0,1.6773913E0,1.2704064E1,1.3440994E0,9.923365E0,1.9425147E0,6.2626567E0,1.2875574E1,5.3773117E0,7.5125303E0,1.6820049E0,1.1962465E0,1.1433275E0,1.2840436E1,1.1693759E0,1.4366505E0],"tree_param":{"num_deleted":"0","num_feature":"30","num_nodes":"55","size_leaf_vector":"1"}},{"base_weights":[-3.624737E-1,-2.5439826E-1,-5.0726765E-1,-3.550307E-1,2.2751941E-1,1.031911E-3,-5.445348E-1,-4.2311656E-1,-4.064928E-2,5.6568766E-1,-1.4107062E-1,-1.2209048E-1,1.781499E-1,-5.653547E-1,3.732276E-2,1.2642527E-1,-4.7440958E-1,4.9826112E-1,-3.9152926E-1,-1.01301886E-1,1.1477901E0,-1.7588383E-1,-2.2664033E-1,2.0840089E-1,-1.2449225E-1,-3.199343E-2,-5.1289266E-1,8.3562183E-1,-9.683211E-2,4.165045E-2,-1.5358202E-1,-1.380112E-1,1.6901077E-1,4.082507E-2,4.292855E-1,-1.22350805E-1,3.964621E-2,1.6725129E-1,-1.2622686E-1,-1.608583E-1,4.307567E-2,3.2150265E-2,3.342703E-1],"categories":[],"categories_nodes":[],"categories_segments":[],"categories_sizes":[],"default_left":[0,0,0,0,0,0,0,0,0,0,0,0,0,0,0,0,0,0,0,0,0,0,0,0,0,0,0,0,0,0,0,0,0,0,0,0,0,0,0,0,0,0,0],"id":7,"left_children":[1,3,5,7,9,11,13,15,17,19,-1,-1,-1,21,-1,23,25,27,29,31,33,-1,35,-1,-1,37,39,41,-1,-1,-1,-1,-1,-1,-1,-1,-1,-1,-1,-1,-1,-1,-1],"loss_changes":[1.6888313E0,3.4039764E0,9.2201805E-1,1.2045469E0,3.2029068E0,1.286744E0,7.0156384E-1,1.3794613E0,2.3256173E0,3.5474865E0,0E0,0E0,0E0,1.799345E-1,0E0,1.7606047E0,7.1611214E-1,1.622263E0,5.4263055E-1,1.4602829E0,1.1803985E0,0E0,3.268232E-1,0E0,0E0,1.2680405E0,6.8145657E-1,6.395726E-1,0E0,0E0,0E0,0E0,0E0,0E0,0E0,0E0,0E0,0E0,0E0,0E0,0E0,0E0,0E0],"parents":[2147483647,0,0,1,1,2,2,3,3,4,4,5,5,6,6,7,7,8,8,9,9,13,13,15,15,16,16,17,17,18,18,19,19,20,20,22,22,25,25,26,26,27,27],"right_children":[2,4,6,8,10,12,14,16,18,20,-1,-1,-1,22,-1,24,26,28,30,32,34,-1,36,-1,-1,38,40,42,-1,-1,-1,-1,-1,-1,-1,-1,-1,-1,-1,-1,-1,-1,-1],"split_conditions":[-9.3479024E-4,8.2984877E-1,-1.3042486E0,7.415149E-2,2.7109718E-1,-8.180577E-1,1.6716564E0,-1.2437736E0,-5.3791076E-1,2.8414935E-2,-1.4107062E-1,-1.2209048E-1,1.781499E-1,1.2145747E0,3.732276E-2,-1.4994168E-1,-1.6009533E0,8.763987E-1,-9.3372136E-1,-1.650259E-1,-6.5827185E-1,-1.7588383E-1,1.0865506E0,2.0840089E-1,-1.2449225E-1,-5.429153E-1,1.9666345E0,3.204425E-1,-9.683211E-2,4.165045E-2,-1.5358202E-1,-1.380112E-1,1.6901077E-1,4.082507E-2,4.292855E-1,-1.22350805E-1,3.964621E-2,1.6725129E-1,-1.2622686E-1,-1.608583E-1,4.307567E-2,3.2150265E-2,3.342703E-1],"split_indices":[16,8,13,19,19,26,0,16,17,25,0,0,0,9,0,21,13,5,16,11,14,0,20,0,0,28,12,6,0,0,0,0,0,0,0,0,0,0,0,0,0,0,0],"split_type":[0,0,0,0,0,0,0,0,0,0,0,0,0,0,0,0,0,0,0,0,0,0,0,0,0,0,0,0,0,0,0,0,0,0,0,0,0,0,0,0,0,0,0],"sum_hessian":[1.1516834E2,6.752447E1,4.764388E1,5.6077785E1,1.1446681E1,3.3209298E0,4.432295E1,4.5810658E1,1.0267128E1,7.8374968E0,3.609184E0,2.1527586E0,1.1681712E0,4.313528E1,1.1876673E0,3.78579E0,4.2024868E1,3.8831038E0,6.384024E0,4.037354E0,3.8001428E0,3.993719E1,3.198089E0,1.7089758E0,2.0768142E0,3.509516E0,3.851535E1,2.739631E0,1.1434728E0,1.1529047E0,5.231119E0,2.8220909E0,1.215263E0,1.1547889E0,2.6453538E0,2.0341387E0,1.1639501E0,1.2221973E0,2.2873187E0,3.737206E1,1.1432923E0,1.1410122E0,1.5986187E0],"tree_param":{"num_deleted":"0","num_feature":"30","num_nodes":"43","size_leaf_vector":"1"}},{"base_weights":[3.8606846E-3,-3.446063E-1,1.4343889E-1,-4.3505937E-1,3.9096782E-1,2.4661513E-1,-3.3155456E-1,3.7214667E-1,-5.165479E-1,3.1388557E-1,-1.1796514E-1,5.913683E-2,5.272877E-1,-4.3509656E-1,1.4747131E-1,-5.967573E-4,2.0079128E-1,-1.7352536E-1,-1.0646113E-1,1.7518184E-1,-4.5149988E-1,6.632677E-1,-2.9624352E-1,5.3305294E-2,-4.902899E-1,1.71905E-1,-1.3522641E-1,-3.954168E-1,2.9601982E-1,5.3350046E-2,-1.6625117E-1,-1.2815614E-1,8.251115E-1,4.153427E-2,-1.3916253E-1,1.9524245E-2,-1.6652395E-1,5.1138565E-2,-1.5494204E-1,1.2238964E-1,-1.4676484E-1,1.4991054E-1,-1.3797653E-1,5.006288E-2,3.4176892E-1],"categories":[],"categories_nodes":[],"categories_segments":[],"categories_sizes":[],"default_left":[0,0,0,0,0,0,0,0,0,0,0,0,0,0,0,0,0,0,0,0,0,0,0,0,0,0,0,0,0,0,0,0,0,0,0,0,0,0,0,0,0,0,0,0,0],"id":8,"left_children":[1,3,5,7,9,11,13,15,17,-1,-1,19,21,23,-1,-1,-1,-1,25,27,29,31,33,-1,35,-1,-1,37,39,-1,-1,41,43,-1,-1,-1,-1,-1,-1,-1,-1,-1,-1,-1,-1],"loss_changes":[6.2250752E0,2.605723E0,4.559327E0,2.3676114E0,2.7420459E0,3.9486322E0,1.6398071E0,4.0309542E-1,7.111969E-1,0E0,0E0,2.8328168E0,3.5741568E0,6.076882E-1,0E0,0E0,0E0,0E0,1.4790714E0,2.7775712E0,6.7262936E-1,3.461156E0,4.2606783E-1,0E0,5.5376697E-1,0E0,0E0,5.79317E-1,3.0489497E0,0E0,0E0,1.3365564E0,4.334546E0,0E0,0E0,0E0,0E0,0E0,0E0,0E0,0E0,0E0,0E0,0E0,0E0],"parents":[2147483647,0,0,1,1,2,2,3,3,4,4,5,5,6,6,7,7,8,8,11,11,12,12,13,13,18,18,19,19,20,20,21,21,22,22,24,24,27,27,28,28,31,31,32,32],"right_children":[2,4,6,8,10,12,14,16,18,-1,-1,20,22,24,-1,-1,-1,-1,26,28,30,32,34,-1,36,-1,-1,38,40,-1,-1,42,44,-1,-1,-1,-1,-1,-1,-1,-1,-1,-1,-1,-1],"split_conditions":[-4.6126452E-1,1.1357808E0,7.494561E-1,-1.2943313E0,1.4239832E0,-7.515943E-2,1.157197E0,3.0555376E-1,5.090923E-1,3.1388557E-1,-1.1796514E-1,-8.7571844E-2,1.018837E0,-8.180577E-1,1.4747131E-1,-5.967573E-4,2.0079128E-1,-1.7352536E-1,-9.892145E-2,-7.039008E-1,-3.737547E-1,-1.2903042E0,-1.953024E0,5.3305294E-2,-1.0179157E0,1.71905E-1,-1.3522641E-1,-1.1171043E0,1.2123255E0,5.3350046E-2,-1.6625117E-1,-3.603195E-1,-1.0381143E0,4.153427E-2,-1.3916253E-1,1.9524245E-2,-1.6652395E-1,5.1138565E-2,-1.5494204E-1,1.2238964E-1,-1.4676484E-1,1.4991054E-1,-1.3797653E-1,5.006288E-2,3.4176892E-1],"split_indices":[2,5,16,15,5,29,7,7,28,0,0,21,26,26,0,0,0,0,14,8,2,13,1,0,8,0,0,8,22,0,0,7,0,0,0,0,0,0,0,0,0,0,0,0,0],"split_type":[0,0,0,0,0,0,0,0,0,0,0,0,0,0,0,0,0,0,0,0,0,0,0,0,0,0,0,0,0,0,0,0,0,0,0,0,0,0,0,0,0,0,0,0,0],"sum_hessian":[1.2597058E2,3.560678E1,9.03638E1,3.2071514E1,3.535267E0,7.463309E1,1.5730709E1,2.6137242E0,2.9457788E1,1.7437993E0,1.7914679E0,4.5470963E1,2.9162125E1,1.439176E1,1.3389484E0,1.5967032E0,1.0170211E0,2.5239431E1,4.2183576E0,3.7586224E1,7.8847413E0,2.5196354E1,3.9657695E0,1.0057852E0,1.3385975E1,1.1952182E0,3.0231392E0,6.171592E0,3.141463E1,1.0032307E0,6.8815107E0,4.3131247E0,2.088323E1,1.1521602E0,2.8136094E0,1.398001E0,1.1987974E1,1.0156803E0,5.155912E0,2.7915384E1,3.4992464E0,1.3161519E0,2.996973E0,7.240985E0,1.3642245E1],"tree_param":{"num_deleted":"0","num_feature":"30","num_nodes":"45","size_leaf_vector":"1"}},{"base_weights":[1.6748923E-1,-4.2251626E-1,6.835181E-1,-4.9421126E-1,7.8951585E-1,-1.7371994E-1,8.4604096E-1,-5.088421E-1,3.896577E-2,3.2831913E-1,2.6999783E-2,-3.6043033E-1,4.1114613E-1,-1.17445104E-1,9.1875637E-1,3.849364E-2,-5.2401704E-1,1.5755105E-1,-1.5972765E-1,9.12407E-3,1.9768335E-1,-1.3942356E-1,1.8190488E-1,-1.6938312E-1,9.736491E-1,-5.393801E-1,2.9077472E-2,1.5746221E-1,-9.6402995E-2,-1.1207669E-1,5.077499E-2,1.0499748E0,2.9942322E-1,-1.119311E-1,-1.7660561E-1,5.343914E-2,3.2555073E-1,3.2330924E-1,-4.5292325E-2],"categories":[],"categories_nodes":[],"categories_segments":[],"categories_sizes":[],"default_left":[0,0,0,0,0,0,0,0,0,0,0,0,0,0,0,0,0,0,0,0,0,0,0,0,0,0,0,0,0,0,0,0,0,0,0,0,0,0,0],"id":9,"left_children":[1,3,5,7,9,11,13,15,-1,-1,-1,17,19,21,23,-1,25,27,-1,-1,-1,-1,-1,29,31,33,-1,-1,-1,-1,-1,35,37,-1,-1,-1,-1,-1,-1],"loss_changes":[4.0857704E1,5.8461027E0,1.0103195E1,6.1299515E-1,7.3145103E-1,1.4824986E0,4.3285904E0,6.35046E-1,0E0,0E0,0E0,9.5651937E-1,3.0298936E-1,1.5673885E0,3.517582E0,0E0,6.0134315E-1,7.339149E-1,0E0,0E0,0E0,0E0,0E0,3.0853274E-1,2.4429855E0,2.420826E-1,0E0,0E0,0E0,0E0,0E0,1.2713776E0,2.5630994E0,0E0,0E0,0E0,0E0,0E0,0E0],"parents":[2147483647,0,0,1,1,2,2,3,3,4,4,5,5,6,6,7,7,11,11,12,12,13,13,14,14,16,16,17,17,23,23,24,24,25,25,31,31,32,32],"right_children":[2,4,6,8,10,12,14,16,-1,-1,-1,18,20,22,24,-1,26,28,-1,-1,-1,-1,-1,30,32,34,-1,-1,-1,-1,-1,36,38,-1,-1,-1,-1,-1,-1],"split_conditions":[4.5275103E-2,1.7973932E0,-2.6083115E-1,3.1292148E0,2.557997E0,8.461651E-1,-1.0230018E0,-1.1277713E0,3.896577E-2,3.2831913E-1,2.6999783E-2,-7.0975345E-1,6.038595E-1,1.5526618E-1,-1.2806207E0,3.849364E-2,1.7358372E0,-6.522878E-1,-1.5972765E-1,9.12407E-3,1.9768335E-1,-1.3942356E-1,1.8190488E-1,-1.8838309E-1,1.3706492E0,-4.2634237E-1,2.9077472E-2,1.5746221E-1,-9.6402995E-2,-1.1207669E-1,5.077499E-2,-1.0830578E0,-3.5029426E-1,-1.119311E-1,-1.7660561E-1,5.343914E-2,3.2555073E-1,3.2330924E-1,-4.5292325E-2],"split_indices":[2,5,26,29,5,14,16,28,0,0,0,10,5,5,13,0,20,24,0,0,0,0,0,21,23,12,0,0,0,0,0,4,15,0,0,0,0,0,0],"split_type":[0,0,0,0,0,0,0,0,0,0,0,0,0,0,0,0,0,0,0,0,0,0,0,0,0,0,0,0,0,0,0,0,0,0,0,0,0,0,0],"sum_hessian":[1.322488E2,6.1786247E1,7.0462555E1,5.889471E1,2.8915372E0,1.1218884E1,5.9243668E1,5.7726097E1,1.168612E0,1.6206703E0,1.270867E0,8.794956E0,2.423929E0,4.114255E0,5.5129414E1,1.1694274E0,5.655667E1,2.2133124E0,6.5816436E0,1.3982724E0,1.0256565E0,3.0220718E0,1.092183E0,2.5473578E0,5.2582054E1,5.531934E1,1.2373309E0,1.1982301E0,1.0150822E0,1.524695E0,1.0226629E0,4.673421E1,5.8478446E0,1.4611366E1,4.0707973E1,2.048542E0,4.468567E1,1.6331095E0,4.214735E0],"tree_param":{"num_deleted":"0","num_feature":"30","num_nodes":"39","size_leaf_vector":"1"}},{"base_weights":[8.9625284E-2,5.1307315E-1,-2.792873E-1,6.2808347E-1,-2.2985302E-1,-3.5223553E-1,4.8927432E-1,2.4913096E-1,7.65047E-1,-4.0763694E-1,1.4291762E-1,2.2043268E-1,-3.925515E-1,7.1465296E-1,-9.374832E-2,-1.8688846E-1,5.9648234E-1,3.9513323E-1,8.8786435E-1,4.89872E-2,-1.5735836E-1,-4.4563463E-1,5.010117E-1,6.47836E-2,2.7966696E-1,-1.505949E-1,1.2978886E-1,-1.3347974E-1,8.6578816E-1,5.6930107E-1,-1.8299955E-1,9.196779E-1,2.4394196E-2,-4.822616E-1,-1.4695878E-1,-9.3151264E-2,2.764506E-1,-1.0098722E-1,4.6719465E-2,9.28897E-2,2.975327E-1,-1.02553666E-1,2.203951E-1,-1.0919871E-1,3.4916725E-2,2.8684765E-1,2.0466648E-2,-8.852282E-2,-1.7067102E-1,-1.46135E-1,1.23413034E-1],"categories":[],"categories_nodes":[],"categories_segments":[],"categories_sizes":[],"default_left":[0,0,0,0,0,0,0,0,0,0,0,0,0,0,0,0,0,0,0,0,0,0,0,0,0,0,0,0,0,0,0,0,0,0,0,0,0,0,0,0,0,0,0,0,0,0,0,0,0,0,0],"id":10,"left_children":[1,3,5,7,9,11,13,15,17,19,-1,-1,21,23,-1,25,27,29,31,-1,-1,33,35,-1,-1,-1,-1,37,39,41,43,45,-1,47,49,-1,-1,-1,-1,-1,-1,-1,-1,-1,-1,-1,-1,-1,-1,-1,-1],"loss_changes":[1.9800621E1,5.1804047E0,3.9789066E0,2.4723396E0,1.2781708E0,3.031426E0,1.3625112E0,2.398932E0,1.3393669E0,5.818943E-1,0E0,0E0,3.1169004E0,3.6564398E-1,0E0,1.6731064E0,1.8150442E0,1.2193506E0,6.212959E-1,0E0,0E0,5.648594E-1,1.614069E0,0E0,0E0,0E0,0E0,2.4021095E-1,1.4477253E-1,1.5700319E0,2.223115E-1,7.424183E-1,0E0,6.645489E-1,1.6791755E0,0E0,0E0,0E0,0E0,0E0,0E0,0E0,0E0,0E0,0E0,0E0,0E0,0E0,0E0,0E0,0E0],"parents":[2147483647,0,0,1,1,2,2,3,3,4,4,5,5,6,6,7,7,8,8,9,9,12,12,13,13,15,15,16,16,17,17,18,18,21,21,22,22,27,27,28,28,29,29,30,30,31,31,33,33,34,34],"right_children":[2,4,6,8,10,12,14,16,18,20,-1,-1,22,24,-1,26,28,30,32,-1,-1,34,36,-1,-1,-1,-1,38,40,42,44,46,-1,48,50,-1,-1,-1,-1,-1,-1,-1,-1,-1,-1,-1,-1,-1,-1,-1,-1],"split_conditions":[-3.3106983E-1,-9.495277E-2,1.847174E0,-1.1800953E-1,1.3230883E0,-1.2059653E0,7.5466204E-1,-2.3429243E-1,-5.092116E-1,-1.2943313E0,1.4291762E-1,2.2043268E-1,1.8216465E0,4.4502515E-1,-9.374832E-2,-4.400326E-1,-8.344015E-1,2.1857037E-1,2.747822E0,4.89872E-2,-1.5735836E-1,1.4425101E0,3.7558975E-3,6.47836E-2,2.7966696E-1,-1.505949E-1,1.2978886E-1,-6.857174E-1,-1.2273003E-1,-6.04361E-1,1.0496143E0,3.1292148E0,2.4394196E-2,-5.501302E-1,-3.1185877E-1,-9.3151264E-2,2.764506E-1,-1.0098722E-1,4.6719465E-2,9.28897E-2,2.975327E-1,-1.02553666E-1,2.203951E-1,-1.0919871E-1,3.4916725E-2,2.8684765E-1,2.0466648E-2,-8.852282E-2,-1.7067102E-1,-1.46135E-1,1.23413034E-1],"split_indices":[2,26,13,22,23,26,1,27,16,15,0,0,12,1,0,0,13,11,8,0,0,23,6,0,0,0,0,24,29,19,20,29,0,0,25,0,0,0,0,0,0,0,0,0,0,0,0,0,0,0,0],"split_type":[0,0,0,0,0,0,0,0,0,0,0,0,0,0,0,0,0,0,0,0,0,0,0,0,0,0,0,0,0,0,0,0,0,0,0,0,0,0,0,0,0,0,0,0,0,0,0,0,0,0,0],"sum_hessian":[1.2483487E2,5.793953E1,6.689534E1,5.030633E1,7.6331987E0,6.15911E1,5.3042407E0,1.4103514E1,3.6202816E1,6.435894E0,1.1973044E0,1.586626E0,6.000447E1,4.2251873E0,1.0790534E0,6.45842E0,7.6450934E0,1.0075034E1,2.6127783E1,1.0262853E0,5.409609E0,5.71129E1,2.8915713E0,1.8886393E0,2.336548E0,4.406791E0,2.0516286E0,2.1963022E0,5.4487915E0,7.7542667E0,2.3207679E0,2.5001368E1,1.1264148E0,5.0326622E1,6.7862773E0,1.0761826E0,1.8153888E0,1.1938171E0,1.0024849E0,1.6449617E0,3.8038297E0,1.0270972E0,6.7271695E0,1.3118743E0,1.0088935E0,2.385627E1,1.145098E0,1.7317871E1,3.3008755E1,4.296346E0,2.4899309E0],"tree_param":{"num_deleted":"0","num_feature":"30","num_nodes":"51","size_leaf_vector":"1"}},{"base_weights":[3.7725784E-2,3.9741966E-1,-1.1570605E-1,6.6041344E-1,-9.03888E-2,1.6255343E-2,-4.7601527E-1,-2.300759E-2,7.158861E-1,5.4978013E-1,-3.54659E-1,1.3689283E-1,-2.7209526E-1,-5.1362795E-1,3.8857672E-2,-5.9910747E-3,7.6565635E-1,-9.687494E-3,2.6588914E-1,1.2321483E-1,-1.5705687E-1,4.632796E-1,-8.482219E-2,-3.8537505E-1,2.5582215E-1,2.4796775E-2,-1.662298E-1,8.1924736E-1,2.9913173E-3,6.5322846E-1,-2.713428E-1,1.8607338E-1,-2.836211E-1,-4.8656717E-1,1.5828365E-1,-9.4815485E-2,1.7374052E-1,2.671618E-1,7.6294534E-2,6.590114E-2,3.457287E-1,5.0633073E-2,-1.3252994E-1,-3.298994E-2,1.9898367E-1,-1.4311534E-1,6.6914484E-2,-1.6633163E-1,5.4155692E-2,-1.020279E-1,1.9403179E-1],"categories":[],"categories_nodes":[],"categories_segments":[],"categories_sizes":[],"default_left":[0,0,0,0,0,0,0,0,0,0,0,0,0,0,0,0,0,0,0,0,0,0,0,0,0,0,0,0,0,0,0,0,0,0,0,0,0,0,0,0,0,0,0,0,0,0,0,0,0,0,0],"id":11,"left_children":[1,3,5,7,9,11,13,-1,15,17,19,21,23,25,-1,-1,27,-1,-1,-1,-1,29,31,33,35,-1,-1,37,-1,39,41,43,45,47,49,-1,-1,-1,-1,-1,-1,-1,-1,-1,-1,-1,-1,-1,-1,-1,-1],"loss_changes":[6.863744E0,4.8275466E0,4.161979E0,1.0471516E0,2.5461671E0,2.2954447E0,6.007252E-1,0E0,8.453703E-1,9.0084815E-1,1.5649463E0,3.3994873E0,1.2637175E0,5.8357E-1,0E0,0E0,8.5259914E-1,0E0,0E0,0E0,0E0,2.819868E0,1.5873928E0,9.81442E-1,9.305769E-1,0E0,0E0,5.723715E-1,0E0,3.067079E0,4.1938436E-1,1.8621227E0,1.7559485E0,7.3873425E-1,1.0317158E0,0E0,0E0,0E0,0E0,0E0,0E0,0E0,0E0,0E0,0E0,0E0,0E0,0E0,0E0,0E0,0E0],"parents":[2147483647,0,0,1,1,2,2,3,3,4,4,5,5,6,6,8,8,9,9,10,10,11,11,12,12,13,13,16,16,21,21,22,22,23,23,24,24,27,27,29,29,30,30,31,31,32,32,33,33,34,34],"right_children":[2,4,6,8,10,12,14,-1,16,18,20,22,24,26,-1,-1,28,-1,-1,-1,-1,30,32,34,36,-1,-1,38,-1,40,42,44,46,48,50,-1,-1,-1,-1,-1,-1,-1,-1,-1,-1,-1,-1,-1,-1,-1,-1],"split_conditions":[-7.541077E-1,-1.3680588E-1,2.0685878E-1,-1.0374895E0,-8.0799097E-1,4.2086464E-1,2.1708832E0,-2.300759E-2,-1.2982763E0,-7.7529496E-1,-7.469274E-1,1.744627E-1,8.043952E-1,-5.550038E-1,3.8857672E-2,-5.9910747E-3,1.4210967E0,-9.687494E-3,2.6588914E-1,1.2321483E-1,-1.5705687E-1,3.7336327E-2,-1.18979014E-1,4.2853522E-1,-1.7390429E0,2.4796775E-2,-1.662298E-1,3.2319477E-1,2.9913173E-3,-6.234497E-1,-9.4307E-1,7.521232E-1,1.2036115E0,9.7732526E-1,-2.595945E-1,-9.4815485E-2,1.7374052E-1,2.671618E-1,7.6294534E-2,6.590114E-2,3.457287E-1,5.0633073E-2,-1.3252994E-1,-3.298994E-2,1.9898367E-1,-1.4311534E-1,6.6914484E-2,-1.6633163E-1,5.4155692E-2,-1.020279E-1,1.9403179E-1],"split_indices":[16,2,14,27,18,2,0,0,5,23,21,1,29,1,0,0,13,0,0,0,0,19,13,4,1,0,0,25,0,24,26,9,1,28,14,0,0,0,0,0,0,0,0,0,0,0,0,0,0,0,0],"split_type":[0,0,0,0,0,0,0,0,0,0,0,0,0,0,0,0,0,0,0,0,0,0,0,0,0,0,0,0,0,0,0,0,0,0,0,0,0,0,0,0,0,0,0,0,0,0,0,0,0,0,0],"sum_hessian":[1.22535904E2,3.6164474E1,8.637143E1,2.3266754E1,1.2897718E1,6.391703E1,2.2454397E1,1.601672E0,2.1665081E1,3.4529388E0,9.44478E0,4.543402E1,1.8483011E1,2.1284138E1,1.1702608E0,1.4104369E0,2.0254644E1,1.5961416E0,1.8567971E0,1.4482691E0,7.996511E0,1.793798E1,2.7496038E1,1.543994E1,3.0430715E0,1.2865441E0,1.9997593E1,1.8834824E1,1.419822E0,1.434074E1,3.5972407E0,1.1664833E1,1.5831205E1,1.3105588E1,2.3343518E0,1.1071721E0,1.9358995E0,1.6212513E1,2.6223097E0,8.445676E0,5.895065E0,1.0068107E0,2.59043E0,7.673841E0,3.9909925E0,1.1499517E1,4.331688E0,1.2048589E1,1.0569994E0,1.3058527E0,1.0284991E0],"tree_param":{"num_deleted":"0","num_feature":"30","num_nodes":"51","size_leaf_vector":"1"}},{"base_weights":[-3.2646587E-1,-2.2102454E-1,-4.7583914E-1,-3.1908786E-1,2.020718E-1,2.0156711E-2,-5.16834E-1,-3.864697E-1,-3.197661E-2,4.747275E-1,-1.3363831E-1,2.0031813E-1,-1.1953574E-1,-5.401182E-1,3.4986444E-2,1.2953383E-1,-4.4048622E-1,-3.726146E-1,4.1856217E-1,7.300907E-1,-1.1699364E-1,-1.6888832E-1,-1.9438617E-1,-1.16526455E-1,1.7883685E-1,-2.596871E-2,-4.8178744E-1,4.5744505E-2,-1.475231E-1,6.838529E-1,-9.230458E-2,-9.1978595E-2,9.499879E-1,3.686199E-2,-1.1361816E-1,-1.2063938E-1,1.5428844E-1,5.4375533E-2,-1.5247007E-1,1.6479848E-2,2.8965807E-1,3.577146E-2,3.2715458E-1],"categories":[],"categories_nodes":[],"categories_segments":[],"categories_sizes":[],"default_left":[0,0,0,0,0,0,0,0,0,0,0,0,0,0,0,0,0,0,0,0,0,0,0,0,0,0,0,0,0,0,0,0,0,0,0,0,0,0,0,0,0,0,0],"id":12,"left_children":[1,3,5,7,9,11,13,15,17,19,-1,-1,-1,21,-1,23,25,27,29,31,-1,-1,33,-1,-1,35,37,-1,-1,39,-1,-1,41,-1,-1,-1,-1,-1,-1,-1,-1,-1,-1],"loss_changes":[1.5313606E0,2.6691298E0,8.670273E-1,9.811168E-1,2.4050977E0,1.3987962E0,6.3748264E-1,1.2138166E0,1.8213191E0,2.32224E0,0E0,0E0,0E0,1.8867111E-1,0E0,1.368745E0,6.345577E-1,4.9461806E-1,1.2012799E0,1.9945569E0,0E0,0E0,2.7267992E-1,0E0,0E0,1.1175991E0,6.9381285E-1,0E0,0E0,6.6924393E-1,0E0,0E0,6.180849E-1,0E0,0E0,0E0,0E0,0E0,0E0,0E0,0E0,0E0,0E0],"parents":[2147483647,0,0,1,1,2,2,3,3,4,4,5,5,6,6,7,7,8,8,9,9,13,13,15,15,16,16,17,17,18,18,19,19,22,22,25,25,26,26,29,29,32,32],"right_children":[2,4,6,8,10,12,14,16,18,20,-1,-1,-1,22,-1,24,26,28,30,32,-1,-1,34,-1,-1,36,38,-1,-1,40,-1,-1,42,-1,-1,-1,-1,-1,-1,-1,-1,-1,-1],"split_conditions":[-9.3479024E-4,8.2984877E-1,-1.3042486E0,7.415149E-2,2.7109718E-1,-4.544912E-2,1.6530318E0,-1.2437736E0,-1.0697138E-1,1.7606784E-2,-1.3363831E-1,2.0031813E-1,-1.1953574E-1,1.2378764E0,3.4986444E-2,-8.9648557E-1,-7.548642E-1,-6.183038E-1,-3.3397704E-1,-7.526817E-1,-1.1699364E-1,-1.6888832E-1,1.3321897E0,-1.16526455E-1,1.7883685E-1,7.4300608E-3,-2.8246965E0,4.5744505E-2,-1.475231E-1,3.6949348E-1,-9.230458E-2,-9.1978595E-2,-6.842769E-1,3.686199E-2,-1.1361816E-1,-1.2063938E-1,1.5428844E-1,5.4375533E-2,-1.5247007E-1,1.6479848E-2,2.8965807E-1,3.577146E-2,3.2715458E-1],"split_indices":[16,8,13,19,19,1,23,16,13,26,0,0,0,1,0,15,19,8,0,29,0,0,1,0,0,26,9,0,0,11,0,0,2,0,0,0,0,0,0,0,0,0,0],"split_type":[0,0,0,0,0,0,0,0,0,0,0,0,0,0,0,0,0,0,0,0,0,0,0,0,0,0,0,0,0,0,0,0,0,0,0,0,0,0,0,0,0,0,0],"sum_hessian":[1.0290599E2,6.1777466E1,4.1128525E1,5.0352764E1,1.1424704E1,3.1786318E0,3.7949894E1,4.0501457E1,9.851307E0,8.227309E0,3.197394E0,1.0143569E0,2.164275E0,3.674653E1,1.2033647E0,3.7055387E0,3.6795918E1,5.708358E0,4.142949E0,6.4717607E0,1.7555484E0,3.387975E1,2.8667805E0,1.8355E0,1.8700387E0,3.4816172E0,3.33143E1,1.0038085E0,4.7045493E0,3.0772326E0,1.0657163E0,1.0635381E0,5.408223E0,1.1761011E0,1.6906794E0,2.2032583E0,1.278359E0,1.0532899E0,3.226101E1,1.3215362E0,1.7556964E0,1.049926E0,4.358297E0],"tree_param":{"num_deleted":"0","num_feature":"30","num_nodes":"43","size_leaf_vector":"1"}},{"base_weights":[5.7208934E-3,-3.0585006E-1,1.1647929E-1,5.168256E-1,-3.7926304E-1,1.9414255E-1,-2.9049045E-1,1.8750748E-1,4.58855E-2,-4.55814E-1,2.0718324E-1,5.0808575E-2,4.2265436E-1,-4.004949E-1,1.3934143E-1,6.478682E-2,-5.191515E-1,-1.0715991E-1,1.987019E-1,4.9380597E-1,-4.8939373E-2,5.6645185E-1,-2.0635097E-1,-1.575171E-1,-3.701073E-2,2.9637774E-2,-1.6654575E-1,-2.560909E-1,9.672161E-1,-2.4308747E-1,2.809193E-1,-1.0314412E-1,7.6726735E-1,-1.4760576E-1,1.855587E-1,-1.2234979E-1,1.4991894E-1,-1.3278954E-1,5.3340834E-2,1.0218147E-1,3.4262747E-1,-1.5735379E-1,3.357911E-2,1.8824482E-1,-1.05758086E-1,1.4949748E-1,-9.893095E-2,-1.081891E-1,2.5745577E-1],"categories":[],"categories_nodes":[],"categories_segments":[],"categories_sizes":[],"default_left":[0,0,0,0,0,0,0,0,0,0,0,0,0,0,0,0,0,0,0,0,0,0,0,0,0,0,0,0,0,0,0,0,0,0,0,0,0,0,0,0,0,0,0,0,0,0,0,0,0],"id":13,"left_children":[1,3,5,7,9,11,13,-1,-1,15,17,19,21,23,-1,-1,25,-1,-1,27,29,31,33,-1,35,-1,-1,37,39,41,43,45,47,-1,-1,-1,-1,-1,-1,-1,-1,-1,-1,-1,-1,-1,-1,-1,-1],"loss_changes":[4.2978616E0,2.1689482E0,2.9592514E0,2.6432931E-2,1.4667101E0,2.5242815E0,1.4416091E0,0E0,0E0,1.2758403E0,1.3198361E0,2.1850116E0,2.814414E0,6.023414E-1,0E0,0E0,6.1741495E-1,0E0,0E0,3.4702542E0,2.6826944E0,3.3790846E0,1.7847116E0,0E0,1.1155504E0,0E0,0E0,4.2702514E-1,2.436924E-1,2.6798043E0,3.6435235E0,1.0562655E0,2.2576485E0,0E0,0E0,0E0,0E0,0E0,0E0,0E0,0E0,0E0,0E0,0E0,0E0,0E0,0E0,0E0,0E0],"parents":[2147483647,0,0,1,1,2,2,3,3,4,4,5,5,6,6,9,9,10,10,11,11,12,12,13,13,16,16,19,19,20,20,21,21,22,22,24,24,27,27,28,28,29,29,30,30,31,31,32,32],"right_children":[2,4,6,8,10,12,14,-1,-1,16,18,20,22,24,-1,-1,26,-1,-1,28,30,32,34,-1,36,-1,-1,38,40,42,44,46,48,-1,-1,-1,-1,-1,-1,-1,-1,-1,-1,-1,-1,-1,-1,-1,-1],"split_conditions":[-4.6126452E-1,-9.7616524E-1,7.494561E-1,-1.0474249E-1,1.2005228E0,-2.4636723E-2,1.157197E0,1.8750748E-1,4.58855E-2,-1.3062407E0,-3.800482E-1,-5.7941484E-1,8.5907674E-1,8.7043947E-1,1.3934143E-1,6.478682E-2,-1.6818764E0,-1.0715991E-1,1.987019E-1,-5.372043E-1,7.449559E-1,-1.0621592E0,1.5559133E0,-1.575171E-1,-1.2072245E0,2.9637774E-2,-1.6654575E-1,7.027088E-1,-1.888326E-2,3.1718418E-1,1.101778E0,-9.839976E-1,-6.1292297E-1,-1.4760576E-1,1.855587E-1,-1.2234979E-1,1.4991894E-1,-1.3278954E-1,5.3340834E-2,1.0218147E-1,3.4262747E-1,-1.5735379E-1,3.357911E-2,1.8824482E-1,-1.05758086E-1,1.4949748E-1,-9.893095E-2,-1.081891E-1,2.5745577E-1],"split_indices":[2,21,16,5,15,29,7,0,0,15,13,9,26,4,0,0,8,0,0,14,22,13,2,0,7,0,0,10,27,26,22,16,21,0,0,0,0,0,0,0,0,0,0,0,0,0,0,0,0],"split_type":[0,0,0,0,0,0,0,0,0,0,0,0,0,0,0,0,0,0,0,0,0,0,0,0,0,0,0,0,0,0,0,0,0,0,0,0,0,0,0,0,0,0,0,0,0,0,0,0,0],"sum_hessian":[1.2251048E2,3.1667164E1,9.084332E1,2.0995336E0,2.956763E1,7.672468E1,1.4118645E1,1.0651199E0,1.0344136E0,2.6350729E1,3.2169032E0,4.7901077E1,2.8823597E1,1.2732872E1,1.3857728E0,2.0627882E0,2.428794E1,1.5322123E0,1.6846908E0,8.077409E0,3.982367E1,2.3541256E1,5.282341E0,9.152052E0,3.5808208E0,1.2410789E0,2.3046862E1,3.3035421E0,4.773867E0,2.523432E1,1.458935E1,5.5434937E0,1.7997763E1,4.223282E0,1.0590591E0,2.259767E0,1.3210539E0,2.29621E0,1.0073321E0,1.6847599E0,3.089107E0,1.3809783E1,1.1424537E1,9.436165E0,5.153185E0,1.1889932E0,4.3545003E0,1.1212668E0,1.6876495E1],"tree_param":{"num_deleted":"0","num_feature":"30","num_nodes":"49","size_leaf_vector":"1"}},{"base_weights":[1.318553E-1,-3.8664445E-1,5.0545007E-1,-4.6197677E-1,6.665219E-1,-1.5928307E-1,6.1622E-1,-5.089259E-2,-4.9277398E-1,2.6666665E-1,2.7254893E-2,-1.5098216E-1,1.3944183E-1,-1.1700604E-1,6.5182894E-1,-1.23753384E-1,1.5977542E-1,-5.2821594E-1,-5.6721095E-2,5.925342E-1,-1.3083829E-1,-1.1054926E-1,6.8206763E-1,-5.4781103E-1,2.4734184E-2,-1.19553685E-1,1.1443039E-1,2.681125E-1,5.658728E-3,3.6862767E-1,7.8449196E-1,-7.38725E-2,-1.707626E-1,2.4912275E-1,-2.9475247E-2,1.6475601E-1,2.8753576E-1],"categories":[],"categories_nodes":[],"categories_segments":[],"categories_sizes":[],"default_left":[0,0,0,0,0,0,0,0,0,0,0,0,0,0,0,0,0,0,0,0,0,0,0,0,0,0,0,0,0,0,0,0,0,0,0,0,0],"id":14,"left_children":[1,3,5,7,9,11,13,15,17,-1,-1,-1,19,-1,21,-1,-1,23,25,27,-1,-1,29,31,-1,-1,-1,-1,-1,33,35,-1,-1,-1,-1,-1,-1],"loss_changes":[2.557665E1,4.706297E0,5.7375774E0,6.3741684E-1,4.4538832E-1,1.2759748E0,2.6138725E0,1.224516E0,7.206135E-1,0E0,0E0,0E0,2.100456E0,0E0,2.2252789E0,0E0,0E0,5.8118534E-1,8.6650246E-1,7.3923635E-1,0E0,0E0,1.7169018E0,1.4075279E-1,0E0,0E0,0E0,0E0,0E0,3.8063526E0,1.3652134E0,0E0,0E0,0E0,0E0,0E0,0E0],"parents":[2147483647,0,0,1,1,2,2,3,3,4,4,5,5,6,6,7,7,8,8,12,12,14,14,17,17,18,18,19,19,22,22,23,23,29,29,30,30],"right_children":[2,4,6,8,10,12,14,16,18,-1,-1,-1,20,-1,22,-1,-1,24,26,28,-1,-1,30,32,-1,-1,-1,-1,-1,34,36,-1,-1,-1,-1,-1,-1],"split_conditions":[4.5275103E-2,1.7973932E0,-2.6083115E-1,-1.1085702E0,2.557997E0,-2.6589364E-1,-1.1732428E0,-4.3382883E-1,1.8093339E0,2.6666665E-1,2.7254893E-2,-1.5098216E-1,-6.0843474E-1,-1.1700604E-1,-1.0136223E0,-1.23753384E-1,1.5977542E-1,1.7358372E0,-5.1790094E-1,-1.1976032E-1,-1.3083829E-1,-1.1054926E-1,3.5337326E-1,-1.3322325E0,2.4734184E-2,-1.19553685E-1,1.1443039E-1,2.681125E-1,5.658728E-3,2.0460123E-1,-1.651769E-1,-7.38725E-2,-1.707626E-1,2.4912275E-1,-2.9475247E-2,1.6475601E-1,2.8753576E-1],"split_indices":[2,5,26,29,5,1,16,2,29,0,0,0,26,0,27,0,0,20,26,1,0,0,2,7,0,0,0,0,0,2,8,0,0,0,0,0,0],"split_type":[0,0,0,0,0,0,0,0,0,0,0,0,0,0,0,0,0,0,0,0,0,0,0,0,0,0,0,0,0,0,0,0,0,0,0,0,0],"sum_hessian":[1.3002773E2,5.443888E1,7.5588844E1,5.1328716E1,3.1101644E0,1.073427E1,6.4854576E1,3.762258E0,4.756646E1,1.8510609E0,1.2591035E0,4.670875E0,6.063395E0,1.8764634E0,6.297811E1,2.5036168E0,1.2586411E0,4.379545E1,3.7710118E0,3.3761733E0,2.687222E0,1.4907359E0,6.1487373E1,4.253355E1,1.2618973E0,2.1692936E0,1.6017182E0,1.8480723E0,1.528101E0,1.6276602E1,4.5210773E1,3.6466768E0,3.8886875E1,7.7915106E0,8.48509E0,2.0984007E1,2.4226767E1],"tree_param":{"num_deleted":"0","num_feature":"30","num_nodes":"37","size_leaf_vector":"1"}},{"base_weights":[7.381147E-2,3.8423938E-1,-2.9191828E-1,4.6928737E-1,-1.17762856E-1,1.8137896E-1,-3.3282104E-1,5.226012E-1,-1.6786875E-2,-1.4581099E-1,2.2867508E-1,-3.9412454E-1,3.7324116E-1,2.9031235E-1,6.4823973E-1,1.8952169E-1,-3.3490524E-1,-1.1325358E-1,5.3752065E-1,-4.386022E-1,3.2920343E-1,1.8114741E-1,-2.178766E-2,5.901248E-1,2.0823509E-2,1.5083238E-1,7.400177E-1,2.4533879E-2,-1.3841353E-1,2.2527699E-1,5.395285E-3,-4.697626E-1,-4.6266098E-2,1.0631242E-2,1.4523564E-1,2.4316825E-1,-4.7247212E-2,-4.9184907E-2,1.5043257E-1,1.6116521E-1,-7.3970184E-2,2.3148826E-1,5.456367E-2,-1.6702874E-2,-1.5215372E-1,-1.2881742E-1,1.980521E-1],"categories":[],"categories_nodes":[],"categories_segments":[],"categories_sizes":[],"default_left":[0,0,0,0,0,0,0,0,0,0,0,0,0,0,0,0,0,0,0,0,0,0,0,0,0,0,0,0,0,0,0,0,0,0,0,0,0,0,0,0,0,0,0,0,0,0,0],"id":15,"left_children":[1,3,5,7,9,-1,11,13,15,-1,17,19,21,23,25,-1,27,-1,29,31,33,-1,-1,35,37,39,41,-1,-1,-1,-1,43,45,-1,-1,-1,-1,-1,-1,-1,-1,-1,-1,-1,-1,-1,-1],"loss_changes":[1.3610737E1,2.8193693E0,2.2237182E0,1.4486599E0,1.4097925E0,0E0,2.458146E0,1.2740126E0,1.5444878E0,0E0,1.3121732E0,1.7405496E0,5.3518355E-1,1.5549799E0,1.335721E0,0E0,3.0060256E-1,0E0,4.6741593E-1,5.5491257E-1,1.3963404E-1,0E0,0E0,1.6348841E0,1.0814581E0,1.0836408E0,3.2736015E-1,0E0,0E0,0E0,0E0,6.471033E-1,1.5230247E0,0E0,0E0,0E0,0E0,0E0,0E0,0E0,0E0,0E0,0E0,0E0,0E0,0E0,0E0],"parents":[2147483647,0,0,1,1,2,2,3,3,4,4,6,6,7,7,8,8,10,10,11,11,12,12,13,13,14,14,16,16,18,18,19,19,20,20,23,23,24,24,25,25,26,26,31,31,32,32],"right_children":[2,4,6,8,10,-1,12,14,16,-1,18,20,22,24,26,-1,28,-1,30,32,34,-1,-1,36,38,40,42,-1,-1,-1,-1,44,46,-1,-1,-1,-1,-1,-1,-1,-1,-1,-1,-1,-1,-1,-1],"split_conditions":[-2.046007E-1,-9.495277E-2,-1.2059653E0,1.1357808E0,-3.2959315E-1,1.8137896E-1,2.0073357E0,-4.1308236E-1,-1.4789406E0,-1.4581099E-1,-4.2560536E-2,1.8216465E0,-3.5223498E-3,-1.4577997E-1,-8.528112E-1,1.8952169E-1,-1.4088818E0,-1.1325358E-1,2.2572492E-1,1.5593388E0,-1.344531E-1,1.8114741E-1,-2.178766E-2,7.970427E-1,5.295936E-1,-8.0089647E-1,1.2734479E0,2.4533879E-2,-1.3841353E-1,2.2527699E-1,5.395285E-3,-1.2071017E0,-5.025868E-1,1.0631242E-2,1.4523564E-1,2.4316825E-1,-4.7247212E-2,-4.9184907E-2,1.5043257E-1,1.6116521E-1,-7.3970184E-2,2.3148826E-1,5.456367E-2,-1.6702874E-2,-1.5215372E-1,-1.2881742E-1,1.980521E-1],"split_indices":[2,26,26,5,28,0,3,16,2,0,9,12,10,29,23,0,7,0,12,23,8,0,0,9,1,18,17,0,0,0,0,17,21,0,0,0,0,0,0,0,0,0,0,0,0,0,0],"split_type":[0,0,0,0,0,0,0,0,0,0,0,0,0,0,0,0,0,0,0,0,0,0,0,0,0,0,0,0,0,0,0,0,0,0,0,0,0,0,0,0,0,0,0,0,0,0,0],"sum_hessian":[1.1789586E2,6.374181E1,5.415405E1,5.456304E1,9.178769E0,1.7616024E0,5.2392445E1,4.9102238E1,5.460803E0,4.253848E0,4.9249206E0,4.861341E1,3.7790358E0,1.8397821E1,3.0704416E1,1.4726838E0,3.9881191E0,1.5872369E0,3.3376837E0,4.6168148E1,2.4452624E0,2.2573547E0,1.521681E0,8.145725E0,1.0252096E1,5.194629E0,2.5509787E1,1.0109098E0,2.9772093E0,2.050186E0,1.2874979E0,4.2588326E1,3.5798235E0,1.2685207E0,1.1767417E0,6.2258306E0,1.9198945E0,7.8810954E0,2.3710003E0,2.4554276E0,2.7392018E0,2.3780495E1,1.7292923E0,3.7355185E0,3.8852806E1,2.5753193E0,1.0045042E0],"tree_param":{"num_deleted":"0","num_feature":"30","num_nodes":"47","size_leaf_vector":"1"}},{"base_weights":[3.5942156E-2,1.2567092E-1,-4.1744512E-1,2.2005856E-1,-2.7762568E-1,1.1321911E-1,-4.8874012E-1,4.0700427E-1,5.1797107E-2,-4.7526482E-1,-5.1932586E-3,4.615858E-2,-1.613258E-1,4.5429686E-1,-1.1549545E-1,-1.8630806E-1,2.2761567E-1,1.2279901E-2,-1.6015206E-1,2.1893476E-1,-2.577303E-1,5.2556324E-1,-1.0956966E-1,5.658961E-2,-1.5628137E-1,-2.3297136E-1,4.441317E-1,-1.4850605E-1,1.2078674E-1,1.6942042E-1,-9.538447E-2,1.3931732E-1,-1.2661654E-1,-1.1254733E-1,1.210025E-1,1.0900098E-1,-1.5477711E-1,2.824687E-1,2.4266547E-2],"categories":[],"categories_nodes":[],"categories_segments":[],"categories_sizes":[],"default_left":[0,0,0,0,0,0,0,0,0,0,0,0,0,0,0,0,0,0,0,0,0,0,0,0,0,0,0,0,0,0,0,0,0,0,0,0,0,0,0],"id":16,"left_children":[1,3,5,7,9,-1,11,13,15,17,19,-1,-1,21,-1,23,25,-1,-1,-1,27,29,31,33,-1,35,37,-1,-1,-1,-1,-1,-1,-1,-1,-1,-1,-1,-1],"loss_changes":[4.8549104E0,3.8416204E0,1.3027606E0,2.5279975E0,1.0354971E0,0E0,6.668463E-1,1.6072354E0,1.8758363E0,3.593316E-1,1.8801289E0,0E0,0E0,1.5261459E0,0E0,1.5862154E0,2.6607106E0,0E0,0E0,0E0,1.3782647E0,1.2572765E0,1.0798776E0,1.947731E0,0E0,1.6816579E0,3.137795E0,0E0,0E0,0E0,0E0,0E0,0E0,0E0,0E0,0E0,0E0,0E0,0E0],"parents":[2147483647,0,0,1,1,2,2,3,3,4,4,6,6,7,7,8,8,9,9,10,10,13,13,15,15,16,16,20,20,21,21,22,22,23,23,25,25,26,26],"right_children":[2,4,6,8,10,-1,12,14,16,18,20,-1,-1,22,-1,24,26,-1,-1,-1,28,30,32,34,-1,36,38,-1,-1,-1,-1,-1,-1,-1,-1,-1,-1,-1,-1],"split_conditions":[3.7413174E-1,7.5912535E-1,-1.4258742E0,-4.8911998E-1,6.818321E-1,1.1321911E-1,-5.096214E-1,4.0112028E-1,-3.659643E-1,-1.0897857E0,-2.8254336E-1,4.615858E-2,-1.613258E-1,1.9863227E-1,-1.1549545E-1,6.4452285E-1,-4.8126587E-1,1.2279901E-2,-1.6015206E-1,2.1893476E-1,3.608182E-1,1.3754832E0,-9.487572E-1,-8.370016E-1,-1.5628137E-1,-7.736296E-1,-3.2453325E-1,-1.4850605E-1,1.2078674E-1,1.6942042E-1,-9.538447E-2,1.3931732E-1,-1.2661654E-1,-1.1254733E-1,1.210025E-1,1.0900098E-1,-1.5477711E-1,2.824687E-1,2.4266547E-2],"split_indices":[14,26,13,16,7,0,1,28,21,16,8,0,0,2,0,22,14,0,0,0,8,3,17,23,0,14,14,0,0,0,0,0,0,0,0,0,0,0,0],"split_type":[0,0,0,0,0,0,0,0,0,0,0,0,0,0,0,0,0,0,0,0,0,0,0,0,0,0,0,0,0,0,0,0,0,0,0,0,0,0,0],"sum_hessian":[1.1704886E2,9.831449E1,1.8734364E1,8.003697E1,1.8277521E1,1.1886847E0,1.754568E1,3.7241352E1,4.2795624E1,1.0161341E1,8.116181E0,1.091805E0,1.6453873E1,3.55452E1,1.6961501E0,1.815256E1,2.4643063E1,1.0662409E0,9.095099E0,1.5922741E0,6.523907E0,3.1617086E1,3.9281151E0,1.09993515E1,7.153208E0,7.855765E0,1.6787298E1,4.9835124E0,1.5403948E0,3.052982E1,1.0872656E0,1.2133542E0,2.714761E0,4.862742E0,6.1366096E0,2.436619E0,5.4191456E0,6.413059E0,1.0374238E1],"tree_param":{"num_deleted":"0","num_feature":"30","num_nodes":"39","size_leaf_vector":"1"}},{"base_weights":[-2.9536882E-1,-1.9496927E-1,-4.4662842E-1,-2.8634852E-1,1.598306E-1,2.431992E-2,-4.910975E-1,-3.526873E-1,-2.3200374E-2,3.81709E-1,-1.2798941E-1,-1.1571177E-1,1.833224E-1,-5.179213E-1,4.159544E-2,-5.003904E-1,-1.4124347E-1,3.8941255E-1,-3.4451503E-1,-1.0374286E-1,7.46651E-1,-1.6334319E-1,-1.6094494E-1,6.009953E-2,-1.6354264E-1,-4.1243717E-1,2.0708105E-1,-2.0731624E-2,1.9659239E-1,-1.4148025E-1,5.026373E-2,-1.3279888E-1,1.3711149E-1,3.570594E-2,2.6575226E-1,4.766653E-2,-1.07734114E-1,-1.5171632E-1,5.595143E-2,3.1365556E-1,-5.4304533E-2],"categories":[],"categories_nodes":[],"categories_segments":[],"categories_sizes":[],"default_left":[0,0,0,0,0,0,0,0,0,0,0,0,0,0,0,0,0,0,0,0,0,0,0,0,0,0,0,0,0,0,0,0,0,0,0,0,0,0,0,0,0],"id":17,"left_children":[1,3,5,7,9,11,13,15,17,19,-1,-1,-1,21,-1,23,25,27,29,31,33,-1,35,-1,-1,37,39,-1,-1,-1,-1,-1,-1,-1,-1,-1,-1,-1,-1,-1,-1],"loss_changes":[1.3219976E0,1.9114008E0,7.7094793E-1,7.968693E-1,1.7798762E0,1.2172085E0,6.3199854E-1,1.0774021E0,1.5070746E0,1.7682321E0,0E0,0E0,0E0,2.1590137E-1,0E0,7.755585E-1,1.6451528E0,6.552477E-1,4.924029E-1,1.1475996E0,3.8116574E-1,0E0,2.8755206E-1,0E0,0E0,6.316892E-1,2.7578185E0,0E0,0E0,0E0,0E0,0E0,0E0,0E0,0E0,0E0,0E0,0E0,0E0,0E0,0E0],"parents":[2147483647,0,0,1,1,2,2,3,3,4,4,5,5,6,6,7,7,8,8,9,9,13,13,15,15,16,16,17,17,18,18,19,19,20,20,22,22,25,25,26,26],"right_children":[2,4,6,8,10,12,14,16,18,20,-1,-1,-1,22,-1,24,26,28,30,32,34,-1,36,-1,-1,38,40,-1,-1,-1,-1,-1,-1,-1,-1,-1,-1,-1,-1,-1,-1],"split_conditions":[-9.3479024E-4,8.2984877E-1,-1.3042486E0,7.415149E-2,2.7109718E-1,-6.501128E-1,1.6716564E0,1.3225451E-1,-5.3791076E-1,2.8414935E-2,-1.2798941E-1,-1.1571177E-1,1.833224E-1,1.2378764E0,4.159544E-2,-2.7338545E0,-8.359766E-2,-2.0337927E-1,3.4206507E-1,-1.650259E-1,-6.5827185E-1,-1.6334319E-1,9.7893375E-1,6.009953E-2,-1.6354264E-1,2.0495398E0,-5.7672364E-1,-2.0731624E-2,1.9659239E-1,-1.4148025E-1,5.026373E-2,-1.3279888E-1,1.3711149E-1,3.570594E-2,2.6575226E-1,4.766653E-2,-1.07734114E-1,-1.5171632E-1,5.595143E-2,3.1365556E-1,-5.4304533E-2],"split_indices":[16,8,13,19,19,24,0,26,17,25,0,0,0,1,0,1,17,3,28,11,14,0,23,0,0,27,19,0,0,0,0,0,0,0,0,0,0,0,0,0,0],"split_type":[0,0,0,0,0,0,0,0,0,0,0,0,0,0,0,0,0,0,0,0,0,0,0,0,0,0,0,0,0,0,0,0,0,0,0,0,0,0,0,0,0],"sum_hessian":[9.178543E1,5.6543365E1,3.524206E1,4.5116478E1,1.1426888E1,3.0797014E0,3.216236E1,3.576099E1,9.35549E0,8.543664E0,2.883225E0,2.014564E0,1.0651374E0,3.101871E1,1.1436509E0,2.0249357E1,1.5511632E1,4.0030622E0,5.352427E0,3.9736183E0,4.5700455E0,2.8382082E1,2.6366282E0,1.0068942E0,1.9242462E1,8.617937E0,6.8936944E0,1.7409753E0,2.262087E0,4.3514714E0,1.0009557E0,2.6080308E0,1.3655875E0,1.1662605E0,3.4037848E0,1.0845084E0,1.5521197E0,7.591258E0,1.0266789E0,1.645282E0,5.2484126E0],"tree_param":{"num_deleted":"0","num_feature":"30","num_nodes":"41","size_leaf_vector":"1"}},{"base_weights":[1.069196E-2,-2.70487E-1,1.01367675E-1,4.4135186E-1,-3.465177E-1,3.2683122E-1,2.6283597E-3,1.6245207E-1,3.75382E-2,-8.975612E-2,-1.601702E-1,8.585059E-1,1.793436E-1,5.667205E-1,-4.705469E-2,-3.2523075E-1,6.0347646E-1,6.848866E-2,3.0629548E-1,7.7453755E-2,2.5726306E-1,2.721562E-1,-9.9013455E-2,3.8221654E-1,-1.13233335E-1,1.6895756E-1,-1.5134868E-1,2.6519848E-2,2.4597977E-1,-2.8906155E-1,2.5095838E-1,-1.1741789E-1,6.774386E-1,1.8294802E-2,-4.5687696E-1,-1.5310054E-1,1.2833102E-1,1.9429295E-1,7.2744433E-3,2.8935865E-1,-1.0024523E-2,-1.6285191E-1,4.3037023E-2,5.8269266E-2,-1.6924636E-1],"categories":[],"categories_nodes":[],"categories_segments":[],"categories_sizes":[],"default_left":[0,0,0,0,0,0,0,0,0,0,0,0,0,0,0,0,0,0,0,0,0,0,0,0,0,0,0,0,0,0,0,0,0,0,0,0,0,0,0,0,0,0,0,0,0],"id":18,"left_children":[1,3,5,7,9,11,13,-1,-1,15,-1,17,19,21,23,25,27,-1,-1,29,-1,-1,-1,31,33,-1,-1,-1,-1,35,37,-1,39,41,43,-1,-1,-1,-1,-1,-1,-1,-1,-1,-1],"loss_changes":[3.0384486E0,1.7262726E0,2.0033383E0,3.5021663E-2,1.2427139E0,1.9954486E0,1.8095753E0,0E0,0E0,2.2399437E0,0E0,3.493886E-1,1.50372E0,1.8950753E0,1.7304779E0,1.8759617E0,3.2047486E-1,0E0,0E0,1.3986697E0,0E0,0E0,0E0,2.1291203E0,2.3690438E0,0E0,0E0,0E0,0E0,1.3547649E0,1.305296E0,0E0,1.3124983E0,2.7982244E0,1.1220782E0,0E0,0E0,0E0,0E0,0E0,0E0,0E0,0E0,0E0,0E0],"parents":[2147483647,0,0,1,1,2,2,3,3,4,4,5,5,6,6,9,9,11,11,12,12,13,13,14,14,15,15,16,16,19,19,23,23,24,24,29,29,30,30,32,32,33,33,34,34],"right_children":[2,4,6,8,10,12,14,-1,-1,16,-1,18,20,22,24,26,28,-1,-1,30,-1,-1,-1,32,34,-1,-1,-1,-1,36,38,-1,40,42,44,-1,-1,-1,-1,-1,-1,-1,-1,-1,-1],"split_conditions":[-4.6126452E-1,-9.7616524E-1,-5.86502E-1,-1.0474249E-1,-4.2560536E-2,-1.1732428E0,-1.2790551E0,1.6245207E-1,3.75382E-2,-1.8805903E-1,-1.601702E-1,-2.5863118E0,3.0053372E0,-2.9502887E-1,-9.755271E-1,-1.3062407E0,-5.385224E-1,6.848866E-2,3.0629548E-1,-6.9786376E-1,2.5726306E-1,2.721562E-1,-9.9013455E-2,-2.1941443E-1,-8.7571844E-2,1.6895756E-1,-1.5134868E-1,2.6519848E-2,2.4597977E-1,2.3564292E-2,-1.664933E-2,-1.1741789E-1,1.309542E0,-6.304815E-1,-8.694763E-1,-1.5310054E-1,1.2833102E-1,1.9429295E-1,7.2744433E-3,2.8935865E-1,-1.0024523E-2,-1.6285191E-1,4.3037023E-2,5.8269266E-2,-1.6924636E-1],"split_indices":[2,21,13,5,9,16,17,0,0,24,0,1,5,27,8,15,3,0,0,26,0,0,0,20,21,0,0,0,0,1,1,0,13,8,18,0,0,0,0,0,0,0,0,0,0],"split_type":[0,0,0,0,0,0,0,0,0,0,0,0,0,0,0,0,0,0,0,0,0,0,0,0,0,0,0,0,0,0,0,0,0,0,0,0,0,0,0,0,0,0,0,0,0],"sum_hessian":[1.1709765E2,2.8070381E1,8.902727E1,2.245156E0,2.5825224E1,2.6410625E1,6.2616646E1,1.1640607E0,1.0810953E0,1.1519548E1,1.4305676E1,4.688455E0,2.172217E1,4.226219E0,5.8390427E1,8.9950075E0,2.524541E0,1.4539738E0,3.234481E0,1.985365E1,1.8685219E0,3.0548067E0,1.1714126E0,7.1614943E0,5.122893E1,1.1506749E0,7.844332E0,1.1637311E0,1.3608099E0,6.1648517E0,1.3688797E1,1.8880994E0,5.2733946E0,3.77334E1,1.3495535E1,4.930852E0,1.2340002E0,4.302982E0,9.385815E0,3.502138E0,1.771257E0,6.2729554E0,3.1460442E1,1.7943575E0,1.1701178E1],"tree_param":{"num_deleted":"0","num_feature":"30","num_nodes":"45","size_leaf_vector":"1"}},{"base_weights":[1.0479114E-1,-3.5689265E-1,3.95952E-1,-4.3410733E-1,5.584058E-1,-1.4591284E-1,4.7918376E-1,-3.754085E-2,-4.6695572E-1,2.2148062E-1,2.3454215E-2,1.2606175E-1,-1.425029E-1,-1.0960201E-1,5.06251E-1,-1.2447027E-1,1.9547214E-1,-5.056219E-1,-4.3818936E-2,-1.2493625E-1,5.018394E-1,-1.0407828E-1,5.2973443E-1,-5.2734566E-1,2.175689E-2,1.048658E-1,-1.1677098E-1,2.2047262E-1,-7.33794E-4,5.78715E-1,9.78734E-2,-6.7837104E-2,-1.6532853E-1,1.3692369E-1,2.4707533E-1,-9.084195E-2,1.4578974E-1],"categories":[],"categories_nodes":[],"categories_segments":[],"categories_sizes":[],"default_left":[0,0,0,0,0,0,0,0,0,0,0,0,0,0,0,0,0,0,0,0,0,0,0,0,0,0,0,0,0,0,0,0,0,0,0,0,0],"id":19,"left_children":[1,3,5,7,9,11,13,15,17,-1,-1,19,-1,-1,21,-1,-1,23,25,-1,27,-1,29,31,-1,-1,-1,-1,-1,33,35,-1,-1,-1,-1,-1,-1],"loss_changes":[1.6977087E1,3.7028866E0,3.555276E0,5.780058E-1,3.0908132E-1,1.0494968E0,1.721612E0,1.4625309E0,6.671753E-1,0E0,0E0,1.6042179E0,0E0,0E0,1.4972134E0,0E0,0E0,5.2190876E-1,7.641635E-1,0E0,5.30318E-1,0E0,1.30126E0,1.4176655E-1,0E0,0E0,0E0,0E0,0E0,1.3446903E0,1.3511503E0,0E0,0E0,0E0,0E0,0E0,0E0],"parents":[2147483647,0,0,1,1,2,2,3,3,4,4,5,5,6,6,7,7,8,8,11,11,14,14,17,17,18,18,20,20,22,22,23,23,29,29,30,30],"right_children":[2,4,6,8,10,12,14,16,18,-1,-1,20,-1,-1,22,-1,-1,24,26,-1,28,-1,30,32,-1,-1,-1,-1,-1,34,36,-1,-1,-1,-1,-1,-1],"split_conditions":[4.5275103E-2,1.7973932E0,-2.6083115E-1,-1.1085702E0,2.557997E0,-6.0843474E-1,-1.1732428E0,1.7332206E-2,1.8093339E0,2.2148062E-1,2.3454215E-2,-2.6589364E-1,-1.425029E-1,-1.0960201E-1,-1.0136223E0,-1.2447027E-1,1.9547214E-1,1.7358372E0,-7.3941106E-1,-1.2493625E-1,6.800499E-1,-1.0407828E-1,1.3706492E0,-1.3322325E0,2.175689E-2,1.048658E-1,-1.1677098E-1,2.2047262E-1,-7.33794E-4,3.346257E-2,8.481708E-1,-6.7837104E-2,-1.6532853E-1,1.3692369E-1,2.4707533E-1,-9.084195E-2,1.4578974E-1],"split_indices":[2,5,26,29,5,26,16,18,29,0,0,1,0,0,27,0,0,20,18,0,4,0,23,7,0,0,0,0,0,24,3,0,0,0,0,0,0],"split_type":[0,0,0,0,0,0,0,0,0,0,0,0,0,0,0,0,0,0,0,0,0,0,0,0,0,0,0,0,0,0,0,0,0,0,0,0,0],"sum_hessian":[1.2424358E2,4.7963596E1,7.627999E1,4.4716988E1,3.246611E0,1.0056426E1,6.6223564E1,3.5845733E0,4.1132412E1,1.971041E0,1.2755703E0,5.843853E0,4.212573E0,1.6684611E0,6.45551E1,2.5733342E0,1.0112392E0,3.750983E1,3.6225827E0,2.3470848E0,3.4967682E0,1.3603096E0,6.3194794E1,3.6236126E1,1.2737044E0,1.6881256E0,1.934457E0,2.0787091E0,1.4180591E0,5.6452087E1,6.742703E0,3.4170978E0,3.2819027E1,3.9558205E1,1.6893887E1,3.4256752E0,3.3170278E0],"tree_param":{"num_deleted":"0","num_feature":"30","num_nodes":"37","size_leaf_vector":"1"}},{"base_weights":[6.2427554E-2,2.865717E-1,-3.228469E-1,-1.0749251E-1,4.0699613E-1,1.472524E-1,-3.7437275E-1,1.730911E-1,-4.0056166E-1,4.5702103E-1,-4.2234533E-2,-4.1456252E-1,1.2245151E-1,3.830344E-1,-1.1753658E-1,-1.4905812E-1,4.8980583E-2,5.208953E-1,1.020666E-1,1.6092284E-1,-3.2374796E-1,-4.5046768E-1,1.02105625E-1,2.092034E-1,-4.7485102E-2,7.6323956E-2,5.7080495E-1,-1.298197E-1,3.7918404E-1,5.567835E-3,-1.3174799E-1,-4.9258268E-1,8.469366E-3,-1.1451979E-1,1.2131163E-1,-1.1599876E-1,1.0125793E-1,3.5406284E-2,1.9130099E-1,-1.0086302E-1,1.8878035E-1,3.362328E-2,-1.5555479E-1,-1.1728042E-1,1.710906E-1],"categories":[],"categories_nodes":[],"categories_segments":[],"categories_sizes":[],"default_left":[0,0,0,0,0,0,0,0,0,0,0,0,0,0,0,0,0,0,0,0,0,0,0,0,0,0,0,0,0,0,0,0,0,0,0,0,0,0,0,0,0,0,0,0,0],"id":20,"left_children":[1,3,5,7,9,-1,11,13,15,17,19,21,-1,23,-1,-1,-1,25,27,-1,29,31,-1,-1,33,35,37,-1,39,-1,-1,41,43,-1,-1,-1,-1,-1,-1,-1,-1,-1,-1,-1,-1],"loss_changes":[9.671643E0,3.3967438E0,1.9139738E0,1.494332E0,1.2401781E0,0E0,1.4076619E0,1.2828093E0,5.5772305E-1,1.0570612E0,1.2095039E0,1.1819787E0,0E0,1.0438104E0,0E0,0E0,0E0,8.7184715E-1,1.455173E0,0E0,2.0178646E-1,7.127013E-1,0E0,0E0,7.718022E-1,7.7369213E-1,1.0430527E0,0E0,1.3335444E0,0E0,0E0,5.8488846E-1,1.1349745E0,0E0,0E0,0E0,0E0,0E0,0E0,0E0,0E0,0E0,0E0,0E0,0E0],"parents":[2147483647,0,0,1,1,2,2,3,3,4,4,6,6,7,7,8,8,9,9,10,10,11,11,13,13,17,17,18,18,20,20,21,21,24,24,25,25,26,26,28,28,31,31,32,32],"right_children":[2,4,6,8,10,-1,12,14,16,18,20,22,-1,24,-1,-1,-1,26,28,-1,30,32,-1,-1,34,36,38,-1,40,-1,-1,42,44,-1,-1,-1,-1,-1,-1,-1,-1,-1,-1,-1,-1],"split_conditions":[-5.6069255E-2,-7.2520643E-1,-1.2059653E0,-5.6044316E-1,1.1357808E0,1.472524E-1,1.4438343E0,1.3162772E-1,6.251382E-1,-9.495277E-2,-1.4789406E0,2.1957827E0,1.2245151E-1,-3.385445E-2,-1.1753658E-1,-1.4905812E-1,4.8980583E-2,-9.216599E-1,-3.443851E-1,1.6092284E-1,-1.0443119E0,1.5593388E0,1.02105625E-1,2.092034E-1,1.5171578E0,-3.9999887E-1,-1.048292E0,-1.298197E-1,1.259425E-1,5.567835E-3,-1.3174799E-1,-1.3001748E0,-5.365366E-1,-1.1451979E-1,1.2131163E-1,-1.1599876E-1,1.0125793E-1,3.5406284E-2,1.9130099E-1,-1.0086302E-1,1.8878035E-1,3.362328E-2,-1.5555479E-1,-1.1728042E-1,1.710906E-1],"split_indices":[2,16,26,26,5,0,21,27,8,26,2,13,0,19,0,0,0,27,28,0,3,23,0,0,13,16,5,0,26,0,0,0,21,0,0,0,0,0,0,0,0,0,0,0,0],"split_type":[0,0,0,0,0,0,0,0,0,0,0,0,0,0,0,0,0,0,0,0,0,0,0,0,0,0,0,0,0,0,0,0,0,0,0,0,0,0,0,0,0,0,0,0,0],"sum_hessian":[1.099247E2,6.965636E1,4.026834E1,1.6329338E1,5.332702E1,1.8903368E0,3.8378002E1,8.55152E0,7.7778177E0,4.79681E1,5.3589168E0,3.6950542E1,1.4274613E0,6.4691234E0,2.0823972E0,6.7446504E0,1.0331672E0,4.025643E1,7.71167E0,1.4575367E0,3.90138E0,3.5657875E1,1.2926681E0,3.3809857E0,3.0881379E0,4.3185015E0,3.593793E1,2.4404278E0,5.271242E0,1.1953144E0,2.7060657E0,3.2593567E1,3.0643077E0,1.8642832E0,1.2238545E0,1.3843668E0,2.9341345E0,4.980044E0,3.0957886E1,1.2761823E0,3.9950597E0,1.2038066E0,3.138976E1,1.9688449E0,1.0954628E0],"tree_param":{"num_deleted":"0","num_feature":"30","num_nodes":"45","size_leaf_vector":"1"}},{"base_weights":[3.063835E-2,1.059049E-1,-3.9441946E-1,1.8134403E-1,-2.4525455E-1,9.8300256E-2,-4.6667108E-1,3.705721E-1,6.932643E-2,-4.5107266E-1,1.6553544E-2,3.7995365E-2,-1.5617907E-1,4.4459885E-1,-1.2368075E-1,2.9392365E-1,-5.3886652E-2,1.2492314E-2,-1.5361443E-1,-2.4993484E-1,1.9087608E-1,4.9934772E-1,-4.0422186E-2,1.10344216E-1,-1.2601702E-1,5.9448147E-1,-3.625604E-2,-4.1320375E-1,1.6676885E-1,7.080386E-2,-1.4220741E-1,-3.4152094E-2,1.6450833E-1,2.1645108E-1,-3.7661216E-3,6.380411E-2,-1.3475217E-1,-1.6041535E-1,8.66153E-3,1.1006717E-1,-2.832227E-2],"categories":[],"categories_nodes":[],"categories_segments":[],"categories_sizes":[],"default_left":[0,0,0,0,0,0,0,0,0,0,0,0,0,0,0,0,0,0,0,0,0,0,0,0,0,0,0,0,0,0,0,0,0,0,0,0,0,0,0,0,0],"id":21,"left_children":[1,3,5,7,9,-1,11,13,15,17,19,-1,-1,21,23,25,27,-1,-1,29,-1,31,-1,-1,-1,33,35,37,39,-1,-1,-1,-1,-1,-1,-1,-1,-1,-1,-1,-1],"loss_changes":[3.6490943E0,2.6030135E0,1.0489137E0,1.6716809E0,9.506841E-1,0E0,5.786407E-1,1.1360207E0,1.441854E0,3.1681347E-1,1.5906193E0,0E0,0E0,8.892584E-1,8.291137E-1,1.848501E0,2.7741709E0,0E0,0E0,8.501879E-1,0E0,7.804222E-1,0E0,0E0,0E0,7.5658226E-1,1.0941477E0,7.2822857E-1,1.1767552E0,0E0,0E0,0E0,0E0,0E0,0E0,0E0,0E0,0E0,0E0,0E0,0E0],"parents":[2147483647,0,0,1,1,2,2,3,3,4,4,6,6,7,7,8,8,9,9,10,10,13,13,14,14,15,15,16,16,19,19,21,21,25,25,26,26,27,27,28,28],"right_children":[2,4,6,8,10,-1,12,14,16,18,20,-1,-1,22,24,26,28,-1,-1,30,-1,32,-1,-1,-1,34,36,38,40,-1,-1,-1,-1,-1,-1,-1,-1,-1,-1,-1,-1],"split_conditions":[3.7413174E-1,7.5912535E-1,-1.4258742E0,-7.541077E-1,6.818321E-1,9.8300256E-2,-5.096214E-1,2.0568188E-1,-5.516411E-1,-1.0897857E0,2.2033344E-1,3.7995365E-2,-1.5617907E-1,6.251382E-1,-6.2269354E-1,-4.379619E-1,-4.3648845E-1,1.2492314E-2,-1.5361443E-1,1.097226E0,1.9087608E-1,-1.0492029E0,-4.0422186E-2,1.10344216E-1,-1.2601702E-1,2.6143385E-2,3.7039697E-2,5.7786405E-1,-3.7728125E-1,7.080386E-2,-1.4220741E-1,-3.4152094E-2,1.6450833E-1,2.1645108E-1,-3.7661216E-3,6.380411E-2,-1.3475217E-1,-1.6041535E-1,8.66153E-3,1.1006717E-1,-2.832227E-2],"split_indices":[14,26,13,16,7,0,1,28,13,16,13,0,0,8,14,17,17,0,0,26,0,18,0,0,0,11,29,27,14,0,0,0,0,0,0,0,0,0,0,0,0],"split_type":[0,0,0,0,0,0,0,0,0,0,0,0,0,0,0,0,0,0,0,0,0,0,0,0,0,0,0,0,0,0,0,0,0,0,0,0,0,0,0,0,0],"sum_hessian":[1.1175481E2,9.558081E1,1.6173998E1,7.907649E1,1.6504316E1,1.1496123E0,1.5024386E1,2.854615E1,5.0530342E1,8.835474E0,7.668843E0,1.1394037E0,1.3884982E1,2.4914972E1,3.6311789E0,1.7409746E1,3.3120598E1,1.0079318E0,7.827542E0,5.7799754E0,1.8888674E0,2.2889898E1,2.0250726E0,1.2752802E0,2.3558986E0,8.694652E0,8.715095E0,1.2269016E1,2.085158E1,1.8073847E0,3.9725907E0,1.5963172E0,2.1293581E1,7.03418E0,1.6604712E0,5.7397165E0,2.9753783E0,9.459348E0,2.8096685E0,1.157652E1,9.275061E0],"tree_param":{"num_deleted":"0","num_feature":"30","num_nodes":"41","size_leaf_vector":"1"}},{"base_weights":[-2.6673073E-1,-1.6976738E-1,-4.2042705E-1,-2.5641456E-1,1.4616683E-1,3.9203644E-2,-4.685551E-1,1.5477669E-1,-2.9652983E-1,3.4187096E-1,-1.2198428E-1,-1.0819984E-1,1.6221067E-1,-1.5929139E-1,-8.993045E-2,1.5228997E-1,-1.01242594E-1,-3.8173187E-1,-1.34727815E-2,5.255664E-1,-1.0765642E-1,1.5107752E-1,-1.24638736E-1,-2.016433E-1,-1.578514E-1,3.4638095E-1,-3.2078424E-1,-9.480093E-3,6.431214E-1,-9.573937E-2,2.098992E-1,-1.7564053E-2,1.703817E-1,-1.3499898E-1,4.272379E-2,-6.684999E-3,2.4129383E-1],"categories":[],"categories_nodes":[],"categories_segments":[],"categories_sizes":[],"default_left":[0,0,0,0,0,0,0,0,0,0,0,0,0,0,0,0,0,0,0,0,0,0,0,0,0,0,0,0,0,0,0,0,0,0,0,0,0],"id":22,"left_children":[1,3,5,7,9,11,13,15,17,19,-1,-1,-1,-1,21,-1,-1,23,25,27,-1,-1,-1,29,-1,31,33,-1,35,-1,-1,-1,-1,-1,-1,-1,-1],"loss_changes":[1.1613312E0,1.4718071E0,7.1119976E-1,7.3014116E-1,1.4278891E0,9.753822E-1,6.2407875E-1,9.258841E-1,9.1462326E-1,1.3911264E0,0E0,0E0,0E0,0E0,1.2191542E0,0E0,0E0,6.5546036E-1,1.2015333E0,5.316987E-1,0E0,0E0,0E0,1.7748218E0,0E0,4.838612E-1,4.1346937E-1,0E0,7.144618E-1,0E0,0E0,0E0,0E0,0E0,0E0,0E0,0E0],"parents":[2147483647,0,0,1,1,2,2,3,3,4,4,5,5,6,6,7,7,8,8,9,9,14,14,17,17,18,18,19,19,23,23,25,25,26,26,28,28],"right_children":[2,4,6,8,10,12,14,16,18,20,-1,-1,-1,-1,22,-1,-1,24,26,28,-1,-1,-1,30,-1,32,34,-1,36,-1,-1,-1,-1,-1,-1,-1,-1],"split_conditions":[-9.3479024E-4,8.2984877E-1,-1.3042486E0,-1.2437736E0,2.7109718E-1,-8.0039185E-1,1.1809009E0,-1.4994168E-1,7.415149E-2,1.7606784E-2,-1.2198428E-1,-1.0819984E-1,1.6221067E-1,-1.5929139E-1,1.0295786E0,1.5228997E-1,-1.01242594E-1,-4.7691575E-1,-5.3791076E-1,-1.0303068E0,-1.0765642E-1,1.5107752E-1,-1.24638736E-1,-5.5053395E-1,-1.578514E-1,-2.0337927E-1,3.4206507E-1,-9.480093E-3,-7.825983E-1,-9.573937E-2,2.098992E-1,-1.7564053E-2,1.703817E-1,-1.3499898E-1,4.272379E-2,-6.684999E-3,2.4129383E-1],"split_indices":[16,8,13,16,19,26,20,21,19,26,0,0,0,0,3,0,0,18,17,16,0,0,0,6,0,3,28,0,28,0,0,0,0,0,0,0,0],"split_type":[0,0,0,0,0,0,0,0,0,0,0,0,0,0,0,0,0,0,0,0,0,0,0,0,0,0,0,0,0,0,0,0,0,0,0,0,0],"sum_hessian":[8.171579E1,5.139591E1,3.0319885E1,4.0481865E1,1.0914042E1,2.8914535E0,2.7428432E1,3.3442442E0,3.713762E1,8.342164E0,2.5718784E0,1.7649746E0,1.1264789E0,2.320133E1,4.2271023E0,1.9297283E0,1.414516E0,2.8277348E1,8.860273E0,6.807535E0,1.5346289E0,1.303511E0,2.9235914E0,1.3651971E1,1.4625376E1,4.022683E0,4.83759E0,1.3134521E0,5.4940834E0,1.26490555E1,1.0029156E0,1.6828296E0,2.3398533E0,3.80473E0,1.0328604E0,1.2394284E0,4.254655E0],"tree_param":{"num_deleted":"0","num_feature":"30","num_nodes":"37","size_leaf_vector":"1"}},{"base_weights":[1.7323012E-2,-2.3935977E-1,9.276004E-2,3.9191595E-1,-3.1824756E-1,1.2567091E-1,-1.4030752E-1,1.4511085E-1,3.1651307E-2,-6.997834E-2,-1.5453506E-1,1.7982806E-1,-2.111908E-1,-2.9581934E-1,5.055677E-1,1.2526305E-1,6.2011725E-1,1.6751812E-1,-3.4875396E-1,1.4445424E-1,-1.4531842E-1,1.4616252E-2,2.1077436E-1,-2.9216627E-2,3.1360832E-1,8.69074E-1,5.2746005E-2,-1.4855567E-1,-2.837521E-3,7.6030366E-2,-7.207245E-2,1.2425306E-1,-3.834353E-2,3.0305052E-1,4.2648964E-2,1.23686425E-1,-1.0759278E-1,-1.09841056E-1,1.2479221E-1],"categories":[],"categories_nodes":[],"categories_segments":[],"categories_sizes":[],"default_left":[0,0,0,0,0,0,0,0,0,0,0,0,0,0,0,0,0,0,0,0,0,0,0,0,0,0,0,0,0,0,0,0,0,0,0,0,0,0,0],"id":23,"left_children":[1,3,5,7,9,11,-1,-1,-1,13,-1,15,17,19,21,23,25,-1,27,-1,-1,-1,-1,29,31,33,35,-1,37,-1,-1,-1,-1,-1,-1,-1,-1,-1,-1],"loss_changes":[2.200284E0,1.4109988E0,1.6755805E0,3.617525E-2,1.1131148E0,1.5628054E0,0E0,0E0,0E0,1.6515658E0,0E0,1.6651914E0,1.4689758E0,1.5422409E0,2.9209423E-1,1.9236393E0,1.048307E0,0E0,5.4699385E-1,0E0,0E0,0E0,0E0,2.2716568E0,1.3729658E0,4.0194035E-1,6.547509E-1,0E0,7.9526705E-1,0E0,0E0,0E0,0E0,0E0,0E0,0E0,0E0,0E0,0E0],"parents":[2147483647,0,0,1,1,2,2,3,3,4,4,5,5,9,9,11,11,12,12,13,13,14,14,15,15,16,16,18,18,23,23,24,24,25,25,26,26,28,28],"right_children":[2,4,6,8,10,12,-1,-1,-1,14,-1,16,18,20,22,24,26,-1,28,-1,-1,-1,-1,30,32,34,36,-1,38,-1,-1,-1,-1,-1,-1,-1,-1,-1,-1],"split_conditions":[-4.6126452E-1,-9.7616524E-1,1.2123255E0,-2.3000938E-1,-4.2560536E-2,7.494561E-1,-1.4030752E-1,1.4511085E-1,3.1651307E-2,-1.8805903E-1,-1.5453506E-1,8.836184E-1,-1.0423084E0,-1.3062407E0,-6.3876545E-1,-2.4636723E-2,-2.4907155E-1,1.6751812E-1,8.7043947E-1,1.4445424E-1,-1.4531842E-1,1.4616252E-2,2.1077436E-1,-2.2029017E-1,1.40894E0,4.3343857E-2,-5.217897E-1,-1.4855567E-1,-1.2072245E0,7.6030366E-2,-7.207245E-2,1.2425306E-1,-3.834353E-2,3.0305052E-1,4.2648964E-2,1.23686425E-1,-1.0759278E-1,-1.09841056E-1,1.2479221E-1],"split_indices":[2,21,22,0,9,16,0,0,0,24,0,1,29,15,7,29,28,0,4,0,0,0,0,3,10,14,14,0,7,0,0,0,0,0,0,0,0,0,0],"split_type":[0,0,0,0,0,0,0,0,0,0,0,0,0,0,0,0,0,0,0,0,0,0,0,0,0,0,0,0,0,0,0,0,0,0,0,0,0,0,0],"sum_hessian":[1.114845E2,2.48288E1,8.665569E1,2.3172984E0,2.2511503E1,8.258208E1,4.073619E0,1.2332412E0,1.0840571E0,1.0555527E1,1.19559765E1,7.154584E1,1.1036236E1,7.9298987E0,2.6256275E0,6.479971E1,6.7461243E0,1.2096695E0,9.826567E0,1.2448847E0,6.6850142E0,1.1669438E0,1.4586837E0,3.6064613E1,2.8735104E1,4.319164E0,2.4269605E0,6.6008224E0,3.2257438E0,1.5330134E1,2.0734478E1,2.3453436E1,5.281667E0,3.2907515E0,1.0284123E0,1.2939223E0,1.133038E0,1.7946987E0,1.431045E0],"tree_param":{"num_deleted":"0","num_feature":"30","num_nodes":"39","size_leaf_vector":"1"}},{"base_weights":[8.2343794E-2,-3.2896537E-1,3.1528413E-1,-4.0800253E-1,4.860107E-1,-1.4483373E-1,3.8279566E-1,-4.2775178E-1,4.996008E-2,9.963677E-3,1.9021462E-1,9.962687E-2,-1.3674065E-1,2.3184967E-1,5.163189E-1,-2.3249004E-2,-4.6535876E-1,-1.1742267E-1,4.0649524E-1,3.4188432E-1,-2.8948206E-1,6.5530175E-1,1.6118927E-1,-1.1714517E-1,1.635363E-1,-4.8709238E-1,1.9674895E-2,1.9079879E-1,-3.584491E-3,1.7523448E-1,5.896978E-1,-1.6957512E-1,4.255585E-2,1.21423095E-1,7.351453E-1,-2.6414475E-1,4.9028677E-1,-7.334393E-2,-1.6095217E-1,-3.0885933E-2,1.404835E-1,-1.9493273E-2,2.2333835E-1,-7.9881944E-2,1.5987982E-1,-7.248207E-3,2.3547924E-1,1.1040423E-1,-1.7125979E-1,2.0313598E-1,2.4184365E-2],"categories":[],"categories_nodes":[],"categories_segments":[],"categories_sizes":[],"default_left":[0,0,0,0,0,0,0,0,0,0,0,0,0,0,0,0,0,0,0,0,0,0,0,0,0,0,0,0,0,0,0,0,0,0,0,0,0,0,0,0,0,0,0,0,0,0,0,0,0,0,0],"id":24,"left_children":[1,3,5,7,9,11,13,15,-1,-1,-1,17,-1,19,21,23,25,-1,27,29,31,33,35,-1,-1,37,-1,-1,-1,39,41,-1,-1,43,45,47,49,-1,-1,-1,-1,-1,-1,-1,-1,-1,-1,-1,-1,-1,-1],"loss_changes":[1.143068E1,2.9832025E0,2.4158645E0,5.246062E-1,2.6574552E-1,8.396856E-1,1.2213774E0,5.810652E-1,0E0,0E0,0E0,1.1642139E0,0E0,1.9946976E0,1.5968046E0,1.1233746E0,4.4212437E-1,0E0,4.4892067E-1,1.0425248E0,8.2966983E-1,9.535637E-1,1.6731842E0,0E0,0E0,2.7965355E-1,0E0,0E0,0E0,1.516617E0,1.13589E0,0E0,0E0,8.40784E-1,8.159752E-1,1.2688696E0,4.4809842E-1,0E0,0E0,0E0,0E0,0E0,0E0,0E0,0E0,0E0,0E0,0E0,0E0,0E0,0E0],"parents":[2147483647,0,0,1,1,2,2,3,3,4,4,5,5,6,6,7,7,11,11,13,13,14,14,15,15,16,16,18,18,19,19,20,20,21,21,22,22,25,25,29,29,30,30,33,33,34,34,35,35,36,36],"right_children":[2,4,6,8,10,12,14,16,-1,-1,-1,18,-1,20,22,24,26,-1,28,30,32,34,36,-1,-1,38,-1,-1,-1,40,42,-1,-1,44,46,48,50,-1,-1,-1,-1,-1,-1,-1,-1,-1,-1,-1,-1,-1,-1],"split_conditions":[4.5275103E-2,1.7973932E0,-2.6083115E-1,3.1292148E0,-1.1971831E0,-6.0843474E-1,-1.5322709E-1,-1.1085702E0,4.996008E-2,9.963677E-3,1.9021462E-1,-2.6589364E-1,-1.3674065E-1,-2.7526745E-1,6.0831684E-1,1.7332206E-2,1.7358372E0,-1.1742267E-1,-1.1976032E-1,-1.8320644E-1,-4.8533475E-1,-4.836196E-1,-1.8252687E-1,-1.1714517E-1,1.635363E-1,-9.064121E-1,1.9674895E-2,1.9079879E-1,-3.584491E-3,-1.3027175E-1,-7.0975345E-1,-1.6957512E-1,4.255585E-2,3.069898E-2,1.4807525E-1,-7.138516E-1,-1.3638127E-1,-7.334393E-2,-1.6095217E-1,-3.0885933E-2,1.404835E-1,-1.9493273E-2,2.2333835E-1,-7.9881944E-2,1.5987982E-1,-7.248207E-3,2.3547924E-1,1.1040423E-1,-1.7125979E-1,2.0313598E-1,2.4184365E-2],"split_indices":[2,5,26,29,26,26,8,29,0,0,0,1,0,8,0,18,20,0,1,19,4,19,14,0,0,12,0,0,0,21,10,0,0,28,2,21,18,0,0,0,0,0,0,0,0,0,0,0,0,0,0],"split_type":[0,0,0,0,0,0,0,0,0,0,0,0,0,0,0,0,0,0,0,0,0,0,0,0,0,0,0,0,0,0,0,0,0,0,0,0,0,0,0,0,0,0,0,0,0,0,0,0,0,0,0],"sum_hessian":[1.17222565E2,4.223494E1,7.498762E1,3.895629E1,3.2786503E0,9.448309E0,6.5539314E1,3.790869E1,1.0475996E0,1.1094782E0,2.1691718E0,5.670333E0,3.7779765E0,3.2047035E1,3.349228E1,3.3622587E0,3.4546432E1,2.0748172E0,3.5955155E0,2.6746092E1,5.300942E0,2.346415E1,1.0028129E1,2.2326658E0,1.1295929E0,3.3267258E1,1.2791767E0,1.9862324E0,1.6092832E0,1.7012579E1,9.733512E0,3.0442028E0,2.256739E0,3.3805642E0,2.0083586E1,4.460557E0,5.5675716E0,6.6356454E0,2.663161E1,9.060289E0,7.95229E0,1.9719548E0,7.7615576E0,1.9223721E0,1.4581921E0,1.2674665E0,1.8816118E1,1.391929E0,3.0686278E0,3.375379E0,2.1921926E0],"tree_param":{"num_deleted":"0","num_feature":"30","num_nodes":"51","size_leaf_vector":"1"}},{"base_weights":[4.9321454E-2,2.3592445E-1,-2.9342598E-1,3.2208338E-1,-1.506744E-1,1.2812448E-1,-3.462871E-1,6.8714924E-2,4.1613257E-1,-3.41321E-1,2.180583E-1,-3.8962653E-1,1.1204576E-1,-3.6520022E-1,2.60949E-1,4.8686826E-1,2.5586559E-2,-3.1226568E-2,-1.4234962E-1,1.8163227E-1,-1.1011122E-1,-4.2866263E-1,9.349239E-2,5.997828E-3,-1.4272158E-1,-1.1173767E-1,4.0625528E-1,1.3938287E-1,5.5509037E-1,-1.2756385E-1,2.9034224E-1,-1.1021731E-1,1.21151574E-1,-4.7523296E-1,5.6232188E-2,1.614678E-1,-4.6783336E-2,-6.279862E-2,1.5786192E-1,1.6863126E-2,1.8514568E-1,1.541862E-1,-3.502148E-2,3.0802181E-2,-1.5128694E-1,-1.0425167E-1,1.5037335E-1],"categories":[],"categories_nodes":[],"categories_segments":[],"categories_sizes":[],"default_left":[0,0,0,0,0,0,0,0,0,0,0,0,0,0,0,0,0,0,0,0,0,0,0,0,0,0,0,0,0,0,0,0,0,0,0,0,0,0,0,0,0,0,0,0,0,0,0],"id":25,"left_children":[1,3,5,7,9,-1,11,13,15,17,19,21,-1,23,25,27,29,31,-1,-1,-1,33,-1,-1,-1,-1,35,37,39,-1,41,-1,-1,43,45,-1,-1,-1,-1,-1,-1,-1,-1,-1,-1,-1,-1],"loss_changes":[6.607925E0,2.2718995E0,1.5374835E0,1.2797108E0,9.774922E-1,0E0,1.2230797E0,1.4349759E0,1.0882249E0,3.509922E-1,1.3528761E0,1.0388947E0,0E0,2.3720258E-1,1.2293715E0,7.210007E-1,9.786388E-1,6.941442E-1,0E0,0E0,0E0,7.436476E-1,0E0,0E0,0E0,0E0,8.263041E-1,1.035787E0,8.265171E-1,0E0,5.2499896E-1,0E0,0E0,5.3995514E-1,8.3467305E-1,0E0,0E0,0E0,0E0,0E0,0E0,0E0,0E0,0E0,0E0,0E0,0E0],"parents":[2147483647,0,0,1,1,2,2,3,3,4,4,6,6,7,7,8,8,9,9,10,10,11,11,13,13,14,14,15,15,16,16,17,17,21,21,26,26,27,27,28,28,30,30,33,33,34,34],"right_children":[2,4,6,8,10,-1,12,14,16,18,20,22,-1,24,26,28,30,32,-1,-1,-1,34,-1,-1,-1,-1,36,38,40,-1,42,-1,-1,44,46,-1,-1,-1,-1,-1,-1,-1,-1,-1,-1,-1,-1],"split_conditions":[-5.6069255E-2,-9.495277E-2,-1.2059653E0,-9.8848626E-2,1.058931E0,1.2812448E-1,1.4438343E0,-7.538342E-1,1.0353763E-1,-6.197219E-1,-3.5223498E-3,1.2894844E0,1.1204576E-1,-1.167407E0,-5.553423E-1,-5.948281E-1,-6.64243E-1,-4.591665E-1,-1.4234962E-1,1.8163227E-1,-1.1011122E-1,1.5593388E0,9.349239E-2,5.997828E-3,-1.4272158E-1,-1.1173767E-1,-3.2910573E-1,2.1492006E-1,-8.7520295E-1,-1.2756385E-1,-7.9196656E-1,-1.1021731E-1,1.21151574E-1,-1.3001748E0,-5.365366E-1,1.614678E-1,-4.6783336E-2,-6.279862E-2,1.5786192E-1,1.6863126E-2,1.8514568E-1,1.541862E-1,-3.502148E-2,3.0802181E-2,-1.5128694E-1,-1.0425167E-1,1.5037335E-1],"split_indices":[2,26,26,22,13,0,21,13,19,19,10,9,0,11,27,21,0,23,0,0,0,23,0,0,0,0,12,16,3,0,2,0,0,0,21,0,0,0,0,0,0,0,0,0,0,0,0],"split_type":[0,0,0,0,0,0,0,0,0,0,0,0,0,0,0,0,0,0,0,0,0,0,0,0,0,0,0,0,0,0,0,0,0,0,0,0,0,0,0,0,0,0,0,0,0,0,0],"sum_hessian":[1.0123473E2,6.5749954E1,3.548478E1,5.390366E1,1.1846298E1,1.941565E0,3.3543213E1,1.506072E1,3.8842937E1,7.857869E0,3.988429E0,3.2070827E1,1.4723877E0,4.3475533E0,1.0713166E1,3.2677715E1,6.1652236E0,2.7317243E0,5.126145E0,2.3787346E0,1.6096946E0,3.074797E1,1.3228545E0,1.1520694E0,3.195484E0,1.7073505E0,9.005816E0,5.862169E0,2.6815546E1,2.056894E0,4.10833E0,1.6287656E0,1.1029589E0,2.807182E1,2.6761518E0,7.3282304E0,1.6775858E0,3.324273E0,2.537896E0,3.1776805E0,2.3637867E1,2.4822686E0,1.626061E0,1.2225789E0,2.6849241E1,1.5180291E0,1.1581228E0],"tree_param":{"num_deleted":"0","num_feature":"30","num_nodes":"47","size_leaf_vector":"1"}},{"base_weights":[2.8081285E-2,8.879551E-2,-3.9667487E-1,1.4928444E-1,-2.1576226E-1,-3.6390296E-3,-1.4929198E-1,1.85675E-1,-3.291545E-1,-4.2966744E-1,3.3146527E-2,1.21692374E-1,-1.04607455E-1,-1.2675774E-1,2.097108E-1,4.7715593E-2,-1.3890761E-1,3.936068E-3,-1.4710185E-1,-2.2562724E-1,1.7699596E-1,6.2861645E-1,1.3775527E-1,-1.3611527E-1,1.6467766E-1,2.1656846E-1,-3.5544413E-3,-1.374601E-1,5.1085282E-2,1.5437293E-1,-8.36466E-2],"categories":[],"categories_nodes":[],"categories_segments":[],"categories_sizes":[],"default_left":[0,0,0,0,0,0,0,0,0,0,0,0,0,0,0,0,0,0,0,0,0,0,0,0,0,0,0,0,0,0,0],"id":26,"left_children":[1,3,5,7,9,11,-1,13,15,17,19,-1,-1,-1,21,-1,-1,-1,-1,23,-1,25,27,-1,29,-1,-1,-1,-1,-1,-1],"loss_changes":[2.7879944E0,1.7677937E0,5.3519726E-1,1.4398799E0,8.671838E-1,6.7430234E-1,0E0,1.1737852E0,4.6305496E-1,2.3981726E-1,1.333792E0,0E0,0E0,0E0,2.0860455E0,0E0,0E0,0E0,0E0,6.455586E-1,0E0,6.230192E-1,1.2953267E0,0E0,6.243438E-1,0E0,0E0,0E0,0E0,0E0,0E0],"parents":[2147483647,0,0,1,1,2,2,3,3,4,4,5,5,7,7,8,8,9,9,10,10,14,14,19,19,21,21,22,22,24,24],"right_children":[2,4,6,8,10,12,-1,14,16,18,20,-1,-1,-1,22,-1,-1,-1,-1,24,-1,26,28,-1,30,-1,-1,-1,-1,-1,-1],"split_conditions":[4.836024E-1,7.5912535E-1,-5.971652E-1,8.855994E-1,6.818321E-1,-2.2134313E-2,-1.4929198E-1,-2.7952223E0,-9.9835986E-1,-7.676812E-1,-5.46774E-1,1.21692374E-1,-1.04607455E-1,-1.2675774E-1,-9.4438386E-1,4.7715593E-2,-1.3890761E-1,3.936068E-3,-1.4710185E-1,-1.3022031E-2,1.7699596E-1,6.1676204E-1,-9.954177E-1,-1.3611527E-1,-3.8066664E-1,2.1656846E-1,-3.5544413E-3,-1.374601E-1,5.1085282E-2,1.5437293E-1,-8.36466E-2],"split_indices":[14,26,16,16,7,22,0,9,29,29,23,0,0,0,3,0,0,0,0,21,0,8,23,0,19,0,0,0,0,0,0],"split_type":[0,0,0,0,0,0,0,0,0,0,0,0,0,0,0,0,0,0,0,0,0,0,0,0,0,0,0,0,0,0,0],"sum_hessian":[1.0574315E2,9.3210655E1,1.253249E1,7.819083E1,1.5019831E1,2.7731674E0,9.759322E0,7.32326E1,4.9582305E0,7.6873417E0,7.332489E0,1.1882019E0,1.5849656E0,2.1538072E0,7.107879E1,1.0265309E0,3.9316998E0,1.0208528E0,6.6664886E0,5.4121647E0,1.9203246E0,9.285418E0,6.179337E1,3.3133857E0,2.098779E0,7.9940143E0,1.2914038E0,2.5209935E0,5.9272377E1,1.0836055E0,1.0151734E0],"tree_param":{"num_deleted":"0","num_feature":"30","num_nodes":"31","size_leaf_vector":"1"}},{"base_weights":[-2.3884973E-1,-1.4645435E-1,-3.945964E-1,-2.2557503E-1,1.2092349E-1,5.674389E-2,-4.467625E-1,-3.40389E-1,-6.38568E-2,2.8512174E-1,-1.1580126E-1,-1.0058334E-1,1.4712647E-1,-1.551182E-1,-6.884641E-2,-1.0375565E-1,-4.618342E-1,-1.7104842E-1,4.5048457E-1,4.4586226E-1,-1.04421206E-1,1.3495402E-1,-1.1889654E-1,-2.862309E-1,1.8073179E-1,-1.5391657E-1,3.0657958E-2,1.2618113E-1,-2.6592353E-1,1.8880124E-1,2.283345E-2,1.6898796E-1,2.1730416E-1,-1.4076883E-1,6.928809E-2,-1.2479567E-1,3.3407837E-2,-1.12319015E-1,1.5378591E-1],"categories":[],"categories_nodes":[],"categories_segments":[],"categories_sizes":[],"default_left":[0,0,0,0,0,0,0,0,0,0,0,0,0,0,0,0,0,0,0,0,0,0,0,0,0,0,0,0,0,0,0,0,0,0,0,0,0,0,0],"id":27,"left_children":[1,3,5,7,9,11,13,15,17,19,-1,-1,-1,-1,21,23,25,27,29,31,-1,-1,-1,33,-1,-1,-1,-1,35,-1,-1,37,-1,-1,-1,-1,-1,-1,-1],"loss_changes":[1.0077543E0,1.0441059E0,6.606045E-1,6.734122E-1,1.0778029E0,7.905212E-1,6.0992575E-1,5.746522E-1,1.0019271E0,1.1075497E0,0E0,0E0,0E0,0E0,1.0215555E0,1.2854483E0,4.5765758E-1,9.3178165E-1,1.6424382E-1,4.8680532E-1,0E0,0E0,0E0,8.2214594E-1,0E0,0E0,0E0,0E0,7.9370904E-1,0E0,0E0,1.1752609E0,0E0,0E0,0E0,0E0,0E0,0E0,0E0],"parents":[2147483647,0,0,1,1,2,2,3,3,4,4,5,5,6,6,7,7,8,8,9,9,14,14,15,15,16,16,17,17,18,18,19,19,23,23,28,28,31,31],"right_children":[2,4,6,8,10,12,14,16,18,20,-1,-1,-1,-1,22,24,26,28,30,32,-1,-1,-1,34,-1,-1,-1,-1,36,-1,-1,38,-1,-1,-1,-1,-1,-1,-1],"split_conditions":[-9.3479024E-4,8.2984877E-1,-1.3042486E0,-1.6480811E-1,2.7109718E-1,-6.501128E-1,1.1809009E0,-6.398393E-1,1.4048283E0,1.7606784E-2,-1.1580126E-1,-1.0058334E-1,1.4712647E-1,-1.551182E-1,1.0295786E0,-6.9207E-1,1.6794275E-1,-9.723715E-1,1.1370196E0,-1.09687425E-1,-1.04421206E-1,1.3495402E-1,-1.1889654E-1,9.4268596E-1,1.8073179E-1,-1.5391657E-1,3.0657958E-2,1.2618113E-1,1.1637471E0,1.8880124E-1,2.283345E-2,-9.332796E-2,2.1730416E-1,-1.4076883E-1,6.928809E-2,-1.2479567E-1,3.3407837E-2,-1.12319015E-1,1.5378591E-1],"split_indices":[16,8,13,27,19,24,20,29,13,26,0,0,0,0,3,29,19,14,20,11,0,0,0,15,0,0,0,0,7,0,0,19,0,0,0,0,0,0,0],"split_type":[0,0,0,0,0,0,0,0,0,0,0,0,0,0,0,0,0,0,0,0,0,0,0,0,0,0,0,0,0,0,0,0,0,0,0,0,0,0,0],"sum_hessian":[7.304617E1,4.7065376E1,2.5980795E1,3.643895E1,1.0626428E1,2.6826653E0,2.329813E1,2.0663671E1,1.5775275E1,8.357055E0,2.2693732E0,1.5281736E0,1.1544918E0,1.93336E1,3.964532E0,7.637163E0,1.3026509E1,1.3606953E1,2.1683228E0,6.9010286E0,1.4560261E0,1.389694E0,2.574838E0,6.5415606E0,1.0956022E0,1.2024866E1,1.0016427E0,1.405964E0,1.2200989E1,1.0064554E0,1.1618674E0,4.2662573E0,2.6347713E0,4.9003854E0,1.6411757E0,8.655667E0,3.5453217E0,1.618072E0,2.6481853E0],"tree_param":{"num_deleted":"0","num_feature":"30","num_nodes":"39","size_leaf_vector":"1"}},{"base_weights":[2.0794608E-2,-2.0962633E-1,8.244756E-2,-3.592886E-1,1.2946706E-1,1.10767215E-1,-1.3360067E-1,2.8965625E-1,-1.525142E-1,-1.1680178E-1,4.1571885E-1,1.3706502E-1,-1.3169526E-1,-1.122351E-2,1.6743787E-1,2.0595188E-1,4.1249286E-2,-9.292581E-2,1.8944657E-1,-9.114687E-2,1.1503894E-1,-3.2936344E-1,3.6708698E-1,3.6200067E-1,6.229101E-2,-1.6182075E-1,7.6026894E-2,2.376767E-1,-1.4892957E-2,1.52756525E-2,1.6214173E-1,-8.178073E-2,5.103298E-2],"categories":[],"categories_nodes":[],"categories_segments":[],"categories_sizes":[],"default_left":[0,0,0,0,0,0,0,0,0,0,0,0,0,0,0,0,0,0,0,0,0,0,0,0,0,0,0,0,0,0,0,0,0],"id":28,"left_children":[1,3,5,7,9,11,-1,13,-1,-1,15,17,-1,-1,-1,-1,19,21,23,-1,-1,25,27,29,31,-1,-1,-1,-1,-1,-1,-1,-1],"loss_changes":[1.5394279E0,1.2086595E0,1.3234911E0,1.7100399E0,1.3123891E0,1.2414281E0,0E0,3.4179077E-1,0E0,0E0,5.2697575E-1,9.6619415E-1,0E0,0E0,0E0,0E0,5.135245E-1,1.7825408E0,1.3918157E0,0E0,0E0,1.4364194E0,1.0420718E0,1.4793174E0,1.4300532E0,0E0,0E0,0E0,0E0,0E0,0E0,0E0,0E0],"parents":[2147483647,0,0,1,1,2,2,3,3,4,4,5,5,7,7,10,10,11,11,16,16,17,17,18,18,21,21,22,22,23,23,24,24],"right_children":[2,4,6,8,10,12,-1,14,-1,-1,16,18,-1,-1,-1,-1,20,22,24,-1,-1,26,28,30,32,-1,-1,-1,-1,-1,-1,-1,-1],"split_conditions":[-4.6126452E-1,7.1868384E-1,1.2123255E0,-1.2943313E0,-1.0193233E0,1.9385315E0,-1.3360067E-1,7.2530836E-2,-1.525142E-1,-1.1680178E-1,-2.4696097E-1,-8.916923E-1,-1.3169526E-1,-1.122351E-2,1.6743787E-1,2.0595188E-1,1.5680065E0,6.3989145E-1,-1.5628776E-1,-9.114687E-2,1.1503894E-1,1.0074079E0,-5.5776644E-1,-8.421647E-1,-4.3090686E-1,-1.6182075E-1,7.6026894E-2,2.376767E-1,-1.4892957E-2,1.52756525E-2,1.6214173E-1,-8.178073E-2,5.103298E-2],"split_indices":[2,6,22,15,26,2,0,1,0,0,14,0,0,0,0,0,6,2,17,0,0,20,19,5,14,0,0,0,0,0,0,0,0],"split_type":[0,0,0,0,0,0,0,0,0,0,0,0,0,0,0,0,0,0,0,0,0,0,0,0,0,0,0,0,0,0,0,0,0],"sum_hessian":[1.06147026E2,2.1899609E1,8.424741E1,1.5152391E1,6.747217E0,8.0706985E1,3.5404294E0,2.654685E0,1.2497706E1,2.2710357E0,4.4761815E0,7.773896E1,2.9680283E0,1.5847211E0,1.0699638E0,2.11413E0,2.3620517E0,1.4277395E1,6.3461563E1,1.2319728E0,1.1300788E0,9.617963E0,4.659433E0,2.6140783E1,3.7320778E1,7.1246476E0,2.493315E0,1.8603196E0,2.7991135E0,9.99846E0,1.6142323E1,8.716951E0,2.8603828E1],"tree_param":{"num_deleted":"0","num_feature":"30","num_nodes":"33","size_leaf_vector":"1"}},{"base_weights":[6.759067E-2,-3.265861E-1,2.4979746E-1,-4.1663933E-1,4.138526E-1,1.5124597E-1,5.233509E-1,-4.665424E-1,6.624058E-2,1.7347223E-1,9.518079E-3,-1.2621284E-1,2.2929181E-1,-9.891265E-2,6.320257E-1,-1.5767731E-1,-1.2885621E-1,-1.0031635E-1,1.4124802E-1,-3.4944883E-1,2.108109E-1,3.8725838E-1,-1.2263146E-2,-9.3751855E-4,6.968275E-1,7.997027E-2,-1.20964475E-1,4.5284823E-2,-1.4913364E-1,-1.9940118E-1,1.7550546E-1,-1.3420288E-1,5.212753E-1,4.433351E-1,-1.9623291E-1,2.2214337E-1,6.765197E-2,-1.048194E-1,2.5548989E-2,9.458781E-2,-1.6606775E-1,1.7914756E-1,-1.3601968E-1,-1.1101266E-1,2.3416688E-1,-1.15118876E-1,1.2236087E-1],"categories":[],"categories_nodes":[],"categories_segments":[],"categories_sizes":[],"default_left":[0,0,0,0,0,0,0,0,0,0,0,0,0,0,0,0,0,0,0,0,0,0,0,0,0,0,0,0,0,0,0,0,0,0,0,0,0,0,0,0,0,0,0,0,0,0,0],"id":29,"left_children":[1,3,5,7,9,11,13,15,17,-1,-1,19,21,-1,23,-1,25,-1,-1,27,29,31,33,-1,35,-1,-1,-1,-1,37,-1,39,41,43,45,-1,-1,-1,-1,-1,-1,-1,-1,-1,-1,-1,-1],"loss_changes":[7.9639044E0,2.5146677E0,1.9595284E0,7.9759264E-1,2.5243562E-1,1.2632376E0,2.0274415E0,5.097494E-1,7.8241426E-1,0E0,0E0,1.0636508E0,1.7157812E0,0E0,7.3263836E-1,0E0,7.188364E-1,0E0,0E0,6.87716E-1,1.0172176E0,1.9667759E0,1.6542809E0,0E0,1.6442871E-1,0E0,0E0,0E0,0E0,1.8104886E-1,0E0,1.3704927E0,1.8829246E0,1.8483142E0,1.7437809E0,0E0,0E0,0E0,0E0,0E0,0E0,0E0,0E0,0E0,0E0,0E0,0E0],"parents":[2147483647,0,0,1,1,2,2,3,3,4,4,5,5,6,6,7,7,8,8,11,11,12,12,14,14,16,16,19,19,20,20,21,21,22,22,24,24,29,29,31,31,32,32,33,33,34,34],"right_children":[2,4,6,8,10,12,14,16,18,-1,-1,20,22,-1,24,-1,26,-1,-1,28,30,32,34,-1,36,-1,-1,-1,-1,38,-1,40,42,44,46,-1,-1,-1,-1,-1,-1,-1,-1,-1,-1,-1,-1],"split_conditions":[-3.981806E-2,1.7973932E0,8.9016044E-1,1.8093339E0,2.557997E0,-1.24281E-1,-1.0179157E0,8.3319604E-1,-5.1790094E-1,1.7347223E-1,9.518079E-3,1.5301807E-1,-2.3871807E-2,-9.891265E-2,-1.0423084E0,-1.5767731E-1,5.753356E-1,-1.0031635E-1,1.4124802E-1,-7.0975345E-1,-6.0852385E-1,-1.6378382E0,-5.355704E-1,-9.3751855E-4,9.447833E-1,7.997027E-2,-1.20964475E-1,4.5284823E-2,-1.4913364E-1,2.6143385E-2,1.7550546E-1,-9.937842E-1,9.3272525E-1,-8.292875E-1,1.1299284E0,2.2214337E-1,6.765197E-2,-1.048194E-1,2.5548989E-2,9.458781E-2,-1.6606775E-1,1.7914756E-1,-1.3601968E-1,-1.1101266E-1,2.3416688E-1,-1.15118876E-1,1.2236087E-1],"split_indices":[2,5,16,29,5,26,8,18,26,0,0,9,12,0,29,0,4,0,0,10,7,12,16,0,9,0,0,0,0,11,0,5,3,16,26,0,0,0,0,0,0,0,0,0,0,0,0],"split_type":[0,0,0,0,0,0,0,0,0,0,0,0,0,0,0,0,0,0,0,0,0,0,0,0,0,0,0,0,0,0,0,0,0,0,0,0,0,0,0,0,0,0,0,0,0,0,0],"sum_hessian":[1.0874851E2,3.412717E1,7.4621346E1,3.0816526E1,3.3106432E0,5.599959E1,1.8621754E1,2.7960764E1,2.8557622E0,1.9559736E0,1.3546693E0,1.2158402E1,4.384119E1,1.8744075E0,1.6747347E1,2.3325554E1,4.6352105E0,1.5220789E0,1.3336833E0,7.2916985E0,4.8667035E0,2.6142157E1,1.7699036E1,1.6385883E0,1.5108758E1,1.9103237E0,2.7248867E0,1.6563705E0,5.6353283E0,2.5445087E0,2.322195E0,5.344655E0,2.07975E1,4.6855407E0,1.30134945E1,1.3305434E1,1.8033239E0,1.5170318E0,1.0274768E0,2.6993995E0,2.6452558E0,1.9654617E1,1.142884E0,1.3447282E0,3.3408124E0,1.0209533E1,2.8039618E0],"tree_param":{"num_deleted":"0","num_feature":"30","num_nodes":"47","size_leaf_vector":"1"}},{"base_weights":[4.1183736E-2,1.9954884E-1,-2.7482808E-1,2.7513164E-1,-1.3100426E-1,-3.663769E-1,2.5178885E-1,1.3011881E-2,3.471916E-1,1.0930451E-1,-2.580295E-1,1.0529701E-1,-4.2002553E-1,1.5759277E-1,-1.01387665E-1,1.869763E-1,-1.2693188E-1,3.8397717E-1,-3.8751774E-2,1.8070234E-1,-3.9564723E-1,-4.656514E-1,4.5378946E-2,-2.3319307E-1,3.4553158E-1,-3.538591E-2,4.238591E-1,6.971896E-2,-1.03342324E-1,-9.1237396E-2,1.8028645E-1,3.350501E-2,-1.4418106E-1,2.3887523E-2,-4.9373585E-1,1.1647671E-1,-8.9565605E-2,-9.478631E-2,-1.0710437E-2,-2.4923826E-2,1.382658E-1,-1.15134545E-1,9.241481E-2,1.4918372E-1,3.669887E-2,-1.5641928E-1,-4.6382165E-3],"categories":[],"categories_nodes":[],"categories_segments":[],"categories_sizes":[],"default_left":[0,0,0,0,0,0,0,0,0,0,0,0,0,0,0,0,0,0,0,0,0,0,0,0,0,0,0,0,0,0,0,0,0,0,0,0,0,0,0,0,0,0,0,0,0,0,0],"id":30,"left_children":[1,3,5,7,9,11,13,15,17,-1,19,-1,21,-1,-1,23,-1,25,27,29,31,33,35,37,39,41,43,-1,-1,-1,-1,-1,-1,-1,45,-1,-1,-1,-1,-1,-1,-1,-1,-1,-1,-1,-1],"loss_changes":[4.7547245E0,1.6135511E0,1.6240289E0,9.7224355E-1,8.760107E-1,1.2047901E0,1.0321558E0,1.0039394E0,5.9018564E-1,0E0,7.040617E-1,0E0,5.736041E-1,0E0,0E0,7.072984E-1,0E0,6.352954E-1,4.4766408E-1,8.323381E-1,4.109305E-1,4.0353203E-1,4.9730098E-1,4.0605143E-2,3.9590412E-1,6.1403024E-1,6.906357E-1,0E0,0E0,0E0,0E0,0E0,0E0,0E0,2.9301834E-1,0E0,0E0,0E0,0E0,0E0,0E0,0E0,0E0,0E0,0E0,0E0,0E0],"parents":[2147483647,0,0,1,1,2,2,3,3,4,4,5,5,6,6,7,7,8,8,10,10,12,12,15,15,17,17,18,18,19,19,20,20,21,21,22,22,23,23,24,24,25,25,26,26,34,34],"right_children":[2,4,6,8,10,12,14,16,18,-1,20,-1,22,-1,-1,24,-1,26,28,30,32,34,36,38,40,42,44,-1,-1,-1,-1,-1,-1,-1,46,-1,-1,-1,-1,-1,-1,-1,-1,-1,-1,-1,-1],"split_conditions":[-9.495277E-2,-5.6069255E-2,1.9726732E0,-8.562304E-1,-1.2059653E0,-1.2120132E0,-3.5223498E-3,-6.3137615E-1,1.1301421E0,1.0930451E-1,-5.921455E-1,1.0529701E-1,1.7929882E0,1.5759277E-1,-1.01387665E-1,-4.1418666E-1,-1.2693188E-1,-1.3249043E0,-7.982662E-1,3.0887854E-1,-1.0618935E0,-9.723715E-1,1.8592843E0,-3.5223498E-3,-1.7617093E0,-6.7636555E-1,-3.262375E-1,6.971896E-2,-1.03342324E-1,-9.1237396E-2,1.8028645E-1,3.350501E-2,-1.4418106E-1,2.3887523E-2,1.2913822E0,1.1647671E-1,-8.9565605E-2,-9.478631E-2,-1.0710437E-2,-2.4923826E-2,1.382658E-1,-1.15134545E-1,9.241481E-2,1.4918372E-1,3.669887E-2,-1.5641928E-1,-4.6382165E-3],"split_indices":[26,2,13,23,26,17,10,2,5,0,14,0,24,0,0,19,0,8,2,2,29,14,24,10,23,13,26,0,0,0,0,0,0,0,11,0,0,0,0,0,0,0,0,0,0,0,0],"split_type":[0,0,0,0,0,0,0,0,0,0,0,0,0,0,0,0,0,0,0,0,0,0,0,0,0,0,0,0,0,0,0,0,0,0,0,0,0,0,0,0,0,0,0,0,0,0,0],"sum_hessian":[9.291269E1,6.2140396E1,3.0772291E1,5.071239E1,1.1428003E1,2.6474209E1,4.2980824E0,1.1189804E1,3.9522587E1,1.9511002E0,9.476904E0,1.4564729E0,2.5017736E1,3.0109103E0,1.2871717E0,8.407416E0,2.7823873E0,3.608801E1,3.4345767E0,2.1880915E0,7.2888117E0,2.2783617E1,2.2341194E0,2.1744409E0,6.2329755E0,3.1437573E0,3.2944252E1,1.9473228E0,1.4872539E0,1.1442959E0,1.0437956E0,1.0003651E0,6.288447E0,1.0260994E0,2.1757517E1,1.054237E0,1.1798823E0,1.1096089E0,1.0648321E0,1.3811103E0,4.8518653E0,1.5022893E0,1.6414679E0,2.5971273E1,6.9729786E0,2.0482708E1,1.2748089E0],"tree_param":{"num_deleted":"0","num_feature":"30","num_nodes":"47","size_leaf_vector":"1"}},{"base_weights":[2.5265722E-2,8.04574E-2,-3.5367218E-1,1.3286996E-1,-1.9494997E-1,8.052415E-2,-4.2737502E-1,1.7204589E-1,-1.7985925E-1,-4.130906E-1,4.1795116E-2,-1.4822604E-1,3.7961494E-2,2.0012894E-1,-1.2566653E-1,1.3097392E-1,-1.3826837E-1,-3.3817813E-3,-1.418083E-1,-2.1297775E-1,5.077382E-1,3.0979463E-1,4.937095E-2,-1.0610814E-1,4.3715233E-1,-1.311664E-1,6.685974E-2,4.1422132E-2,1.9203117E-1,-3.2963444E-2,1.1110802E-1,-1.5687365E-2,1.3483614E-1,-1.5766382E-2,2.0783247E-1],"categories":[],"categories_nodes":[],"categories_segments":[],"categories_sizes":[],"default_left":[0,0,0,0,0,0,0,0,0,0,0,0,0,0,0,0,0,0,0,0,0,0,0,0,0,0,0,0,0,0,0,0,0,0,0],"id":31,"left_children":[1,3,5,7,9,-1,11,13,15,17,19,-1,-1,21,-1,23,-1,-1,-1,25,27,29,31,-1,33,-1,-1,-1,-1,-1,-1,-1,-1,-1,-1],"loss_changes":[2.153663E0,1.3179853E0,7.1552014E-1,9.5954275E-1,7.772861E-1,0E0,5.0970554E-1,1.21012E0,8.4016573E-1,1.8031013E-1,1.0537162E0,0E0,0E0,1.0670507E0,0E0,8.9917314E-1,0E0,0E0,0E0,6.696002E-1,6.385726E-2,9.9915123E-1,1.1931677E0,0E0,4.773093E-1,0E0,0E0,0E0,0E0,0E0,0E0,0E0,0E0,0E0,0E0],"parents":[2147483647,0,0,1,1,2,2,3,3,4,4,6,6,7,7,8,8,9,9,10,10,13,13,15,15,19,19,20,20,21,21,22,22,24,24],"right_children":[2,4,6,8,10,-1,12,14,16,18,20,-1,-1,22,-1,24,-1,-1,-1,26,28,30,32,-1,34,-1,-1,-1,-1,-1,-1,-1,-1,-1,-1],"split_conditions":[3.7413174E-1,7.5912535E-1,-1.4258742E0,4.6341565E-1,6.818321E-1,8.052415E-2,1.6657854E0,1.2886534E0,-2.2533825E-1,-7.676812E-1,2.2033344E-1,-1.4822604E-1,3.7961494E-2,3.0535588E-1,-1.2566653E-1,-8.06575E-1,-1.3826837E-1,-3.3817813E-3,-1.418083E-1,-3.3152E-1,-6.7469585E-1,-8.851307E-1,8.197724E-2,-1.0610814E-1,-2.595945E-1,-1.311664E-1,6.685974E-2,4.1422132E-2,1.9203117E-1,-3.2963444E-2,1.1110802E-1,-1.5687365E-2,1.3483614E-1,-1.5766382E-2,2.0783247E-1],"split_indices":[14,26,13,2,7,0,27,5,26,29,13,0,0,1,0,20,0,0,0,4,17,28,19,0,14,0,0,0,0,0,0,0,0,0,0],"split_type":[0,0,0,0,0,0,0,0,0,0,0,0,0,0,0,0,0,0,0,0,0,0,0,0,0,0,0,0,0,0,0,0,0,0,0],"sum_hessian":[1.00615456E2,8.8511566E1,1.2103886E1,7.4794945E1,1.3716619E1,1.0022868E0,1.1101599E1,6.686816E1,7.92679E0,6.7511387E0,6.9654794E0,1.0004671E1,1.0969275E0,6.446587E1,2.4022863E0,4.0173945E0,3.909396E0,1.0256767E0,5.725462E0,4.854176E0,2.1113033E0,3.6708294E1,2.7757578E1,1.4952645E0,2.5221303E0,3.2030373E0,1.6511388E0,1.0953599E0,1.0159434E0,4.5267954E0,3.2181496E1,2.282658E1,4.930999E0,1.1374584E0,1.3846717E0],"tree_param":{"num_deleted":"0","num_feature":"30","num_nodes":"35","size_leaf_vector":"1"}},{"base_weights":[-2.127319E-1,-1.2493832E-1,-3.7028053E-1,-3.1893387E-1,-2.8654642E-2,5.0263494E-2,-4.2436677E-1,-1.4829014E-1,5.248379E-3,3.8364884E-1,-9.5742546E-2,-9.480821E-2,1.2710488E-1,-1.5130167E-1,-4.339774E-2,2.7479658E-1,-1.086348E-1,-7.287591E-2,2.3593144E-1,-2.1859047E-1,2.3540637E-1,1.2509635E-1,-1.12769976E-1,1.8367718E-1,-3.879136E-2,-8.196586E-2,4.8999425E-2,-3.8674673E-1,1.0330032E-1,2.0738362E-1,-3.1923834E-2,2.2448612E-2,-1.4918746E-1,1.213327E-1,-7.731881E-2,1.0910289E-1,-1.2589687E-1],"categories":[],"categories_nodes":[],"categories_segments":[],"categories_sizes":[],"default_left":[0,0,0,0,0,0,0,0,0,0,0,0,0,0,0,0,0,0,0,0,0,0,0,0,0,0,0,0,0,0,0,0,0,0,0,0,0],"id":32,"left_children":[1,3,5,7,9,11,13,-1,15,17,19,-1,-1,-1,21,23,-1,25,-1,27,29,-1,-1,-1,-1,-1,-1,31,33,-1,35,-1,-1,-1,-1,-1,-1],"loss_changes":[8.720324E-1,8.153787E-1,5.501201E-1,8.293749E-1,8.8312715E-1,6.1854947E-1,6.089194E-1,0E0,7.030316E-1,8.814605E-1,1.1546209E0,0E0,0E0,0E0,8.74129E-1,6.3609195E-1,0E0,1.8735102E-1,0E0,1.1386507E0,9.749871E-1,0E0,0E0,0E0,0E0,0E0,0E0,7.2828126E-1,9.4730306E-1,0E0,1.0552607E0,0E0,0E0,0E0,0E0,0E0,0E0],"parents":[2147483647,0,0,1,1,2,2,3,3,4,4,5,5,6,6,8,8,9,9,10,10,14,14,15,15,17,17,19,19,20,20,27,27,28,28,30,30],"right_children":[2,4,6,8,10,12,14,-1,16,18,20,-1,-1,-1,22,24,-1,26,-1,28,30,-1,-1,-1,-1,-1,-1,32,34,-1,36,-1,-1,-1,-1,-1,-1],"split_conditions":[-9.3479024E-4,-5.620994E-1,-1.3042486E0,2.1432671E-1,-6.74882E-1,-6.501128E-1,1.1809009E0,-1.4829014E-1,1.6808715E-1,-4.5448744E-1,8.2984877E-1,-9.480821E-2,1.2710488E-1,-1.5130167E-1,1.0295786E0,-1.4230414E-1,-1.086348E-1,-9.0958E-1,2.3593144E-1,7.415149E-2,-7.0975345E-1,1.2509635E-1,-1.12769976E-1,1.8367718E-1,-3.879136E-2,-8.196586E-2,4.8999425E-2,-5.7672364E-1,-3.1404153E-1,2.0738362E-1,-1.12733044E-1,2.2448612E-2,-1.4918746E-1,1.213327E-1,-7.731881E-2,1.0910289E-1,-1.2589687E-1],"split_indices":[16,13,13,22,5,24,20,0,0,0,8,0,0,0,3,28,0,11,0,19,10,0,0,0,0,0,0,19,14,0,18,0,0,0,0,0,0],"split_type":[0,0,0,0,0,0,0,0,0,0,0,0,0,0,0,0,0,0,0,0,0,0,0,0,0,0,0,0,0,0,0,0,0,0,0,0,0],"sum_hessian":[6.539031E1,4.3142357E1,2.2247955E1,1.354301E1,2.9599348E1,2.5433078E0,1.9704647E1,8.448194E0,5.0948167E0,3.4819093E0,2.6117437E1,1.361496E0,1.1818117E0,1.6018293E1,3.686354E0,3.083974E0,2.0108426E0,2.0160139E0,1.4658954E0,1.9298195E1,6.8192425E0,1.43934E0,2.2470138E0,1.3998581E0,1.6841159E0,1.0060339E0,1.0099801E0,1.2543807E1,6.754389E0,1.9345077E0,4.8847346E0,2.4861357E0,1.0057671E1,3.6170714E0,3.1373174E0,2.4485464E0,2.4361885E0],"tree_param":{"num_deleted":"0","num_feature":"30","num_nodes":"37","size_leaf_vector":"1"}},{"base_weights":[2.1529607E-2,-2.1206832E-1,7.203977E-2,3.3046484E-1,-3.3346462E-1,1.4172942E-2,4.373567E-1,1.6725866E-1,-1.3060848E-2,4.1862294E-2,-1.5605876E-1,2.576083E-1,-6.89314E-2,6.6130495E-1,-8.8999055E-2,3.1547827E-1,-1.11383885E-1,-2.884961E-1,4.1064608E-1,-1.1378055E-1,4.9850905E-1,2.5312766E-1,1.7548632E-2,1.1864089E-1,-1.1636626E-1,-8.699972E-2,1.9222514E-1,3.6672074E-2,-1.3041861E-1,