{"learner":{"attributes":{"scikit_learn":"{\"_estimator_type\": \"classifier\"}"},"feature_names":[],"feature_types":[],"gradient_booster":{"model":{"gbtree_model_param":{"num_parallel_tree":"1","num_trees":"500"},"iteration_indptr":[0,5,10,15,20,25,30,35,40,45,50,55,60,65,70,75,80,85,90,95,100,105,110,115,120,125,130,135,140,145,150,155,160,165,170,175,180,185,190,195,200,205,210,215,220,225,230,235,240,245,250,255,260,265,270,275,280,285,290,295,300,305,310,315,320,325,330,335,340,345,350,355,360,365,370,375,380,385,390,395,400,405,410,415,420,425,430,435,440,445,450,455,460,465,470,475,480,485,490,495,500],"tree_info":[0,1,2,3,4,0,1,2,3,4,0,1,2,3,4,0,1,2,3,4,0,1,2,3,4,0,1,2,3,4,0,1,2,3,4,0,1,2,3,4,0,1,2,3,4,0,1,2,3,4,0,1,2,3,4,0,1,2,3,4,0,1,2,3,4,0,1,2,3,4,0,1,2,3,4,0,1,2,3,4,0,1,2,3,4,0,1,2,3,4,0,1,2,3,4,0,1,2,3,4,0,1,2,3,4,0,1,2,3,4,0,1,2,3,4,0,1,2,3,4,0,1,2,3,4,0,1,2,3,4,0,1,2,3,4,0,1,2,3,4,0,1,2,3,4,0,1,2,3,4,0,1,2,3,4,0,1,2,3,4,0,1,2,3,4,0,1,2,3,4,0,1,2,3,4,0,1,2,3,4,0,1,2,3,4,0,1,2,3,4,0,1,2,3,4,0,1,2,3,4,0,1,2,3,4,0,1,2,3,4,0,1,2,3,4,0,1,2,3,4,0,1,2,3,4,0,1,2,3,4,0,1,2,3,4,0,1,2,3,4,0,1,2,3,4,0,1,2,3,4,0,1,2,3,4,0,1,2,3,4,0,1,2,3,4,0,1,2,3,4,0,1,2,3,4,0,1,2,3,4,0,1,2,3,4,0,1,2,3,4,0,1,2,3,4,0,1,2,3,4,0,1,2,3,4,0,1,2,3,4,0,1,2,3,4,0,1,2,3,4,0,1,2,3,4,0,1,2,3,4,0,1,2,3,4,0,1,2,3,4,0,1,2,3,4,0,1,2,3,4,0,1,2,3,4,0,1,2,3,4,0,1,2,3,4,0,1,2,3,4,0,1,2,3,4,0,1,2,3,4,0,1,2,3,4,0,1,2,3,4,0,1,2,3,4,0,1,2,3,4,0,1,2,3,4,0,1,2,3,4,0,1,2,3,4,0,1,2,3,4,0,1,2,3,4,0,1,2,3,4,0,1,2,3,4,0,1,2,3,4,0,1,2,3,4,0,1,2,3,4,0,1,2,3,4,0,1,2,3,4,0,1,2,3,4,0,1,2,3,4,0,1,2,3,4,0,1,2,3,4,0,1,2,3,4,0,1,2,3,4,0,1,2,3,4,0,1,2,3,4],"trees":[{"base_weights":[2.0685332E-1,1.2266858E0,-2.091807E-1,5.218855E-1,1.6470587E0,-4.2145592E-1,4.3083897E-1,3.9041096E-1,2.4096385E-1,1.8037134E0,8.219178E-2,-1.2702078E-1,-5.518394E-1,1.0599078E0,-1.6064256E-1,-3.4482756E-1,8.5271317E-1,1.9565216E0,2.6315792E-2,-4.040404E-1,4.037267E-1,-5.7803464E-1,2.6315792E-2,1.4379084E0,1.12359546E-1,1.7241378E-1,-1.511628E-1,2.6315792E-2,-1.460177E-1,3.7078652E-1,-0E0,2.0607028E0,1.5789473E-1,1.15384616E-1,-1.692607E-1,2.8651685E-1,-2.0618556E-1,-1.8187276E-1,2.6315792E-2,5.3305787E-1,2.6315792E-2,1.5789473E-1,-1.05263166E-1,2.8767124E-1,-1.3917525E-1,6.565836E-1,1.5789473E-1,2.6315792E-2,-1.15384616E-1],"categories":[],"categories_nodes":[],"categories_segments":[],"categories_sizes":[],"default_left":[0,0,0,0,0,0,0,0,0,0,0,0,0,0,0,0,0,0,0,0,0,0,0,0,0,0,0,0,0,0,0,0,0,0,0,0,0,0,0,0,0,0,0,0,0,0,0,0,0],"id":0,"left_children":[1,3,5,7,9,11,13,-1,15,17,-1,19,21,23,25,27,29,31,-1,33,35,37,-1,39,41,43,-1,-1,-1,-1,-1,45,-1,-1,-1,-1,47,-1,-1,-1,-1,-1,-1,-1,-1,-1,-1,-1,-1],"loss_changes":[4.086916E1,7.4006805E0,9.534204E0,2.287829E0,3.1625443E0,1.9338369E0,6.733804E0,0E0,3.8632798E0,3.7826195E0,0E0,2.7096376E0,6.518154E-1,2.9473858E0,1.2254632E0,3.9868516E-1,1.686264E0,9.716301E-1,0E0,1.7175947E0,2.3624501E0,7.029486E-1,0E0,2.6449404E0,8.6733687E-1,3.3475692E0,0E0,0E0,0E0,0E0,0E0,1.3053055E0,0E0,0E0,0E0,0E0,2.3721075E-1,0E0,0E0,0E0,0E0,0E0,0E0,0E0,0E0,0E0,0E0,0E0,0E0],"parents":[2147483647,0,0,1,1,2,2,3,3,4,4,5,5,6,6,8,8,9,9,11,11,12,12,13,13,14,14,15,15,16,16,17,17,19,19,20,20,21,21,23,23,24,24,25,25,31,31,36,36],"right_children":[2,4,6,8,10,12,14,-1,16,18,-1,20,22,24,26,28,30,32,-1,34,36,38,-1,40,42,44,-1,-1,-1,-1,-1,46,-1,-1,-1,-1,48,-1,-1,-1,-1,-1,-1,-1,-1,-1,-1,-1,-1],"split_conditions":[-5.762938E-1,-2.672383E-1,1.1511176E0,-1.2541959E0,7.824125E-1,-1.9892493E-1,-4.38568E-2,3.9041096E-1,-2.4193428E-1,-1.0747885E-1,8.219178E-2,4.4323796E-1,1.8451997E0,1.0010317E-1,3.269855E-1,-9.4236803E-1,1.0114766E0,1.3807341E0,2.6315792E-2,-9.8547006E-1,6.998044E-1,2.118019E0,2.6315792E-2,2.2505304E-1,-3.033427E-1,1.4616523E0,-1.511628E-1,2.6315792E-2,-1.460177E-1,3.7078652E-1,-0E0,8.3650964E-1,1.5789473E-1,1.15384616E-1,-1.692607E-1,2.8651685E-1,1.4023758E0,-1.8187276E-1,2.6315792E-2,5.3305787E-1,2.6315792E-2,1.5789473E-1,-1.05263166E-1,2.8767124E-1,-1.3917525E-1,6.565836E-1,1.5789473E-1,2.6315792E-2,-1.15384616E-1],"split_indices":[5,15,8,25,3,23,5,0,13,23,0,24,2,29,5,0,1,1,0,23,4,3,0,23,3,8,0,0,0,0,0,10,0,0,0,0,0,0,0,0,0,0,0,0,0,0,0,0,0],"split_type":[0,0,0,0,0,0,0,0,0,0,0,0,0,0,0,0,0,0,0,0,0,0,0,0,0,0,0,0,0,0,0,0,0,0,0,0,0,0,0,0,0,0,0,0,0,0,0,0,0],"sum_hessian":[9.472001E1,2.6880001E1,6.7840004E1,1.0880001E1,1.6000002E1,5.1200005E1,1.6640001E1,1.9200001E0,8.960001E0,1.4080001E1,1.9200001E0,1.6320002E1,3.488E1,7.6800003E0,8.960001E0,4.8E0,4.1600003E0,1.2800001E1,1.2800001E0,1.0880001E1,5.4400005E0,3.3600002E1,1.2800001E0,5.1200004E0,2.5600002E0,4.8E0,4.1600003E0,1.2800001E0,3.5200002E0,2.5600002E0,1.6000001E0,1.152E1,1.2800001E0,1.6000001E0,9.280001E0,2.5600002E0,2.88E0,3.2320004E1,1.2800001E0,3.8400002E0,1.2800001E0,1.2800001E0,1.2800001E0,1.9200001E0,2.88E0,1.0240001E1,1.2800001E0,1.2800001E0,1.6000001E0],"tree_param":{"num_deleted":"0","num_feature":"30","num_nodes":"49","size_leaf_vector":"1"}},{"base_weights":[9.193481E-2,8.153078E-1,-1.4859658E-1,1.2732095E0,4.016064E-2,-2.327637E-1,8.6206895E-1,1.5814695E0,-1.6853932E-1,-4.1450775E-1,3.333333E-1,-3.0453697E-1,8.4070796E-1,4.7938144E-1,-1.2328767E-1,1.7437721E0,2.6315792E-2,2.6315792E-2,-1.05263166E-1,2.6315792E-2,-1.583851E-1,1.659751E-1,-3.8047376E-1,-1.15384616E-1,4.9315068E-1,2.6315792E-2,1.9477911E0,9.523809E-1,-3.726708E-1,4.016064E-2,-4.6193326E-1,1.5789473E-1,6.2903225E-1,4.6153846E-1,-0E0,2.6315792E-2,-1.511628E-1,-1.0784314E-1,1.6115703E-1,-1.4932126E-1,3.3707865E-2],"categories":[],"categories_nodes":[],"categories_segments":[],"categories_sizes":[],"default_left":[0,0,0,0,0,0,0,0,0,0,0,0,0,0,0,0,0,0,0,0,0,0,0,0,0,0,0,0,0,0,0,0,0,0,0,0,0,0,0,0,0],"id":1,"left_children":[1,3,5,7,9,11,13,15,17,19,-1,21,23,-1,-1,25,-1,-1,-1,-1,-1,27,29,-1,-1,-1,31,33,35,37,39,-1,-1,-1,-1,-1,-1,-1,-1,-1,-1],"loss_changes":[1.6775848E1,8.481654E0,6.383168E0,6.9685993E0,5.3103604E0,5.4859476E0,6.090023E0,2.8823776E0,1.9712201E-1,4.861499E-1,0E0,2.36268E0,5.0803366E0,0E0,0E0,3.6267586E0,0E0,0E0,0E0,0E0,0E0,4.4383736E0,1.9277802E0,0E0,0E0,0E0,1.0057259E0,2.3443222E0,4.3321145E-1,2.1714797E0,1.0174093E0,0E0,0E0,0E0,0E0,0E0,0E0,0E0,0E0,0E0,0E0],"parents":[2147483647,0,0,1,1,2,2,3,3,4,4,5,5,6,6,7,7,8,8,9,9,11,11,12,12,15,15,21,21,22,22,26,26,27,27,28,28,29,29,30,30],"right_children":[2,4,6,8,10,12,14,16,18,20,-1,22,24,-1,-1,26,-1,-1,-1,-1,-1,28,30,-1,-1,-1,32,34,36,38,40,-1,-1,-1,-1,-1,-1,-1,-1,-1,-1],"split_conditions":[-7.52151E-1,-1.1630725E-1,1.9875451E0,2.9619902E-1,3.269299E-1,1.4354981E0,-6.3672775E-1,1.4646746E0,-3.2041606E-1,1.8280061E-2,3.333333E-1,-9.4321936E-1,-4.3072155E-1,4.7938144E-1,-1.2328767E-1,-8.371115E-1,2.6315792E-2,2.6315792E-2,-1.05263166E-1,2.6315792E-2,-1.583851E-1,-3.7737828E-1,-1.1860704E0,-1.15384616E-1,4.9315068E-1,2.6315792E-2,-1.1232642E0,-5.307734E-1,-7.53936E-1,-6.806763E-1,2.4598403E0,1.5789473E-1,6.2903225E-1,4.6153846E-1,-0E0,2.6315792E-2,-1.511628E-1,-1.0784314E-1,1.6115703E-1,-1.4932126E-1,3.3707865E-2],"split_indices":[15,5,18,13,2,1,6,3,0,1,0,22,19,0,0,4,0,0,0,0,0,28,10,0,0,0,2,8,2,3,9,0,0,0,0,0,0,0,0,0,0],"split_type":[0,0,0,0,0,0,0,0,0,0,0,0,0,0,0,0,0,0,0,0,0,0,0,0,0,0,0,0,0,0,0,0,0,0,0,0,0,0,0,0,0],"sum_hessian":[9.472001E1,2.304E1,7.168001E1,1.4080001E1,8.960001E0,6.6880005E1,4.8E0,1.152E1,2.5600002E0,6.7200003E0,2.2400002E0,6.3360004E1,3.5200002E0,2.88E0,1.9200001E0,1.0240001E1,1.2800001E0,1.2800001E0,1.2800001E0,1.2800001E0,5.4400005E0,8.64E0,5.4720005E1,1.6000001E0,1.9200001E0,1.2800001E0,8.960001E0,3.2000003E0,5.4400005E0,8.960001E0,4.5760002E1,1.2800001E0,7.6800003E0,1.6000001E0,1.6000001E0,1.2800001E0,4.1600003E0,5.1200004E0,3.8400002E0,4.3200005E1,2.5600002E0],"tree_param":{"num_deleted":"0","num_feature":"30","num_nodes":"41","size_leaf_vector":"1"}},{"base_weights":[-4.199749E-1,1.4814815E-1,-4.4715443E-1,1.5789473E-1,-4.663774E-1,2.3809522E-1,-4.94382E-1,-1.2328767E-1,2.8947368E-1,-5.651024E-1,-3.3242875E-1,2.6315792E-2,-5.806887E-1,1.4814815E-1,-4.1850218E-1,2.6315792E-2,-1.7908902E-1,8.219178E-2,-1.4454976E-1],"categories":[],"categories_nodes":[],"categories_segments":[],"categories_sizes":[],"default_left":[0,0,0,0,0,0,0,0,0,0,0,0,0,0,0,0,0,0,0],"id":2,"left_children":[1,-1,3,-1,5,7,9,-1,-1,11,13,-1,15,-1,17,-1,-1,-1,-1],"loss_changes":[2.5981884E0,0E0,1.994751E0,0E0,1.9366722E0,2.3778622E0,8.314953E-1,0E0,0E0,6.667328E-1,2.3032467E0,0E0,6.967869E-1,0E0,1.3266101E0,0E0,0E0,0E0,0E0],"parents":[2147483647,0,0,2,2,4,4,5,5,6,6,9,9,10,10,12,12,14,14],"right_children":[2,-1,4,-1,6,8,10,-1,-1,12,14,-1,16,-1,18,-1,-1,-1,-1],"split_conditions":[-1.6486708E0,1.4814815E-1,-1.4834633E0,1.5789473E-1,-1.2172189E0,-3.2868728E-1,4.137282E-1,-1.2328767E-1,2.8947368E-1,-1.672436E0,5.214027E-1,2.6315792E-2,-1.6829702E0,1.4814815E-1,1.3629977E-1,2.6315792E-2,-1.7908902E-1,8.219178E-2,-1.4454976E-1],"split_indices":[24,0,18,0,15,4,0,0,0,8,0,0,11,0,12,0,0,0,0],"split_type":[0,0,0,0,0,0,0,0,0,0,0,0,0,0,0,0,0,0,0],"sum_hessian":[9.472001E1,2.2400002E0,9.248E1,1.2800001E0,9.1200005E1,3.2000003E0,8.800001E1,1.9200001E0,1.2800001E0,5.9520004E1,2.8480001E1,1.2800001E0,5.8240005E1,2.2400002E0,2.6240002E1,1.2800001E0,5.6960003E1,1.9200001E0,2.4320002E1],"tree_param":{"num_deleted":"0","num_feature":"30","num_nodes":"19","size_leaf_vector":"1"}},{"base_weights":[-7.5219385E-2,-3.983353E-1,9.828788E-2,-5.006859E-1,2.1897809E-1,-3.5893752E-3,7.655502E-1,5.5555556E-2,-5.6463593E-1,-1.2962963E-1,2.4074075E-1,8.2474226E-1,-6.434519E-2,4.090909E-1,-4.4247787E-2,-1.801872E-1,2.6315792E-2,-0E0,4.2105266E-1,-1.910531E-1,4.395604E-1,-1.2962963E-1,1.5789473E-1,-3.1483456E-1,5.590062E-1,8.80829E-1,-1.4285713E-1,-1.2199313E-1,2.0224719E-1,3.7078652E-1,-6.185567E-2,4.550562E-1,8.139534E-2],"categories":[],"categories_nodes":[],"categories_segments":[],"categories_sizes":[],"default_left":[0,0,0,0,0,0,0,0,0,0,0,0,0,0,0,0,0,0,0,0,0,0,0,0,0,0,0,0,0,0,0,0,0],"id":3,"left_children":[1,3,5,7,9,11,13,-1,15,-1,-1,17,19,-1,21,-1,-1,-1,-1,23,25,-1,-1,27,29,31,-1,-1,-1,-1,-1,-1,-1],"loss_changes":[5.4054985E0,2.2350936E0,4.290854E0,1.3835635E0,2.428584E0,2.8572311E0,4.109328E0,0E0,6.846876E-1,0E0,0E0,1.8520527E0,3.457752E0,0E0,1.2276677E0,0E0,0E0,0E0,0E0,4.1608343E0,4.8321285E0,0E0,0E0,3.677271E0,3.5907283E0,2.5812187E0,0E0,0E0,0E0,0E0,0E0,0E0,0E0],"parents":[2147483647,0,0,1,1,2,2,3,3,4,4,5,5,6,6,8,8,11,11,12,12,14,14,19,19,20,20,23,23,24,24,25,25],"right_children":[2,4,6,8,10,12,14,-1,16,-1,-1,18,20,-1,22,-1,-1,-1,-1,24,26,-1,-1,28,30,32,-1,-1,-1,-1,-1,-1,-1],"split_conditions":[-4.1277203E-1,-8.403884E-2,9.331114E-1,-1.3437229E0,-1.3553373E-2,-1.250421E0,2.7819386E-1,5.5555556E-2,1.9779887E0,-1.2962963E-1,2.4074075E-1,-7.407046E-1,8.815216E-1,4.090909E-1,-3.4042063E-1,-1.801872E-1,2.6315792E-2,-0E0,4.2105266E-1,1.2528867E0,-2.9807156E-1,-1.2962963E-1,1.5789473E-1,1.5710459E0,1.5385393E0,1.2099942E0,-1.4285713E-1,-1.2199313E-1,2.0224719E-1,3.7078652E-1,-6.185567E-2,4.550562E-1,8.139534E-2],"split_indices":[5,23,26,19,8,11,0,0,17,0,0,13,25,0,2,0,0,0,0,12,9,0,0,8,11,25,0,0,0,0,0,0,0],"split_type":[0,0,0,0,0,0,0,0,0,0,0,0,0,0,0,0,0,0,0,0,0,0,0,0,0,0,0,0,0,0,0,0,0],"sum_hessian":[9.472001E1,3.2640003E1,6.2080006E1,2.8160002E1,4.4800005E0,5.4720005E1,7.3600006E0,2.2400002E0,2.5920002E1,2.2400002E0,2.2400002E0,2.88E0,5.1840004E1,3.8400002E0,3.5200002E0,2.4640001E1,1.2800001E0,1.6000001E0,1.2800001E0,4.1920002E1,9.920001E0,2.2400002E0,1.2800001E0,3.6480003E1,5.4400005E0,6.7200003E0,3.2000003E0,3.3920002E1,2.5600002E0,2.5600002E0,2.88E0,2.5600002E0,4.1600003E0],"tree_param":{"num_deleted":"0","num_feature":"30","num_nodes":"33","size_leaf_vector":"1"}},{"base_weights":[1.9640617E-1,-3.6010197E-1,1.2190812E0,-5.055225E-1,7.194244E-2,1.6483516E-1,1.6472545E0,-5.435759E-1,1.12359546E-1,3.4615386E-1,-1.1936339E-1,4.4776118E-1,-1.3917525E-1,-1.05263166E-1,1.7750438E0,-1.9138755E-1,-1.8245426E-1,-1.05263166E-1,1.5789473E-1,-3.7735847E-1,4.0145984E-1,1.0824742E0,-1.16279066E-1,-0E0,1.9092627E0,-1.5328467E-1,3.0927834E-1,5.154639E-2,-1.6321245E-1,8.2474226E-1,-1.15384616E-1,2.6315792E-2,4.6153846E-1,-1.3917525E-1,1.5789473E-1,1.9718308E0,1.5789473E-1,-1.05263166E-1,2.3076923E-1,-1.15384616E-1,1.5789473E-1,3.4615386E-1,2.6315792E-2,6.1290324E-1,1.5789473E-1],"categories":[],"categories_nodes":[],"categories_segments":[],"categories_sizes":[],"default_left":[0,0,0,0,0,0,0,0,0,0,0,0,0,0,0,0,0,0,0,0,0,0,0,0,0,0,0,0,0,0,0,0,0,0,0,0,0,0,0,0,0,0,0,0,0],"id":4,"left_children":[1,3,5,7,9,11,13,15,17,-1,19,21,-1,-1,23,25,-1,-1,-1,27,29,31,33,-1,35,-1,37,39,-1,41,-1,-1,-1,-1,-1,43,-1,-1,-1,-1,-1,-1,-1,-1,-1],"loss_changes":[5.4915833E1,3.9794626E0,1.5058014E1,1.168045E0,3.5900614E0,2.1502883E0,6.7611923E0,8.9656925E-1,8.6733687E-1,0E0,2.1777914E0,3.0042193E0,0E0,0E0,5.4224396E0,1.4955708E0,0E0,0E0,0E0,7.8584945E-1,2.1405792E0,1.6249976E0,1.396863E0,0E0,7.931366E-1,0E0,1.4480292E0,1.0058851E0,0E0,8.399067E-1,0E0,0E0,0E0,0E0,0E0,9.7021484E-1,0E0,0E0,0E0,0E0,0E0,0E0,0E0,0E0,0E0],"parents":[2147483647,0,0,1,1,2,2,3,3,4,4,5,5,6,6,7,7,8,8,10,10,11,11,14,14,15,15,19,19,20,20,21,21,22,22,24,24,26,26,27,27,29,29,35,35],"right_children":[2,4,6,8,10,12,14,16,18,-1,20,22,-1,-1,24,26,-1,-1,-1,28,30,32,34,-1,36,-1,38,40,-1,42,-1,-1,-1,-1,-1,44,-1,-1,-1,-1,-1,-1,-1,-1,-1],"split_conditions":[2.9866716E-1,-1.1630725E-1,1.6032735E-1,1.8022021E0,-1.0678918E0,3.436967E-1,-1.2405436E0,-8.6082906E-1,-2.0219736E0,3.4615386E-1,-1.56331E-1,-3.8540122E-1,-1.3917525E-1,-1.05263166E-1,-9.6518135E-1,-5.1613927E-1,-1.8245426E-1,-1.05263166E-1,1.5789473E-1,-5.254091E-1,-2.8201467E-1,-6.149142E-1,5.252786E-1,-0E0,6.9611555E-1,-1.5328467E-1,-5.0059396E-1,-8.221137E-1,-1.6321245E-1,-1.3216531E-1,-1.15384616E-1,2.6315792E-2,4.6153846E-1,-1.3917525E-1,1.5789473E-1,1.2817963E0,1.5789473E-1,-1.05263166E-1,2.3076923E-1,-1.15384616E-1,1.5789473E-1,3.4615386E-1,2.6315792E-2,6.1290324E-1,1.5789473E-1],"split_indices":[5,5,23,0,3,18,0,6,1,0,9,20,0,0,9,23,0,0,0,2,0,20,1,0,2,0,1,2,0,17,0,0,0,0,0,14,0,0,0,0,0,0,0,0,0],"split_type":[0,0,0,0,0,0,0,0,0,0,0,0,0,0,0,0,0,0,0,0,0,0,0,0,0,0,0,0,0,0,0,0,0,0,0,0,0,0,0,0,0,0,0,0,0],"sum_hessian":[9.472001E1,6.1760006E1,3.2960003E1,4.608E1,1.5680001E1,9.920001E0,2.304E1,4.3520004E1,2.5600002E0,1.6000001E0,1.4080001E1,7.0400004E0,2.88E0,1.2800001E0,2.1760002E1,7.3600006E0,3.6160004E1,1.2800001E0,1.2800001E0,9.6E0,4.4800005E0,2.88E0,4.1600003E0,1.6000001E0,2.0160002E1,4.4800005E0,2.88E0,2.88E0,6.7200003E0,2.88E0,1.6000001E0,1.2800001E0,1.6000001E0,2.88E0,1.2800001E0,1.8880001E1,1.2800001E0,1.2800001E0,1.6000001E0,1.6000001E0,1.2800001E0,1.6000001E0,1.2800001E0,1.76E1,1.2800001E0],"tree_param":{"num_deleted":"0","num_feature":"30","num_nodes":"45","size_leaf_vector":"1"}},{"base_weights":[1.6266638E-1,5.7983685E-1,-4.0506917E-1,-1.5214399E-1,8.536395E-1,2.0233078E-1,-4.4811332E-1,2.1594825E-1,-1.5915716E-1,9.787488E-1,1.9478951E-1,-5.251682E-1,-1.3788357E-1,-2.2536868E-1,3.1480396E-1,5.054386E-1,1.2443779E0,-1.3808422E-1,6.1019313E-1,-7.357501E-2,-1.7491472E-1,3.010065E-1,-3.7353787E-1,-1.4730884E-1,1.1730606E-1,3.1352365E-1,2.3989901E-1,3.7971896E-1,4.2914265E-1,-3.408551E-2,3.3490694E-1,1.9911802E-1,-1.336112E-1,2.9637316E-1,-1.1286554E-1,3.440782E-2,-1.5067129E-1,2.6639834E-1,-2.3155276E-2,2.1604875E-1,-1.1816911E-1],"categories":[],"categories_nodes":[],"categories_segments":[],"categories_sizes":[],"default_left":[0,0,0,0,0,0,0,0,0,0,0,0,0,0,0,0,0,0,0,0,0,0,0,0,0,0,0,0,0,0,0,0,0,0,0,0,0,0,0,0,0],"id":5,"left_children":[1,3,5,7,9,-1,11,13,-1,15,17,19,21,23,-1,25,27,-1,29,31,-1,33,35,-1,-1,-1,37,39,-1,-1,-1,-1,-1,-1,-1,-1,-1,-1,-1,-1,-1],"loss_changes":[2.3362782E1,1.1493765E1,2.2514958E0,2.3826225E0,3.2232456E0,0E0,9.063034E-1,3.5337784E0,0E0,3.7159157E0,2.4191654E0,8.0504894E-1,1.0951941E0,1.2865901E0,0E0,1.7707455E0,2.9086342E0,0E0,2.0460985E0,1.6196128E0,0E0,2.173493E0,4.741171E-1,0E0,0E0,0E0,2.2781875E0,1.642842E0,0E0,0E0,0E0,0E0,0E0,0E0,0E0,0E0,0E0,0E0,0E0,0E0,0E0],"parents":[2147483647,0,0,1,1,2,2,3,3,4,4,6,6,7,7,9,9,10,10,11,11,12,12,13,13,15,15,16,16,18,18,19,19,21,21,22,22,26,26,27,27],"right_children":[2,4,6,8,10,-1,12,14,-1,16,18,20,22,24,-1,26,28,-1,30,32,-1,34,36,-1,-1,-1,38,40,-1,-1,-1,-1,-1,-1,-1,-1,-1,-1,-1,-1,-1],"split_conditions":[-4.38568E-2,-7.2362256E-1,-1.1126256E0,-5.238547E-1,-1.0747885E-1,2.0233078E-1,1.1511176E0,-1.5160595E-1,-1.5915716E-1,-2.5920838E-1,7.933643E-2,-1.3300112E0,1.3686599E0,-7.3071086E-1,3.1480396E-1,-1.2802838E0,-6.481023E-1,-1.3808422E-1,-6.373146E-1,-8.346163E-1,-1.7491472E-1,3.269855E-1,-3.2781434E-1,-1.4730884E-1,1.1730606E-1,3.1352365E-1,-6.884572E-1,2.488281E-1,4.2914265E-1,-3.408551E-2,3.3490694E-1,1.9911802E-1,-1.336112E-1,2.9637316E-1,-1.1286554E-1,3.440782E-2,-1.5067129E-1,2.6639834E-1,-2.3155276E-2,2.1604875E-1,-1.1816911E-1],"split_indices":[5,15,23,23,23,0,8,13,0,8,23,4,8,23,0,23,20,0,7,16,0,5,14,0,0,0,18,0,0,0,0,0,0,0,0,0,0,0,0,0,0],"split_type":[0,0,0,0,0,0,0,0,0,0,0,0,0,0,0,0,0,0,0,0,0,0,0,0,0,0,0,0,0,0,0,0,0,0,0,0,0,0,0,0,0],"sum_hessian":[9.665101E1,5.570086E1,4.095015E1,1.5284305E1,4.0416553E1,1.0077717E0,3.9942375E1,7.965073E0,7.3192315E0,3.3558563E1,6.8579907E0,3.1440378E1,8.501998E0,5.684491E0,2.280582E0,1.3106892E1,2.0451672E1,2.6193607E0,4.2386303E0,3.829934E0,2.7610445E1,2.8733172E0,5.62868E0,4.1145267E0,1.5699646E0,3.354356E0,9.752536E0,4.160645E0,1.6291027E1,2.0634437E0,2.1751864E0,1.0206695E0,2.8092644E0,1.1987113E0,1.6746061E0,1.1969209E0,4.4317594E0,2.6124227E0,7.1401134E0,2.9371815E0,1.2234633E0],"tree_param":{"num_deleted":"0","num_feature":"30","num_nodes":"41","size_leaf_vector":"1"}},{"base_weights":[7.754292E-2,5.6840783E-1,-1.2016454E-1,8.3221596E-1,2.4185551E-2,-1.9843753E-1,6.707168E-1,1.0012484E0,-1.6634028E-1,-3.8785625E-1,7.953941E-1,-2.6651838E-1,6.3976943E-1,3.3296415E-1,-1.1189324E-1,1.1092771E0,5.267332E-2,-1.1175783E-1,5.2520636E-2,-1.5268876E-1,3.6003448E-2,3.266479E-1,2.4268055E-2,1.5279458E-1,-3.4100577E-1,-1.110767E-1,3.5251993E-1,1.2140336E0,1.9984016E-2,7.395975E-1,-3.3796358E-1,-5.116987E-1,-1.3090813E-1,3.9190176E-1,3.728806E-2,3.317681E-1,2.2075989E-3,3.9587967E-2,-1.4425936E-1,-1.7450717E-1,2.2006283E-2,9.738902E-2,-1.300064E-1],"categories":[],"categories_nodes":[],"categories_segments":[],"categories_sizes":[],"default_left":[0,0,0,0,0,0,0,0,0,0,0,0,0,0,0,0,0,0,0,0,0,0,0,0,0,0,0,0,0,0,0,0,0,0,0,0,0,0,0,0,0,0,0],"id":6,"left_children":[1,3,5,7,9,11,13,15,17,19,21,23,25,-1,-1,27,-1,-1,-1,-1,-1,-1,-1,29,31,-1,-1,33,-1,35,37,39,41,-1,-1,-1,-1,-1,-1,-1,-1,-1,-1],"loss_changes":[9.32753E0,3.9379606E0,4.394615E0,3.2955923E0,3.4959683E0,3.789185E0,3.3601615E0,1.2320995E0,3.1450492E-1,5.0453687E-1,7.12976E-1,1.9059582E0,3.1695564E0,0E0,0E0,1.4437084E0,0E0,0E0,0E0,0E0,0E0,0E0,0E0,3.0272007E0,1.7516112E0,0E0,0E0,1.1076317E0,0E0,1.2540376E0,4.6221435E-1,1.1743073E0,3.4576812E0,0E0,0E0,0E0,0E0,0E0,0E0,0E0,0E0,0E0,0E0],"parents":[2147483647,0,0,1,1,2,2,3,3,4,4,5,5,6,6,7,7,8,8,9,9,10,10,11,11,12,12,15,15,23,23,24,24,27,27,29,29,30,30,31,31,32,32],"right_children":[2,4,6,8,10,12,14,16,18,20,22,24,26,-1,-1,28,-1,-1,-1,-1,-1,-1,-1,30,32,-1,-1,34,-1,36,38,40,42,-1,-1,-1,-1,-1,-1,-1,-1,-1,-1],"split_conditions":[-7.52151E-1,-1.1630725E-1,1.9875451E0,2.9619902E-1,3.269299E-1,1.4354981E0,-6.3672775E-1,5.431224E-1,1.4936166E0,4.6197763E-1,-1.0046792E0,-9.4321936E-1,-4.3072155E-1,3.3296415E-1,-1.1189324E-1,1.4646746E0,5.267332E-2,-1.1175783E-1,5.2520636E-2,-1.5268876E-1,3.6003448E-2,3.266479E-1,2.4268055E-2,-3.7737828E-1,4.036945E-2,-1.110767E-1,3.5251993E-1,1.8248549E0,1.9984016E-2,-5.307734E-1,-1.0593983E0,1.1575878E0,4.9128035E-1,3.9190176E-1,3.728806E-2,3.317681E-1,2.2075989E-3,3.9587967E-2,-1.4425936E-1,-1.7450717E-1,2.2006283E-2,9.738902E-2,-1.300064E-1],"split_indices":[15,5,18,13,2,1,6,21,13,21,15,22,19,0,0,3,0,0,0,0,0,0,0,28,24,0,0,10,0,8,19,28,24,0,0,0,0,0,0,0,0,0,0],"split_type":[0,0,0,0,0,0,0,0,0,0,0,0,0,0,0,0,0,0,0,0,0,0,0,0,0,0,0,0,0,0,0,0,0,0,0,0,0,0,0,0,0,0,0],"sum_hessian":[9.440907E1,2.6568998E1,6.784007E1,1.753826E1,9.030739E0,6.241227E1,5.427806E0,1.4996931E1,2.541329E0,6.209958E0,2.8207803E0,5.8354626E1,4.057642E0,3.775671E0,1.6521347E0,1.2958046E1,2.038885E0,1.5276178E0,1.0137111E0,5.0125165E0,1.1974416E0,1.6282074E0,1.1925731E0,8.643932E0,4.9710693E1,1.5123608E0,2.5452812E0,1.1625657E1,1.332389E0,3.7058141E0,4.938118E0,2.6635368E1,2.3075327E1,1.0534573E1,1.0910841E0,2.1300063E0,1.5758078E0,1.1693442E0,3.7687738E0,2.3794502E1,2.8408666E0,9.178113E0,1.3897214E1],"tree_param":{"num_deleted":"0","num_feature":"30","num_nodes":"43","size_leaf_vector":"1"}},{"base_weights":[-3.7858698E-1,4.048567E-1,-4.066397E-1,-1.10495426E-1,3.241277E-1,-5.16488E-1,-2.056428E-1,5.2995276E-2,-5.3318644E-1,2.5774288E-1,-2.8540918E-1,2.8284749E-2,-5.505973E-1,5.673241E-1,-3.679987E-1,2.4181772E-2,-5.6873757E-1,2.0394085E-1,5.19312E-2,1.9791423E-1,-4.3246725E-1,-1.7651796E-1,-4.1284375E-2,8.467684E-3,-1.4844768E-1],"categories":[],"categories_nodes":[],"categories_segments":[],"categories_sizes":[],"default_left":[0,0,0,0,0,0,0,0,0,0,0,0,0,0,0,0,0,0,0,0,0,0,0,0,0],"id":7,"left_children":[1,3,5,-1,-1,7,9,-1,11,-1,13,-1,15,17,19,-1,21,-1,-1,-1,23,-1,-1,-1,-1],"loss_changes":[2.0476227E0,2.2067204E0,1.7310915E0,0E0,0E0,7.0931816E-1,2.8839703E0,0E0,6.215811E-1,0E0,2.297196E0,0E0,6.284666E-1,1.5874863E-2,2.1167223E0,0E0,3.3921432E-1,0E0,0E0,0E0,7.78543E-1,0E0,0E0,0E0,0E0],"parents":[2147483647,0,0,1,1,2,2,5,5,6,6,8,8,10,10,12,12,13,13,14,14,16,16,20,20],"right_children":[2,4,6,-1,-1,8,10,-1,12,-1,14,-1,16,18,20,-1,22,-1,-1,-1,24,-1,-1,-1,-1],"split_conditions":[-1.6486708E0,1.9232274E-3,2.7819386E-1,-1.10495426E-1,3.241277E-1,-1.434599E0,-1.1906961E0,5.2995276E-2,-1.2914718E0,2.5774288E-1,-1.3122688E-1,2.8284749E-2,-1.672436E0,-1.3910982E-1,-1.1232642E0,2.4181772E-2,1.041578E0,2.0394085E-1,5.19312E-2,1.9791423E-1,-7.061508E-1,-1.7651796E-1,-4.1284375E-2,8.467684E-3,-1.4844768E-1],"split_indices":[24,23,0,0,0,15,19,0,21,0,29,0,8,5,2,0,27,0,0,0,8,0,0,0,0],"split_type":[0,0,0,0,0,0,0,0,0,0,0,0,0,0,0,0,0,0,0,0,0,0,0,0,0],"sum_hessian":[8.46773E1,2.462888E0,8.221441E1,1.360559E0,1.1023289E0,5.2146053E1,3.006836E1,1.0013603E0,5.114469E1,1.4145861E0,2.8653772E1,1.2616369E0,4.9883057E1,2.0118902E0,2.6641882E1,1.2973504E0,4.8585705E1,1.0016695E0,1.0102206E0,1.0275936E0,2.5614288E1,4.61183E1,2.4674025E0,3.1189997E0,2.2495289E1],"tree_param":{"num_deleted":"0","num_feature":"30","num_nodes":"25","size_leaf_vector":"1"}},{"base_weights":[-5.554458E-2,-3.5808778E-1,9.11011E-2,-4.6137813E-1,1.6320111E-1,3.9400074E-1,-7.9153985E-2,-5.3188986E-1,2.0311107E-1,2.4544945E-1,-2.536934E-1,4.2490098E-1,2.1571772E-1,-2.7721804E-1,3.2115996E-1,5.18871E-2,-1.7153646E-1,-9.657433E-2,1.961207E-1,-1.3187988E-1,5.2233756E-2,-3.7862954E-1,4.723904E-1,-3.629795E-1,5.4605114E-1,-9.6541576E-2,8.2780844E-1,5.1278118E-2,-1.5158261E-1,9.0761274E-1,9.485732E-2,-4.2689064E-1,1.2988295E-1,1.9669072E-1,4.9529288E-2,1.8330042E-1,-3.825515E-1,-6.823487E-4,1.0998232E0,4.110767E-2,3.875346E-1,-7.838168E-2,2.8537014E-1,-1.4720936E-1,2.8301202E-2,-1.5256548E-1,5.006134E-2,1.1140903E-1,3.9746854E-1],"categories":[],"categories_nodes":[],"categories_segments":[],"categories_sizes":[],"default_left":[0,0,0,0,0,0,0,0,0,0,0,0,0,0,0,0,0,0,0,0,0,0,0,0,0,0,0,0,0,0,0,0,0,0,0,0,0,0,0,0,0,0,0,0,0,0,0,0,0],"id":8,"left_children":[1,3,5,7,9,11,13,15,17,-1,19,-1,21,23,25,-1,-1,-1,-1,-1,-1,27,29,31,33,35,37,-1,-1,39,41,43,-1,-1,-1,-1,45,-1,47,-1,-1,-1,-1,-1,-1,-1,-1,-1,-1],"loss_changes":[4.1193E0,1.7053862E0,3.2717152E0,1.3041711E0,1.7763299E0,3.846104E0,3.3445282E0,7.5572014E-1,9.61087E-1,0E0,4.1646045E-1,0E0,3.3176777E0,2.175512E0,3.0541265E0,0E0,0E0,0E0,0E0,0E0,0E0,5.569051E-1,2.3481016E0,1.5055568E0,1.8725574E-2,1.9738127E0,1.4600611E0,0E0,0E0,1.8256183E0,3.0085378E0,8.6236143E-1,0E0,0E0,0E0,0E0,5.513441E-1,0E0,3.0547142E-1,0E0,0E0,0E0,0E0,0E0,0E0,0E0,0E0,0E0,0E0],"parents":[2147483647,0,0,1,1,2,2,3,3,4,4,5,5,6,6,7,7,8,8,10,10,12,12,13,13,14,14,21,21,22,22,23,23,24,24,25,25,26,26,29,29,30,30,31,31,36,36,38,38],"right_children":[2,4,6,8,10,12,14,16,18,-1,20,-1,22,24,26,-1,-1,-1,-1,-1,-1,28,30,32,34,36,38,-1,-1,40,42,44,-1,-1,-1,-1,46,-1,48,-1,-1,-1,-1,-1,-1,-1,-1,-1,-1],"split_conditions":[-4.1277203E-1,-8.403884E-2,-4.015329E-1,1.6435387E0,-3.6329946E-1,1.2940681E-1,8.041563E-1,-1.3963774E0,-1.0538114E0,2.4544945E-1,9.054876E-1,4.2490098E-1,-6.025098E-1,1.1078775E0,5.463482E-2,5.18871E-2,-1.7153646E-1,-9.657433E-2,1.961207E-1,-1.3187988E-1,5.2233756E-2,-1.0864874E0,-4.026157E-1,1.8143182E0,-1.6406606E-1,-3.4317398E-1,-1.1200589E0,5.1278118E-2,-1.5158261E-1,-9.827602E-1,-3.5197386E-1,1.6355517E0,1.2988295E-1,1.9669072E-1,4.9529288E-2,1.8330042E-1,1.5256767E0,-6.823487E-4,-7.061508E-1,4.110767E-2,3.875346E-1,-7.838168E-2,2.8537014E-1,-1.4720936E-1,2.8301202E-2,-1.5256548E-1,5.006134E-2,1.1140903E-1,3.9746854E-1],"split_indices":[5,23,11,24,3,10,12,19,5,0,3,0,13,24,13,0,0,0,0,0,0,15,25,2,14,21,10,0,0,25,4,8,0,0,0,0,14,0,8,0,0,0,0,0,0,0,0,0,0],"split_type":[0,0,0,0,0,0,0,0,0,0,0,0,0,0,0,0,0,0,0,0,0,0,0,0,0,0,0,0,0,0,0,0,0,0,0,0,0,0,0,0,0,0,0,0,0,0,0,0,0],"sum_hessian":[9.111146E1,2.9274231E1,6.1837223E1,2.4528902E1,4.74533E0,2.1777985E1,4.005924E1,2.2356148E1,2.1727545E0,1.4713063E0,3.2740238E0,2.2026904E0,1.9575294E1,2.7005283E1,1.3053955E1,1.019024E0,2.1337124E1,1.135455E0,1.0372994E0,2.2630367E0,1.010987E0,5.7607193E0,1.3814575E1,2.4963854E1,2.0414305E0,7.5987163E0,5.455239E0,1.0134392E0,4.74728E0,5.7648087E0,8.049767E0,2.3537489E1,1.4263641E0,1.0254209E0,1.0160096E0,1.8603103E0,5.7384057E0,1.5911889E0,3.8640497E0,2.3692064E0,3.3956022E0,6.176245E0,1.8735214E0,2.1022545E1,2.5149446E0,4.7284184E0,1.0099877E0,1.5375724E0,2.3264773E0],"tree_param":{"num_deleted":"0","num_feature":"30","num_nodes":"49","size_leaf_vector":"1"}},{"base_weights":[1.4549044E-1,-3.8572106E-1,7.262135E-1,-4.3166083E-1,2.4592082E-1,-1.3635466E-1,8.634813E-1,-4.973034E-1,1.6314799E-2,1.7742547E-1,-9.992268E-2,-3.6946532E-1,1.9659762E-1,-1.2296467E-1,9.356586E-1,-1.599707E-1,-1.7540178E-1,3.1472343E-1,-3.49411E-1,-1.5090972E-1,5.080961E-2,9.8921865E-1,-1.06239505E-1,-3.9479983E-1,3.8601688E-1,-1.46499E-1,5.2345492E-2,4.7816075E-2,1.0616664E0,-1.5344314E-1,4.1543268E-2,-9.3513854E-2,2.4660654E-1,1.5766333E-1,-1.13372065E-1,3.318822E-1,3.3890433E-3],"categories":[],"categories_nodes":[],"categories_segments":[],"categories_sizes":[],"default_left":[0,0,0,0,0,0,0,0,0,0,0,0,0,0,0,0,0,0,0,0,0,0,0,0,0,0,0,0,0,0,0,0,0,0,0,0,0],"id":9,"left_children":[1,3,5,7,9,11,13,15,17,-1,-1,19,-1,-1,21,23,-1,-1,25,-1,-1,27,-1,29,31,-1,-1,33,35,-1,-1,-1,-1,-1,-1,-1,-1],"loss_changes":[3.053664E1,1.6114945E0,5.706764E0,1.4408646E0,1.0280205E0,1.5974858E0,4.1388035E0,1.1598587E0,3.0842452E0,0E0,0E0,5.395487E-1,0E0,0E0,3.0425606E0,1.4506109E0,0E0,0E0,5.265165E-1,0E0,0E0,2.5192337E0,0E0,5.421275E-1,1.3364391E0,0E0,0E0,9.592142E-1,1.6246948E0,0E0,0E0,0E0,0E0,0E0,0E0,0E0,0E0],"parents":[2147483647,0,0,1,1,2,2,3,3,4,4,5,5,6,6,7,7,8,8,11,11,14,14,15,15,18,18,21,21,23,23,24,24,27,27,28,28],"right_children":[2,4,6,8,10,12,14,16,18,-1,-1,20,-1,-1,22,24,-1,-1,26,-1,-1,28,-1,30,32,-1,-1,34,36,-1,-1,-1,-1,-1,-1,-1,-1],"split_conditions":[1.4719412E-1,1.7280397E0,-2.6696324E-1,-2.7147116E-2,1.8148491E0,7.7662784E-1,-1.051489E0,-4.7377917E-1,-8.535451E-1,1.7742547E-1,-9.992268E-2,1.103978E0,1.9659762E-1,-1.2296467E-1,1.3792323E0,-3.7146613E-1,-1.7540178E-1,3.1472343E-1,3.652677E-1,-1.5090972E-1,5.080961E-2,-1.250421E0,-1.06239505E-1,1.0337722E0,-1.2280424E0,-1.46499E-1,5.2345492E-2,-1.4183081E0,1.164448E0,-1.5344314E-1,4.1543268E-2,-9.3513854E-2,2.4660654E-1,1.5766333E-1,-1.13372065E-1,3.318822E-1,3.3890433E-3],"split_indices":[5,12,23,5,14,20,15,27,2,0,0,2,0,0,7,5,0,0,20,0,0,11,0,22,15,0,0,14,24,0,0,0,0,0,0,0,0],"split_type":[0,0,0,0,0,0,0,0,0,0,0,0,0,0,0,0,0,0,0,0,0,0,0,0,0,0,0,0,0,0,0,0,0,0,0,0,0],"sum_hessian":[9.708046E1,5.0876972E1,4.6203487E1,4.772267E1,3.1542997E0,6.344204E0,3.9859283E1,4.1527473E1,6.195199E0,1.9620535E0,1.1922462E0,5.3130794E0,1.0311247E0,1.8871458E0,3.7972137E1,9.125366E0,3.2402107E1,1.131501E0,5.063698E0,4.3109136E0,1.0021659E0,3.6681915E1,1.2902211E0,6.574558E0,2.550809E0,4.05606E0,1.0076382E0,2.7398353E0,3.394208E1,5.4278603E0,1.1466974E0,1.0906056E0,1.4602033E0,1.180572E0,1.5592632E0,3.2508278E1,1.433804E0],"tree_param":{"num_deleted":"0","num_feature":"30","num_nodes":"37","size_leaf_vector":"1"}},{"base_weights":[1.319933E-1,4.3149158E-1,-4.079796E-1,-1.5805334E-1,6.284749E-1,1.7675175E-1,-4.5894894E-1,1.506213E-1,-1.5286806E-1,-1.1134003E-1,6.671098E-1,-5.294885E-1,-1.4226867E-1,-2.2562526E-1,2.4268635E-1,7.368326E-1,5.717941E-2,-1.2570818E-1,-1.6838075E-1,2.9393157E-1,-1.3826196E-1,-1.4166757E-1,9.352949E-2,8.351208E-1,3.7221792E-1,-1.4201583E-1,2.0928247E-1,-9.7882785E-2,4.86375E-2,-9.816663E-2,2.0783779E-1,2.6639816E-1,6.409069E-2,-1.1813694E-1,1.6196398E-1],"categories":[],"categories_nodes":[],"categories_segments":[],"categories_sizes":[],"default_left":[0,0,0,0,0,0,0,0,0,0,0,0,0,0,0,0,0,0,0,0,0,0,0,0,0,0,0,0,0,0,0,0,0,0,0],"id":10,"left_children":[1,3,5,7,9,-1,11,13,-1,-1,15,17,19,21,-1,23,25,27,-1,29,-1,-1,-1,31,33,-1,-1,-1,-1,-1,-1,-1,-1,-1,-1],"loss_changes":[1.5560696E1,7.261917E0,2.0214896E0,1.8394454E0,2.0407467E0,0E0,6.6944695E-1,2.516255E0,0E0,0E0,1.8741283E0,2.7462912E-1,1.1695848E0,1.04535E0,0E0,1.1353359E0,2.2693262E0,2.4059705E-1,0E0,1.1561353E0,0E0,0E0,0E0,8.2834053E-1,1.5447413E0,0E0,0E0,0E0,0E0,0E0,0E0,0E0,0E0,0E0,0E0],"parents":[2147483647,0,0,1,1,2,2,3,3,4,4,6,6,7,7,10,10,11,11,12,12,13,13,15,15,16,16,17,17,19,19,23,23,24,24],"right_children":[2,4,6,8,10,-1,12,14,-1,-1,16,18,20,22,-1,24,26,28,-1,30,-1,-1,-1,32,34,-1,-1,-1,-1,-1,-1,-1,-1,-1,-1],"split_conditions":[5.107835E-2,-7.2362256E-1,-1.1126256E0,-5.238547E-1,-1.1378435E0,1.7675175E-1,1.1511176E0,-1.5160595E-1,-1.5286806E-1,-1.1134003E-1,1.262564E0,-8.537689E-1,-4.6435085E-1,-7.3071086E-1,2.4268635E-1,7.0346224E-1,9.391837E-3,3.5395408E-1,-1.6838075E-1,-2.6111254E-1,-1.3826196E-1,-1.4166757E-1,9.352949E-2,1.1593513E0,-4.9058172E-1,-1.4201583E-1,2.0928247E-1,-9.7882785E-2,4.86375E-2,-9.816663E-2,2.0783779E-1,2.6639816E-1,6.409069E-2,-1.1813694E-1,1.6196398E-1],"split_indices":[5,15,23,23,24,0,8,13,0,0,4,20,24,23,0,10,20,3,0,18,0,0,0,29,15,0,0,0,0,0,0,0,0,0,0],"split_type":[0,0,0,0,0,0,0,0,0,0,0,0,0,0,0,0,0,0,0,0,0,0,0,0,0,0,0,0,0,0,0,0,0,0,0],"sum_hessian":[9.4130875E1,6.0677013E1,3.345386E1,1.5245849E1,4.5431164E1,1.1133429E0,3.234052E1,8.421784E0,6.8240643E0,1.3703246E0,4.406084E1,2.5899492E1,6.441027E0,5.7772713E0,2.644513E0,3.9354107E1,4.706735E0,2.2513316E0,2.364816E1,2.7514575E0,3.6895695E0,4.043181E0,1.7340906E0,2.9981623E1,9.372483E0,2.7168121E0,1.9899229E0,1.2480835E0,1.0032481E0,1.1461482E0,1.6053092E0,2.723571E1,2.7459133E0,1.4408536E0,7.9316297E0],"tree_param":{"num_deleted":"0","num_feature":"30","num_nodes":"35","size_leaf_vector":"1"}},{"base_weights":[6.585769E-2,4.2884323E-1,-9.7250454E-2,6.1996824E-1,5.2764276E-3,-1.6872756E-1,5.464492E-1,7.357837E-1,-1.4875226E-1,-3.6781806E-1,6.1620796E-1,-2.3184168E-1,5.1454747E-1,2.5419474E-1,-1.0155238E-1,3.4366453E-1,2.7211055E-1,-1.03992924E-1,4.575891E-2,3.4798462E-2,-1.4758015E-1,4.2051226E-3,2.6532775E-1,1.3425171E-1,-3.185933E-1,-1.0469786E-1,2.7347094E-1,6.611606E-1,-1.313761E-1,5.9303004E-1,-3.3883202E-1,3.8504356E-1,-3.679566E-1,7.586854E-4,2.742216E-1,-1.0448055E-1,2.9253316E-1,-1.4371832E-1,4.6253733E-2,-9.338465E-2,2.5395298E-1,-1.2747534E-1,8.782044E-2],"categories":[],"categories_nodes":[],"categories_segments":[],"categories_sizes":[],"default_left":[0,0,0,0,0,0,0,0,0,0,0,0,0,0,0,0,0,0,0,0,0,0,0,0,0,0,0,0,0,0,0,0,0,0,0,0,0,0,0,0,0,0,0],"id":11,"left_children":[1,3,5,7,9,11,13,15,17,19,21,23,25,-1,-1,27,-1,-1,-1,-1,-1,-1,-1,29,31,-1,-1,33,-1,35,37,39,41,-1,-1,-1,-1,-1,-1,-1,-1,-1,-1],"loss_changes":[5.5020795E0,2.3264718E0,3.0574553E0,1.874187E0,2.496121E0,2.6537614E0,2.0646288E0,8.563566E-1,2.5720513E-1,4.6586096E-1,6.577196E-1,1.7733612E0,2.1284442E0,0E0,0E0,2.0011752E0,0E0,0E0,0E0,0E0,0E0,0E0,0E0,2.6192863E0,1.682076E0,0E0,0E0,8.8112164E-1,0E0,2.50482E0,4.9710637E-1,1.3547267E0,1.7032242E0,0E0,0E0,0E0,0E0,0E0,0E0,0E0,0E0,0E0,0E0],"parents":[2147483647,0,0,1,1,2,2,3,3,4,4,5,5,6,6,7,7,8,8,9,9,10,10,11,11,12,12,15,15,23,23,24,24,27,27,29,29,30,30,31,31,32,32],"right_children":[2,4,6,8,10,12,14,16,18,20,22,24,26,-1,-1,28,-1,-1,-1,-1,-1,-1,-1,30,32,-1,-1,34,-1,36,38,40,42,-1,-1,-1,-1,-1,-1,-1,-1,-1,-1],"split_conditions":[-7.52151E-1,-1.1630725E-1,1.9875451E0,2.9619902E-1,3.269299E-1,1.4354981E0,-6.3672775E-1,-4.702056E-1,1.4936166E0,-9.757453E-1,-1.120235E0,-1.1860704E0,-4.3072155E-1,2.5419474E-1,-1.0155238E-1,-5.6162007E-2,2.7211055E-1,-1.03992924E-1,4.575891E-2,3.4798462E-2,-1.4758015E-1,4.2051226E-3,2.6532775E-1,1.6283508E-1,-1.2464882E0,-1.0469786E-1,2.7347094E-1,-7.921107E-1,-1.313761E-1,-6.806763E-1,1.8906723E-1,-1.1631238E0,1.3518293E0,7.586854E-4,2.742216E-1,-1.0448055E-1,2.9253316E-1,-1.4371832E-1,4.6253733E-2,-9.338465E-2,2.5395298E-1,-1.2747534E-1,8.782044E-2],"split_indices":[15,5,18,13,2,1,6,18,13,10,1,10,19,0,0,17,0,0,0,0,0,0,0,6,12,0,0,20,0,3,5,4,4,0,0,0,0,0,0,0,0,0,0],"split_type":[0,0,0,0,0,0,0,0,0,0,0,0,0,0,0,0,0,0,0,0,0,0,0,0,0,0,0,0,0,0,0,0,0,0,0,0,0,0,0,0,0,0,0],"sum_hessian":[9.122687E1,2.777853E1,6.3448334E1,1.8821892E1,8.956639E0,5.7771233E1,5.677102E0,1.6394709E1,2.4271817E0,5.8077803E0,3.1488595E0,5.3490963E1,4.2802696E0,4.268453E0,1.4086488E0,5.897598E0,1.0497111E1,1.3740833E0,1.0530984E0,1.1990848E0,4.6086955E0,1.2945815E0,1.8542778E0,1.0142381E1,4.334858E1,1.3862002E0,2.8940697E0,4.3035026E0,1.5940953E0,5.0203238E0,5.1220574E0,2.3959491E0,4.0952633E1,1.4742532E0,2.8292491E0,1.4749963E0,3.5453272E0,4.009824E0,1.1122336E0,1.0846801E0,1.311269E0,3.8030693E1,2.9219382E0],"tree_param":{"num_deleted":"0","num_feature":"30","num_nodes":"43","size_leaf_vector":"1"}},{"base_weights":[-3.4056956E-1,3.6005673E-1,-3.695512E-1,-1.0164506E-1,2.625201E-1,-4.867234E-1,-1.6771176E-1,4.810462E-2,-5.049899E-1,2.5065333E-1,-3.6519206E-1,3.0550636E-2,-5.243972E-1,5.943922E-1,-1.3172029E-1,-4.9699813E-1,2.0793453E-1,2.4008768E-2,-5.4470354E-1,9.040565E-1,-1.03365645E-1,2.8263327E-2,-1.6637938E-1,-1.1303539E-1,2.348959E-1,-1.7001888E-1,-3.5209246E-2,3.0155726E-2,3.326211E-1],"categories":[],"categories_nodes":[],"categories_segments":[],"categories_sizes":[],"default_left":[0,0,0,0,0,0,0,0,0,0,0,0,0,0,0,0,0,0,0,0,0,0,0,0,0,0,0,0,0],"id":12,"left_children":[1,3,5,-1,-1,7,9,-1,11,13,15,-1,17,19,-1,21,23,-1,25,27,-1,-1,-1,-1,-1,-1,-1,-1,-1],"loss_changes":[1.6817436E0,1.5692317E0,1.6621742E0,0E0,0E0,6.2617016E-1,2.4550943E0,0E0,5.845423E-1,2.5764768E0,1.6021931E0,0E0,5.8198357E-1,2.3302157E0,0E0,6.11629E-1,1.7795033E0,0E0,3.341608E-1,7.926359E-1,0E0,0E0,0E0,0E0,0E0,0E0,0E0,0E0,0E0],"parents":[2147483647,0,0,1,1,2,2,5,5,6,6,8,8,9,9,10,10,12,12,13,13,15,15,16,16,18,18,19,19],"right_children":[2,4,6,-1,-1,8,10,-1,12,14,16,-1,18,20,-1,22,24,-1,26,28,-1,-1,-1,-1,-1,-1,-1,-1,-1],"split_conditions":[-1.6486708E0,1.9232274E-3,2.7819386E-1,-1.0164506E-1,2.625201E-1,-1.434599E0,-4.5018566E-1,4.810462E-2,-1.3162861E0,9.0913765E-2,9.1763794E-1,3.0550636E-2,-1.672436E0,5.7656777E-1,-1.3172029E-1,-7.378697E-1,-4.1038936E-1,2.4008768E-2,1.041578E0,6.7185E-2,-1.03365645E-1,2.8263327E-2,-1.6637938E-1,-1.1303539E-1,2.348959E-1,-1.7001888E-1,-3.5209246E-2,3.0155726E-2,3.326211E-1],"split_indices":[24,23,0,0,0,15,13,0,29,25,25,0,8,7,0,24,5,0,27,4,0,0,0,0,0,0,0,0,0],"split_type":[0,0,0,0,0,0,0,0,0,0,0,0,0,0,0,0,0,0,0,0,0,0,0,0,0,0,0,0,0],"sum_hessian":[7.526993E1,2.5361178E0,7.273381E1,1.2211382E0,1.3149796E0,4.5125835E1,2.7607973E1,1.0253555E0,4.4100483E1,8.766579E0,1.8841394E1,1.2350712E0,4.286541E1,5.942971E0,2.8236077E0,1.5426483E1,3.4149103E0,1.2977048E0,4.1567707E1,4.497011E0,1.4459603E0,1.3130996E0,1.4113383E1,1.8641763E0,1.5507342E0,3.922003E1,2.347674E0,1.2156596E0,3.2813513E0],"tree_param":{"num_deleted":"0","num_feature":"30","num_nodes":"29","size_leaf_vector":"1"}},{"base_weights":[-3.6035344E-2,-3.197019E-1,8.9071125E-2,-4.0313348E-1,2.6040825E-1,3.3239302E-1,-5.870474E-2,3.8106702E-3,-1.6509673E-1,2.6620632E-1,-1.1145205E-1,3.247219E-1,1.8336497E-1,-2.6272422E-1,2.6155213E-1,4.0670344E-1,-1.3250928E-1,-3.4942746E-1,3.8759148E-1,-3.5545287E-1,4.5638967E-1,-9.792872E-2,6.2443E-1,-3.929353E-3,1.9723801E-1,4.7124017E-2,-1.4408809E-1,6.1815935E-3,6.1858606E-1,-4.2748478E-1,1.1135286E-1,3.3784162E-2,1.7482276E-1,-1.4917748E-1,5.0325835E-1,-1.1306145E-2,8.210617E-1,-9.560199E-2,1.8098561E-1,2.7667066E-1,-3.2425716E-3,-1.5108031E-1,2.4404533E-2,2.9681814E-1,-1.0383072E-1,3.3034295E-1,-7.7588884E-3],"categories":[],"categories_nodes":[],"categories_segments":[],"categories_sizes":[],"default_left":[0,0,0,0,0,0,0,0,0,0,0,0,0,0,0,0,0,0,0,0,0,0,0,0,0,0,0,0,0,0,0,0,0,0,0,0,0,0,0,0,0,0,0,0,0,0,0],"id":13,"left_children":[1,3,5,7,9,11,13,15,-1,-1,-1,-1,17,19,21,23,-1,25,27,29,31,33,35,-1,-1,-1,-1,37,39,41,-1,-1,-1,-1,43,-1,45,-1,-1,-1,-1,-1,-1,-1,-1,-1,-1],"loss_changes":[3.1244347E0,1.407773E0,2.2244315E0,1.4351754E0,1.9112217E0,2.4080825E0,2.616969E0,1.4985836E0,0E0,0E0,0E0,0E0,2.3832872E0,1.7841195E0,2.1063135E0,4.6960855E-1,0E0,4.8974413E-1,1.3536892E0,1.3157475E0,7.4067235E-2,2.3485532E0,1.0643814E0,0E0,0E0,0E0,0E0,1.5155153E0,1.8420389E0,8.3794785E-1,0E0,0E0,0E0,0E0,1.9880482E0,0E0,1.4906454E0,0E0,0E0,0E0,0E0,0E0,0E0,0E0,0E0,0E0,0E0],"parents":[2147483647,0,0,1,1,2,2,3,3,4,4,5,5,6,6,7,7,12,12,13,13,14,14,15,15,17,17,18,18,19,19,20,20,21,21,22,22,27,27,28,28,29,29,34,34,36,36],"right_children":[2,4,6,8,10,12,14,16,-1,-1,-1,-1,18,20,22,24,-1,26,28,30,32,34,36,-1,-1,-1,-1,38,40,42,-1,-1,-1,-1,44,-1,46,-1,-1,-1,-1,-1,-1,-1,-1,-1,-1],"split_conditions":[-4.1277203E-1,1.398622E0,-4.015329E-1,-9.947399E-1,1.8204596E-3,1.2940681E-1,7.312661E-1,9.932341E-1,-1.6509673E-1,2.6620632E-1,-1.1145205E-1,3.247219E-1,-6.025098E-1,1.1078775E0,2.252095E-2,-6.3807136E-1,-1.3250928E-1,-1.0864874E0,-5.6502306E-1,1.8143182E0,-3.008389E-1,-8.501259E-1,-4.3618092E-1,-3.929353E-3,1.9723801E-1,4.7124017E-2,-1.4408809E-1,1.5496029E0,-2.0630868E-1,1.6355517E0,1.1135286E-1,3.3784162E-2,1.7482276E-1,-1.4917748E-1,-2.3545986E-1,-1.1306145E-2,1.4156748E0,-9.560199E-2,1.8098561E-1,2.7667066E-1,-3.2425716E-3,-1.5108031E-1,2.4404533E-2,2.9681814E-1,-1.0383072E-1,3.3034295E-1,-7.7588884E-3],"split_indices":[5,11,11,21,15,10,12,7,0,0,0,0,13,24,13,1,0,15,24,2,0,10,20,0,0,0,0,10,24,8,0,0,0,0,13,0,12,0,0,0,0,0,0,0,0,0,0],"split_type":[0,0,0,0,0,0,0,0,0,0,0,0,0,0,0,0,0,0,0,0,0,0,0,0,0,0,0,0,0,0,0,0,0,0,0,0,0,0,0,0,0,0,0,0,0,0,0],"sum_hessian":[8.6238304E1,2.59175E1,6.032081E1,2.2925432E1,2.9920666E0,2.2320105E1,3.80007E1,6.348201E0,1.657723E1,1.2990254E0,1.6930412E0,2.661661E0,1.9658443E1,2.332266E1,1.4678043E1,3.3792753E0,2.9689255E0,5.2503047E0,1.4408139E1,2.1106691E1,2.2159681E0,7.7403183E0,6.9377255E0,1.6181068E0,1.7611684E0,1.0368694E0,4.213435E0,5.8219337E0,8.5862055E0,1.9577618E1,1.5290737E0,1.1038693E0,1.1120987E0,4.754852E0,2.9854665E0,1.7736514E0,5.1640744E0,4.072557E0,1.7493768E0,5.478059E0,3.1081467E0,1.7039036E1,2.538583E0,1.7938688E0,1.1915976E0,3.6551385E0,1.5089358E0],"tree_param":{"num_deleted":"0","num_feature":"30","num_nodes":"47","size_leaf_vector":"1"}},{"base_weights":[1.0925209E-1,-3.934115E-1,4.9407968E-1,-4.5063928E-1,2.5163883E-1,-2.0462734E-1,6.094548E-1,-1.4183761E-1,-5.3434753E-1,-9.735924E-2,1.8501304E-1,-3.9603665E-1,1.5744352E-1,-1.2775934E-1,6.721176E-1,2.301053E-1,-1.4320518E-1,1.2573035E-2,-1.6900025E-1,4.368053E-2,-1.5224844E-1,7.081492E-1,-1.0197421E-1,-1.0756492E-1,5.674755E-1,5.2476555E-1,1.0150943E0,2.760525E-1,4.399168E-3,1.9712526E-1,4.2997664E-3,1.2543286E-1,3.2424057E-1],"categories":[],"categories_nodes":[],"categories_segments":[],"categories_sizes":[],"default_left":[0,0,0,0,0,0,0,0,0,0,0,0,0,0,0,0,0,0,0,0,0,0,0,0,0,0,0,0,0,0,0,0,0],"id":14,"left_children":[1,3,5,7,9,11,13,15,17,-1,-1,19,-1,-1,21,23,-1,-1,-1,-1,-1,25,-1,-1,27,29,31,-1,-1,-1,-1,-1,-1],"loss_changes":[1.876484E1,1.6706243E0,4.543729E0,9.350462E-1,1.0581789E0,1.3970835E0,3.3548546E0,1.3204535E0,5.3147125E-1,0E0,0E0,5.1562166E-1,0E0,0E0,1.8812141E0,1.2511547E0,0E0,0E0,0E0,0E0,0E0,1.9308414E0,0E0,0E0,7.1585846E-1,1.9808197E0,1.4820385E-1,0E0,0E0,0E0,0E0,0E0,0E0],"parents":[2147483647,0,0,1,1,2,2,3,3,4,4,5,5,6,6,7,7,8,8,11,11,14,14,15,15,21,21,24,24,25,25,26,26],"right_children":[2,4,6,8,10,12,14,16,18,-1,-1,20,-1,-1,22,24,-1,-1,-1,-1,-1,26,-1,-1,28,30,32,-1,-1,-1,-1,-1,-1],"split_conditions":[5.107835E-2,1.5973947E0,-2.6696324E-1,-4.7377917E-1,-1.9717118E0,7.7662784E-1,-1.051489E0,5.9982825E-2,-1.1389092E0,-9.735924E-2,1.8501304E-1,-7.281184E-1,1.5744352E-1,-1.2775934E-1,1.3792323E0,-1.4443965E-1,-1.4320518E-1,1.2573035E-2,-1.6900025E-1,4.368053E-2,-1.5224844E-1,3.6214864E-1,-1.0197421E-1,-1.0756492E-1,2.2978522E-1,-2.9842516E-2,-7.7688944E-1,2.760525E-1,4.399168E-3,1.9712526E-1,4.2997664E-3,1.2543286E-1,3.2424057E-1],"split_indices":[5,0,23,27,7,20,15,20,13,0,0,18,0,0,7,1,0,0,0,0,0,4,0,0,7,4,9,0,0,0,0,0,0],"split_type":[0,0,0,0,0,0,0,0,0,0,0,0,0,0,0,0,0,0,0,0,0,0,0,0,0,0,0,0,0,0,0,0,0],"sum_hessian":[9.500173E1,4.1184303E1,5.3817432E1,3.8105072E1,3.07923E0,7.5175943E0,4.6299835E1,8.701069E0,2.9404005E1,1.2373868E0,1.8418434E0,6.317033E0,1.2005618E0,2.3115828E0,4.3988255E1,4.275502E0,4.425566E0,1.3868773E0,2.8017128E1,1.025792E0,5.2912407E0,4.276592E1,1.2223355E0,1.5347826E0,2.7407193E0,2.8467634E1,1.4298285E1,1.2675029E0,1.4732165E0,2.2379047E1,6.088587E0,2.1477888E0,1.2150496E1],"tree_param":{"num_deleted":"0","num_feature":"30","num_nodes":"33","size_leaf_vector":"1"}},{"base_weights":[1.0228466E-1,3.5710385E-1,-3.4593505E-1,-1.0704816E-1,4.928784E-1,1.4381397E-1,-3.9286852E-1,1.8007426E-1,-1.4383903E-1,5.774506E-1,5.5738527E-2,-5.0256103E-1,-1.682188E-1,-1.2680124E-1,5.0402325E-1,-1.1566443E-1,6.1987996E-1,3.4316468E-1,-1.3467069E-1,-1.22424215E-2,-1.625893E-1,2.2193025E-1,-3.9131892E-1,2.6015085E-1,-1.0506372E-1,3.129825E-1,7.9489607E-1,-1.6677143E-1,2.0535181E-1,-1.851947E-1,1.9807832E-1,4.133462E-2,-1.4744318E-1,5.7432663E-2,-9.9885836E-2,1.2111241E-1,-1.0739295E-1,2.538792E-1,7.049057E-2,-1.01195864E-1,2.3503335E-2,-1.05130054E-1,2.1271745E-2],"categories":[],"categories_nodes":[],"categories_segments":[],"categories_sizes":[],"default_left":[0,0,0,0,0,0,0,0,0,0,0,0,0,0,0,0,0,0,0,0,0,0,0,0,0,0,0,0,0,0,0,0,0,0,0,0,0,0,0,0,0,0,0],"id":15,"left_children":[1,3,5,7,9,-1,11,13,-1,15,17,19,21,-1,23,-1,25,27,-1,-1,-1,29,31,-1,33,35,37,39,-1,41,-1,-1,-1,-1,-1,-1,-1,-1,-1,-1,-1,-1,-1],"loss_changes":[1.0486836E1,3.7293391E0,1.4818933E0,1.5860101E0,1.6430998E0,0E0,7.076607E-1,1.9013036E0,0E0,1.786025E0,1.3800728E0,3.6174393E-1,1.1357367E0,0E0,1.4359033E0,0E0,1.7196455E0,1.1501858E0,0E0,0E0,0E0,1.0184853E0,4.931692E-1,0E0,2.7745843E-1,1.0551097E0,4.537449E-1,1.598123E-1,0E0,1.6807854E-1,0E0,0E0,0E0,0E0,0E0,0E0,0E0,0E0,0E0,0E0,0E0,0E0,0E0],"parents":[2147483647,0,0,1,1,2,2,3,3,4,4,6,6,7,7,9,9,10,10,11,11,12,12,14,14,16,16,17,17,21,21,22,22,24,24,25,25,26,26,27,27,29,29],"right_children":[2,4,6,8,10,-1,12,14,-1,16,18,20,22,-1,24,-1,26,28,-1,-1,-1,30,32,-1,34,36,38,40,-1,42,-1,-1,-1,-1,-1,-1,-1,-1,-1,-1,-1,-1,-1],"split_conditions":[-4.38568E-2,-7.2362256E-1,-1.1126256E0,-5.238547E-1,-1.0747885E-1,1.4381397E-1,-1.2327932E-1,-9.7150624E-1,-1.4383903E-1,-1.3832884E0,8.919878E-2,-1.0872259E0,-4.6310368E-1,-1.2680124E-1,3.9673042E-1,-1.1566443E-1,-2.5920838E-1,-6.373146E-1,-1.3467069E-1,-1.22424215E-2,-1.625893E-1,1.692322E0,-3.3478236E-1,2.6015085E-1,-9.2785066E-1,7.751288E-1,-3.193512E-1,3.077653E-2,2.0535181E-1,-1.1272771E-1,1.9807832E-1,4.133462E-2,-1.4744318E-1,5.7432663E-2,-9.9885836E-2,1.2111241E-1,-1.0739295E-1,2.538792E-1,7.049057E-2,-1.01195864E-1,2.3503335E-2,-1.05130054E-1,2.1271745E-2],"split_indices":[5,15,23,23,23,0,8,17,0,18,0,26,24,0,12,0,8,7,0,0,0,22,14,0,10,18,23,26,0,1,0,0,0,0,0,0,0,0,0,0,0,0,0],"split_type":[0,0,0,0,0,0,0,0,0,0,0,0,0,0,0,0,0,0,0,0,0,0,0,0,0,0,0,0,0,0,0,0,0,0,0,0,0,0,0,0,0,0,0],"sum_hessian":[8.973505E1,5.7339836E1,3.2395214E1,1.3024955E1,4.431488E1,1.2473204E0,3.1147894E1,7.646315E0,5.37864E0,3.686227E1,7.452609E0,2.0097532E1,1.1050362E1,2.566429E0,5.079886E0,1.2143342E0,3.5647938E1,4.9520645E0,2.5005445E0,1.7402151E0,1.8357317E1,4.0220304E0,7.0283318E0,2.917006E0,2.16288E0,1.3958855E1,2.1689081E1,2.1907241E0,2.7613404E0,2.3846498E0,1.6373805E0,1.0588992E0,5.9694324E0,1.0094366E0,1.1534435E0,1.264706E1,1.3117945E0,1.9398111E1,2.2909694E0,1.0700414E0,1.1206828E0,1.225561E0,1.1590889E0],"tree_param":{"num_deleted":"0","num_feature":"30","num_nodes":"43","size_leaf_vector":"1"}},{"base_weights":[6.2048588E-2,3.4456605E-1,-7.332676E-2,4.9832454E-1,-5.7086567E-3,-1.3916284E-1,4.7104323E-1,5.8885646E-1,-1.3048087E-1,-1.3881078E-1,3.7649965E-1,-2.4072167E-1,2.0412032E-1,7.078412E-1,-9.3952E-2,6.4504725E-1,-1.9663015E-2,-1.0039786E-1,4.26822E-2,7.0339054E-1,-1.17008425E-1,1.3634159E-1,-3.391811E-1,7.3704743E-1,-1.0394428E-2,2.4025576E-1,7.990705E-2,7.080122E-1,-1.4995439E-2,2.5742984E-1,3.0301198E-2,4.5595887E-1,-1.2895636E-1,1.302962E-1,-4.200542E-1,2.7876267E-1,8.165822E-2,2.8387693E-1,-3.1001842E-1,2.305673E-1,5.956945E-3,2.682939E-1,-4.887571E-2,-6.5989524E-2,2.0364897E-1,-4.993194E-2,-1.6420291E-1,-1.4914285E-2,2.0973311E-1,-1.3392836E-1,3.6916047E-2],"categories":[],"categories_nodes":[],"categories_segments":[],"categories_sizes":[],"default_left":[0,0,0,0,0,0,0,0,0,0,0,0,0,0,0,0,0,0,0,0,0,0,0,0,0,0,0,0,0,0,0,0,0,0,0,0,0,0,0,0,0,0,0,0,0,0,0,0,0,0,0],"id":16,"left_children":[1,3,5,7,9,11,13,15,17,-1,19,21,23,25,-1,27,-1,-1,-1,29,-1,31,33,35,37,-1,-1,39,-1,-1,-1,41,-1,43,45,-1,-1,47,49,-1,-1,-1,-1,-1,-1,-1,-1,-1,-1,-1,-1],"loss_changes":[3.349834E0,1.5289016E0,2.2012503E0,1.1984396E0,1.8566753E0,1.9294508E0,1.4579699E0,6.822562E-1,2.3129609E-1,0E0,1.7268455E0,1.6084583E0,1.4771831E0,9.254932E-3,0E0,7.4085474E-1,0E0,0E0,0E0,3.2529187E-1,0E0,1.9017867E0,1.3324835E0,7.7860355E-2,9.830533E-1,0E0,0E0,6.033392E-1,0E0,0E0,0E0,1.9118406E0,0E0,1.2461028E0,8.433032E-1,0E0,0E0,8.164687E-1,3.8031346E-1,0E0,0E0,0E0,0E0,0E0,0E0,0E0,0E0,0E0,0E0,0E0,0E0],"parents":[2147483647,0,0,1,1,2,2,3,3,4,4,5,5,6,6,7,7,8,8,10,10,11,11,12,12,13,13,15,15,19,19,21,21,22,22,23,23,24,24,27,27,31,31,33,33,34,34,37,37,38,38],"right_children":[2,4,6,8,10,12,14,16,18,-1,20,22,24,26,-1,28,-1,-1,-1,30,-1,32,34,36,38,-1,-1,40,-1,-1,-1,42,-1,44,46,-1,-1,48,50,-1,-1,-1,-1,-1,-1,-1,-1,-1,-1,-1,-1],"split_conditions":[-7.52151E-1,-1.1630725E-1,1.9875451E0,2.9619902E-1,-4.683231E-2,8.6660343E-1,-6.3672775E-1,1.5627252E0,-4.015329E-1,-1.3881078E-1,1.950675E-1,-1.1860704E0,-9.2367315E-1,1.378266E-1,-9.3952E-2,8.689982E-1,-1.9663015E-2,-1.0039786E-1,4.26822E-2,-1.9199772E-1,-1.17008425E-1,2.3125596E-1,-9.4321936E-1,1.2399453E0,-6.762792E-1,2.4025576E-1,7.990705E-2,1.8248549E0,-1.4995439E-2,2.5742984E-1,3.0301198E-2,1.6032735E-1,-1.2895636E-1,-4.8061766E-2,-4.680759E-1,2.7876267E-1,8.165822E-2,7.247736E-2,4.9044472E-1,2.305673E-1,5.956945E-3,2.682939E-1,-4.887571E-2,-6.5989524E-2,2.0364897E-1,-4.993194E-2,-1.6420291E-1,-1.4914285E-2,2.0973311E-1,-1.3392836E-1,3.6916047E-2],"split_indices":[15,5,18,13,2,1,6,28,11,0,12,10,3,15,0,12,0,0,0,18,0,6,22,28,28,0,0,10,0,0,0,23,0,5,29,0,0,15,22,0,0,0,0,0,0,0,0,0,0,0,0],"split_type":[0,0,0,0,0,0,0,0,0,0,0,0,0,0,0,0,0,0,0,0,0,0,0,0,0,0,0,0,0,0,0,0,0,0,0,0,0,0,0,0,0,0,0,0,0,0,0,0,0,0,0],"sum_hessian":[8.592613E1,2.7334974E1,5.8591156E1,1.8702538E1,8.632437E0,5.2933716E1,5.657441E0,1.6404274E1,2.2982647E0,3.8356602E0,4.7967763E0,4.1079338E1,1.1854377E1,4.420147E0,1.2372942E0,1.5120248E1,1.284026E0,1.184564E0,1.1137007E0,3.4204645E0,1.376312E0,8.426025E0,3.2653313E1,2.7030945E0,9.151282E0,2.9786172E0,1.4415296E0,1.384712E1,1.2731267E0,2.383753E0,1.0367113E0,5.5102124E0,2.9158127E0,4.708548E0,2.7944765E1,1.2057374E0,1.4973572E0,4.6433954E0,4.5078874E0,1.2619953E1,1.2271674E0,2.9650197E0,2.5451925E0,3.239188E0,1.4693601E0,1.0109616E1,1.7835148E1,3.0629497E0,1.5804459E0,3.404648E0,1.1032392E0],"tree_param":{"num_deleted":"0","num_feature":"30","num_nodes":"51","size_leaf_vector":"1"}},{"base_weights":[-3.082564E-1,3.2473913E-1,-3.3769706E-1,-9.283599E-2,2.1940544E-1,-4.5911616E-1,-1.4245172E-1,-5.207769E-1,-1.7330153E-1,-1.5448071E-1,7.479705E-2,3.714863E-2,-1.6473876E-1,1.8133196E-1,-1.4623025E-1,7.745122E-1,-1.495937E-1,4.152519E-2,2.8085867E-1,2.65188E-1,-4.2053735E-1,1.7176996E-1,-1.0682672E-1,3.977517E-2,-1.5295167E-1],"categories":[],"categories_nodes":[],"categories_segments":[],"categories_sizes":[],"default_left":[0,0,0,0,0,0,0,0,0,0,0,0,0,0,0,0,0,0,0,0,0,0,0,0,0],"id":17,"left_children":[1,3,5,-1,-1,7,9,11,13,-1,15,-1,-1,-1,-1,17,19,-1,-1,21,23,-1,-1,-1,-1],"loss_changes":[1.3729215E0,1.134647E0,1.4817839E0,0E0,0E0,6.109886E-1,2.1808505E0,6.5704155E-1,2.3858585E0,0E0,2.8783915E0,0E0,0E0,0E0,0E0,3.2645416E-1,1.702908E0,0E0,0E0,1.3894756E0,5.097816E-1,0E0,0E0,0E0,0E0],"parents":[2147483647,0,0,1,1,2,2,5,5,6,6,7,7,8,8,10,10,15,15,16,16,19,19,20,20],"right_children":[2,4,6,-1,-1,8,10,12,14,-1,16,-1,-1,-1,-1,18,20,-1,-1,22,24,-1,-1,-1,-1],"split_conditions":[-1.6486708E0,1.9232274E-3,2.7819386E-1,-9.283599E-2,2.1940544E-1,6.258914E-1,-9.8225015E-1,-1.2914718E0,-1.260388E-1,-1.5448071E-1,-8.0697453E-1,3.714863E-2,-1.6473876E-1,1.8133196E-1,-1.4623025E-1,1.6981557E-1,-8.585973E-1,4.152519E-2,2.8085867E-1,1.1344876E0,-8.050897E-1,1.7176996E-1,-1.0682672E-1,3.977517E-2,-1.5295167E-1],"split_indices":[24,23,0,0,0,16,10,21,28,0,15,0,0,0,0,3,3,0,0,4,9,0,0,0,0],"split_type":[0,0,0,0,0,0,0,0,0,0,0,0,0,0,0,0,0,0,0,0,0,0,0,0,0],"sum_hessian":[6.678657E1,2.5224202E0,6.4264145E1,1.0787864E0,1.4436338E0,3.8789967E1,2.5474178E1,3.123035E1,7.559617E0,8.879527E0,1.6594652E1,1.1738852E0,3.0056465E1,1.9090252E0,5.650592E0,3.4342008E0,1.3160452E1,1.0721698E0,2.362031E0,5.2083488E0,7.952103E0,3.5368743E0,1.6714742E0,1.0380272E0,6.914076E0],"tree_param":{"num_deleted":"0","num_feature":"30","num_nodes":"25","size_leaf_vector":"1"}},{"base_weights":[-2.0314954E-2,-2.886562E-1,8.932345E-2,-3.7231684E-1,2.3685534E-1,1.7143022E-2,4.6431586E-1,1.0427644E-2,-1.588834E-1,2.1774042E-1,-1.0289328E-1,1.4874925E-1,-2.2553948E-1,8.81914E-1,4.671552E-2,3.303694E-1,-1.2299939E-1,-5.5958405E-3,4.8226485E-1,-3.7868086E-1,4.284814E-1,3.2144675E-1,3.998375E-2,-1.3124076E-1,4.4668496E-1,1.6925189E-1,-1.41065335E-2,4.5251513E-1,-1.354025E-1,7.175618E-1,-2.1213788E-1,2.678558E-1,-1.6230658E-1,2.1977998E-1,-1.240823E-2,7.264541E-3,1.9056511E-1,-2.2179227E-2,2.1883635E-1,-9.403327E-2,1.2955977E-1,2.7080187E-1,-5.997694E-3,-1.05281614E-1,1.3934152E-2,1.9377872E-1,-1.02666095E-1],"categories":[],"categories_nodes":[],"categories_segments":[],"categories_sizes":[],"default_left":[0,0,0,0,0,0,0,0,0,0,0,0,0,0,0,0,0,0,0,0,0,0,0,0,0,0,0,0,0,0,0,0,0,0,0,0,0,0,0,0,0,0,0,0,0,0,0],"id":18,"left_children":[1,3,5,7,9,11,13,15,-1,-1,-1,17,19,21,23,25,-1,27,29,31,33,-1,-1,-1,35,-1,-1,37,39,41,43,45,-1,-1,-1,-1,-1,-1,-1,-1,-1,-1,-1,-1,-1,-1,-1],"loss_changes":[2.4352176E0,1.1429639E0,1.5864245E0,1.2749441E0,1.3563291E0,1.6443704E0,1.6102309E0,1.0934639E0,0E0,0E0,0E0,1.717063E0,1.9782399E0,5.212445E-1,1.3168555E0,4.322495E-1,0E0,1.4739416E0,1.8756428E0,1.7426167E0,5.8887136E-1,0E0,0E0,0E0,2.7661055E-1,0E0,0E0,8.52208E-1,2.0826547E0,1.1248188E0,1.39817E-1,1.0799835E0,0E0,0E0,0E0,0E0,0E0,0E0,0E0,0E0,0E0,0E0,0E0,0E0,0E0,0E0,0E0],"parents":[2147483647,0,0,1,1,2,2,3,3,4,4,5,5,6,6,7,7,11,11,12,12,13,13,14,14,15,15,17,17,18,18,19,19,20,20,24,24,27,27,28,28,29,29,30,30,31,31],"right_children":[2,4,6,8,10,12,14,16,-1,-1,-1,18,20,22,24,26,-1,28,30,32,34,-1,-1,-1,36,-1,-1,38,40,42,44,46,-1,-1,-1,-1,-1,-1,-1,-1,-1,-1,-1,-1,-1,-1,-1],"split_conditions":[-4.1277203E-1,1.398622E0,9.331114E-1,-9.947399E-1,1.8204596E-3,-2.8578278E-1,1.3404509E0,9.932341E-1,-1.588834E-1,2.1774042E-1,-1.0289328E-1,7.495502E-1,1.5710459E0,4.7779497E-2,1.8528548E0,8.1111825E-1,-1.2299939E-1,-1.1862981E0,2.6323664E-1,-2.9982835E-1,-3.0385077E-1,3.2144675E-1,3.998375E-2,-1.3124076E-1,-1.3162905E-1,1.6925189E-1,-1.41065335E-2,-7.407046E-1,9.438478E-1,1.8432705E0,1.1633158E-1,-2.5026608E-1,-1.6230658E-1,2.1977998E-1,-1.240823E-2,7.264541E-3,1.9056511E-1,-2.2179227E-2,2.1883635E-1,-9.403327E-2,1.2955977E-1,2.7080187E-1,-5.997694E-3,-1.05281614E-1,1.3934152E-2,1.9377872E-1,-1.02666095E-1],"split_indices":[5,11,26,21,15,9,26,7,0,0,0,25,8,4,19,10,0,17,13,27,0,0,0,0,5,0,0,13,14,25,11,28,0,0,0,0,0,0,0,0,0,0,0,0,0,0,0],"split_type":[0,0,0,0,0,0,0,0,0,0,0,0,0,0,0,0,0,0,0,0,0,0,0,0,0,0,0,0,0,0,0,0,0,0,0,0,0,0,0,0,0,0,0,0,0,0,0],"sum_hessian":[8.089639E1,2.2991539E1,5.7904858E1,2.0085478E1,2.9060612E0,4.9435062E1,8.469795E0,6.1221533E0,1.3963325E1,1.4400187E0,1.4660425E0,3.2303825E1,1.7131237E1,3.678976E0,4.7908187E0,3.598168E0,2.5239851E0,2.2755983E1,9.547842E0,1.422208E1,2.909156E0,2.5914836E0,1.0874926E0,2.1248348E0,2.6659842E0,1.9161408E0,1.6820272E0,4.4754057E0,1.8280577E1,7.1064763E0,2.441366E0,2.7239132E0,1.1498167E1,1.4265407E0,1.4826155E0,1.170816E0,1.4951682E0,1.795433E0,2.6799726E0,1.4254225E1,4.026353E0,5.501771E0,1.6047056E0,1.356231E0,1.0851349E0,1.6454409E0,1.0784721E0],"tree_param":{"num_deleted":"0","num_feature":"30","num_nodes":"47","size_leaf_vector":"1"}},{"base_weights":[8.655032E-2,-3.6256456E-1,3.874724E-1,-4.2131442E-1,2.0216969E-1,-1.8514608E-1,4.7535127E-1,-1.1752954E-1,-5.1079166E-1,-9.049417E-2,1.4458844E-1,1.456819E-1,-3.7612882E-1,-1.2118396E-1,5.2439266E-1,2.124977E-1,-1.3549371E-1,1.4167223E-2,-1.6313767E-1,-1.4778155E-1,4.461767E-2,-1.0346932E-1,5.56208E-1,-1.0095207E-1,4.963035E-1,7.553233E-1,3.572546E-1,2.3184995E-1,5.679113E-3,2.4557444E-1,-3.3149056E-2,-9.932045E-2,1.3939217E-1],"categories":[],"categories_nodes":[],"categories_segments":[],"categories_sizes":[],"default_left":[0,0,0,0,0,0,0,0,0,0,0,0,0,0,0,0,0,0,0,0,0,0,0,0,0,0,0,0,0,0,0,0,0],"id":19,"left_children":[1,3,5,7,9,11,13,15,17,-1,-1,-1,19,-1,21,23,-1,-1,-1,-1,-1,-1,25,-1,27,29,31,-1,-1,-1,-1,-1,-1],"loss_changes":[1.2452803E1,1.3150096E0,2.857401E0,8.614049E-1,7.3299897E-1,1.2128475E0,2.2813568E0,1.0896784E0,5.0239134E-1,0E0,0E0,0E0,4.9038655E-1,0E0,1.4610672E0,9.7935486E-1,0E0,0E0,0E0,0E0,0E0,0E0,1.4991388E0,0E0,4.9241376E-1,1.2636709E0,1.9451051E0,0E0,0E0,0E0,0E0,0E0,0E0],"parents":[2147483647,0,0,1,1,2,2,3,3,4,4,5,5,6,6,7,7,8,8,12,12,14,14,15,15,22,22,24,24,25,25,26,26],"right_children":[2,4,6,8,10,12,14,16,18,-1,-1,-1,20,-1,22,24,-1,-1,-1,-1,-1,-1,26,-1,28,30,32,-1,-1,-1,-1,-1,-1],"split_conditions":[5.107835E-2,1.5973947E0,-2.6696324E-1,-4.7377917E-1,-1.9717118E0,-1.0119045E0,-1.051489E0,5.9982825E-2,-1.1389092E0,-9.049417E-2,1.4458844E-1,1.456819E-1,5.780832E-1,-1.2118396E-1,-1.6829702E0,-1.4443965E-1,-1.3549371E-1,1.4167223E-2,-1.6313767E-1,-1.4778155E-1,4.461767E-2,-1.0346932E-1,-1.7375472E-1,-1.0095207E-1,2.2978522E-1,5.1598924E-1,-5.608499E-1,2.3184995E-1,5.679113E-3,2.4557444E-1,-3.3149056E-2,-9.932045E-2,1.3939217E-1],"split_indices":[5,0,23,27,7,29,15,20,13,0,0,0,1,0,11,1,0,0,0,0,0,0,28,0,7,20,6,0,0,0,0,0,0],"split_type":[0,0,0,0,0,0,0,0,0,0,0,0,0,0,0,0,0,0,0,0,0,0,0,0,0,0,0,0,0,0,0,0,0],"sum_hessian":[9.010209E1,3.6067642E1,5.4034447E1,3.289908E1,3.1685636E0,7.0419965E0,4.699245E1,8.01177E0,2.488731E1,1.1034622E0,2.0651014E0,1.2187924E0,5.823204E0,2.1001706E0,4.489228E1,4.213669E0,3.7981012E0,1.3655682E0,2.3521742E1,4.8158984E0,1.0073056E0,1.2375692E0,4.365471E1,1.3726566E0,2.8410122E0,2.0420809E1,2.32339E1,1.4070287E0,1.4339836E0,1.9081263E1,1.3395469E0,2.854452E0,2.037945E1],"tree_param":{"num_deleted":"0","num_feature":"30","num_nodes":"33","size_leaf_vector":"1"}},{"base_weights":[8.067324E-2,2.7707958E-1,-3.540578E-1,-1.2039427E-1,3.8955098E-1,1.2097616E-1,-4.0956396E-1,1.3645585E-1,-1.3993442E-1,1.7902607E-1,5.2289534E-1,-4.872487E-1,-1.02447614E-1,-1.1718202E-1,3.7503204E-1,1.2913651E-2,1.9147916E-1,3.4652885E-2,6.50407E-1,-2.432512E-2,-1.5782394E-1,2.4419582E-1,-1.2447024E-1,2.2114702E-1,-1.4369015E-1,-3.8627365E-1,2.360128E-1,3.3683875E-1,-1.3233037E-1,-1.0178944E-2,6.8596405E-1,1.8630497E-1,-9.13651E-2,-1.0664228E-1,5.657899E-2,2.8365763E-2,-1.5445441E-1,-6.088255E-2,1.4991884E-1,1.6939902E-1,-3.692297E-2,6.0335245E-2,2.2668104E-1],"categories":[],"categories_nodes":[],"categories_segments":[],"categories_sizes":[],"default_left":[0,0,0,0,0,0,0,0,0,0,0,0,0,0,0,0,0,0,0,0,0,0,0,0,0,0,0,0,0,0,0,0,0,0,0,0,0,0,0,0,0,0,0],"id":20,"left_children":[1,3,5,7,9,-1,11,13,-1,15,17,19,21,-1,23,25,-1,27,29,-1,-1,31,-1,-1,33,35,37,39,-1,-1,41,-1,-1,-1,-1,-1,-1,-1,-1,-1,-1,-1,-1],"loss_changes":[7.2839065E0,2.6634498E0,1.2845092E0,1.2789633E0,1.1936989E0,0E0,5.538492E-1,1.2306218E0,0E0,1.4642785E0,1.6928864E0,2.716961E-1,7.918102E-1,0E0,1.3166229E0,1.4445028E0,0E0,1.120761E0,5.5353546E-1,0E0,0E0,9.442311E-1,0E0,0E0,3.1240416E-1,4.0893465E-1,1.3017027E0,5.6222516E-1,0E0,0E0,5.490742E-1,0E0,0E0,0E0,0E0,0E0,0E0,0E0,0E0,0E0,0E0,0E0,0E0],"parents":[2147483647,0,0,1,1,2,2,3,3,4,4,6,6,7,7,9,9,10,10,11,11,12,12,14,14,15,15,17,17,18,18,21,21,24,24,25,25,26,26,27,27,30,30],"right_children":[2,4,6,8,10,-1,12,14,-1,16,18,20,22,-1,24,26,-1,28,30,-1,-1,32,-1,-1,34,36,38,40,-1,-1,42,-1,-1,-1,-1,-1,-1,-1,-1,-1,-1,-1,-1],"split_conditions":[5.107835E-2,-7.2362256E-1,-1.1126256E0,-5.238547E-1,-3.1217223E-1,1.2097616E-1,1.1511176E0,-9.7150624E-1,-1.3993442E-1,9.2236173E-1,-5.56285E-1,-1.0872259E0,1.3686599E0,-1.1718202E-1,3.9673042E-1,-4.7418138E-1,1.9147916E-1,-6.0052913E-1,-9.6452296E-1,-2.432512E-2,-1.5782394E-1,3.269855E-1,-1.2447024E-1,2.2114702E-1,9.754427E-1,-5.9514177E-1,2.3073591E-1,6.025535E-1,-1.3233037E-1,-1.0178944E-2,-9.572644E-1,1.8630497E-1,-9.13651E-2,-1.0664228E-1,5.657899E-2,2.8365763E-2,-1.5445441E-1,-6.088255E-2,1.4991884E-1,1.6939902E-1,-3.692297E-2,6.0335245E-2,2.2668104E-1],"split_indices":[5,15,23,23,2,0,8,17,0,20,13,26,8,0,12,7,0,16,18,0,0,5,0,0,0,25,27,10,0,0,3,0,0,0,0,0,0,0,0,0,0,0,0],"split_type":[0,0,0,0,0,0,0,0,0,0,0,0,0,0,0,0,0,0,0,0,0,0,0,0,0,0,0,0,0,0,0,0,0,0,0,0,0,0,0,0,0,0,0],"sum_hessian":[8.315873E1,5.753E1,2.5628733E1,1.267304E1,4.485696E1,1.3223197E0,2.4306414E1,7.621698E0,5.0513425E0,1.8302864E1,2.6554096E1,1.8931248E1,5.3751655E0,2.1763856E0,5.445312E0,1.4196075E1,4.10679E0,5.7622385E0,2.0791857E1,1.9214463E0,1.7009802E1,2.651728E0,2.7234375E0,2.9587095E0,2.4866025E0,4.827291E0,9.368784E0,3.7025015E0,2.059737E0,1.029212E0,1.9762646E1,1.4940629E0,1.157665E0,1.4760534E0,1.0105492E0,1.074314E0,3.7529771E0,3.6026506E0,5.7661333E0,2.3236823E0,1.3788192E0,2.9703462E0,1.67923E1],"tree_param":{"num_deleted":"0","num_feature":"30","num_nodes":"43","size_leaf_vector":"1"}},{"base_weights":[5.9195504E-2,1.5103662E-1,-2.6050264E-1,3.6031017E-1,-2.3496484E-2,-3.4608474E-1,8.958618E-2,4.592876E-1,-1.2793012E-1,-9.050487E-2,1.7808491E-1,-4.6569782E-1,8.642872E-3,-2.1723847E-1,5.4084253E-1,3.5481805E-1,-1.850256E-1,-1.5517391E-1,9.207406E-3,3.1127006E-1,-1.0840609E-1,-1.08150415E-1,2.1362592E-2,5.833112E-1,-2.7470822E-2,1.6589066E-1,-3.0663157E-2,-6.1866804E-4,-4.6187896E-1,1.3584928E-1,8.383636E-3,6.2283613E-2,2.0688045E-1,6.713088E-2,-1.14760205E-1,-1.5846585E-1,2.7826015E-2],"categories":[],"categories_nodes":[],"categories_segments":[],"categories_sizes":[],"default_left":[0,0,0,0,0,0,0,0,0,0,0,0,0,0,0,0,0,0,0,0,0,0,0,0,0,0,0,0,0,0,0,0,0,0,0,0,0],"id":21,"left_children":[1,3,5,7,9,11,-1,13,-1,15,-1,17,19,21,23,25,27,-1,-1,29,-1,-1,-1,31,-1,-1,-1,33,35,-1,-1,-1,-1,-1,-1,-1,-1],"loss_changes":[2.4162946E0,2.3285997E0,9.853977E-1,2.449967E0,1.5247875E0,7.0197904E-1,0E0,1.5627098E0,0E0,1.4529119E0,0E0,3.3111358E-1,6.8686795E-1,1.7160101E-1,6.8893147E-1,6.101397E-1,1.4212723E0,0E0,0E0,1.22068316E-1,0E0,0E0,0E0,7.4770355E-1,0E0,0E0,0E0,1.6036274E0,4.5853782E-1,0E0,0E0,0E0,0E0,0E0,0E0,0E0,0E0],"parents":[2147483647,0,0,1,1,2,2,3,3,4,4,5,5,7,7,9,9,11,11,12,12,13,13,14,14,15,15,16,16,19,19,23,23,27,27,28,28],"right_children":[2,4,6,8,10,12,-1,14,-1,16,-1,18,20,22,24,26,28,-1,-1,30,-1,-1,-1,32,-1,-1,-1,34,36,-1,-1,-1,-1,-1,-1,-1,-1],"split_conditions":[4.2488384E-1,-3.3551645E-1,1.8374934E0,6.8211883E-1,1.3792323E0,6.075984E-1,8.958618E-2,-7.9657274E-1,-1.2793012E-1,-7.436449E-1,1.7808491E-1,1.0680172E0,5.608435E-2,-4.11047E-1,1.435324E0,2.4214794E-1,-1.1115881E-1,-1.5517391E-1,9.207406E-3,-5.716898E-1,-1.0840609E-1,-1.08150415E-1,2.1362592E-2,-9.834761E-1,-2.7470822E-2,1.6589066E-1,-3.0663157E-2,3.5375556E-1,1.9789768E0,1.3584928E-1,8.383636E-3,6.2283613E-2,2.0688045E-1,6.713088E-2,-1.14760205E-1,-1.5846585E-1,2.7826015E-2],"split_indices":[15,5,23,13,7,13,0,7,0,23,0,10,28,22,29,29,7,0,0,3,0,0,0,12,0,0,0,12,18,0,0,0,0,0,0,0,0],"split_type":[0,0,0,0,0,0,0,0,0,0,0,0,0,0,0,0,0,0,0,0,0,0,0,0,0,0,0,0,0,0,0,0,0,0,0,0,0],"sum_hessian":[7.9954796E1,6.2521523E1,1.7433273E1,2.7947142E1,3.4574383E1,1.5449517E1,1.9837556E0,2.5193813E1,2.7533276E0,3.1957644E1,2.6167371E0,1.1319713E1,4.129805E0,2.531386E0,2.2662428E1,5.113263E0,2.6844381E1,1.0216719E1,1.1029937E0,2.3590305E0,1.7707745E0,1.5244414E0,1.0069444E0,2.130909E1,1.353339E0,3.420387E0,1.6928761E0,1.6713837E1,1.0130545E1,1.1741166E0,1.1849139E0,5.350432E0,1.5958657E1,1.0789011E1,5.924825E0,9.090801E0,1.0397432E0],"tree_param":{"num_deleted":"0","num_feature":"30","num_nodes":"37","size_leaf_vector":"1"}},{"base_weights":[-2.7955642E-1,-1.5750378E-1,-1.8751429E-1,9.2293814E-2,-3.013959E-1,4.9868473E-1,-1.9372977E-1,-4.9059418E-1,-3.9425276E-2,-9.0963036E-2,7.416353E-1,4.59841E-1,-1.4377218E-1,2.3958791E-2,-1.5935415E-1,-1.3648944E-1,1.8245937E-1,9.198275E-3,2.8372937E-1,1.962106E-1,2.1227285E-2,3.6686796E-1,-1.1338991E-1,-9.258287E-2,1.5942591E-1],"categories":[],"categories_nodes":[],"categories_segments":[],"categories_sizes":[],"default_left":[0,0,0,0,0,0,0,0,0,0,0,0,0,0,0,0,0,0,0,0,0,0,0,0,0],"id":22,"left_children":[1,-1,3,5,7,9,11,13,15,-1,17,19,-1,-1,-1,-1,21,-1,-1,-1,-1,23,-1,-1,-1],"loss_changes":[1.2573686E0,0E0,1.4681593E0,1.7054354E0,1.5845885E0,1.3932487E0,1.8706164E0,4.754405E-1,1.4344906E0,0E0,6.811123E-1,1.9543779E-1,0E0,0E0,0E0,0E0,1.1999633E0,0E0,0E0,0E0,0E0,1.0792409E0,0E0,0E0,0E0],"parents":[2147483647,0,0,2,2,3,3,4,4,5,5,6,6,7,7,8,8,10,10,11,11,16,16,21,21],"right_children":[2,-1,4,6,8,10,12,14,16,-1,18,20,-1,-1,-1,-1,22,-1,-1,-1,-1,24,-1,-1,-1],"split_conditions":[-5.8592373E-1,-1.5750378E-1,-1.260388E-1,-8.424104E-1,2.400786E-1,-1.8120544E-1,-1.0097439E0,-1.5389583E0,-6.530223E-1,-9.0963036E-2,-9.437037E-1,-4.4746655E-1,-1.4377218E-1,2.3958791E-2,-1.5935415E-1,-1.3648944E-1,3.6813182E-1,9.198275E-3,2.8372937E-1,1.962106E-1,2.1227285E-2,-9.871778E-1,-1.1338991E-1,-9.258287E-2,1.5942591E-1],"split_indices":[28,0,28,15,14,4,17,24,5,0,10,2,0,0,0,0,5,0,0,0,0,10,0,0,0],"split_type":[0,0,0,0,0,0,0,0,0,0,0,0,0,0,0,0,0,0,0,0,0,0,0,0,0],"sum_hessian":[5.9012268E1,1.4810869E1,4.4201397E1,1.2840858E1,3.1360538E1,4.997191E0,7.843668E0,1.7702719E1,1.365782E1,1.1042886E0,3.8929021E0,2.1990867E0,5.6445813E0,1.1115613E0,1.6591158E1,4.38857E0,9.26925E0,1.1249496E0,2.7679527E0,1.0126846E0,1.1864022E0,7.234205E0,2.0350456E0,1.245603E0,5.9886017E0],"tree_param":{"num_deleted":"0","num_feature":"30","num_nodes":"25","size_leaf_vector":"1"}},{"base_weights":[-6.923365E-3,-3.1472155E-1,7.03541E-2,-4.465015E-1,2.4643324E-1,-3.6535558E-1,1.2089442E-1,4.998901E-2,-1.5369657E-1,1.8452229E-1,-9.037335E-2,-1.4692901E-1,4.3868016E-2,1.913607E-1,-2.4010088E-1,-1.2296264E-1,2.3264737E-1,2.3319018E-1,-1.4609848E-1,3.0130652E-1,-1.7812403E-1,1.9026329E-1,-9.82532E-2,1.7720595E-1,5.257031E-2,-1.1024676E-1,1.1917633E-1],"categories":[],"categories_nodes":[],"categories_segments":[],"categories_sizes":[],"default_left":[0,0,0,0,0,0,0,0,0,0,0,0,0,0,0,0,0,0,0,0,0,0,0,0,0,0,0],"id":23,"left_children":[1,3,5,7,9,11,13,-1,-1,-1,-1,-1,-1,15,17,-1,19,21,-1,23,25,-1,-1,-1,-1,-1,-1],"loss_changes":[1.8424783E0,1.2592643E0,1.4092305E0,6.076226E-1,9.120896E-1,4.9751043E-1,1.4780432E0,0E0,0E0,0E0,0E0,0E0,0E0,1.2784117E0,1.2397931E0,0E0,1.329442E0,1.1026968E0,0E0,1.3240047E0,9.2029357E-1,0E0,0E0,0E0,0E0,0E0,0E0],"parents":[2147483647,0,0,1,1,2,2,3,3,4,4,5,5,6,6,13,13,14,14,16,16,17,17,19,19,20,20],"right_children":[2,4,6,8,10,12,14,-1,-1,-1,-1,-1,-1,16,18,-1,20,22,-1,24,26,-1,-1,-1,-1,-1,-1],"split_conditions":[-6.293295E-1,1.398622E0,-1.2042769E0,-1.1825216E0,1.8204596E-3,7.593636E-1,6.9991845E-1,4.998901E-2,-1.5369657E-1,1.8452229E-1,-9.037335E-2,-1.4692901E-1,4.3868016E-2,-1.3567238E0,-5.098693E-1,-1.2296264E-1,1.0381324E0,-2.0893781E-1,-1.4609848E-1,-8.238441E-1,5.8840543E-1,1.9026329E-1,-9.82532E-2,1.7720595E-1,5.257031E-2,-1.1024676E-1,1.1917633E-1],"split_indices":[5,11,25,17,15,5,15,0,0,0,0,0,0,3,8,0,1,1,0,11,22,0,0,0,0,0,0],"split_type":[0,0,0,0,0,0,0,0,0,0,0,0,0,0,0,0,0,0,0,0,0,0,0,0,0,0,0],"sum_hessian":[7.553018E1,1.45408745E1,6.098931E1,1.1941001E1,2.599873E0,5.6917315E0,5.529758E1,1.0091318E0,1.09318695E1,1.4803756E0,1.1194973E0,4.6126633E0,1.0790684E0,4.6659546E1,8.638034E0,2.424551E0,4.4234993E1,2.9803214E0,5.657713E0,3.8128433E1,6.106561E0,1.6611445E0,1.3191769E0,1.0452033E1,2.7676401E1,4.866301E0,1.2402598E0],"tree_param":{"num_deleted":"0","num_feature":"30","num_nodes":"27","size_leaf_vector":"1"}},{"base_weights":[6.735122E-2,-2.5135097E-1,3.768868E-1,-3.856172E-1,-2.535353E-4,-8.8631265E-2,4.6087554E-1,-4.411719E-1,7.180099E-2,1.8022916E-1,-1.4429092E-1,2.6798156E-1,-1.366037E-1,-1.2158241E-1,5.180199E-1,-3.5680752E-2,-4.9739662E-1,2.6151856E-2,-1.4687034E-1,-4.2161677E-2,1.7499053E-1,5.683543E-1,-7.710517E-2,-1.1172151E-1,1.3437137E-1,-1.5923755E-1,-1.3701843E-2,-2.2476773E-1,3.4161654E-1,5.999957E-1,-2.2876402E-2,-1.3996595E-1,1.04377545E-1,-1.3598745E-1,8.1304625E-2,1.5849386E-1,-1.3069044E-2,1.9222338E-1,1.1523723E-2],"categories":[],"categories_nodes":[],"categories_segments":[],"categories_sizes":[],"default_left":[0,0,0,0,0,0,0,0,0,0,0,0,0,0,0,0,0,0,0,0,0,0,0,0,0,0,0,0,0,0,0,0,0,0,0,0,0,0,0],"id":24,"left_children":[1,3,5,7,9,11,13,15,-1,-1,17,19,-1,-1,21,23,25,27,-1,-1,-1,29,31,-1,-1,-1,-1,33,35,37,-1,-1,-1,-1,-1,-1,-1,-1,-1],"loss_changes":[8.480377E0,1.4321332E0,1.7424979E0,1.0666122E0,1.4546447E0,1.1016384E0,2.042839E0,5.698166E-1,0E0,0E0,8.1041956E-1,6.522703E-1,0E0,0E0,1.0976048E0,8.5325116E-1,3.1602812E-1,8.701957E-1,0E0,0E0,0E0,7.097492E-1,7.6216996E-1,0E0,0E0,0E0,0E0,8.2370734E-1,3.708803E-1,6.880884E-1,0E0,0E0,0E0,0E0,0E0,0E0,0E0,0E0,0E0],"parents":[2147483647,0,0,1,1,2,2,3,3,4,4,5,5,6,6,7,7,10,10,11,11,14,14,15,15,16,16,17,17,21,21,22,22,27,27,28,28,29,29],"right_children":[2,4,6,8,10,12,14,16,-1,-1,18,20,-1,-1,22,24,26,28,-1,-1,-1,30,32,-1,-1,-1,-1,34,36,38,-1,-1,-1,-1,-1,-1,-1,-1,-1],"split_conditions":[2.9866716E-1,-1.1630725E-1,-1.2002436E-1,1.8143182E0,-1.0678918E0,5.6677896E-1,-1.1659997E0,-8.866668E-1,7.180099E-2,1.8022916E-1,2.887159E-1,-2.483855E-1,-1.366037E-1,-1.2158241E-1,6.9611555E-1,-5.1613927E-1,1.8022021E0,-1.56331E-1,-1.4687034E-1,-4.2161677E-2,1.7499053E-1,2.7529778E0,1.0199873E0,-1.1172151E-1,1.3437137E-1,-1.5923755E-1,-1.3701843E-2,5.169074E-1,-1.3216531E-1,1.2817963E0,-2.2876402E-2,-1.3996595E-1,1.04377545E-1,-1.3598745E-1,8.1304625E-2,1.5849386E-1,-1.3069044E-2,1.9222338E-1,1.1523723E-2],"split_indices":[5,5,23,2,3,5,0,6,0,0,23,9,0,0,2,23,0,9,0,0,0,16,10,0,0,0,0,24,17,14,0,0,0,0,0,0,0,0,0],"split_type":[0,0,0,0,0,0,0,0,0,0,0,0,0,0,0,0,0,0,0,0,0,0,0,0,0,0,0,0,0,0,0,0,0,0,0,0,0,0,0],"sum_hessian":[8.400429E1,4.148191E1,4.252238E1,2.6679945E1,1.4801965E1,6.490834E0,3.6031544E1,2.4771938E1,1.9080062E0,2.2485728E0,1.2553392E1,3.4272387E0,3.0635955E0,1.8530055E0,3.417854E1,3.2156153E0,2.1556324E1,9.023354E0,3.530038E0,1.734441E0,1.6927978E0,3.1554697E1,2.6238422E0,2.03119E0,1.1844254E0,1.9909418E1,1.6469058E0,5.185961E0,3.8373935E0,3.0144241E1,1.4104562E0,1.3182544E0,1.3055878E0,3.6084201E0,1.5775404E0,2.334341E0,1.5030525E0,2.7973503E1,2.1707392E0],"tree_param":{"num_deleted":"0","num_feature":"30","num_nodes":"39","size_leaf_vector":"1"}},{"base_weights":[6.926822E-2,2.3782323E-1,-3.298825E-1,-1.09848E-1,3.3233118E-1,1.0928534E-1,-3.8894874E-1,1.2532133E-1,-1.3407107E-1,-1.068456E-1,3.5894746E-1,-9.52364E-2,-4.720809E-1,-1.5053792E-1,1.511463E-1,4.1816193E-1,3.7849255E-2,2.658894E-1,-1.21036746E-1,-1.5494594E-1,3.1798612E-2,8.723728E-2,-1.2599958E-1,-1.00627154E-1,4.6661586E-1,-3.833721E-1,1.6261643E-1,1.24018304E-1,6.6594547E-4,8.10222E-2,-1.167091E-1,1.6576807E-1,4.7528964E-2,-1.3585337E-2,-1.3866054E-1],"categories":[],"categories_nodes":[],"categories_segments":[],"categories_sizes":[],"default_left":[0,0,0,0,0,0,0,0,0,0,0,0,0,0,0,0,0,0,0,0,0,0,0,0,0,0,0,0,0,0,0,0,0,0,0],"id":25,"left_children":[1,3,5,7,9,-1,11,13,-1,-1,15,17,19,21,-1,23,25,27,-1,-1,-1,-1,-1,29,31,33,-1,-1,-1,-1,-1,-1,-1,-1,-1],"loss_changes":[5.2710447E0,1.8386192E0,1.0984304E0,1.0447545E0,9.22627E-1,0E0,4.9191976E-1,9.245589E-1,0E0,0E0,7.8761005E-1,7.866064E-1,4.8817182E-1,7.7282834E-1,0E0,9.412675E-1,1.8386326E0,1.3183023E-1,0E0,0E0,0E0,0E0,0E0,5.1791567E-1,7.789879E-1,1.06179774E-1,0E0,0E0,0E0,0E0,0E0,0E0,0E0,0E0,0E0],"parents":[2147483647,0,0,1,1,2,2,3,3,4,4,6,6,7,7,10,10,11,11,12,12,13,13,15,15,16,16,17,17,23,23,24,24,25,25],"right_children":[2,4,6,8,10,-1,12,14,-1,-1,16,18,20,22,-1,24,26,28,-1,-1,-1,-1,-1,30,32,34,-1,-1,-1,-1,-1,-1,-1,-1,-1],"split_conditions":[5.107835E-2,-7.2362256E-1,-1.5097572E0,-5.238547E-1,-1.3832884E0,1.0928534E-1,-8.22825E-1,-1.5160595E-1,-1.3407107E-1,-1.068456E-1,1.0219357E0,1.95309E-1,1.5230824E0,-6.917398E-1,1.511463E-1,-9.6384245E-1,9.391837E-3,-1.9831145E-1,-1.21036746E-1,-1.5494594E-1,3.1798612E-2,8.723728E-2,-1.2599958E-1,-3.3644947E-1,7.0346224E-1,7.3035496E-1,1.6261643E-1,1.24018304E-1,6.6594547E-4,8.10222E-2,-1.167091E-1,1.6576807E-1,4.7528964E-2,-1.3585337E-2,-1.3866054E-1],"split_indices":[5,15,25,23,18,0,28,13,0,0,4,23,21,26,0,24,20,1,0,0,0,0,0,4,10,12,0,0,0,0,0,0,0,0,0],"split_type":[0,0,0,0,0,0,0,0,0,0,0,0,0,0,0,0,0,0,0,0,0,0,0,0,0,0,0,0,0,0,0,0,0,0,0],"sum_hessian":[7.618014E1,5.3846E1,2.2334135E1,1.1473933E1,4.2372066E1,1.346164E0,2.0987972E1,7.128469E0,4.345464E0,1.1162795E0,4.1255787E1,5.1032825E0,1.5884689E1,4.4716816E0,2.6567874E0,3.457706E1,6.678725E0,2.413195E0,2.6900873E0,1.4850476E1,1.0342128E0,1.6652075E0,2.8064742E0,2.8615968E0,3.1715466E1,3.7693777E0,2.9093473E0,1.1833453E0,1.2298497E0,1.2799532E0,1.5816436E0,2.4179531E1,7.5359344E0,1.0103995E0,2.7589781E0],"tree_param":{"num_deleted":"0","num_feature":"30","num_nodes":"35","size_leaf_vector":"1"}},{"base_weights":[5.3352058E-2,1.07284226E-1,-3.741741E-1,7.674284E-3,3.2586524E-1,-1.4366683E-1,6.381216E-2,3.223229E-1,-7.8568056E-2,-8.788964E-2,3.74141E-1,4.9269143E-1,-1.513827E-1,6.331398E-2,-3.5087258E-1,-5.3872555E-2,4.3951714E-1,-2.7609477E-2,6.5487236E-1,-1.0451606E-1,5.211481E-2,-1.996136E-1,3.2794496E-1,-4.6196288E-1,6.1278187E-2,5.1109046E-1,-4.1580237E-2,2.3672843E-1,1.4143866E-2,-9.9732414E-2,1.7294951E-1,1.4302938E-1,-5.5365093E-2,-1.5635717E-1,1.0163868E-2,1.07767686E-1,-9.417333E-2,3.7597593E-2,1.8370695E-1],"categories":[],"categories_nodes":[],"categories_segments":[],"categories_sizes":[],"default_left":[0,0,0,0,0,0,0,0,0,0,0,0,0,0,0,0,0,0,0,0,0,0,0,0,0,0,0,0,0,0,0,0,0,0,0,0,0,0,0],"id":26,"left_children":[1,3,5,7,9,-1,-1,11,13,-1,15,17,19,21,23,-1,25,-1,27,-1,-1,29,31,33,35,37,-1,-1,-1,-1,-1,-1,-1,-1,-1,-1,-1,-1,-1],"loss_changes":[1.7905071E0,1.4821193E0,6.38155E-1,1.3241899E0,7.465894E-1,0E0,0E0,9.214189E-1,1.5047202E0,0E0,8.108144E-1,8.144095E-1,2.8727713E-1,1.8796982E0,6.3714266E-1,0E0,8.310728E-1,0E0,4.8068094E-1,0E0,0E0,1.6040771E0,1.1079793E0,3.2869887E-1,5.2705574E-1,5.702615E-1,0E0,0E0,0E0,0E0,0E0,0E0,0E0,0E0,0E0,0E0,0E0,0E0,0E0],"parents":[2147483647,0,0,1,1,2,2,3,3,4,4,7,7,8,8,10,10,11,11,12,12,13,13,14,14,16,16,18,18,21,21,22,22,23,23,24,24,25,25],"right_children":[2,4,6,8,10,-1,-1,12,14,-1,16,18,20,22,24,-1,26,-1,28,-1,-1,30,32,34,36,38,-1,-1,-1,-1,-1,-1,-1,-1,-1,-1,-1,-1,-1],"split_conditions":[8.6640316E-1,8.372597E-1,2.631148E0,-1.1860704E0,-4.2126855E-1,-1.4366683E-1,6.381216E-2,-2.0232561E-1,-3.7909996E-2,-8.788964E-2,-1.5924166E0,-6.306289E-1,2.6739419E-1,-2.0570531E-1,1.0028267E0,-5.3872555E-2,1.8248549E0,-2.7609477E-2,1.3426316E-1,-1.0451606E-1,5.211481E-2,-1.3616678E-1,6.5822405E-1,1.7735054E0,1.6981557E-1,-5.856702E-1,-4.1580237E-2,2.3672843E-1,1.4143866E-2,-9.9732414E-2,1.7294951E-1,1.4302938E-1,-5.5365093E-2,-1.5635717E-1,1.0163868E-2,1.07767686E-1,-9.417333E-2,3.7597593E-2,1.8370695E-1],"split_indices":[15,10,15,10,1,0,0,18,20,0,8,3,16,10,1,0,10,0,19,0,0,20,10,8,3,18,0,0,0,0,0,0,0,0,0,0,0,0,0],"split_type":[0,0,0,0,0,0,0,0,0,0,0,0,0,0,0,0,0,0,0,0,0,0,0,0,0,0,0,0,0,0,0,0,0,0,0,0,0,0,0],"sum_hessian":[7.491329E1,6.718678E1,7.726514E0,4.686497E1,2.0321808E1,6.712784E0,1.0137302E0,9.493016E0,3.7371956E1,1.1038136E0,1.9217995E1,6.952475E0,2.540541E0,2.5074554E1,1.2297403E1,1.8449577E0,1.7373037E1,1.6035639E0,5.3489113E0,1.5373187E0,1.0032222E0,1.2701E1,1.2373553E1,9.591319E0,2.7060843E0,1.5562304E1,1.8107339E0,4.1368155E0,1.2120954E0,1.133306E1,1.3679397E0,9.643089E0,2.7304645E0,8.52223E0,1.069089E0,1.532018E0,1.1740664E0,3.7010453E0,1.18612585E1],"tree_param":{"num_deleted":"0","num_feature":"30","num_nodes":"39","size_leaf_vector":"1"}},{"base_weights":[-2.54524E-1,-1.5246265E-1,-1.6565426E-1,9.2441805E-2,-2.7592492E-1,4.2260358E-1,-1.6310525E-1,-4.7110882E-1,-3.1166837E-2,-2.370549E-2,6.1483E-1,4.1022673E-1,-1.373566E-1,1.9185567E-2,-1.5465106E-1,-1.3247313E-1,1.7235218E-1,2.3476101E-1,5.252422E-2,1.8320532E-1,1.2518735E-2,-1.10234894E-1,3.589772E-1,-9.9111296E-2,1.6832414E-1],"categories":[],"categories_nodes":[],"categories_segments":[],"categories_sizes":[],"default_left":[0,0,0,0,0,0,0,0,0,0,0,0,0,0,0,0,0,0,0,0,0,0,0,0,0],"id":27,"left_children":[1,-1,3,5,7,9,11,13,15,-1,17,19,-1,-1,-1,-1,21,-1,-1,-1,-1,-1,23,-1,-1],"loss_changes":[1.1178412E0,0E0,1.1914879E0,1.1668582E0,1.3686044E0,6.228986E-1,1.5493553E0,4.13939E-1,1.2385585E0,0E0,1.8895388E-1,2.155546E-1,0E0,0E0,0E0,0E0,1.1416161E0,0E0,0E0,0E0,0E0,0E0,1.2934774E0,0E0,0E0],"parents":[2147483647,0,0,2,2,3,3,4,4,5,5,6,6,7,7,8,8,10,10,11,11,16,16,22,22],"right_children":[2,-1,4,6,8,10,12,14,16,-1,18,20,-1,-1,-1,-1,22,-1,-1,-1,-1,-1,24,-1,-1],"split_conditions":[-5.8592373E-1,-1.5246265E-1,-1.260388E-1,-8.424104E-1,2.400786E-1,-4.8904303E-1,-1.0097439E0,-1.5389583E0,-6.696946E-1,-2.370549E-2,-2.8038502E-1,4.8079634E-1,-1.373566E-1,1.9185567E-2,-1.5465106E-1,-1.3247313E-1,-9.871778E-1,2.3476101E-1,5.252422E-2,1.8320532E-1,1.2518735E-2,-1.10234894E-1,-7.7908427E-1,-9.9111296E-2,1.6832414E-1],"split_indices":[28,0,28,15,14,24,17,24,23,0,11,1,0,0,0,0,10,0,0,0,0,0,26,0,0],"split_type":[0,0,0,0,0,0,0,0,0,0,0,0,0,0,0,0,0,0,0,0,0,0,0,0,0],"sum_hessian":[5.2317085E1,1.2348589E1,3.99685E1,1.2012979E1,2.7955519E1,4.9560885E0,7.05689E0,1.50383215E1,1.2917198E1,1.5362136E0,3.419875E0,2.2630832E0,4.793807E0,1.1184027E0,1.3919919E1,3.8943205E0,9.022878E0,1.9114143E0,1.5084605E0,1.0400711E0,1.2230121E0,2.069128E0,6.953749E0,1.4326162E0,5.521133E0],"tree_param":{"num_deleted":"0","num_feature":"30","num_nodes":"25","size_leaf_vector":"1"}},{"base_weights":[-1.9455398E-3,-2.3451395E-1,7.879474E-2,2.3851532E-1,-3.2897985E-1,-1.2925945E-1,1.15386546E-1,-2.369061E-2,1.5447772E-1,5.9552107E-2,-4.1470936E-1,3.3931467E-1,7.4237618E-3,5.431039E-2,-1.5304056E-1,4.6310136E-1,-1.14662305E-1,-2.7158993E-1,1.320613E-1,-1.2573981E-1,6.237156E-1,-4.288438E-1,1.373005E-1,3.4897387E-1,-1.12307474E-1,9.663124E-2,-1.2024634E-1,2.122996E-2,2.2464508E-1,2.1611363E-2,-1.5251487E-1,1.1080811E-1,-2.7950814E-2,-1.073279E-1,1.4303754E-1,7.671517E-2,-9.705294E-2],"categories":[],"categories_nodes":[],"categories_segments":[],"categories_sizes":[],"default_left":[0,0,0,0,0,0,0,0,0,0,0,0,0,0,0,0,0,0,0,0,0,0,0,0,0,0,0,0,0,0,0,0,0,0,0,0,0],"id":28,"left_children":[1,3,5,7,9,-1,11,-1,-1,-1,13,15,17,-1,-1,19,-1,21,23,25,27,29,31,33,35,-1,-1,-1,-1,-1,-1,-1,-1,-1,-1,-1,-1],"loss_changes":[1.3768026E0,9.227016E-1,1.0650685E0,3.67523E-1,8.13473E-1,0E0,1.2446208E0,0E0,0E0,0E0,9.014125E-1,1.673772E0,1.2817953E0,0E0,0E0,1.4740343E0,0E0,7.9124475E-1,1.3875659E0,6.212204E-1,7.606263E-1,3.740133E-1,2.4412799E-1,1.4098965E0,1.0712978E0,0E0,0E0,0E0,0E0,0E0,0E0,0E0,0E0,0E0,0E0,0E0,0E0],"parents":[2147483647,0,0,1,1,2,2,3,3,4,4,6,6,10,10,11,11,12,12,15,15,17,17,18,18,19,19,20,20,21,21,22,22,23,23,24,24],"right_children":[2,4,6,8,10,-1,12,-1,-1,-1,14,16,18,-1,-1,20,-1,22,24,26,28,30,32,34,36,-1,-1,-1,-1,-1,-1,-1,-1,-1,-1,-1,-1],"split_conditions":[-4.1277203E-1,-7.82337E-1,-1.3658508E0,-8.271827E-1,-1.3437229E0,-1.2925945E-1,-5.829425E-1,-2.369061E-2,1.5447772E-1,5.9552107E-2,-7.5910556E-1,1.4397961E0,-5.1579034E-1,5.431039E-2,-1.5304056E-1,-5.382667E-1,-1.14662305E-1,7.7641827E-1,-2.2381379E-1,-8.53626E-1,-9.0104574E-1,-3.3103177E-1,-5.187533E-1,-1.1682585E0,-5.11099E-1,9.663124E-2,-1.2024634E-1,2.122996E-2,2.2464508E-1,2.1611363E-2,-1.5251487E-1,1.1080811E-1,-2.7950814E-2,-1.073279E-1,1.4303754E-1,7.671517E-2,-9.705294E-2],"split_indices":[5,18,25,5,19,0,8,0,0,0,9,5,18,0,0,4,0,10,7,29,22,5,26,0,4,0,0,0,0,0,0,0,0,0,0,0,0],"split_type":[0,0,0,0,0,0,0,0,0,0,0,0,0,0,0,0,0,0,0,0,0,0,0,0,0,0,0,0,0,0,0,0,0,0,0,0,0],"sum_hessian":[7.1337326E1,1.7892967E1,5.344436E1,2.72465E0,1.5168317E1,2.8583035E0,5.0586056E1,1.6005595E0,1.1240906E0,1.9366652E0,1.3231651E1,1.57583685E1,3.4827686E1,1.7029573E0,1.1528694E1,1.3756432E1,2.001937E0,1.0389873E1,2.4437815E1,2.994645E0,1.0761786E1,7.4687076E0,2.921165E0,1.2719425E1,1.1718389E1,1.0744516E0,1.9201934E0,2.2744353E0,8.487351E0,1.0364125E0,6.432295E0,1.1552773E0,1.7658877E0,1.6725495E0,1.1046876E1,4.195999E0,7.52239E0],"tree_param":{"num_deleted":"0","num_feature":"30","num_nodes":"37","size_leaf_vector":"1"}},{"base_weights":[5.523545E-2,-3.5788453E-1,2.3429848E-1,-4.1886517E-1,6.784634E-2,-1.3539164E-1,2.9242495E-1,-4.777126E-1,-1.1933285E-2,3.6274058E-1,-1.0912807E-1,-1.5433958E-1,-1.3928886E-2,1.0748754E-1,-1.01220794E-1,3.9853126E-1,-1.2769754E-1,-1.516342E-1,3.4669358E-1,-1.3692968E-1,4.4119486E-1,-3.5086963E-2,1.6647816E-1,1.06537364E-1,-1.3877717E-1,1.4136946E-1,-1.0546992E-1],"categories":[],"categories_nodes":[],"categories_segments":[],"categories_sizes":[],"default_left":[0,0,0,0,0,0,0,0,0,0,0,0,0,0,0,0,0,0,0,0,0,0,0,0,0,0,0],"id":29,"left_children":[1,3,5,7,-1,-1,9,11,13,15,17,-1,-1,-1,-1,19,-1,-1,21,23,25,-1,-1,-1,-1,-1,-1],"loss_changes":[5.862685E0,9.501021E-1,2.3278854E0,5.2345896E-1,0E0,0E0,1.4909539E0,2.817135E-1,5.808761E-1,1.4104643E0,1.6978458E0,0E0,0E0,0E0,0E0,1.0331583E0,0E0,0E0,5.006327E-1,7.900997E-1,1.1104121E0,0E0,0E0,0E0,0E0,0E0,0E0],"parents":[2147483647,0,0,1,1,2,2,3,3,6,6,7,7,8,8,9,9,10,10,15,15,18,18,19,19,20,20],"right_children":[2,4,6,8,-1,-1,10,12,14,16,18,-1,-1,-1,-1,20,-1,-1,22,24,26,-1,-1,-1,-1,-1,-1],"split_conditions":[-1.1630725E-1,1.8143182E0,-9.408261E-1,1.4646746E0,6.784634E-2,-1.3539164E-1,6.015002E-1,1.8022021E0,1.5266731E0,1.1612194E0,-5.49828E-1,-1.5433958E-1,-1.3928886E-2,1.0748754E-1,-1.01220794E-1,-7.654108E-1,-1.2769754E-1,-1.516342E-1,9.539814E-1,-8.787424E-1,1.6355517E0,-3.5086963E-2,1.6647816E-1,1.06537364E-1,-1.3877717E-1,1.4136946E-1,-1.0546992E-1],"split_indices":[5,2,15,3,0,0,18,0,3,26,6,0,0,0,0,22,0,0,18,21,8,0,0,0,0,0,0],"split_type":[0,0,0,0,0,0,0,0,0,0,0,0,0,0,0,0,0,0,0,0,0,0,0,0,0,0,0],"sum_hessian":[7.711925E1,2.3017183E1,5.4102066E1,2.1097197E1,1.9199867E0,3.6997037E0,5.040236E1,1.8279776E1,2.8174214E0,4.2973892E1,7.428469E0,1.6666622E1,1.6131531E0,1.2709055E0,1.5465158E0,4.158077E1,1.3931226E0,3.9153516E0,3.5131173E0,2.9054635E0,3.8675304E1,1.2246555E0,2.288462E0,1.1210898E0,1.7843736E0,3.765422E1,1.0210854E0],"tree_param":{"num_deleted":"0","num_feature":"30","num_nodes":"27","size_leaf_vector":"1"}},{"base_weights":[5.8114618E-2,2.7021807E-1,-1.9839466E-1,3.151884E-1,-1.1447411E-1,-2.0336352E-2,-1.4819403E-1,1.3086694E-1,4.7680345E-1,-1.4692672E-1,1.4665234E-1,-1.278905E-1,3.0505714E-1,-7.1781434E-2,6.0712975E-1,-1.1255476E-1,2.544179E-1,1.7916529E-1,-1.4104941E-1,6.120195E-1,-5.5413686E-2,-1.03786506E-1,1.753988E-1,1.596687E-2,1.955913E-1,4.3714353E-1,-6.1197862E-2,-9.156047E-2,1.15331426E-1,5.593956E-2,2.0153004E-1,-1.004859E-1,1.19281255E-1,9.52883E-2,-1.5155921E-2,1.6796632E-1,-2.8799592E-2,-1.0805452E-1,1.0130187E-1],"categories":[],"categories_nodes":[],"categories_segments":[],"categories_sizes":[],"default_left":[0,0,0,0,0,0,0,0,0,0,0,0,0,0,0,0,0,0,0,0,0,0,0,0,0,0,0,0,0,0,0,0,0,0,0,0,0,0,0],"id":30,"left_children":[1,3,5,7,-1,9,-1,11,13,-1,15,17,19,21,23,-1,25,27,-1,29,31,-1,33,-1,-1,35,37,-1,-1,-1,-1,-1,-1,-1,-1,-1,-1,-1,-1],"loss_changes":[3.9032683E0,1.2679515E0,1.705887E0,1.0450151E0,0E0,1.7484802E0,0E0,8.839433E-1,1.4326782E0,0E0,1.0259564E0,9.5094335E-1,1.3063002E0,3.7404904E-1,3.578701E-1,0E0,8.5203624E-1,6.2153417E-1,0E0,3.4755945E-2,9.190301E-1,0E0,1.1550407E-1,0E0,0E0,6.548747E-1,8.5198003E-1,0E0,0E0,0E0,0E0,0E0,0E0,0E0,0E0,0E0,0E0,0E0,0E0],"parents":[2147483647,0,0,1,1,2,2,3,3,5,5,7,7,8,8,10,10,11,11,12,12,13,13,14,14,16,16,17,17,19,19,20,20,22,22,25,25,26,26],"right_children":[2,4,6,8,-1,10,-1,12,14,-1,16,18,20,22,24,-1,26,28,-1,30,32,-1,34,-1,-1,36,38,-1,-1,-1,-1,-1,-1,-1,-1,-1,-1,-1,-1],"split_conditions":[-3.7643868E-1,1.095862E0,2.4118567E-1,-2.990913E-1,-1.1447411E-1,-6.789024E-1,-1.4819403E-1,-3.7737828E-1,-6.5072787E-1,-1.4692672E-1,-7.2362256E-1,9.876742E-2,-8.75657E-1,-8.9538954E-2,-7.281184E-1,-1.1255476E-1,2.5589713E-1,-8.913003E-1,-1.4104941E-1,-1.0366932E0,5.0985706E-1,-1.03786506E-1,5.9982825E-2,1.596687E-2,1.955913E-1,3.6823174E-1,1.692322E0,-9.156047E-2,1.15331426E-1,5.593956E-2,2.0153004E-1,-1.004859E-1,1.19281255E-1,9.52883E-2,-1.5155921E-2,1.6796632E-1,-2.8799592E-2,-1.0805452E-1,1.0130187E-1],"split_indices":[23,10,5,8,0,19,0,28,15,0,15,2,22,20,18,0,22,12,0,21,21,0,20,0,0,16,22,0,0,0,0,0,0,0,0,0,0,0,0],"split_type":[0,0,0,0,0,0,0,0,0,0,0,0,0,0,0,0,0,0,0,0,0,0,0,0,0,0,0,0,0,0,0,0,0,0,0,0,0,0,0],"sum_hessian":[6.975733E1,3.8154522E1,3.160281E1,3.617508E1,1.9794401E0,2.0389275E1,1.1213536E1,1.7745798E1,1.8429283E1,4.842823E0,1.5546452E1,7.246704E0,1.0499093E1,3.6239874E0,1.4805296E1,2.2362673E0,1.3310184E1,4.0710716E0,3.1756325E0,5.2935157E0,5.205578E0,1.5287186E0,2.095269E0,1.2725741E0,1.35327215E1,8.185905E0,5.124278E0,1.0668635E0,3.004208E0,1.1590433E0,4.1344724E0,3.3803294E0,1.8252482E0,1.0366797E0,1.0585891E0,6.613198E0,1.572708E0,2.984309E0,2.139969E0],"tree_param":{"num_deleted":"0","num_feature":"30","num_nodes":"39","size_leaf_vector":"1"}},{"base_weights":[4.9697783E-2,9.5477246E-2,-3.419741E-1,1.6566536E-1,-1.259009E-1,-1.3757399E-1,6.1816026E-2,2.1184474E-1,-2.8042555E-1,3.5364997E-1,-2.9244387E-1,2.601585E-1,-1.920493E-1,3.8975723E-2,-1.247339E-1,1.5229671E-2,2.0130377E-1,-3.9301202E-1,1.1308007E-1,2.9921922E-1,-2.2936583E-1,9.362522E-2,-1.307642E-1,9.809107E-2,-8.8348776E-2,4.929392E-2,-1.4961107E-1,-2.2070874E-2,1.0406418E-1,-1.0512271E-1,1.0476679E-2],"categories":[],"categories_nodes":[],"categories_segments":[],"categories_sizes":[],"default_left":[0,0,0,0,0,0,0,0,0,0,0,0,0,0,0,0,0,0,0,0,0,0,0,0,0,0,0,0,0,0,0],"id":31,"left_children":[1,3,5,7,9,-1,-1,11,13,15,17,19,21,-1,-1,23,-1,25,-1,27,29,-1,-1,-1,-1,-1,-1,-1,-1,-1,-1],"loss_changes":[1.2963048E0,1.0134556E0,5.797409E-1,1.0674832E0,1.376983E0,0E0,0E0,9.2640543E-1,3.328882E-1,4.7986436E-1,9.817499E-1,8.438108E-1,7.966155E-1,0E0,0E0,4.0830594E-1,0E0,7.4493015E-1,0E0,7.003083E-1,1.2618259E-1,0E0,0E0,0E0,0E0,0E0,0E0,0E0,0E0,0E0,0E0],"parents":[2147483647,0,0,1,1,2,2,3,3,4,4,7,7,8,8,9,9,10,10,11,11,12,12,15,15,17,17,19,19,20,20],"right_children":[2,4,6,8,10,-1,-1,12,14,16,18,20,22,-1,-1,24,-1,26,-1,28,30,-1,-1,-1,-1,-1,-1,-1,-1,-1,-1],"split_conditions":[8.6640316E-1,3.1011784E-1,2.631148E0,1.0552088E0,-6.890574E-1,-1.3757399E-1,6.1816026E-2,9.906338E-1,-7.5747913E-1,-2.929743E-1,7.320162E-1,1.1297956E0,-1.1209558E0,3.8975723E-2,-1.247339E-1,-1.5551151E0,2.0130377E-1,-1.2940187E0,1.1308007E-1,-8.371115E-1,6.851534E-1,9.362522E-2,-1.307642E-1,9.809107E-2,-8.8348776E-2,4.929392E-2,-1.4961107E-1,-2.2070874E-2,1.0406418E-1,-1.0512271E-1,1.0476679E-2],"split_indices":[15,5,15,21,24,0,0,12,3,14,15,26,10,0,0,4,0,12,0,4,9,0,0,0,0,0,0,0,0,0,0],"split_type":[0,0,0,0,0,0,0,0,0,0,0,0,0,0,0,0,0,0,0,0,0,0,0,0,0,0,0,0,0,0,0],"sum_hessian":[6.9475E1,6.2881508E1,6.5934963E0,4.7935257E1,1.4946247E1,5.571289E0,1.0222069E0,4.391435E1,4.0209103E0,3.5630825E0,1.1383165E1,3.9540405E1,4.3739433E0,1.007299E0,3.0136113E0,2.2315025E0,1.3315798E0,1.0255269E1,1.1278957E0,3.6978523E1,2.5618804E0,1.3346244E0,3.039319E0,1.0843854E0,1.1471171E0,1.546377E0,8.708893E0,4.1301885E0,3.2848335E1,1.5336246E0,1.0282557E0],"tree_param":{"num_deleted":"0","num_feature":"30","num_nodes":"31","size_leaf_vector":"1"}},{"base_weights":[-2.320976E-1,-1.4785354E-1,-1.4618547E-1,-1.419417E-1,-5.687535E-2,-3.186621E-1,1.4609024E-1,8.781652E-2,-4.3165222E-1,6.092898E-1,-8.6607896E-2,-1.48032E-1,2.9976662E-2,2.2200137E-1,-3.6516085E-3,3.0834103E-1,-2.4380945E-1,-1.3662052E-2,1.6461447E-1,-1.14241034E-1,3.7878323E-2],"categories":[],"categories_nodes":[],"categories_segments":[],"categories_sizes":[],"default_left":[0,0,0,0,0,0,0,0,0,0,0,0,0,0,0,0,0,0,0,0,0],"id":32,"left_children":[1,-1,3,-1,5,7,9,-1,11,13,15,-1,-1,-1,-1,17,19,-1,-1,-1,-1],"loss_changes":[9.883399E-1,0E0,1.0542684E0,0E0,1.6521953E0,1.0597303E0,1.9613764E0,0E0,4.3713713E-1,5.0011396E-1,8.6130846E-1,0E0,0E0,0E0,0E0,3.6919874E-1,5.355552E-1,0E0,0E0,0E0,0E0],"parents":[2147483647,0,0,2,2,4,4,5,5,6,6,8,8,9,9,10,10,15,15,16,16],"right_children":[2,-1,4,-1,6,8,10,-1,12,14,16,-1,-1,-1,-1,18,20,-1,-1,-1,-1],"split_conditions":[-5.8592373E-1,-1.4785354E-1,-9.9844044E-1,-1.419417E-1,-1.7344324E-1,-4.7171748E-1,-8.0697453E-1,8.781652E-2,1.3807341E0,1.2525351E0,1.3629977E-1,-1.48032E-1,2.9976662E-2,2.2200137E-1,-3.6516085E-3,-3.9163738E-1,6.9453275E-1,-1.3662052E-2,1.6461447E-1,-1.14241034E-1,3.7878323E-2],"split_indices":[28,0,10,0,4,28,15,0,1,0,12,0,0,0,0,19,13,0,0,0,0],"split_type":[0,0,0,0,0,0,0,0,0,0,0,0,0,0,0,0,0,0,0,0,0],"sum_hessian":[4.6335785E1,1.0309458E1,3.602633E1,6.8074327E0,2.9218895E1,1.2511467E1,1.6707428E1,1.7034576E0,1.0808009E1,5.0455627E0,1.1661865E1,9.746823E0,1.0611864E0,4.011135E0,1.0344275E0,3.0464954E0,8.61537E0,1.5601575E0,1.4863379E0,6.266583E0,2.3487873E0],"tree_param":{"num_deleted":"0","num_feature":"30","num_nodes":"21","size_leaf_vector":"1"}},{"base_weights":[5.4020034E-3,-3.1462452E-1,5.14536E-2,-1.4204846E-1,1.05880395E-1,9.881126E-2,-3.464318E-1,-3.0850983E-1,1.4143515E-1,3.324295E-2,-1.3583957E-1,3.9570898E-2,-1.313292E-1,4.7216356E-1,7.568167E-2,5.889461E-1,1.8517978E-2,-5.345837E-3,3.657854E-1,2.0421143E-1,1.6974354E-2,-9.16963E-2,2.5658779E-2,1.6418153E-1,-5.6170378E-2],"categories":[],"categories_nodes":[],"categories_segments":[],"categories_sizes":[],"default_left":[0,0,0,0,0,0,0,0,0,0,0,0,0,0,0,0,0,0,0,0,0,0,0,0,0],"id":33,"left_children":[1,3,5,-1,-1,7,9,11,13,-1,-1,-1,-1,15,17,19,-1,21,23,-1,-1,-1,-1,-1,-1],"loss_changes":[1.0160382E0,1.087142E0,1.1679695E0,0E0,0E0,9.9064463E-1,3.7221795E-1,3.6978215E-1,1.0529995E0,0E0,0E0,0E0,0E0,3.52468E-1,1.0116183E0,2.6425266E-1,0E0,9.6932137E-1,1.0451106E0,0E0,0E0,0E0,0E0,0E0,0E0],"parents":[2147483647,0,0,1,1,2,2,5,5,6,6,7,7,8,8,13,13,14,14,15,15,17,17,18,18],"right_children":[2,4,6,-1,-1,8,10,12,14,-1,-1,-1,-1,16,18,20,-1,22,24,-1,-1,-1,-1,-1,-1],"split_conditions":[-8.7458485E-1,3.648039E0,8.867591E-1,-1.4204846E-1,1.05880395E-1,-1.2042769E0,-4.724342E-1,-4.7377917E-1,-1.1570299E0,3.324295E-2,-1.3583957E-1,3.9570898E-2,-1.313292E-1,-3.8248244E-1,1.061398E0,1.0045218E0,1.8517978E-2,-6.1820704E-1,1.8655167E0,2.0421143E-1,1.6974354E-2,-9.16963E-2,2.5658779E-2,1.6418153E-1,-5.6170378E-2],"split_indices":[23,24,15,0,0,25,22,27,17,0,0,0,0,15,12,7,0,21,29,0,0,0,0,0,0],"split_type":[0,0,0,0,0,0,0,0,0,0,0,0,0,0,0,0,0,0,0,0,0,0,0,0,0],"sum_hessian":[6.684284E1,7.674992E0,5.9167847E1,6.434397E0,1.2405951E0,5.354625E1,5.6215963E0,4.481577E0,4.9064674E1,1.0530502E0,4.5685463E0,1.0121939E0,3.469383E0,7.1119585E0,4.1952717E1,5.198027E0,1.9139313E0,3.3560627E1,8.392089E0,4.1961365E0,1.0018905E0,7.2473545E0,2.6313272E1,6.3263454E0,2.0657432E0],"tree_param":{"num_deleted":"0","num_feature":"30","num_nodes":"25","size_leaf_vector":"1"}},{"base_weights":[4.1754976E-2,-3.313037E-1,1.9143943E-1,-3.9678347E-1,6.352883E-2,-1.2947622E-1,2.4218984E-1,7.7208783E-3,-4.6170676E-1,3.0039388E-1,-1.05399095E-1,-9.662872E-2,1.1555655E-1,-1.5105565E-1,-1.1006618E-2,3.3287317E-1,-1.20512076E-1,-1.4144513E-1,2.9338542E-1,4.0221655E-1,3.570041E-2,-3.772301E-2,1.4873028E-1,1.3046859E-1,-4.6861175E-2,-5.8414727E-2,1.185367E-1],"categories":[],"categories_nodes":[],"categories_segments":[],"categories_sizes":[],"default_left":[0,0,0,0,0,0,0,0,0,0,0,0,0,0,0,0,0,0,0,0,0,0,0,0,0,0,0],"id":34,"left_children":[1,3,5,7,-1,-1,9,11,13,15,17,-1,-1,-1,-1,19,-1,-1,21,23,25,-1,-1,-1,-1,-1,-1],"loss_changes":[4.082898E0,8.299794E-1,1.7488067E0,5.043304E-1,0E0,0E0,1.0174551E0,5.748331E-1,2.7381277E-1,1.0914154E0,1.2667145E0,0E0,0E0,0E0,0E0,8.240843E-1,0E0,0E0,4.28427E-1,6.6816187E-1,8.0533284E-1,0E0,0E0,0E0,0E0,0E0,0E0],"parents":[2147483647,0,0,1,1,2,2,3,3,6,6,7,7,8,8,9,9,10,10,15,15,18,18,19,19,20,20],"right_children":[2,4,6,8,-1,-1,10,12,14,16,18,-1,-1,-1,-1,20,-1,-1,22,24,26,-1,-1,-1,-1,-1,-1],"split_conditions":[-1.1630725E-1,1.8143182E0,-9.408261E-1,-8.866668E-1,6.352883E-2,-1.2947622E-1,6.015002E-1,-5.1613927E-1,1.8022021E0,1.1612194E0,-5.49828E-1,-9.662872E-2,1.1555655E-1,-1.5105565E-1,-1.1006618E-2,7.2457975E-1,-1.20512076E-1,-1.4144513E-1,9.539814E-1,1.5585978E0,-1.3079956E-1,-3.772301E-2,1.4873028E-1,1.3046859E-1,-4.6861175E-2,-5.8414727E-2,1.185367E-1],"split_indices":[5,2,15,6,0,0,18,23,0,26,6,0,0,0,0,25,0,0,18,2,1,0,0,0,0,0,0],"split_type":[0,0,0,0,0,0,0,0,0,0,0,0,0,0,0,0,0,0,0,0,0,0,0,0,0,0,0],"sum_hessian":[7.098058E1,1.9977444E1,5.1003143E1,1.8068245E1,1.9091988E0,3.276444E0,4.7726696E1,2.6207492E0,1.5447495E1,4.0997425E1,6.7292733E0,1.4769449E0,1.1438043E0,1.389577E1,1.5517253E0,3.968737E1,1.3100538E0,3.4134345E0,3.3158388E0,3.1892078E1,7.795292E0,1.2030445E0,2.1127942E0,3.0337912E1,1.5541679E0,5.0293546E0,2.7659373E0],"tree_param":{"num_deleted":"0","num_feature":"30","num_nodes":"27","size_leaf_vector":"1"}},{"base_weights":[5.1169746E-2,2.4632564E-1,-1.8827379E-1,2.8818032E-1,-1.08019054E-1,-2.5679007E-2,-1.442864E-1,1.2160412E-1,4.3945274E-1,-1.4094734E-1,1.24916136E-1,-1.1257611E-1,2.753154E-1,-5.912968E-2,5.63019E-1,-1.0615485E-1,2.1790762E-1,1.6273063E-1,-1.3230836E-1,5.502603E-1,-4.4918984E-2,-9.710109E-2,1.6705105E-1,1.3281228E-2,1.8289436E-1,3.786228E-1,-5.9416477E-2,1.4210445E-1,-2.696546E-2,4.8287246E-2,1.8184283E-1,1.2835564E-1,-8.193459E-2,7.4759424E-2,2.494471E-4,1.4329004E-1,-3.829304E-2,-1.0154603E-1,8.766639E-2],"categories":[],"categories_nodes":[],"categories_segments":[],"categories_sizes":[],"default_left":[0,0,0,0,0,0,0,0,0,0,0,0,0,0,0,0,0,0,0,0,0,0,0,0,0,0,0,0,0,0,0,0,0,0,0,0,0,0,0],"id":35,"left_children":[1,3,5,7,-1,9,-1,11,13,-1,15,17,19,21,23,-1,25,27,-1,29,31,-1,33,-1,-1,35,37,-1,-1,-1,-1,-1,-1,-1,-1,-1,-1,-1,-1],"loss_changes":[3.0460904E0,1.0124028E0,1.3864148E0,8.0443954E-1,0E0,1.3932103E0,0E0,6.640034E-1,1.1089358E0,0E0,7.7564275E-1,7.660917E-1,9.850472E-1,3.157013E-1,3.1375313E-1,0E0,6.3565E-1,4.280764E-1,0E0,3.174901E-2,7.601764E-1,0E0,4.0985502E-2,0E0,0E0,5.043422E-1,6.790444E-1,0E0,0E0,0E0,0E0,0E0,0E0,0E0,0E0,0E0,0E0,0E0,0E0],"parents":[2147483647,0,0,1,1,2,2,3,3,5,5,7,7,8,8,10,10,11,11,12,12,13,13,14,14,16,16,17,17,19,19,20,20,22,22,25,25,26,26],"right_children":[2,4,6,8,-1,10,-1,12,14,-1,16,18,20,22,24,-1,26,28,-1,30,32,-1,34,-1,-1,36,38,-1,-1,-1,-1,-1,-1,-1,-1,-1,-1,-1,-1],"split_conditions":[-3.7643868E-1,1.095862E0,2.4118567E-1,-2.990913E-1,-1.08019054E-1,-6.789024E-1,-1.442864E-1,-3.7737828E-1,-6.5072787E-1,-1.4094734E-1,-7.2362256E-1,9.876742E-2,-8.75657E-1,-8.9538954E-2,-7.281184E-1,-1.0615485E-1,2.5589713E-1,-1.1956036E0,-1.3230836E-1,-1.0366932E0,-1.4417573E0,-9.710109E-2,-5.179324E-1,1.3281228E-2,1.8289436E-1,1.8307782E0,1.692322E0,1.4210445E-1,-2.696546E-2,4.8287246E-2,1.8184283E-1,1.2835564E-1,-8.193459E-2,7.4759424E-2,2.494471E-4,1.4329004E-1,-3.829304E-2,-1.0154603E-1,8.766639E-2],"split_indices":[23,10,5,8,0,19,0,28,15,0,15,2,22,20,18,0,22,28,0,21,5,0,18,0,0,8,22,0,0,0,0,0,0,0,0,0,0,0,0],"split_type":[0,0,0,0,0,0,0,0,0,0,0,0,0,0,0,0,0,0,0,0,0,0,0,0,0,0,0,0,0,0,0,0,0,0,0,0,0,0,0],"sum_hessian":[6.3194088E1,3.480109E1,2.8392998E1,3.304499E1,1.7560977E0,1.8952139E1,9.44086E0,1.6585482E1,1.645951E1,4.262145E0,1.4689993E1,6.6784415E0,9.90704E0,3.3726292E0,1.3086881E1,1.9329646E0,1.2757029E1,3.9076333E0,2.770808E0,4.9439707E0,4.963069E0,1.3558288E0,2.0168002E0,1.240104E0,1.1846777E1,7.845262E0,4.9117665E0,1.3593125E0,2.5483208E0,1.1076766E0,3.8362942E0,1.3308724E0,3.6321967E0,1.0156485E0,1.0011518E0,6.609246E0,1.2360162E0,2.7593017E0,2.1524649E0],"tree_param":{"num_deleted":"0","num_feature":"30","num_nodes":"39","size_leaf_vector":"1"}},{"base_weights":[4.489268E-2,7.666649E-2,-1.2477523E-1,5.188075E-2,2.1018903E-1,9.378859E-2,-1.2851593E-1,1.6005564E-1,-1.2772427E-1,2.075748E-1,-2.1246742E-1,-2.5161746E-1,3.7694588E-1,-2.2338273E-2,7.8636594E-2,8.079314E-2,-1.2919128E-1,6.1012086E-2,-1.2457428E-1,1.7226584E-1,2.5435635E-3],"categories":[],"categories_nodes":[],"categories_segments":[],"categories_sizes":[],"default_left":[0,0,0,0,0,0,0,0,0,0,0,0,0,0,0,0,0,0,0,0,0],"id":36,"left_children":[1,3,-1,5,-1,7,-1,9,11,13,15,17,19,-1,-1,-1,-1,-1,-1,-1,-1],"loss_changes":[9.963263E-1,9.29695E-1,0E0,1.2711095E0,0E0,8.5817957E-1,0E0,8.295866E-1,9.5130193E-1,6.327127E-1,6.955526E-1,9.478914E-1,2.2048214E-1,0E0,0E0,0E0,0E0,0E0,0E0,0E0,0E0],"parents":[2147483647,0,0,1,1,3,3,5,5,7,7,8,8,9,9,10,10,11,11,12,12],"right_children":[2,4,-1,6,-1,8,-1,10,12,14,16,18,20,-1,-1,-1,-1,-1,-1,-1,-1],"split_conditions":[1.5005634E0,1.4602185E0,-1.2477523E-1,8.6640316E-1,2.1018903E-1,3.1011784E-1,-1.2851593E-1,9.906338E-1,6.755045E-1,-7.82337E-1,-1.1209558E0,-8.955203E-1,-1.7800915E-1,-2.2338273E-2,7.8636594E-2,8.079314E-2,-1.2919128E-1,6.1012086E-2,-1.2457428E-1,1.7226584E-1,2.5435635E-3],"split_indices":[21,21,0,15,0,5,0,12,15,18,10,9,20,0,0,0,0,0,0,0,0],"split_type":[0,0,0,0,0,0,0,0,0,0,0,0,0,0,0,0,0,0,0,0,0],"sum_hessian":[6.4869385E1,6.146488E1,3.4045045E0,6.0158356E1,1.3065269E0,5.60704E1,4.087955E0,4.337263E1,1.2697768E1,3.88586E1,4.51403E0,1.0597559E1,2.100209E0,6.238325E0,3.2620277E1,1.3339368E0,3.1800933E0,2.7388914E0,7.8586674E0,1.0041811E0,1.0960279E0],"tree_param":{"num_deleted":"0","num_feature":"30","num_nodes":"21","size_leaf_vector":"1"}},{"base_weights":[-2.077521E-1,-1.4366837E-1,-1.2257357E-1,-1.3678013E-1,-3.6910728E-2,-2.910094E-1,1.4911804E-1,7.874137E-2,-4.1031596E-1,-1.2163953E-1,2.9812574E-1,-1.4350553E-1,2.9428646E-2,4.2653668E-1,-1.0309909E-1,-1.8460246E-2,1.5261115E-1,1.038823E-1,-1.13311686E-1],"categories":[],"categories_nodes":[],"categories_segments":[],"categories_sizes":[],"default_left":[0,0,0,0,0,0,0,0,0,0,0,0,0,0,0,0,0,0,0],"id":37,"left_children":[1,-1,3,-1,5,7,9,-1,11,-1,13,-1,-1,15,17,-1,-1,-1,-1],"loss_changes":[9.1060066E-1,0E0,9.335476E-1,0E0,1.3463771E0,8.994198E-1,1.4906085E0,0E0,4.015993E-1,0E0,7.467911E-1,0E0,0E0,4.5353127E-1,6.382956E-1,0E0,0E0,0E0,0E0],"parents":[2147483647,0,0,2,2,4,4,5,5,6,6,8,8,10,10,13,13,14,14],"right_children":[2,-1,4,-1,6,8,10,-1,12,-1,14,-1,-1,16,18,-1,-1,-1,-1],"split_conditions":[-5.8592373E-1,-1.4366837E-1,-9.9844044E-1,-1.3678013E-1,-1.7344324E-1,-4.7171748E-1,-7.6919276E-1,7.874137E-2,1.3807341E0,-1.2163953E-1,1.1337967E-1,-1.4350553E-1,2.9428646E-2,-8.824288E-1,-6.1354554E-1,-1.8460246E-2,1.5261115E-1,1.038823E-1,-1.13311686E-1],"split_indices":[28,0,10,0,4,28,23,0,1,0,5,0,0,22,21,0,0,0,0],"split_type":[0,0,0,0,0,0,0,0,0,0,0,0,0,0,0,0,0,0,0],"sum_hessian":[4.0969215E1,8.688743E0,3.228047E1,5.7155957E0,2.6564877E1,1.0989659E1,1.5575217E1,1.7360228E0,9.253636E0,2.9340494E0,1.2641168E1,8.213613E0,1.0400234E0,9.528508E0,3.1126602E0,1.4091713E0,8.119336E0,1.0816445E0,2.0310156E0],"tree_param":{"num_deleted":"0","num_feature":"30","num_nodes":"19","size_leaf_vector":"1"}},{"base_weights":[1.0247055E-2,-1.158401E-1,1.20543204E-1,-2.0921841E-1,3.776139E-1,2.5211772E-1,-1.0440352E-1,2.1054643E-1,-2.8888527E-1,-2.624073E-2,1.7552039E-1,-1.3217837E-1,4.2989308E-1,-2.626514E-1,1.7813878E-1,-8.714116E-2,4.4594884E-1,1.6556442E-1,-3.8642395E-1,8.8614166E-2,-3.3326092E-1,-9.46094E-2,5.206184E-1,-4.0277097E-1,6.565582E-2,-9.8246224E-2,4.441436E-1,2.1826217E-2,1.724997E-1,4.0284184E-1,-8.8324696E-2,-4.8310086E-1,3.747193E-2,3.5309672E-2,-1.3601312E-1,6.8067545E-1,1.3704447E-1,6.5442347E-3,-1.429827E-1,1.8738848E-1,1.0015E-2,2.9227892E-2,1.4593823E-1,-1.5808256E-1,1.8058106E-2,-1.0618971E-1,1.1277979E-1,1.9875482E-2,2.2367078E-1,-9.0411805E-2,9.1566406E-2],"categories":[],"categories_nodes":[],"categories_segments":[],"categories_sizes":[],"default_left":[0,0,0,0,0,0,0,0,0,0,0,0,0,0,0,0,0,0,0,0,0,0,0,0,0,0,0,0,0,0,0,0,0,0,0,0,0,0,0,0,0,0,0,0,0,0,0,0,0,0,0],"id":38,"left_children":[1,3,5,7,9,11,13,15,17,-1,-1,19,21,23,25,-1,27,29,31,-1,33,-1,35,37,-1,-1,39,-1,-1,41,-1,43,45,-1,-1,47,49,-1,-1,-1,-1,-1,-1,-1,-1,-1,-1,-1,-1,-1,-1],"loss_changes":[9.0495557E-1,1.4799603E0,1.0522847E0,9.373077E-1,5.523581E-1,1.5710394E0,6.50396E-1,6.908438E-1,1.059121E0,0E0,0E0,7.668952E-1,1.2046978E0,6.9924015E-1,8.7746066E-1,0E0,1.3310367E-1,6.279868E-1,7.878566E-1,0E0,3.652544E-1,0E0,7.7213645E-1,2.413851E-1,0E0,0E0,2.7500242E-1,0E0,0E0,4.2020023E-2,0E0,3.9773655E-1,7.181658E-1,0E0,0E0,3.3712292E-1,4.903081E-1,0E0,0E0,0E0,0E0,0E0,0E0,0E0,0E0,0E0,0E0,0E0,0E0,0E0,0E0],"parents":[2147483647,0,0,1,1,2,2,3,3,4,4,5,5,6,6,7,7,8,8,11,11,12,12,13,13,14,14,16,16,17,17,18,18,20,20,22,22,23,23,26,26,29,29,31,31,32,32,35,35,36,36],"right_children":[2,4,6,8,10,12,14,16,18,-1,-1,20,22,24,26,-1,28,30,32,-1,34,-1,36,38,-1,-1,40,-1,-1,42,-1,44,46,-1,-1,48,50,-1,-1,-1,-1,-1,-1,-1,-1,-1,-1,-1,-1,-1,-1],"split_conditions":[-8.403884E-2,7.108021E-1,3.3897159E-1,-1.1538749E0,-3.308052E-1,-4.7271213E-1,1.717583E0,-1.2901016E0,-1.3772751E0,-2.624073E-2,1.7552039E-1,-9.834761E-1,-9.577608E-1,8.849472E-1,-3.5128778E-1,-8.714116E-2,-6.3358796E-1,7.759005E-1,1.0170119E0,8.8614166E-2,-4.3710682E-1,-9.46094E-2,1.1998025E-1,-1.6486708E0,6.565582E-2,-9.8246224E-2,-3.804346E-1,2.1826217E-2,1.724997E-1,-4.702056E-1,-8.8324696E-2,1.8164324E0,-9.6259403E-1,3.5309672E-2,-1.3601312E-1,-9.853867E-1,-7.925063E-1,6.5442347E-3,-1.429827E-1,1.8738848E-1,1.0015E-2,2.9227892E-2,1.4593823E-1,-1.5808256E-1,1.8058106E-2,-1.0618971E-1,1.1277979E-1,1.9875482E-2,2.2367078E-1,-9.0411805E-2,9.1566406E-2],"split_indices":[23,5,22,22,1,20,23,22,7,0,0,12,1,13,0,0,6,21,14,0,3,0,10,24,0,0,8,0,0,18,0,20,10,0,0,7,6,0,0,0,0,0,0,0,0,0,0,0,0,0,0],"split_type":[0,0,0,0,0,0,0,0,0,0,0,0,0,0,0,0,0,0,0,0,0,0,0,0,0,0,0,0,0,0,0,0,0,0,0,0,0,0,0,0,0,0,0,0,0,0,0,0,0,0,0],"sum_hessian":[6.30682E1,2.9404089E1,3.3664112E1,2.5209589E1,4.194501E0,2.1164125E1,1.2499986E1,3.7592504E0,2.1450338E1,1.4722624E0,2.7222385E0,6.77504E0,1.4389086E1,8.057497E0,4.4424887E0,1.1268965E0,2.632354E0,3.6671283E0,1.778321E1,2.017119E0,4.757921E0,1.2928666E0,1.3096219E1,6.367922E0,1.6895748E0,1.451783E0,2.9907057E0,1.0781789E0,1.5541751E0,2.501148E0,1.1659803E0,1.4366914E1,3.4162967E0,1.0049806E0,3.7529407E0,8.693887E0,4.4023323E0,1.0477421E0,5.32018E0,1.7160318E0,1.2746738E0,1.0029666E0,1.4981813E0,1.3321998E1,1.0449153E0,1.562926E0,1.8533707E0,1.0235636E0,7.670323E0,1.0009571E0,3.4013753E0],"tree_param":{"num_deleted":"0","num_feature":"30","num_nodes":"51","size_leaf_vector":"1"}},{"base_weights":[2.755814E-2,-1.8036029E-1,2.2845444E-1,7.1493454E-2,-2.5777778E-1,3.1488147E-1,-1.17797524E-1,-2.0487128E-1,4.2521748E-1,-3.18781E-1,2.0315513E-1,3.586441E-1,-1.1437195E-1,-1.4128397E-1,2.065001E-1,6.409466E-2,-1.2680916E-1,1.6502018E-1,9.680564E-3,-1.2493503E-1,-4.669896E-1,-6.7302976E-3,1.1300609E-1,4.0645924E-1,-6.494021E-2,1.393239E-1,-4.3650594E-2,-3.1827772E-1,3.5126966E-1,2.0260274E-2,-1.5604466E-1,2.0101954E-1,1.810116E-1,-1.426919E-1,9.891004E-2,1.3329189E-1,3.303006E-2,9.069946E-2,-1.2865323E-1],"categories":[],"categories_nodes":[],"categories_segments":[],"categories_sizes":[],"default_left":[0,0,0,0,0,0,0,0,0,0,0,0,0,0,0,0,0,0,0,0,0,0,0,0,0,0,0,0,0,0,0,0,0,0,0,0,0,0,0],"id":39,"left_children":[1,3,5,7,9,11,13,15,17,19,21,23,-1,-1,25,-1,-1,-1,-1,27,29,-1,-1,31,-1,-1,-1,33,35,-1,-1,37,-1,-1,-1,-1,-1,-1,-1],"loss_changes":[2.8010528E0,6.623975E-1,1.0559022E0,9.22764E-1,7.811998E-1,9.7500086E-1,9.594161E-1,5.893188E-1,1.8214399E-1,5.992949E-1,1.4893967E-1,8.140805E-1,0E0,0E0,4.869643E-1,0E0,0E0,0E0,0E0,1.1506807E0,3.9335704E-1,0E0,0E0,8.789334E-1,0E0,0E0,0E0,1.02862E0,3.485602E-2,0E0,0E0,9.975178E-1,0E0,