{"learner":{"attributes":{"scikit_learn":"{\"_estimator_type\": \"classifier\"}"},"feature_names":[],"feature_types":[],"gradient_booster":{"model":{"gbtree_model_param":{"num_parallel_tree":"1","num_trees":"500"},"iteration_indptr":[0,5,10,15,20,25,30,35,40,45,50,55,60,65,70,75,80,85,90,95,100,105,110,115,120,125,130,135,140,145,150,155,160,165,170,175,180,185,190,195,200,205,210,215,220,225,230,235,240,245,250,255,260,265,270,275,280,285,290,295,300,305,310,315,320,325,330,335,340,345,350,355,360,365,370,375,380,385,390,395,400,405,410,415,420,425,430,435,440,445,450,455,460,465,470,475,480,485,490,495,500],"tree_info":[0,1,2,3,4,0,1,2,3,4,0,1,2,3,4,0,1,2,3,4,0,1,2,3,4,0,1,2,3,4,0,1,2,3,4,0,1,2,3,4,0,1,2,3,4,0,1,2,3,4,0,1,2,3,4,0,1,2,3,4,0,1,2,3,4,0,1,2,3,4,0,1,2,3,4,0,1,2,3,4,0,1,2,3,4,0,1,2,3,4,0,1,2,3,4,0,1,2,3,4,0,1,2,3,4,0,1,2,3,4,0,1,2,3,4,0,1,2,3,4,0,1,2,3,4,0,1,2,3,4,0,1,2,3,4,0,1,2,3,4,0,1,2,3,4,0,1,2,3,4,0,1,2,3,4,0,1,2,3,4,0,1,2,3,4,0,1,2,3,4,0,1,2,3,4,0,1,2,3,4,0,1,2,3,4,0,1,2,3,4,0,1,2,3,4,0,1,2,3,4,0,1,2,3,4,0,1,2,3,4,0,1,2,3,4,0,1,2,3,4,0,1,2,3,4,0,1,2,3,4,0,1,2,3,4,0,1,2,3,4,0,1,2,3,4,0,1,2,3,4,0,1,2,3,4,0,1,2,3,4,0,1,2,3,4,0,1,2,3,4,0,1,2,3,4,0,1,2,3,4,0,1,2,3,4,0,1,2,3,4,0,1,2,3,4,0,1,2,3,4,0,1,2,3,4,0,1,2,3,4,0,1,2,3,4,0,1,2,3,4,0,1,2,3,4,0,1,2,3,4,0,1,2,3,4,0,1,2,3,4,0,1,2,3,4,0,1,2,3,4,0,1,2,3,4,0,1,2,3,4,0,1,2,3,4,0,1,2,3,4,0,1,2,3,4,0,1,2,3,4,0,1,2,3,4,0,1,2,3,4,0,1,2,3,4,0,1,2,3,4,0,1,2,3,4,0,1,2,3,4,0,1,2,3,4,0,1,2,3,4,0,1,2,3,4,0,1,2,3,4,0,1,2,3,4,0,1,2,3,4,0,1,2,3,4,0,1,2,3,4,0,1,2,3,4,0,1,2,3,4,0,1,2,3,4,0,1,2,3,4,0,1,2,3,4,0,1,2,3,4,0,1,2,3,4,0,1,2,3,4,0,1,2,3,4,0,1,2,3,4],"trees":[{"base_weights":[1.52945E-1,1.0581505E0,-3.1234747E-1,3.1669864E-1,1.7088606E0,-3.6731634E-1,3.9041096E-1,-1.460177E-1,5.080831E-1,5.154639E-2,1.9542619E0,-4.1908273E-1,4.6511626E-1,1.081081E0,7.326007E-2,-1.15384616E-1,1.5789473E-1,2.026726E0,1.5789473E-1,-5.2631575E-1,-9.0543255E-2,-1.2328767E-1,3.333333E-1,4.3023255E-1,5.5555556E-2,6.589147E-1,-3.8461536E-1,6.450382E-1,2.4074075E-1,-2.0737326E-1,-5.7177615E-1,4.6153846E-1,-3.1728664E-1,-1.15384616E-1,3.7078652E-1,-1.5328467E-1,2.6315792E-2,-1.5517241E-1,9.27835E-2,2.6315792E-2,-1.773522E-1,3.9215684E-2,-1.5045592E-1],"categories":[],"categories_nodes":[],"categories_segments":[],"categories_sizes":[],"default_left":[0,0,0,0,0,0,0,0,0,0,0,0,0,0,0,0,0,0,0,0,0,0,0,0,0,0,0,0,0,0,0,0,0,0,0,0,0,0,0,0,0,0,0],"id":0,"left_children":[1,3,5,7,9,11,-1,-1,13,15,17,19,21,23,25,-1,-1,27,-1,29,31,-1,-1,-1,-1,33,35,-1,-1,37,39,-1,41,-1,-1,-1,-1,-1,-1,-1,-1,-1,-1],"loss_changes":[5.2102615E1,1.9703262E1,7.74821E0,3.451717E0,8.895607E0,3.6440105E0,0E0,0E0,4.236125E0,1.0058851E0,9.241638E-1,2.625619E0,3.376871E0,2.0748653E0,3.181702E0,0E0,0E0,9.8789215E-1,0E0,7.0788765E-1,7.8311305E0,0E0,0E0,0E0,0E0,3.5825074E0,4.482007E-1,0E0,0E0,1.5495863E0,6.827965E-1,0E0,1.5743428E0,0E0,0E0,0E0,0E0,0E0,0E0,0E0,0E0,0E0,0E0],"parents":[2147483647,0,0,1,1,2,2,3,3,4,4,5,5,8,8,9,9,10,10,11,11,12,12,13,13,14,14,17,17,19,19,20,20,25,25,26,26,29,29,30,30,32,32],"right_children":[2,4,6,8,10,12,-1,-1,14,16,18,20,22,24,26,-1,-1,28,-1,30,32,-1,-1,-1,-1,34,36,-1,-1,38,40,-1,42,-1,-1,-1,-1,-1,-1,-1,-1,-1,-1],"split_conditions":[-4.3823242E-1,-2.0878924E-1,1.3556136E0,-1.1286075E0,-6.272296E-1,1.7424629E0,3.9041096E-1,-1.460177E-1,-9.1152924E-1,-6.6190434E-1,2.4911454E0,4.801842E-1,-4.6004605E-2,-1.7727228E-1,-6.8994445E-1,-1.15384616E-1,1.5789473E-1,3.881858E-1,1.5789473E-1,-1.895129E-1,2.4114515E-1,-1.2328767E-1,3.333333E-1,4.3023255E-1,5.5555556E-2,-8.6145526E-1,3.5319787E-1,6.450382E-1,2.4074075E-1,3.9848092E-1,-1.6776656E0,4.6153846E-1,-4.811759E-1,-1.15384616E-1,3.7078652E-1,-1.5328467E-1,2.6315792E-2,-1.5517241E-1,9.27835E-2,2.6315792E-2,-1.773522E-1,3.9215684E-2,-1.5045592E-1],"split_indices":[2,24,0,17,13,22,0,0,2,2,4,15,9,13,25,0,0,10,0,2,17,0,0,0,0,24,0,0,0,8,9,0,9,0,0,0,0,0,0,0,0,0,0],"split_type":[0,0,0,0,0,0,0,0,0,0,0,0,0,0,0,0,0,0,0,0,0,0,0,0,0,0,0,0,0,0,0,0,0,0,0,0,0,0,0,0,0,0,0],"sum_hessian":[1.21920006E2,4.0960003E1,8.096001E1,1.9840002E1,2.112E1,7.904001E1,1.9200001E0,3.5200002E0,1.6320002E1,2.88E0,1.8240002E1,7.4880005E1,4.1600003E0,6.4000006E0,9.920001E0,1.6000001E0,1.2800001E0,1.6960001E1,1.2800001E0,5.6000004E1,1.8880001E1,1.9200001E0,2.2400002E0,4.1600003E0,2.2400002E0,4.1600003E0,5.76E0,1.4720001E1,2.2400002E0,7.6800003E0,4.8320004E1,1.6000001E0,1.728E1,1.6000001E0,2.5600002E0,4.4800005E0,1.2800001E0,4.8E0,2.88E0,1.2800001E0,4.7040005E1,5.1200004E0,1.2160001E1],"tree_param":{"num_deleted":"0","num_feature":"30","num_nodes":"43","size_leaf_vector":"1"}},{"base_weights":[4.718516E-2,3.4430224E-1,-2.8826353E-1,7.3080474E-1,-3.8461536E-1,-3.4776434E-1,2.8767124E-1,2.1699817E-1,1.2115731E0,-4.97076E-1,3.0927834E-1,3.305785E-1,-4.0365574E-1,8.540925E-1,-4.040404E-1,8.8019556E-1,1.8343195E0,-5.405405E-1,2.6315792E-2,2.8947368E-1,-1.15384616E-1,-1.05263166E-1,6.7415726E-1,-5.4140127E-1,-1.8987341E-1,2.484472E-1,1.3793103E0,1.15384616E-1,-1.692607E-1,-0E0,1.0942248E0,6.131387E-1,1.5789473E-1,-1.7706013E-1,2.6315792E-2,2.8947368E-1,2.6315792E-2,-5.710491E-1,2.6315792E-2,-3.374233E-1,6.7415726E-1,2.4742268E-1,-1.3483146E-1,1.4814815E-1,5.3932583E-1,1.5789473E-1,-1.2328767E-1,4.1201714E-1,9.917355E-2,-1.8085106E-1,-2.0547945E-2,1.15384616E-1,-1.2694877E-1,2.6315792E-2,2.8947368E-1],"categories":[],"categories_nodes":[],"categories_segments":[],"categories_sizes":[],"default_left":[0,0,0,0,0,0,0,0,0,0,0,0,0,0,0,0,0,0,0,0,0,0,0,0,0,0,0,0,0,0,0,0,0,0,0,0,0,0,0,0,0,0,0,0,0,0,0,0,0,0,0,0,0,0,0],"id":1,"left_children":[1,3,5,7,9,11,-1,13,15,17,19,21,23,25,27,29,31,33,-1,-1,-1,-1,35,37,39,41,43,-1,-1,45,47,-1,-1,-1,-1,-1,-1,49,-1,51,53,-1,-1,-1,-1,-1,-1,-1,-1,-1,-1,-1,-1,-1,-1],"loss_changes":[1.2350384E1,1.877374E1,4.658285E0,1.04183235E1,1.9797707E0,2.2702456E0,0E0,9.097091E0,2.9502144E0,5.6898975E-1,2.1362882E0,1.3697536E0,1.4437885E0,3.232709E0,1.7175947E0,3.0820217E0,7.765236E-1,6.5204716E-1,0E0,0E0,0E0,0E0,5.223731E-1,6.35767E-1,3.0475028E0,2.960761E0,1.26126E0,0E0,0E0,1.1247296E0,2.3514862E0,0E0,0E0,0E0,0E0,0E0,0E0,4.3988037E-1,0E0,1.3736572E0,5.223731E-1,0E0,0E0,0E0,0E0,0E0,0E0,0E0,0E0,0E0,0E0,0E0,0E0,0E0,0E0],"parents":[2147483647,0,0,1,1,2,2,3,3,4,4,5,5,7,7,8,8,9,9,10,10,11,11,12,12,13,13,14,14,15,15,16,16,17,17,22,22,23,23,24,24,25,25,26,26,29,29,30,30,37,37,39,39,40,40],"right_children":[2,4,6,8,10,12,-1,14,16,18,20,22,24,26,28,30,32,34,-1,-1,-1,-1,36,38,40,42,44,-1,-1,46,48,-1,-1,-1,-1,-1,-1,50,-1,52,54,-1,-1,-1,-1,-1,-1,-1,-1,-1,-1,-1,-1,-1,-1],"split_conditions":[-2.026178E-1,2.776211E-1,2.1917284E0,2.3949356E-1,4.8187545E-1,-6.525677E-1,2.8767124E-1,-2.4334252E-1,-6.211394E-1,1.3678596E0,-5.1890033E-1,-8.678306E-1,2.402293E-1,-5.629625E-1,-8.9265823E-1,-4.54873E-1,6.9205123E-1,6.45923E-1,2.6315792E-2,2.8947368E-1,-1.15384616E-1,-1.05263166E-1,7.371267E-1,2.4911454E0,1.5378387E0,-8.252835E-1,-5.9704036E-1,1.15384616E-1,-1.692607E-1,-6.742075E-1,-6.5475476E-1,6.131387E-1,1.5789473E-1,-1.7706013E-1,2.6315792E-2,2.8947368E-1,2.6315792E-2,2.120318E0,2.6315792E-2,-1.1261446E0,9.8896396E-1,2.4742268E-1,-1.3483146E-1,1.4814815E-1,5.3932583E-1,1.5789473E-1,-1.2328767E-1,4.1201714E-1,9.917355E-2,-1.8085106E-1,-2.0547945E-2,1.15384616E-1,-1.2694877E-1,2.6315792E-2,2.8947368E-1],"split_indices":[24,2,21,12,20,13,0,26,19,9,13,18,2,26,24,23,4,15,0,0,0,0,1,4,22,20,12,0,0,20,10,0,0,0,0,0,0,22,0,19,1,0,0,0,0,0,0,0,0,0,0,0,0,0,0],"split_type":[0,0,0,0,0,0,0,0,0,0,0,0,0,0,0,0,0,0,0,0,0,0,0,0,0,0,0,0,0,0,0,0,0,0,0,0,0,0,0,0,0,0,0,0,0,0,0,0,0,0,0,0,0,0,0],"sum_hessian":[1.21920006E2,6.464001E1,5.7280003E1,4.224E1,2.2400002E1,5.5360004E1,1.9200001E0,2.112E1,2.112E1,1.952E1,2.88E0,3.8400002E0,5.1520004E1,1.0240001E1,1.0880001E1,1.5360001E1,5.76E0,1.8240002E1,1.2800001E0,1.2800001E0,1.6000001E0,1.2800001E0,2.5600002E0,3.0400002E1,2.112E1,5.4400005E0,4.8E0,1.6000001E0,9.280001E0,3.2000003E0,1.2160001E1,4.4800005E0,1.2800001E0,1.6960001E1,1.2800001E0,1.2800001E0,1.2800001E0,2.9120003E1,1.2800001E0,1.8560001E1,2.5600002E0,2.88E0,2.5600002E0,2.2400002E0,2.5600002E0,1.2800001E0,1.9200001E0,8.320001E0,3.8400002E0,2.7200003E1,1.9200001E0,1.6000001E0,1.6960001E1,1.2800001E0,1.2800001E0],"tree_param":{"num_deleted":"0","num_feature":"30","num_nodes":"55","size_leaf_vector":"1"}},{"base_weights":[-4.1653106E-1,-4.4895867E-1,2.0710059E-1,-2.737752E-1,-5.384213E-1,4.2105266E-1,-3.2846713E-1,2.0710059E-1,-3.5674468E-1,-5.502392E-1,2.6315792E-2,2.6315792E-2,-1.4285713E-1,-3.1007752E-1,3.4615386E-1,8.219178E-2,-4.0047112E-1,2.6315792E-2,-5.6246614E-1,-1.3917525E-1,2.6315792E-2,-1.750663E-1,-2.4144869E-1,-3.7037037E-2,-5.744562E-1,-9.67742E-2,1.5789473E-1,-1.7999999E-1,-8.549222E-2],"categories":[],"categories_nodes":[],"categories_segments":[],"categories_sizes":[],"default_left":[0,0,0,0,0,0,0,0,0,0,0,0,0,0,0,0,0,0,0,0,0,0,0,0,0,0,0,0,0],"id":2,"left_children":[1,3,5,7,9,-1,11,13,15,17,-1,-1,-1,19,-1,-1,21,-1,23,-1,-1,-1,25,-1,27,-1,-1,-1,-1],"loss_changes":[2.5787754E0,1.6887722E0,4.792528E0,1.7352357E0,6.144886E-1,0E0,3.7868392E-1,3.6677215E0,1.0992532E0,6.362324E-1,0E0,0E0,0E0,3.5647136E-1,0E0,0E0,8.478246E-1,0E0,3.18388E-1,0E0,0E0,0E0,1.4081092E0,0E0,3.5934448E-1,0E0,0E0,0E0,0E0],"parents":[2147483647,0,0,1,1,2,2,3,3,4,4,6,6,7,7,8,8,9,9,13,13,16,16,18,18,22,22,24,24],"right_children":[2,4,6,8,10,-1,12,14,16,18,-1,-1,-1,20,-1,-1,22,-1,24,-1,-1,-1,26,-1,28,-1,-1,-1,-1],"split_conditions":[1.6033901E0,-5.1890033E-1,2.973148E-1,-5.9704036E-1,2.967662E0,4.2105266E-1,1.585627E-1,-9.81671E-1,-1.6071706E0,-1.2759217E0,2.6315792E-2,2.6315792E-2,-1.4285713E-1,9.606973E-1,3.4615386E-1,8.219178E-2,-5.613557E-1,2.6315792E-2,-1.5617069E0,-1.3917525E-1,2.6315792E-2,-1.750663E-1,8.6707306E-1,-3.7037037E-2,1.9228166E0,-9.67742E-2,1.5789473E-1,-1.7999999E-1,-8.549222E-2],"split_indices":[16,13,18,12,9,0,3,8,22,18,0,0,0,0,0,0,22,0,9,0,0,0,9,0,15,0,0,0,0],"split_type":[0,0,0,0,0,0,0,0,0,0,0,0,0,0,0,0,0,0,0,0,0,0,0,0,0,0,0,0,0],"sum_hessian":[1.21920006E2,1.1616001E2,5.76E0,4.0640003E1,7.5520004E1,1.2800001E0,4.4800005E0,5.76E0,3.488E1,7.4240005E1,1.2800001E0,1.2800001E0,3.2000003E0,4.1600003E0,1.6000001E0,1.9200001E0,3.2960003E1,1.2800001E0,7.296001E1,2.88E0,1.2800001E0,1.4080001E1,1.8880001E1,2.2400002E0,7.072E1,1.76E1,1.2800001E0,6.400001E1,6.7200003E0],"tree_param":{"num_deleted":"0","num_feature":"30","num_nodes":"29","size_leaf_vector":"1"}},{"base_weights":[-1.6270744E-3,-3.902439E-1,1.905451E-1,-4.994571E-1,4.6511626E-1,5.4181385E-1,-5.204163E-2,1.12359546E-1,-5.484247E-1,-1.2328767E-1,3.333333E-1,1.1209964E0,2.4451938E-1,-4.5623833E-1,2.4423337E-1,1.5789473E-1,-1.05263166E-1,2.6315792E-2,-5.7575756E-1,-1.15384616E-1,1.4107883E0,-2.7237353E-1,5.955678E-1,-1.76259E-1,-0E0,-2.5198936E-1,7.142857E-1,-1.8099862E-1,-3.1007752E-1,5.371901E-1,5.689655E-1,-1.6216215E-1,3.0927834E-1,8.5858583E-1,-1.3483146E-1,-1.3483146E-1,1.4814815E-1,-4.347826E-1,2.8947368E-1,1.0269359E0,-2.6548672E-1,-1.3917525E-1,2.6315792E-2,-5.0561797E-2,4.2105266E-1,2.3076923E-1,-1.05263166E-1,8.823529E-2,3.7278107E-1,-2.4793388E-2,-1.6867469E-1,3.921162E-1,-3.7037037E-2,-1.2962963E-1,2.6315792E-2],"categories":[],"categories_nodes":[],"categories_segments":[],"categories_sizes":[],"default_left":[0,0,0,0,0,0,0,0,0,0,0,0,0,0,0,0,0,0,0,0,0,0,0,0,0,0,0,0,0,0,0,0,0,0,0,0,0,0,0,0,0,0,0,0,0,0,0,0,0,0,0,0,0,0,0],"id":3,"left_children":[1,3,5,7,9,11,13,15,17,-1,-1,19,21,23,25,-1,-1,-1,27,-1,29,31,33,-1,35,37,39,-1,41,43,-1,-1,45,47,-1,-1,-1,49,-1,51,53,-1,-1,-1,-1,-1,-1,-1,-1,-1,-1,-1,-1,-1,-1],"loss_changes":[9.2541895E0,4.062387E0,7.0940704E0,1.1653185E0,3.376871E0,5.573394E0,6.0943074E0,8.6733687E-1,6.465521E-1,0E0,0E0,5.446781E0,4.4663167E0,1.2866583E0,7.056222E0,0E0,0E0,0E0,5.4650307E-2,0E0,3.0720406E0,1.7706501E0,4.3547926E0,0E0,1.5092247E0,3.773943E0,4.9900618E0,0E0,3.5647136E-1,3.1956577E0,0E0,0E0,1.4480292E0,2.2097063E0,0E0,0E0,0E0,5.7295656E-1,0E0,3.989643E0,3.03898E-1,0E0,0E0,0E0,0E0,0E0,0E0,0E0,0E0,0E0,0E0,0E0,0E0,0E0,0E0],"parents":[2147483647,0,0,1,1,2,2,3,3,4,4,5,5,6,6,7,7,8,8,11,11,12,12,13,13,14,14,18,18,20,20,21,21,22,22,24,24,25,25,26,26,28,28,29,29,32,32,33,33,37,37,39,39,40,40],"right_children":[2,4,6,8,10,12,14,16,18,-1,-1,20,22,24,26,-1,-1,-1,28,-1,30,32,34,-1,36,38,40,-1,42,44,-1,-1,46,48,-1,-1,-1,50,-1,52,54,-1,-1,-1,-1,-1,-1,-1,-1,-1,-1,-1,-1,-1,-1],"split_conditions":[-4.4103253E-1,4.8432076E-1,-4.9741745E-1,-1.1699222E0,-2.7058807E-1,-2.6576063E-1,-1.12389326E-1,2.34582E-2,-1.5743212E0,-1.2328767E-1,3.333333E-1,-1.3514345E0,4.6699658E-1,5.2944255E-1,-9.111841E-2,1.5789473E-1,-1.05263166E-1,2.6315792E-2,6.6873467E-1,-1.15384616E-1,-2.6706406E-1,-6.3904375E-1,1.0435345E0,-1.76259E-1,2.8678197E-2,1.2348939E0,1.1996608E0,-1.8099862E-1,-5.695045E-2,-6.525677E-1,5.689655E-1,-1.6216215E-1,-4.3184125E-1,-3.3643934E-1,-1.3483146E-1,-1.3483146E-1,1.4814815E-1,-6.3573194E-1,2.8947368E-1,1.066723E0,1.2652804E0,-1.3917525E-1,2.6315792E-2,-5.0561797E-2,4.2105266E-1,2.3076923E-1,-1.05263166E-1,8.823529E-2,3.7278107E-1,-2.4793388E-2,-1.6867469E-1,3.921162E-1,-3.7037037E-2,-1.2962963E-1,2.6315792E-2],"split_indices":[2,10,24,19,12,3,18,0,20,0,0,9,16,9,19,0,0,0,19,0,27,24,4,0,0,2,1,0,8,13,0,0,10,23,0,0,0,19,0,24,0,0,0,0,0,0,0,0,0,0,0,0,0,0,0],"split_type":[0,0,0,0,0,0,0,0,0,0,0,0,0,0,0,0,0,0,0,0,0,0,0,0,0,0,0,0,0,0,0,0,0,0,0,0,0,0,0,0,0,0,0,0,0,0,0,0,0,0,0,0,0,0,0],"sum_hessian":[1.21920006E2,4.0000004E1,8.1920006E1,3.5840004E1,4.1600003E0,3.2960003E1,4.8960003E1,2.5600002E0,3.3280003E1,1.9200001E0,2.2400002E0,1.0240001E1,2.2720001E1,2.0480001E1,2.8480001E1,1.2800001E0,1.2800001E0,1.2800001E0,3.2000004E1,1.6000001E0,8.64E0,9.280001E0,1.3440001E1,1.5680001E1,4.8E0,1.4080001E1,1.4400001E1,2.7840002E1,4.1600003E0,3.8400002E0,4.8E0,6.4000006E0,2.88E0,1.0880001E1,2.5600002E0,2.5600002E0,2.2400002E0,1.2800001E1,1.2800001E0,1.0880001E1,3.5200002E0,2.88E0,1.2800001E0,2.5600002E0,1.2800001E0,1.6000001E0,1.2800001E0,5.1200004E0,5.76E0,3.8400002E0,8.960001E0,8.64E0,2.2400002E0,2.2400002E0,1.2800001E0],"tree_param":{"num_deleted":"0","num_feature":"30","num_nodes":"55","size_leaf_vector":"1"}},{"base_weights":[2.1802798E-1,-4.3502507E-1,1.111111E0,-4.599659E-1,1.5789473E-1,2.4590163E-1,1.3414633E0,-4.9360144E-1,-0E0,3.4615386E-1,-0E0,1.8444846E0,7.142857E-1,-2.8629854E-1,-5.692438E-1,2.3076923E-1,-1.4285713E-1,-2.3605148E-1,2.8947368E-1,-0E0,1.988304E0,-2.892562E-1,9.725685E-1,4.0145984E-1,-5.1724136E-1,-5.895196E-1,2.6315792E-2,3.0927834E-1,-1.583851E-1,2.103594E0,1.15384616E-1,2.6315792E-2,-1.3483146E-1,-2.0547945E-2,1.1189802E0,2.8767124E-1,-5.0561797E-2,-1.7391305E-1,2.6315792E-2,2.6315792E-2,-1.832884E-1,-1.15384616E-1,2.8947368E-1,2.8651685E-1,6.6748166E-1,4.5854923E-1,1.6216215E-1],"categories":[],"categories_nodes":[],"categories_segments":[],"categories_sizes":[],"default_left":[0,0,0,0,0,0,0,0,0,0,0,0,0,0,0,0,0,0,0,0,0,0,0,0,0,0,0,0,0,0,0,0,0,0,0,0,0,0,0,0,0,0,0,0,0,0,0],"id":4,"left_children":[1,3,5,7,-1,9,11,13,15,-1,17,19,21,23,25,-1,-1,27,-1,-1,29,31,33,35,37,39,-1,41,-1,43,-1,-1,-1,-1,45,-1,-1,-1,-1,-1,-1,-1,-1,-1,-1,-1,-1],"loss_changes":[7.217407E1,1.9616928E0,1.0073746E1,1.0897903E0,0E0,2.7238336E0,1.1617348E1,8.663206E-1,2.4908423E0,0E0,2.6421201E0,5.8678284E0,5.4341707E0,3.3144221E0,6.788378E-1,0E0,0E0,1.6468515E0,0E0,0E0,2.984848E0,3.3168632E-1,2.5215158E0,1.9028435E0,6.207423E-1,7.186632E-1,0E0,2.1362882E0,0E0,5.119324E-1,0E0,0E0,0E0,0E0,2.518547E0,0E0,0E0,0E0,0E0,0E0,0E0,0E0,0E0,0E0,0E0,0E0,0E0],"parents":[2147483647,0,0,1,1,2,2,3,3,5,5,6,6,7,7,8,8,10,10,11,11,12,12,13,13,14,14,17,17,20,20,21,21,22,22,23,23,24,24,25,25,27,27,29,29,34,34],"right_children":[2,4,6,8,-1,10,12,14,16,-1,18,20,22,24,26,-1,-1,28,-1,-1,30,32,34,36,38,40,-1,42,-1,44,-1,-1,-1,-1,46,-1,-1,-1,-1,-1,-1,-1,-1,-1,-1,-1,-1],"split_conditions":[1.3333777E-1,4.173078E0,-6.383951E-1,4.2055346E-2,1.5789473E-1,-1.3532337E0,-1.12389326E-1,-1.27123175E-2,8.8010594E-2,3.4615386E-1,3.7443662E-1,3.1874004E-1,-6.0255235E-1,2.6798648E-1,2.2359712E0,2.3076923E-1,-1.4285713E-1,-9.688252E-1,2.8947368E-1,-0E0,4.528859E-1,4.0295663E-1,-5.872546E-1,-5.43937E-1,-2.8878596E-1,-1.008055E0,2.6315792E-2,-1.5421162E0,-1.583851E-1,-5.335437E-1,1.15384616E-1,2.6315792E-2,-1.3483146E-1,-2.0547945E-2,-9.111841E-2,2.8767124E-1,-5.0561797E-2,-1.7391305E-1,2.6315792E-2,2.6315792E-2,-1.832884E-1,-1.15384616E-1,2.8947368E-1,2.8651685E-1,6.6748166E-1,4.5854923E-1,1.6216215E-1],"split_indices":[2,10,24,2,0,8,18,1,2,0,27,2,9,8,5,0,0,10,0,0,20,2,10,28,21,29,0,11,0,24,0,0,0,0,19,0,0,0,0,0,0,0,0,0,0,0,0],"split_type":[0,0,0,0,0,0,0,0,0,0,0,0,0,0,0,0,0,0,0,0,0,0,0,0,0,0,0,0,0,0,0,0,0,0,0,0,0,0,0,0,0,0,0,0,0,0,0],"sum_hessian":[1.21920006E2,7.072E1,5.1200005E1,6.944E1,1.2800001E0,1.1200001E1,4.0000004E1,6.464001E1,4.8E0,1.6000001E0,9.6E0,2.112E1,1.8880001E1,1.8560001E1,4.608E1,1.6000001E0,3.2000003E0,8.320001E0,1.2800001E0,1.6000001E0,1.952E1,3.8400002E0,1.5040001E1,4.4800005E0,1.4080001E1,4.4800003E1,1.2800001E0,2.88E0,5.4400005E0,1.7920002E1,1.6000001E0,1.2800001E0,2.5600002E0,1.9200001E0,1.3120001E1,1.9200001E0,2.5600002E0,1.2800001E1,1.2800001E0,1.2800001E0,4.3520004E1,1.6000001E0,1.2800001E0,2.5600002E0,1.5360001E1,6.7200003E0,6.4000006E0],"tree_param":{"num_deleted":"0","num_feature":"30","num_nodes":"47","size_leaf_vector":"1"}},{"base_weights":[1.1854186E-1,6.504281E-1,-3.1518224E-1,1.9482136E-1,1.0046762E0,-3.9524743E-1,5.307415E-1,-1.4566131E-1,3.3605987E-1,1.8318377E-1,1.0980259E0,-5.227894E-1,-6.139087E-2,-1.2062477E-1,9.926171E-1,6.2459755E-1,-1.2530899E-1,-1.2259442E-1,2.3758729E-1,1.1442509E0,1.3669333E-2,4.5014277E-2,-5.4300505E-1,3.0540067E-1,-2.295475E-1,3.5832423E-1,1.09993555E-1,7.8538936E-1,-1.2947936E-1,4.9258563E-1,-1.5325494E-1,2.2166396E-2,1.1911469E0,4.3557566E-2,-5.642652E-1,-4.808787E-1,3.2172263E-1,2.9477522E-1,-2.9128006E-2,5.31056E-2,-1.0371255E-1,2.989001E-1,-1.0476018E-1,3.7615663E-1,7.655971E-2,2.693543E-2,-1.7579934E-1,3.788175E-2,-1.674517E-1,3.56559E-1,-1.3469227E-1],"categories":[],"categories_nodes":[],"categories_segments":[],"categories_sizes":[],"default_left":[0,0,0,0,0,0,0,0,0,0,0,0,0,0,0,0,0,0,0,0,0,0,0,0,0,0,0,0,0,0,0,0,0,0,0,0,0,0,0,0,0,0,0,0,0,0,0,0,0,0,0],"id":5,"left_children":[1,3,5,7,9,11,13,-1,15,17,19,21,23,-1,25,27,29,-1,-1,31,-1,-1,33,-1,35,-1,-1,37,39,41,-1,-1,43,-1,45,47,49,-1,-1,-1,-1,-1,-1,-1,-1,-1,-1,-1,-1,-1,-1],"loss_changes":[2.8873997E1,8.866219E0,4.8917017E0,2.6423988E0,2.2026825E0,2.6812944E0,3.1582248E0,0E0,3.0011063E0,1.9084784E0,1.3075104E0,7.068281E-1,3.6365354E0,0E0,1.3953495E-1,1.7598047E0,2.4625459E0,0E0,0E0,1.2537346E0,0E0,0E0,7.381506E-1,0E0,2.515179E0,0E0,0E0,2.0815516E0,2.773785E-1,2.0759087E0,0E0,0E0,1.1791344E0,0E0,6.739397E-1,6.3844466E-1,4.497899E0,0E0,0E0,0E0,0E0,0E0,0E0,0E0,0E0,0E0,0E0,0E0,0E0,0E0,0E0],"parents":[2147483647,0,0,1,1,2,2,3,3,4,4,5,5,6,6,8,8,9,9,10,10,11,11,12,12,14,14,15,15,16,16,19,19,22,22,24,24,27,27,28,28,29,29,32,32,34,34,35,35,36,36],"right_children":[2,4,6,8,10,12,14,-1,16,18,20,22,24,-1,26,28,30,-1,-1,32,-1,-1,34,-1,36,-1,-1,38,40,42,-1,-1,44,-1,46,48,50,-1,-1,-1,-1,-1,-1,-1,-1,-1,-1,-1,-1,-1,-1],"split_conditions":[-3.1818634E-1,-2.026178E-1,1.7424629E0,-1.1286075E0,-6.272296E-1,4.801842E-1,4.3227367E-2,-1.4566131E-1,-6.5570855E-1,-6.5570855E-1,1.6350447E0,-1.1566861E0,2.4114515E-1,-1.2062477E-1,-3.7070105E-3,1.4177174E-2,-3.8061997E-1,-1.2259442E-1,2.3758729E-1,-1.2821177E0,1.3669333E-2,4.5014277E-2,-1.2720127E0,3.0540067E-1,5.9012526E-1,3.5832423E-1,1.09993555E-1,-1.4973268E-1,-1.1228825E0,-4.4234824E-1,-1.5325494E-1,2.2166396E-2,1.6714808E0,4.3557566E-2,-1.6776656E0,4.57191E-3,3.4475243E-1,2.9477522E-1,-2.9128006E-2,5.31056E-2,-1.0371255E-1,2.989001E-1,-1.0476018E-1,3.7615663E-1,7.655971E-2,2.693543E-2,-1.7579934E-1,3.788175E-2,-1.674517E-1,3.56559E-1,-1.3469227E-1],"split_indices":[2,24,22,17,13,15,9,0,2,2,22,25,17,0,6,13,12,0,0,4,0,0,17,0,24,0,0,10,2,26,0,0,28,0,9,1,2,0,0,0,0,0,0,0,0,0,0,0,0,0,0],"split_type":[0,0,0,0,0,0,0,0,0,0,0,0,0,0,0,0,0,0,0,0,0,0,0,0,0,0,0,0,0,0,0,0,0,0,0,0,0,0,0,0,0,0,0,0,0,0,0,0,0,0,0],"sum_hessian":[1.2327397E2,5.5146664E1,6.8127304E1,2.4800337E1,3.0346325E1,6.2723408E1,5.403898E0,3.844295E0,2.0956041E1,3.398786E0,2.694754E1,4.4975628E1,1.7747782E1,1.832453E0,3.5714447E0,1.2675227E1,8.280814E0,1.8900609E0,1.5087252E0,2.5730234E1,1.2173045E0,1.124559E0,4.3851067E1,1.7110033E0,1.6036777E1,2.0140672E0,1.5573777E0,1.041328E1,2.2619474E0,3.074983E0,5.205831E0,1.1881129E0,2.4542122E1,1.1393908E0,4.2711678E1,1.11026325E1,4.934145E0,8.418661E0,1.9946187E0,1.010679E0,1.2512684E0,1.8088955E0,1.2660873E0,2.2682716E1,1.8594056E0,1.2728703E0,4.143881E1,1.1822478E0,9.920385E0,2.0671074E0,2.8670375E0],"tree_param":{"num_deleted":"0","num_feature":"30","num_nodes":"51","size_leaf_vector":"1"}},{"base_weights":[4.680166E-2,2.702291E-1,-2.4331975E-1,5.350692E-1,-3.4710732E-1,-3.0402917E-1,8.116886E-1,6.8402904E-1,-2.962671E-1,1.8447085E-1,-4.290149E-1,1.4452608E-1,-3.5511878E-1,3.242253E-1,4.349964E-2,1.0540913E0,4.6412054E-1,2.0232728E-1,-1.5915234E-1,-5.1042277E-1,4.0808477E-2,1.9700153E-1,-2.34343E-1,-5.33126E-1,-1.6270655E-1,-1.1220652E-1,1.2076032E0,-8.964443E-2,6.584684E-1,1.0022805E-2,-1.6915356E-1,1.9519337E-1,-1.2170504E-1,5.3659484E-2,-1.2686554E-1,-1.7209643E-1,3.5898075E-2,-2.718638E-1,3.0783987E-1,3.1338654E-2,3.9296493E-1,-1.5539446E-1,1.4056236E-1,2.2204393E-1,-1.0314541E-1,1.0458669E-1,-1.0469215E-1,-1.0721637E-1,2.0578727E-1],"categories":[],"categories_nodes":[],"categories_segments":[],"categories_sizes":[],"default_left":[0,0,0,0,0,0,0,0,0,0,0,0,0,0,0,0,0,0,0,0,0,0,0,0,0,0,0,0,0,0,0,0,0,0,0,0,0,0,0,0,0,0,0,0,0,0,0,0,0],"id":6,"left_children":[1,3,5,7,9,11,13,15,17,-1,19,21,23,-1,-1,25,27,-1,-1,29,31,-1,33,35,37,-1,39,41,43,-1,-1,-1,-1,-1,-1,-1,-1,45,47,-1,-1,-1,-1,-1,-1,-1,-1,-1,-1],"loss_changes":[7.91276E0,1.1444469E1,3.6537764E0,6.218938E0,1.9405761E0,1.2206793E0,4.1137767E-1,2.8882542E0,2.195008E0,0E0,7.934003E-1,1.3041955E0,1.4921637E0,0E0,0E0,3.670704E0,3.053041E0,0E0,0E0,5.2116823E-1,1.3283473E0,0E0,3.985275E-1,6.9054127E-1,1.2954655E0,0E0,1.3857422E0,2.1810644E0,1.9500761E0,0E0,0E0,0E0,0E0,0E0,0E0,0E0,0E0,1.0633019E0,1.4805207E0,0E0,0E0,0E0,0E0,0E0,0E0,0E0,0E0,0E0,0E0],"parents":[2147483647,0,0,1,1,2,2,3,3,4,4,5,5,6,6,7,7,8,8,10,10,11,11,12,12,15,15,16,16,19,19,20,20,22,22,23,23,24,24,26,26,27,27,28,28,37,37,38,38],"right_children":[2,4,6,8,10,12,14,16,18,-1,20,22,24,-1,-1,26,28,-1,-1,30,32,-1,34,36,38,-1,40,42,44,-1,-1,-1,-1,-1,-1,-1,-1,46,48,-1,-1,-1,-1,-1,-1,-1,-1,-1,-1],"split_conditions":[-2.026178E-1,2.776211E-1,1.7172093E0,3.4537917E-1,-1.3275046E0,-6.272296E-1,2.8857118E-1,-8.223483E-1,-1.3514345E0,1.8447085E-1,3.9010543E-1,-6.6190434E-1,6.1171707E-2,3.242253E-1,4.349964E-2,-2.7650297E0,-7.050281E-1,2.0232728E-1,-1.5915234E-1,-9.838431E-1,-7.399094E-1,1.9700153E-1,-6.0598445E-1,2.120318E0,1.4515501E0,-1.1220652E-1,-5.9412557E-1,4.5376784E-1,1.1824445E0,1.0022805E-2,-1.6915356E-1,1.9519337E-1,-1.2170504E-1,5.3659484E-2,-1.2686554E-1,-1.7209643E-1,3.5898075E-2,-1.1261446E0,-5.663654E-1,3.1338654E-2,3.9296493E-1,-1.5539446E-1,1.4056236E-1,2.2204393E-1,-1.0314541E-1,1.0458669E-1,-1.0469215E-1,-1.0721637E-1,2.0578727E-1],"split_indices":[24,2,28,10,18,13,24,24,9,0,15,2,2,0,0,0,24,0,0,25,24,0,23,22,15,0,12,8,25,0,0,0,0,0,0,0,0,19,29,0,0,0,0,0,0,0,0,0,0],"split_type":[0,0,0,0,0,0,0,0,0,0,0,0,0,0,0,0,0,0,0,0,0,0,0,0,0,0,0,0,0,0,0,0,0,0,0,0,0,0,0,0,0,0,0,0,0,0,0,0,0],"sum_hessian":[1.2005641E2,6.786273E1,5.219368E1,4.758277E1,2.0279963E1,5.002676E1,2.1669178E0,4.050265E1,7.08012E0,1.0806286E0,1.9199335E1,4.9283223E0,4.509844E1,1.1013609E0,1.0655568E0,1.368321E1,2.681944E1,1.0110686E0,6.0690517E0,1.6290253E1,2.909081E0,1.7837932E0,3.1445289E0,2.2506315E1,2.2592123E1,1.1886675E0,1.2494543E1,7.107222E0,1.9712217E1,1.4906155E0,1.4799638E1,1.036353E0,1.8727281E0,1.0013347E0,2.1431942E0,2.130481E1,1.2015053E0,1.8680796E1,3.9113276E0,1.2316697E0,1.1262874E1,4.0620995E0,3.0451226E0,1.8468714E1,1.2435045E0,1.675705E0,1.700509E1,1.4373685E0,2.4739592E0],"tree_param":{"num_deleted":"0","num_feature":"30","num_nodes":"49","size_leaf_vector":"1"}},{"base_weights":[-3.7546778E-1,-4.0895858E-1,1.9715585E-1,-2.3586516E-1,-5.0295836E-1,3.2579428E-1,-2.9695287E-1,-2.7673474E-1,1.8287838E-1,5.430245E-2,-5.161394E-1,3.713585E-2,-1.3656363E-1,-3.162427E-1,1.113207E-1,-5.293958E-1,2.4755908E-2,-8.431369E-2,-4.4993827E-1,-5.549826E-1,-2.4973626E-1,5.3942326E-2,-1.5035005E-1,7.427796E-2,-1.5884629E-1,-3.4082226E-2,-1.7105757E-1,-1.5311958E-1,1.7636949E-1],"categories":[],"categories_nodes":[],"categories_segments":[],"categories_sizes":[],"default_left":[0,0,0,0,0,0,0,0,0,0,0,0,0,0,0,0,0,0,0,0,0,0,0,0,0,0,0,0,0],"id":7,"left_children":[1,3,5,7,9,-1,11,13,-1,-1,15,-1,-1,17,-1,19,-1,21,23,25,27,-1,-1,-1,-1,-1,-1,-1,-1],"loss_changes":[2.1932945E0,1.5800571E0,3.2920961E0,1.5033529E0,6.9543266E-1,0E0,3.9800957E-1,1.077929E0,0E0,0E0,5.656643E-1,0E0,0E0,1.0757074E0,0E0,3.2281113E-1,0E0,1.6715164E0,1.3824391E0,3.2631683E-1,1.877198E0,0E0,0E0,0E0,0E0,0E0,0E0,0E0,0E0],"parents":[2147483647,0,0,1,1,2,2,3,3,4,4,6,6,7,7,10,10,13,13,15,15,17,17,18,18,19,19,20,20],"right_children":[2,4,6,8,10,-1,12,14,-1,-1,16,-1,-1,18,-1,20,-1,22,24,26,28,-1,-1,-1,-1,-1,-1,-1,-1],"split_conditions":[1.6033901E0,-5.1890033E-1,2.973148E-1,1.1428832E0,-1.276908E0,3.2579428E-1,3.968688E-1,1.2589041E0,1.8287838E-1,5.430245E-2,2.967662E0,3.713585E-2,-1.3656363E-1,-4.3808785E-1,1.113207E-1,1.9228166E0,2.4755908E-2,-4.4589126E-1,-1.6071706E0,-1.5617069E0,-1.2052956E-1,5.3942326E-2,-1.5035005E-1,7.427796E-2,-1.5884629E-1,-3.4082226E-2,-1.7105757E-1,-1.5311958E-1,1.7636949E-1],"split_indices":[16,13,18,1,18,0,18,20,0,0,9,0,0,23,0,15,0,24,22,9,10,0,0,0,0,0,0,0,0],"split_type":[0,0,0,0,0,0,0,0,0,0,0,0,0,0,0,0,0,0,0,0,0,0,0,0,0,0,0,0,0],"sum_hessian":[1.0916312E2,1.03401344E2,5.7617755E0,3.7625694E1,6.577565E1,1.6306431E0,4.131132E0,3.6532394E1,1.0932977E0,1.0028901E0,6.477276E1,1.1887127E0,2.9424195E0,3.491485E1,1.6175467E0,6.3482727E1,1.2900349E0,1.3363353E1,2.1551497E1,5.7259415E1,6.2233095E0,8.528366E0,4.834986E0,1.9899654E0,1.9561531E1,2.189497E0,5.506992E1,5.04426E0,1.1790495E0],"tree_param":{"num_deleted":"0","num_feature":"30","num_nodes":"29","size_leaf_vector":"1"}},{"base_weights":[-1.0196099E-3,-3.504189E-1,1.5112089E-1,-4.61235E-1,3.5750425E-1,2.6118296E-1,-3.7463012E-1,1.0659819E-1,-5.13695E-1,-1.16983324E-1,8.094788E-1,-1.5337546E-1,3.1954095E-1,4.215251E-1,-1.677002E-1,2.0307627E-1,-1.140856E-1,2.1817457E-2,-5.4332113E-1,3.3788633E-1,2.1709222E-2,5.9322554E-1,1.8848716E-1,3.1651667E-1,-1.056305E-1,-1.7243198E-1,-2.7302608E-1,-1.371272E-1,7.8036326E-1,-2.9701589E-2,4.8460287E-1,-1.314051E-1,4.256977E-2,1.191289E-1,-1.3984703E-1,2.747102E-1,-1.1012714E-1,1.15586914E-1,-8.752692E-2,-2.2638302E-2,2.1303813E-1],"categories":[],"categories_nodes":[],"categories_segments":[],"categories_sizes":[],"default_left":[0,0,0,0,0,0,0,0,0,0,0,0,0,0,0,0,0,0,0,0,0,0,0,0,0,0,0,0,0,0,0,0,0,0,0,0,0,0,0,0,0],"id":8,"left_children":[1,3,5,7,9,11,13,15,17,-1,19,-1,21,23,-1,-1,-1,-1,25,-1,-1,27,29,-1,-1,-1,31,33,35,37,39,-1,-1,-1,-1,-1,-1,-1,-1,-1,-1],"loss_changes":[6.4768457E0,3.0643382E0,5.00981E0,1.0197191E0,2.1959338E0,3.354023E0,2.4528549E0,1.2481258E0,5.576887E-1,0E0,8.0438876E-1,0E0,2.270667E0,2.0429425E0,0E0,0E0,0E0,0E0,8.544159E-2,0E0,0E0,2.9830303E0,3.011104E0,0E0,0E0,0E0,3.9599177E-1,1.0890377E0,2.9606037E0,3.1190593E0,2.546267E0,0E0,0E0,0E0,0E0,0E0,0E0,0E0,0E0,0E0,0E0],"parents":[2147483647,0,0,1,1,2,2,3,3,4,4,5,5,6,6,7,7,8,8,10,10,12,12,13,13,18,18,21,21,22,22,26,26,27,27,28,28,29,29,30,30],"right_children":[2,4,6,8,10,12,14,16,18,-1,20,-1,22,24,-1,-1,-1,-1,26,-1,-1,28,30,-1,-1,-1,32,34,36,38,40,-1,-1,-1,-1,-1,-1,-1,-1,-1,-1],"split_conditions":[-4.4103253E-1,4.8432076E-1,9.2486644E-1,-1.1699222E0,-2.7058807E-1,-1.4446105E0,-9.054448E-1,-5.519438E-1,-1.5743212E0,-1.16983324E-1,-2.0718034E-2,-1.5337546E-1,-7.144307E-1,2.402293E-1,-1.677002E-1,2.0307627E-1,-1.140856E-1,2.1817457E-2,8.483196E-1,3.3788633E-1,2.1709222E-2,-1.0488983E0,2.2438143E-1,3.1651667E-1,-1.056305E-1,-1.7243198E-1,-1.9266756E-1,-9.2549753E-1,1.0435345E0,-4.9741745E-1,-9.111841E-2,-1.314051E-1,4.256977E-2,1.191289E-1,-1.3984703E-1,2.747102E-1,-1.1012714E-1,1.15586914E-1,-8.752692E-2,-2.2638302E-2,2.1303813E-1],"split_indices":[2,10,24,19,12,9,27,14,20,0,8,0,24,2,0,0,0,0,22,0,0,22,3,0,0,0,10,19,4,24,19,0,0,0,0,0,0,0,0,0,0],"split_type":[0,0,0,0,0,0,0,0,0,0,0,0,0,0,0,0,0,0,0,0,0,0,0,0,0,0,0,0,0,0,0,0,0,0,0,0,0,0,0,0,0],"sum_hessian":[1.1984571E2,3.5959476E1,8.388624E1,3.1393675E1,4.5658007E0,6.9781265E1,1.4104971E1,2.5677767E0,2.8825897E1,1.7722318E0,2.7935688E0,4.3565626E0,6.5424706E1,2.4103258E0,1.1694645E1,1.0028042E0,1.5649726E0,1.3162998E0,2.7509598E1,1.5845625E0,1.2090063E0,2.0042534E1,4.5382168E1,1.1251506E0,1.2851753E0,2.3633131E1,3.876467E0,4.1425233E0,1.5900011E1,2.6647226E1,1.8734941E1,2.7337615E0,1.1427054E0,1.5000765E0,2.6424465E0,1.4403188E1,1.496824E0,1.0131952E1,1.6515274E1,5.569389E0,1.3165552E1],"tree_param":{"num_deleted":"0","num_feature":"30","num_nodes":"41","size_leaf_vector":"1"}},{"base_weights":[1.6741806E-1,-3.9589286E-1,7.417295E-1,-4.2276916E-1,1.7702451E-1,-1.6457108E-1,8.1763226E-1,-4.6852118E-1,-6.462934E-2,-1.4405316E-1,1.8170424E-1,8.636014E-1,-1.2643416E-1,-2.4617279E-1,-5.5974734E-1,2.6290303E-1,-3.8031256E-1,2.1321523E-1,9.4595927E-1,3.0741376E-1,-4.8023522E-1,-1.7518932E-1,2.2743287E-2,-1.516979E-1,5.405452E-2,-1.5234688E-1,7.064644E-1,1.0923882E0,5.839715E-1,2.4110521E-1,-5.7600882E-2,-1.6458534E-1,2.2736587E-2,1.0771064E-1,-1.3929467E-1,3.188921E-1,2.1689918E-2,3.386338E-1,1.7574457E-2,-3.6904532E-2,2.4769044E-1],"categories":[],"categories_nodes":[],"categories_segments":[],"categories_sizes":[],"default_left":[0,0,0,0,0,0,0,0,0,0,0,0,0,0,0,0,0,0,0,0,0,0,0,0,0,0,0,0,0,0,0,0,0,0,0,0,0,0,0,0,0],"id":9,"left_children":[1,3,5,7,-1,9,11,13,15,-1,-1,17,-1,19,21,-1,23,25,27,29,31,-1,-1,-1,-1,33,35,37,39,-1,-1,-1,-1,-1,-1,-1,-1,-1,-1,-1,-1],"loss_changes":[4.1044933E1,1.9518642E0,4.449173E0,1.0039921E0,0E0,1.6714727E0,3.6699715E0,9.9426746E-1,2.801826E0,0E0,0E0,2.81361E0,0E0,2.482766E0,6.41284E-1,0E0,5.772823E-1,1.4812778E0,1.9951248E0,1.632741E0,5.3801894E-1,0E0,0E0,0E0,0E0,9.9597037E-1,6.9638944E-1,1.2212639E0,2.9130306E0,0E0,0E0,0E0,0E0,0E0,0E0,0E0,0E0,0E0,0E0,0E0,0E0],"parents":[2147483647,0,0,1,1,2,2,3,3,5,5,6,6,7,7,8,8,11,11,13,13,14,14,16,16,17,17,18,18,19,19,20,20,25,25,26,26,27,27,28,28],"right_children":[2,4,6,8,-1,10,12,14,16,-1,-1,18,-1,20,22,-1,24,26,28,30,32,-1,-1,-1,-1,34,36,38,40,-1,-1,-1,-1,-1,-1,-1,-1,-1,-1,-1,-1],"split_conditions":[1.3333777E-1,4.1891265E0,-9.1112494E-1,-2.920924E-2,1.7702451E-1,5.4132253E-2,1.6463286E0,-1.27123175E-2,-7.418957E-1,-1.4405316E-1,1.8170424E-1,-8.193108E-1,-1.2643416E-1,2.6798648E-1,2.2359712E0,2.6290303E-1,9.7946495E-1,8.843825E-1,2.990421E-1,-5.43937E-1,-2.8878596E-1,-1.7518932E-1,2.2743287E-2,-1.516979E-1,5.405452E-2,-1.2251652E0,9.81298E-1,1.8788711E0,-6.5338737E-1,2.4110521E-1,-5.7600882E-2,-1.6458534E-1,2.2736587E-2,1.0771064E-1,-1.3929467E-1,3.188921E-1,2.1689918E-2,3.386338E-1,1.7574457E-2,-3.6904532E-2,2.4769044E-1],"split_indices":[2,10,24,2,0,25,14,1,29,0,0,22,0,8,5,0,1,12,15,28,21,0,0,0,0,19,12,19,5,0,0,0,0,0,0,0,0,0,0,0,0],"split_type":[0,0,0,0,0,0,0,0,0,0,0,0,0,0,0,0,0,0,0,0,0,0,0,0,0,0,0,0,0,0,0,0,0,0,0,0,0,0,0,0,0],"sum_hessian":[1.2496377E2,6.3242905E1,6.1720867E1,6.2120796E1,1.1221099E0,4.6793923E0,5.7041473E1,5.481059E1,7.310208E0,3.5864592E0,1.092933E0,5.529316E1,1.7483147E0,1.7021658E1,3.778893E1,1.3902371E0,5.919971E0,6.618134E0,4.8675026E1,4.96513E0,1.2056529E1,3.6480087E1,1.3088412E0,4.9179664E0,1.0020046E0,4.198002E0,2.4201322E0,3.3219532E1,1.5455493E1,2.1848247E0,2.780305E0,1.0748005E1,1.3085238E0,1.533463E0,2.6645389E0,1.1163648E0,1.3037673E0,3.2001186E1,1.2183452E0,4.0622716E0,1.1393222E1],"tree_param":{"num_deleted":"0","num_feature":"30","num_nodes":"41","size_leaf_vector":"1"}},{"base_weights":[9.62888E-2,4.6178964E-1,-3.1733978E-1,8.696304E-2,6.8132985E-1,-5.101874E-1,1.0733115E-2,4.8235023E-1,-1.5923436E-1,8.527243E-1,3.6883324E-1,4.566016E-2,-5.358974E-1,-3.204745E-1,3.893349E-1,-1.0410294E-1,6.584727E-1,1.8368389E-1,-4.3347517E-1,9.039694E-1,4.973367E-2,-6.8505354E-2,7.422991E-1,2.4754513E-2,-1.6864789E-1,1.673596E-1,-4.5978972E-1,7.354556E-1,-1.3043524E-1,-2.0872463E-2,8.5949934E-1,-1.2784065E-1,5.342686E-1,4.011678E-2,-1.5712717E-1,3.925457E-2,9.355007E-1,-3.241953E-1,1.6904655E-1,2.8699842E-1,-1.00653045E-1,-1.6069278E-1,2.855717E-2,-5.997253E-3,9.0826166E-1,3.132041E-1,1.1241823E-2,2.6862094E-1,-2.5323916E-2,2.9203093E-1,7.288809E-2,-1.261004E-1,2.9428167E-2,6.1275683E-2,3.492319E-1],"categories":[],"categories_nodes":[],"categories_segments":[],"categories_sizes":[],"default_left":[0,0,0,0,0,0,0,0,0,0,0,0,0,0,0,0,0,0,0,0,0,0,0,0,0,0,0,0,0,0,0,0,0,0,0,0,0,0,0,0,0,0,0,0,0,0,0,0,0,0,0,0,0,0,0],"id":10,"left_children":[1,3,5,7,9,11,13,15,17,19,21,-1,23,25,27,-1,29,31,33,35,-1,37,39,-1,-1,-1,41,43,-1,-1,45,-1,47,-1,-1,-1,49,51,-1,-1,-1,-1,-1,-1,53,-1,-1,-1,-1,-1,-1,-1,-1,-1,-1],"loss_changes":[1.8307909E1,5.2222805E0,3.6084142E0,2.4961011E0,1.8455219E0,6.9269466E-1,2.8911974E0,1.6578097E0,1.5906941E0,7.401409E-1,2.671793E0,0E0,6.110182E-1,1.7635381E0,3.3849294E0,0E0,1.2915862E0,1.9043148E0,5.424639E-1,4.456482E-1,0E0,1.5250219E0,2.3402634E0,0E0,0E0,0E0,5.215459E-1,1.0545621E0,0E0,0E0,9.7257566E-1,0E0,1.2872964E0,0E0,0E0,0E0,3.474388E-1,3.0710936E-1,0E0,0E0,0E0,0E0,0E0,0E0,9.298558E-1,0E0,0E0,0E0,0E0,0E0,0E0,0E0,0E0,0E0,0E0],"parents":[2147483647,0,0,1,1,2,2,3,3,4,4,5,5,6,6,7,7,8,8,9,9,10,10,12,12,13,13,14,14,16,16,17,17,18,18,19,19,21,21,22,22,26,26,27,27,30,30,32,32,36,36,37,37,44,44],"right_children":[2,4,6,8,10,12,14,16,18,20,22,-1,24,26,28,-1,30,32,34,36,-1,38,40,-1,-1,-1,42,44,-1,-1,46,-1,48,-1,-1,-1,50,52,-1,-1,-1,-1,-1,-1,54,-1,-1,-1,-1,-1,-1,-1,-1,-1,-1],"split_conditions":[-1.895129E-1,-3.770183E-1,3.4876525E-1,-9.1152924E-1,1.6372944E-1,-1.2577574E0,6.0587066E-1,-1.1980556E0,-6.8994445E-1,1.3730538E0,1.0241772E0,4.566016E-2,-1.6776656E0,-9.327818E-1,3.4475243E-1,-1.0410294E-1,-1.7606653E0,-9.920194E-1,-7.504563E-1,-1.1528885E0,4.973367E-2,1.2347182E0,1.2951789E0,2.4754513E-2,-1.6864789E-1,1.673596E-1,2.1348147E0,-6.034199E-1,-1.3043524E-1,-2.0872463E-2,3.009885E-1,-1.2784065E-1,-8.0190855E-1,4.011678E-2,-1.5712717E-1,3.925457E-2,2.7990074E0,6.02363E-2,1.6904655E-1,2.8699842E-1,-1.00653045E-1,-1.6069278E-1,2.855717E-2,-5.997253E-3,-3.1197456E-1,3.132041E-1,1.1241823E-2,2.6862094E-1,-2.5323916E-2,2.9203093E-1,7.288809E-2,-1.261004E-1,2.9428167E-2,6.1275683E-2,3.492319E-1],"split_indices":[2,24,15,2,19,17,24,15,25,5,14,0,9,13,2,0,14,20,26,4,0,21,29,0,0,0,5,19,0,0,23,0,24,0,0,0,23,12,0,0,0,0,0,0,20,0,0,0,0,0,0,0,0,0,0],"split_type":[0,0,0,0,0,0,0,0,0,0,0,0,0,0,0,0,0,0,0,0,0,0,0,0,0,0,0,0,0,0,0,0,0,0,0,0,0,0,0,0,0,0,0,0,0,0,0,0,0,0,0,0,0,0,0],"sum_hessian":[1.1912948E2,6.318231E1,5.594717E1,2.3853218E1,3.9329094E1,3.488562E1,2.106155E1,8.785197E0,1.506802E1,2.4282284E1,1.5046807E1,1.1196347E0,3.3765987E1,1.1315809E1,9.745741E0,1.3688791E0,7.416319E0,6.842357E0,8.225662E0,2.2302616E1,1.9796677E0,7.3068533E0,7.739954E0,1.2882745E0,3.247771E1,1.1378258E0,1.0177983E1,6.939018E0,2.8067234E0,1.746178E0,5.6701407E0,2.41906E0,4.4232974E0,1.0634382E0,7.1622243E0,1.0757571E0,2.122686E1,5.5489187E0,1.7579348E0,6.5497046E0,1.1902494E0,8.984813E0,1.1931705E0,1.4564135E0,5.482604E0,4.410173E0,1.2599677E0,2.5105643E0,1.9127331E0,1.973995E1,1.4869103E0,4.523676E0,1.0252428E0,1.9407029E0,3.541901E0],"tree_param":{"num_deleted":"0","num_feature":"30","num_nodes":"55","size_leaf_vector":"1"}},{"base_weights":[4.208976E-2,2.1428126E-1,-2.0584026E-1,4.0475747E-1,-3.107521E-1,-2.6698935E-1,7.131287E-1,5.10423E-1,-2.7234864E-1,-4.7931987E-1,1.6591392E-1,2.3392023E-1,-3.221466E-1,2.689103E-1,4.5904286E-2,1.7592804E-1,6.454952E-1,1.6860728E-1,-1.525742E-1,2.298306E-2,-1.6264209E-1,6.573343E-1,-1.2266835E-1,-9.797585E-2,4.7192106E-1,-4.7853494E-1,-1.1000518E-1,6.468225E-1,-2.367008E-1,-1.0518559E-1,6.931632E-1,2.7418643E-1,2.8944345E-2,-2.1766176E-2,2.8256926E-1,-5.138482E-1,4.709457E-2,-2.5656462E-1,5.385682E-1,-2.2653647E-5,3.217481E-1,6.654134E-2,-1.22182205E-1,2.4565783E-1,9.836427E-2,-1.6599974E-1,-5.425094E-3,1.4789996E-2,-1.5765576E-1,-7.851519E-3,2.9078504E-1],"categories":[],"categories_nodes":[],"categories_segments":[],"categories_sizes":[],"default_left":[0,0,0,0,0,0,0,0,0,0,0,0,0,0,0,0,0,0,0,0,0,0,0,0,0,0,0,0,0,0,0,0,0,0,0,0,0,0,0,0,0,0,0,0,0,0,0,0,0,0,0],"id":11,"left_children":[1,3,5,7,9,11,13,15,17,19,21,23,25,-1,-1,27,29,-1,-1,-1,-1,31,-1,-1,33,35,37,39,41,-1,43,-1,-1,-1,-1,45,-1,47,49,-1,-1,-1,-1,-1,-1,-1,-1,-1,-1,-1,-1],"loss_changes":[5.0636096E0,7.1138535E0,2.9270508E0,3.8386106E0,1.6196446E0,1.3570356E0,2.026434E-1,1.9230442E0,1.7901815E0,5.450332E-1,1.8931062E0,8.4524167E-1,1.3476853E0,0E0,0E0,2.939637E0,1.7499294E0,0E0,0E0,0E0,0E0,4.1319573E-1,0E0,0E0,1.1035671E0,6.1924314E-1,1.9641727E0,1.9181585E0,7.4537194E-1,0E0,1.1375151E0,0E0,0E0,0E0,0E0,4.3961382E-1,0E0,1.3706322E0,9.6512496E-1,0E0,0E0,0E0,0E0,0E0,0E0,0E0,0E0,0E0,0E0,0E0,0E0],"parents":[2147483647,0,0,1,1,2,2,3,3,4,4,5,5,6,6,7,7,8,8,9,9,10,10,11,11,12,12,15,15,16,16,21,21,24,24,25,25,26,26,27,27,28,28,30,30,35,35,37,37,38,38],"right_children":[2,4,6,8,10,12,14,16,18,20,22,24,26,-1,-1,28,30,-1,-1,-1,-1,32,-1,-1,34,36,38,40,42,-1,44,-1,-1,-1,-1,46,-1,48,50,-1,-1,-1,-1,-1,-1,-1,-1,-1,-1,-1,-1],"split_conditions":[-2.026178E-1,2.776211E-1,2.1917284E0,3.4537917E-1,8.938763E-1,-6.525677E-1,9.628385E-1,-4.54873E-1,-1.3514345E0,-1.2324616E0,-2.4519531E-1,-8.678306E-1,2.402293E-1,2.689103E-1,4.5904286E-2,-3.4763852E-1,-2.7650297E0,1.6860728E-1,-1.525742E-1,2.298306E-2,-1.6264209E-1,8.10735E-1,-1.2266835E-1,-9.797585E-2,-3.8465166E-1,1.6875368E0,1.5378387E0,-5.721198E-1,-1.5087439E0,-1.0518559E-1,4.8861536E-1,2.7418643E-1,2.8944345E-2,-2.1766176E-2,2.8256926E-1,2.120318E0,4.709457E-2,4.740432E-3,5.389876E-2,-2.2653647E-5,3.217481E-1,6.654134E-2,-1.22182205E-1,2.4565783E-1,9.836427E-2,-1.6599974E-1,-5.425094E-3,1.4789996E-2,-1.5765576E-1,-7.851519E-3,2.9078504E-1],"split_indices":[24,2,21,10,19,13,0,23,9,19,27,18,2,0,0,27,0,0,0,0,0,2,0,0,9,28,22,21,9,0,16,0,0,0,0,22,0,28,11,0,0,0,0,0,0,0,0,0,0,0,0],"split_type":[0,0,0,0,0,0,0,0,0,0,0,0,0,0,0,0,0,0,0,0,0,0,0,0,0,0,0,0,0,0,0,0,0,0,0,0,0,0,0,0,0,0,0,0,0,0,0,0,0,0,0],"sum_hessian":[1.16576294E2,6.887629E1,4.7700005E1,5.0708794E1,1.81675E1,4.538923E1,2.3107743E0,4.4076603E1,6.632189E0,1.3417114E1,4.7503843E0,4.180762E0,4.120847E1,1.2888148E0,1.0219595E0,1.3341056E1,3.0735548E1,1.1591046E0,5.4730844E0,1.3399248E0,1.2077189E1,2.4835522E0,2.266832E0,1.1351676E0,3.0455945E0,2.2998495E1,1.8209972E1,5.9655595E0,7.3754964E0,1.1134061E0,2.9622143E1,1.2719758E0,1.2115766E0,1.8027283E0,1.2428662E0,2.1969198E1,1.0292976E0,1.5346509E1,2.8634644E0,2.7643552E0,3.201204E0,1.9184105E0,5.457086E0,2.1114708E1,8.507435E0,2.024102E1,1.7281779E0,7.562671E0,7.7838373E0,1.6453593E0,1.2181051E0],"tree_param":{"num_deleted":"0","num_feature":"30","num_nodes":"51","size_leaf_vector":"1"}},{"base_weights":[-3.3768573E-1,-3.714593E-1,1.8461242E-1,-2.0046933E-1,-4.709152E-1,6.735598E-1,-1.274887E-1,-2.8365225E-1,1.9952221E-1,5.1649798E-2,-4.8545605E-1,1.960399E-2,2.782729E-1,-1.6396108E-1,-8.604374E-2,-1.14709355E-1,4.660392E-1,-5.4438394E-1,-2.710369E-1,2.50816E-1,-3.539963E-1,-9.8261826E-2,8.094668E-1,-1.6992265E-1,-1.6032925E-2,3.3952597E-1,-4.683351E-1,-5.160619E-2,2.607383E-1,-1.5819642E-1,8.39826E-2,3.3427817E-1,2.8596856E-2,5.276765E-2,-1.6179177E-1],"categories":[],"categories_nodes":[],"categories_segments":[],"categories_sizes":[],"default_left":[0,0,0,0,0,0,0,0,0,0,0,0,0,0,0,0,0,0,0,0,0,0,0,0,0,0,0,0,0,0,0,0,0,0,0],"id":12,"left_children":[1,3,5,7,9,11,-1,13,15,-1,17,-1,-1,-1,19,-1,21,23,25,27,29,-1,31,-1,-1,-1,33,-1,-1,-1,-1,-1,-1,-1,-1],"loss_changes":[1.8029137E0,1.4817019E0,2.2651453E0,1.2485478E0,6.245842E-1,5.683625E-1,0E0,1.5150323E0,1.2257017E0,0E0,5.706186E-1,0E0,0E0,0E0,1.7453586E0,0E0,1.6505256E0,4.4110203E-1,4.4725075E0,2.428321E0,1.3163413E0,0E0,7.2875524E-1,0E0,0E0,0E0,6.981776E-1,0E0,0E0,0E0,0E0,0E0,0E0,0E0,0E0],"parents":[2147483647,0,0,1,1,2,2,3,3,4,4,5,5,7,7,8,8,10,10,14,14,16,16,17,17,18,18,19,19,20,20,22,22,26,26],"right_children":[2,4,6,8,10,12,-1,14,16,-1,18,-1,-1,-1,20,-1,22,24,26,28,30,-1,32,-1,-1,-1,34,-1,-1,-1,-1,-1,-1,-1,-1],"split_conditions":[1.6033901E0,-5.1890033E-1,3.968688E-1,3.7655988E-1,-1.276908E0,7.0247847E-1,-1.274887E-1,-5.613557E-1,-5.934004E-1,5.1649798E-2,4.0633914E-1,1.960399E-2,2.782729E-1,-1.6396108E-1,-5.5250776E-1,-1.14709355E-1,8.590618E-5,2.1602721E0,4.3608534E-1,-7.943671E-1,5.3786796E-1,-9.8261826E-2,3.2945386E-1,-1.6992265E-1,-1.6032925E-2,3.3952597E-1,-8.502365E-1,-5.160619E-2,2.607383E-1,-1.5819642E-1,8.39826E-2,3.3427817E-1,2.8596856E-2,5.276765E-2,-1.6179177E-1],"split_indices":[16,13,18,1,18,6,0,22,23,0,26,0,0,0,29,0,18,18,26,5,27,0,4,0,0,0,27,0,0,0,0,0,0,0,0],"split_type":[0,0,0,0,0,0,0,0,0,0,0,0,0,0,0,0,0,0,0,0,0,0,0,0,0,0,0,0,0,0,0,0,0,0,0],"sum_hessian":[9.731916E1,9.167964E1,5.639518E0,3.4824E1,5.6855644E1,3.0711467E0,2.568371E0,2.9069511E1,5.754491E0,1.0174596E0,5.5838184E1,1.275165E0,1.7959819E0,1.1716686E1,1.7352825E1,1.6711644E0,4.0833263E0,4.2593513E1,1.3244669E1,7.71623E0,9.636596E0,1.2473238E0,2.8360023E0,4.0617584E1,1.9759299E0,1.0491259E0,1.2195542E1,5.0111265E0,2.7051032E0,7.699623E0,1.9369725E0,1.5949917E0,1.2410108E0,1.0634899E0,1.1132052E1],"tree_param":{"num_deleted":"0","num_feature":"30","num_nodes":"35","size_leaf_vector":"1"}},{"base_weights":[9.137073E-4,-3.133903E-1,1.2257176E-1,-4.262505E-1,3.0402696E-1,1.853019E-1,-1.5361711E-1,-3.6432885E-2,-5.152086E-1,-1.094111E-1,6.5373474E-1,-1.4635882E-1,2.2908816E-1,-1.3762335E-1,1.7731543E-1,1.6280143E-2,-1.6631922E-1,2.8340292E-1,4.456596E-3,4.4779012E-1,1.17174916E-1,6.384179E-1,-6.2305897E-2,4.3477818E-1,-3.662341E-2,-1.1422741E-1,2.199455E-1,1.0916559E-1,-1.4753875E-1,2.174014E-1,1.2466021E-2,4.2324916E-2,-1.4089423E-1],"categories":[],"categories_nodes":[],"categories_segments":[],"categories_sizes":[],"default_left":[0,0,0,0,0,0,0,0,0,0,0,0,0,0,0,0,0,0,0,0,0,0,0,0,0,0,0,0,0,0,0,0,0],"id":13,"left_children":[1,3,5,7,9,11,-1,13,15,-1,17,-1,19,-1,-1,-1,-1,-1,-1,21,23,25,27,29,31,-1,-1,-1,-1,-1,-1,-1,-1],"loss_changes":[4.515443E0,2.4259093E0,3.4839451E0,9.618292E-1,1.5659473E0,2.4169314E0,0E0,1.9486045E0,5.422077E-1,0E0,7.453619E-1,0E0,1.7614393E0,0E0,0E0,0E0,0E0,0E0,0E0,2.4446864E0,2.4767635E0,2.026019E0,1.5772915E0,1.8523843E0,2.749129E0,0E0,0E0,0E0,0E0,0E0,0E0,0E0,0E0],"parents":[2147483647,0,0,1,1,2,2,3,3,4,4,5,5,7,7,8,8,10,10,12,12,19,19,20,20,21,21,22,22,23,23,24,24],"right_children":[2,4,6,8,10,12,-1,14,16,-1,18,-1,20,-1,-1,-1,-1,-1,-1,22,24,26,28,30,32,-1,-1,-1,-1,-1,-1,-1,-1],"split_conditions":[-4.4103253E-1,4.8432076E-1,1.4616622E0,-1.0644964E0,-2.7058807E-1,-1.4446105E0,-1.5361711E-1,-1.1771103E0,-9.93005E-1,-1.094111E-1,-6.6079545E-1,-1.4635882E-1,-5.9161437E-1,-1.3762335E-1,1.7731543E-1,1.6280143E-2,-1.6631922E-1,2.8340292E-1,4.456596E-3,-5.415213E-4,-5.4520154E-1,-3.765779E-1,7.0247847E-1,1.9979154E-1,2.2226553E-1,-1.1422741E-1,2.199455E-1,1.0916559E-1,-1.4753875E-1,2.174014E-1,1.2466021E-2,4.2324916E-2,-1.4089423E-1],"split_indices":[2,10,24,15,12,9,0,17,10,0,2,0,22,0,0,0,0,0,0,15,23,2,6,7,27,0,0,0,0,0,0,0,0],"split_type":[0,0,0,0,0,0,0,0,0,0,0,0,0,0,0,0,0,0,0,0,0,0,0,0,0,0,0,0,0,0,0,0,0],"sum_hessian":[1.1608445E2,3.195433E1,8.413012E1,2.7277744E1,4.6765857E0,7.720662E1,6.923505E0,5.3301945E0,2.194755E1,1.5911051E0,3.0854807E0,4.0958343E0,7.311078E1,3.346701E0,1.9834933E0,1.3883173E0,2.0559233E1,1.7911545E0,1.2943262E0,2.3732082E1,4.93787E1,1.7092783E1,6.6393E0,1.5514121E1,3.386458E1,1.1969013E0,1.5895882E1,3.409117E0,3.230183E0,8.445233E0,7.0688877E0,2.44889E1,9.375679E0],"tree_param":{"num_deleted":"0","num_feature":"30","num_nodes":"33","size_leaf_vector":"1"}},{"base_weights":[1.3402377E-1,-3.5973793E-1,5.492074E-1,-3.878368E-1,1.5334187E-1,3.337406E-1,4.6824723E-1,-1.4077081E-1,-4.6144137E-1,-1.6118442E-1,5.472686E-1,-3.074115E-1,2.1902905E-1,-1.7337802E-1,-5.169409E-1,1.6469818E-1,-3.7363124E-1,-1.3505891E-1,5.919867E-1,1.0445685E-1,-4.3961462E-1,-1.4586148E-1,4.060504E-1,-5.4299086E-1,4.392164E-2,4.6006866E-2,-1.5001875E-1,6.252223E-1,-1.17920734E-1,-1.5633458E-1,4.4845633E-2,7.456967E-3,2.024115E-1,2.148585E-2,-1.7128389E-1,9.74262E-2,2.3791037E-1],"categories":[],"categories_nodes":[],"categories_segments":[],"categories_sizes":[],"default_left":[0,0,0,0,0,0,0,0,0,0,0,0,0,0,0,0,0,0,0,0,0,0,0,0,0,0,0,0,0,0,0,0,0,0,0,0,0],"id":14,"left_children":[1,3,5,7,-1,-1,9,11,13,15,17,19,-1,21,23,-1,25,-1,27,-1,29,-1,31,33,-1,-1,-1,35,-1,-1,-1,-1,-1,-1,-1,-1,-1],"loss_changes":[2.5555334E1,1.5956411E0,2.5613155E0,9.513912E-1,0E0,0E0,3.1134539E0,2.294944E0,5.9178066E-1,1.3452415E0,2.6870346E0,1.2520307E0,0E0,1.7181606E0,6.8830585E-1,0E0,5.038852E-1,0E0,1.9602852E0,0E0,6.057277E-1,0E0,3.4026867E-1,6.2700653E-1,0E0,0E0,0E0,2.3163319E0,0E0,0E0,0E0,0E0,0E0,0E0,0E0,0E0,0E0],"parents":[2147483647,0,0,1,1,2,2,3,3,6,6,7,7,8,8,9,9,10,10,11,11,13,13,14,14,16,16,18,18,20,20,22,22,23,23,27,27],"right_children":[2,4,6,8,-1,-1,10,12,14,16,18,20,-1,22,24,-1,26,-1,28,-1,30,-1,32,34,-1,-1,-1,36,-1,-1,-1,-1,-1,-1,-1,-1,-1],"split_conditions":[1.3333777E-1,4.1577263E0,-1.5332409E0,-7.418957E-1,1.5334187E-1,3.337406E-1,-8.0190855E-1,-1.2429869E-1,-8.315872E-1,-1.4988147E0,-1.4337101E0,-1.2399843E0,2.1902905E-1,-8.690061E-3,2.3775225E0,1.6469818E-1,-1.0845295E0,-1.3505891E-1,1.565132E0,1.0445685E-1,1.3264487E0,-1.4586148E-1,-7.425805E-2,-5.2043223E-1,4.392164E-2,4.6006866E-2,-1.5001875E-1,5.685999E-1,-1.17920734E-1,-1.5633458E-1,4.4845633E-2,7.456967E-3,2.024115E-1,2.148585E-2,-1.7128389E-1,9.74262E-2,2.3791037E-1],"split_indices":[2,25,8,29,0,0,24,2,13,4,8,15,0,11,9,0,9,0,19,0,23,0,17,1,0,0,0,2,0,0,0,0,0,0,0,0,0],"split_type":[0,0,0,0,0,0,0,0,0,0,0,0,0,0,0,0,0,0,0,0,0,0,0,0,0,0,0,0,0,0,0,0,0,0,0,0,0],"sum_hessian":[1.22695335E2,5.6105175E1,6.659016E1,5.4888847E1,1.2163305E0,6.7673025E0,5.9822857E1,1.3267336E1,4.162151E1,6.5567145E0,5.3266144E1,1.1679473E1,1.5878637E0,7.3897734E0,3.4231735E1,1.1450002E0,5.4117146E0,1.8964796E0,5.1369663E1,1.6857955E0,9.993677E0,4.903382E0,2.4863918E0,3.3112816E1,1.1189195E0,1.0059166E0,4.405798E0,5.0046394E1,1.323267E0,8.880487E0,1.1131898E0,1.4795628E0,1.0068289E0,1.3726516E0,3.1740166E1,1.8986399E1,3.1059996E1],"tree_param":{"num_deleted":"0","num_feature":"30","num_nodes":"37","size_leaf_vector":"1"}},{"base_weights":[7.9064E-2,3.3560717E-1,-3.5321605E-1,2.4199227E-2,5.2180994E-1,-1.6247982E-1,-1.07650466E-1,3.9756384E-1,-1.7630418E-1,5.878551E-1,6.9988534E-2,1.3737671E-1,-1.5060322E-1,-9.835475E-2,5.3850687E-1,1.8056852E-1,-2.567051E-1,2.5828424E-1,6.682354E-1,1.8605036E-1,-3.3069125E-1,-3.2368046E-1,4.379407E-1,-2.4072364E-2,7.030672E-1,-3.4083503E-1,1.5255426E-1,6.358552E-1,-2.8557092E-1,7.7528566E-1,2.6441324E-1,-1.396825E-1,2.1766566E-2,5.331422E-2,-1.4216235E-1,7.2870195E-1,-1.6155797E-1,2.5097787E-1,1.375737E-2,-1.4150742E-1,1.3474243E-2,-1.7814629E-2,2.575788E-1,3.0748608E-2,-1.2848413E-1,2.5557712E-1,8.2950994E-2,1.909896E-1,-9.460919E-2,1.39493635E-2,2.7349618E-1,3.741365E-2,-1.02631725E-1],"categories":[],"categories_nodes":[],"categories_segments":[],"categories_sizes":[],"default_left":[0,0,0,0,0,0,0,0,0,0,0,0,0,0,0,0,0,0,0,0,0,0,0,0,0,0,0,0,0,0,0,0,0,0,0,0,0,0,0,0,0,0,0,0,0,0,0,0,0,0,0,0,0],"id":15,"left_children":[1,3,5,7,9,-1,11,13,15,17,19,21,-1,-1,23,-1,25,27,29,-1,31,33,35,-1,37,39,-1,41,43,45,47,-1,-1,-1,-1,49,51,-1,-1,-1,-1,-1,-1,-1,-1,-1,-1,-1,-1,-1,-1,-1,-1],"loss_changes":[1.2689383E1,4.1419935E0,1.9172316E0,2.1556833E0,1.2954273E0,0E0,1.9809374E0,1.2031658E0,1.3319447E0,8.590431E-1,1.7145636E0,1.9417564E0,0E0,0E0,9.510126E-1,0E0,1.3164974E0,2.0842342E0,1.1211596E0,0E0,2.8481764E-1,5.1353824E-1,1.5624439E0,0E0,5.796547E-1,8.58971E-1,0E0,9.458811E-1,2.9238236E-1,6.7158985E-1,1.9155066E0,0E0,0E0,0E0,0E0,6.7685485E-1,2.2487967E-1,0E0,0E0,0E0,0E0,0E0,0E0,0E0,0E0,0E0,0E0,0E0,0E0,0E0,0E0,0E0,0E0],"parents":[2147483647,0,0,1,1,2,2,3,3,4,4,6,6,7,7,8,8,9,9,10,10,11,11,14,14,16,16,17,17,18,18,20,20,21,21,22,22,24,24,25,25,27,27,28,28,29,29,30,30,35,35,36,36],"right_children":[2,4,6,8,10,-1,12,14,16,18,20,22,-1,-1,24,-1,26,28,30,-1,32,34,36,-1,38,40,-1,42,44,46,48,-1,-1,-1,-1,50,52,-1,-1,-1,-1,-1,-1,-1,-1,-1,-1,-1,-1,-1,-1,-1,-1],"split_conditions":[-4.7054138E-2,-3.770183E-1,1.06753565E-1,-9.1152924E-1,8.840686E-1,-1.6247982E-1,8.375458E-2,-1.1980556E0,-9.660545E-1,-5.154273E-1,1.9482506E-2,-6.3521075E-1,-1.5060322E-1,-9.835475E-2,-1.4225545E0,1.8056852E-1,1.4092394E0,-4.3823242E-1,1.8301241E-1,1.8605036E-1,2.8278798E-1,-4.3888927E-1,1.310767E0,-2.4072364E-2,3.009885E-1,1.408664E0,1.5255426E-1,-2.883096E-1,-1.1528885E0,6.9126296E-1,-1.6857176E-1,-1.396825E-1,2.1766566E-2,5.331422E-2,-1.4216235E-1,-5.246882E-1,8.74715E-1,2.5097787E-1,1.375737E-2,-1.4150742E-1,1.3474243E-2,-1.7814629E-2,2.575788E-1,3.0748608E-2,-1.2848413E-1,2.5557712E-1,8.2950994E-2,1.909896E-1,-9.460919E-2,1.39493635E-2,2.7349618E-1,3.741365E-2,-1.02631725E-1],"split_indices":[2,24,15,2,29,0,10,15,27,12,17,19,0,0,21,0,22,2,19,0,15,14,17,0,23,6,0,16,4,23,12,0,0,0,0,20,0,0,0,0,0,0,0,0,0,0,0,0,0,0,0,0,0],"split_type":[0,0,0,0,0,0,0,0,0,0,0,0,0,0,0,0,0,0,0,0,0,0,0,0,0,0,0,0,0,0,0,0,0,0,0,0,0,0,0,0,0,0,0,0,0,0,0,0,0,0,0,0,0],"sum_hessian":[1.1235449E2,7.064988E1,4.1704613E1,2.685956E1,4.3790318E1,2.2917866E1,1.8786745E1,9.041056E0,1.7818504E1,3.794292E1,5.847397E0,1.1989177E1,6.7975683E0,1.2551047E0,7.785951E0,1.0611813E0,1.6757322E1,8.265687E0,2.9677233E1,2.2331865E0,3.6142101E0,4.701023E0,7.288154E0,1.7433463E0,6.0426044E0,1.5597131E1,1.1601919E0,4.7788277E0,3.4868596E0,2.2731428E1,6.945804E0,2.5922523E0,1.021958E0,1.0413715E0,3.6596515E0,4.762694E0,2.5254602E0,4.7953773E0,1.2472277E0,1.1480014E1,4.1171174E0,1.3375027E0,3.4413247E0,1.0132755E0,2.4735842E0,1.909021E1,3.641219E0,4.170358E0,2.7754457E0,1.2723646E0,3.4903293E0,1.0963628E0,1.4290973E0],"tree_param":{"num_deleted":"0","num_feature":"30","num_nodes":"53","size_leaf_vector":"1"}},{"base_weights":[4.0942922E-2,3.806728E-1,-4.6685036E-2,6.576947E-1,-3.229546E-2,2.9581E-2,-3.405949E-1,8.869305E-1,1.7700829E-1,-3.0759564E-1,2.318602E-1,1.2968059E-1,-3.5880598E-1,-7.5769206E-3,-1.5786856E-1,8.7170474E-2,2.8613022E-1,-2.8998893E-1,2.1123259E-1,1.15723155E-1,-1.5163589E-1,3.1640044E-1,-1.7571631E-1,1.3649471E-1,-4.6530944E-1,2.1291743E-1,-3.2008722E-1,-1.4027032E-1,2.4413766E-2,4.612581E-2,4.9352518E-1,2.0029385E-1,-2.6554868E-1,-1.5859208E-1,6.79397E-3,-1.3753259E-1,5.5436034E-2,-1.0776456E-1,7.114934E-2,1.7570102E-1,-1.14334114E-1,1.7434144E-1,-1.01803355E-1],"categories":[],"categories_nodes":[],"categories_segments":[],"categories_sizes":[],"default_left":[0,0,0,0,0,0,0,0,0,0,0,0,0,0,0,0,0,0,0,0,0,0,0,0,0,0,0,0,0,0,0,0,0,0,0,0,0,0,0,0,0,0,0],"id":16,"left_children":[1,3,5,7,9,11,13,15,17,19,-1,21,23,25,-1,-1,-1,27,-1,-1,-1,29,31,-1,33,-1,35,-1,-1,37,39,-1,41,-1,-1,-1,-1,-1,-1,-1,-1,-1,-1],"loss_changes":[3.3623538E0,2.6691418E0,2.03199E0,1.3746367E0,2.5088515E0,2.8666294E0,1.149807E0,8.806133E-2,1.6165266E0,1.3405259E0,0E0,3.3862603E0,1.523032E0,1.9520586E0,0E0,0E0,0E0,2.8538838E-1,0E0,0E0,0E0,1.729557E0,1.9049809E0,0E0,4.4069362E-1,0E0,5.072362E-1,0E0,0E0,1.2927727E0,1.9970284E0,0E0,1.5296087E0,0E0,0E0,0E0,0E0,0E0,0E0,0E0,0E0,0E0,0E0],"parents":[2147483647,0,0,1,1,2,2,3,3,4,4,5,5,6,6,7,7,8,8,9,9,11,11,12,12,13,13,17,17,21,21,22,22,24,24,26,26,29,29,30,30,32,32],"right_children":[2,4,6,8,10,12,14,16,18,20,-1,22,24,26,-1,-1,-1,28,-1,-1,-1,30,32,-1,34,-1,36,-1,-1,38,40,-1,42,-1,-1,-1,-1,-1,-1,-1,-1,-1,-1],"split_conditions":[-8.223483E-1,-2.0499207E-1,5.874057E-1,-4.557961E-1,3.0847907E-1,4.6483865E-1,-6.660396E-1,-1.061643E0,1.4177174E-2,-8.92783E-1,2.318602E-1,-2.4334252E-1,-1.2546648E0,-2.0360339E-1,-1.5786856E-1,8.7170474E-2,2.8613022E-1,-1.0346146E0,2.1123259E-1,1.15723155E-1,-1.5163589E-1,-1.2900256E-1,-1.3927124E0,1.3649471E-1,6.361893E-1,2.1291743E-1,-7.7873504E-1,-1.4027032E-1,2.4413766E-2,-8.557943E-1,4.627599E-1,2.0029385E-1,-1.7148212E0,-1.5859208E-1,6.79397E-3,-1.3753259E-1,5.5436034E-2,-1.0776456E-1,7.114934E-2,1.7570102E-1,-1.14334114E-1,1.7434144E-1,-1.01803355E-1],"split_indices":[24,2,13,13,27,2,7,17,13,20,0,26,15,20,0,0,0,2,0,0,0,4,22,0,24,0,7,0,0,10,23,0,20,0,0,0,0,0,0,0,0,0,0],"split_type":[0,0,0,0,0,0,0,0,0,0,0,0,0,0,0,0,0,0,0,0,0,0,0,0,0,0,0,0,0,0,0,0,0,0,0,0,0,0,0,0,0,0,0],"sum_hessian":[1.11348015E2,2.2145737E1,8.920228E1,1.2899837E1,9.2459E0,7.1538315E1,1.7663969E1,8.162207E0,4.7376304E0,7.3505726E0,1.8953271E0,5.7408447E1,1.4129865E1,6.69474E0,1.096923E1,1.3614931E0,6.8007135E0,2.750553E0,1.9870775E0,1.421098E0,5.929475E0,3.560407E1,2.180438E1,1.2565585E0,1.2873306E1,1.6458935E0,5.0488462E0,1.6855332E0,1.0650197E0,1.4594592E1,2.1009476E1,1.4797823E0,2.0324598E1,1.1320647E1,1.5526589E0,4.035055E0,1.0137913E0,4.3930984E0,1.0201493E1,1.9305943E1,1.703532E0,1.0782695E0,1.9246328E1],"tree_param":{"num_deleted":"0","num_feature":"30","num_nodes":"43","size_leaf_vector":"1"}},{"base_weights":[-3.0538827E-1,-3.3826822E-1,1.55772E-1,-1.7202541E-1,-4.4204578E-1,2.195528E-1,-2.5282258E-1,1.7742759E-1,-2.4988817E-1,-4.724792E-1,-4.0660672E-2,4.2152025E-2,-1.2506339E-1,-2.4539107E-1,2.1053728E-1,-7.117204E-2,-4.6155548E-1,-5.246817E-1,-2.400183E-1,-1.217384E-1,1.7492667E-1,4.4317536E-2,-1.23324044E-1,-1.9844252E-1,1.6811687E-1,3.7202876E-2,-1.5896192E-1,-1.6500568E-1,-1.0477041E-2,1.8232132E-1,-4.0391514E-1,-1.2759934E-1,9.7734176E-2,-1.5044695E-1,5.9774738E-2],"categories":[],"categories_nodes":[],"categories_segments":[],"categories_sizes":[],"default_left":[0,0,0,0,0,0,0,0,0,0,0,0,0,0,0,0,0,0,0,0,0,0,0,0,0,0,0,0,0,0,0,0,0,0,0],"id":17,"left_children":[1,3,5,7,9,-1,11,13,15,17,19,-1,-1,21,-1,23,25,27,29,-1,-1,-1,-1,31,-1,-1,-1,-1,-1,-1,33,-1,-1,-1,-1],"loss_changes":[1.3810558E0,1.340209E0,1.7185585E0,9.4734114E-1,5.9038734E-1,0E0,3.5249037E-1,1.6425878E0,1.0095215E0,4.358263E-1,1.2868327E0,0E0,0E0,3.4812865E-1,0E0,1.4071493E0,5.6306005E-1,4.394312E-1,1.6811059E0,0E0,0E0,0E0,0E0,1.8224335E0,0E0,0E0,0E0,0E0,0E0,0E0,6.448585E-1,0E0,0E0,0E0,0E0],"parents":[2147483647,0,0,1,1,2,2,3,3,4,4,6,6,7,7,8,8,9,9,10,10,13,13,15,15,16,16,17,17,18,18,23,23,30,30],"right_children":[2,4,6,8,10,-1,12,14,16,18,20,-1,-1,22,-1,24,26,28,30,-1,-1,-1,-1,32,-1,-1,-1,-1,-1,-1,34,-1,-1,-1,-1],"split_conditions":[1.6033901E0,-5.1890033E-1,2.973148E-1,-5.9704036E-1,1.5708648E0,2.195528E-1,-7.1416193E-1,-9.81671E-1,-6.088388E-1,4.0633914E-1,-2.7860364E-1,4.2152025E-2,-1.2506339E-1,-7.098925E-1,2.1053728E-1,-4.5619628E-1,-5.1615596E-1,2.1602721E0,4.4773313E-1,-1.217384E-1,1.7492667E-1,4.4317536E-2,-1.23324044E-1,-2.360199E-1,1.6811687E-1,3.7202876E-2,-1.5896192E-1,-1.6500568E-1,-1.0477041E-2,1.8232132E-1,1.5991147E0,-1.2759934E-1,9.7734176E-2,-1.5044695E-1,5.9774738E-2],"split_indices":[16,13,18,12,19,0,22,8,24,26,12,0,0,6,0,14,12,18,26,0,0,0,0,26,0,0,0,0,0,0,18,0,0,0,0],"split_type":[0,0,0,0,0,0,0,0,0,0,0,0,0,0,0,0,0,0,0,0,0,0,0,0,0,0,0,0,0,0,0,0,0,0,0],"sum_hessian":[8.660597E1,8.109082E1,5.515153E0,3.2187244E1,4.8903576E1,1.960274E0,3.554879E0,5.6319537E0,2.655529E1,4.5292343E1,3.6112332E0,1.088558E0,2.466321E0,3.4123986E0,2.2195554E0,1.512289E1,1.14324E1,3.5959938E1,9.332406E0,2.4982316E0,1.1130016E0,1.0439433E0,2.3684552E0,1.3157267E1,1.9656241E0,1.109285E0,1.0323114E1,3.4074104E1,1.8858337E0,1.073205E0,8.259201E0,9.314507E0,3.8427596E0,7.2542415E0,1.0049602E0],"tree_param":{"num_deleted":"0","num_feature":"30","num_nodes":"35","size_leaf_vector":"1"}},{"base_weights":[4.1360426E-4,-2.8247318E-1,9.8845445E-2,-3.9450505E-1,2.5390682E-1,1.496474E-1,-1.4660528E-1,1.4067547E-1,-4.5729724E-1,-1.9162984E-1,1.9811428E-1,-1.3869916E-1,1.8532048E-1,1.6919261E-1,-9.747212E-2,-1.5995832E-1,-1.1752124E-1,-1.1215568E-1,2.6505318E-2,6.67741E-1,1.5200804E-1,1.8088098E-1,-1.3274318E-1,3.1268913E-2,2.3998176E-1,-1.1752211E-1,2.4339384E-1,-8.414143E-2,1.2373552E-1,1.7526005E-1,4.246463E-2],"categories":[],"categories_nodes":[],"categories_segments":[],"categories_sizes":[],"default_left":[0,0,0,0,0,0,0,0,0,0,0,0,0,0,0,0,0,0,0,0,0,0,0,0,0,0,0,0,0,0,0],"id":18,"left_children":[1,3,5,7,9,11,-1,13,15,17,-1,-1,19,-1,-1,-1,21,-1,-1,23,25,-1,-1,-1,-1,27,29,-1,-1,-1,-1],"loss_changes":[3.171589E0,1.8670025E0,2.5951447E0,8.948419E-1,1.1567343E0,1.8002335E0,0E0,8.454129E-1,5.138016E-1,2.1103185E-1,0E0,0E0,1.1025894E0,0E0,0E0,0E0,1.5226582E0,0E0,0E0,2.5519204E-1,1.786787E0,0E0,0E0,0E0,0E0,1.7347568E0,1.7788448E0,0E0,0E0,0E0,0E0],"parents":[2147483647,0,0,1,1,2,2,3,3,4,4,5,5,7,7,8,8,9,9,12,12,16,16,19,19,20,20,25,25,26,26],"right_children":[2,4,6,8,10,12,-1,14,16,18,-1,-1,20,-1,-1,-1,22,-1,-1,24,26,-1,-1,-1,-1,28,30,-1,-1,-1,-1],"split_conditions":[-4.4103253E-1,4.8432076E-1,1.4616622E0,-1.1699222E0,8.9507505E-2,-1.4446105E0,-1.4660528E-1,-5.114104E-1,8.483196E-1,1.8441387E0,1.9811428E-1,-1.3869916E-1,-9.902234E-1,1.6919261E-1,-9.747212E-2,-1.5995832E-1,-1.3000585E-2,-1.1215568E-1,2.6505318E-2,-2.9690427E-1,-6.774763E-1,1.8088098E-1,-1.3274318E-1,3.1268913E-2,2.3998176E-1,7.0602703E-1,-7.144307E-1,-8.414143E-2,1.2373552E-1,1.7526005E-1,4.246463E-2],"split_indices":[2,10,24,19,15,9,0,23,22,10,0,0,13,0,0,0,11,0,0,23,13,0,0,0,0,2,24,0,0,0,0],"split_type":[0,0,0,0,0,0,0,0,0,0,0,0,0,0,0,0,0,0,0,0,0,0,0,0,0,0,0,0,0,0,0],"sum_hessian":[1.1189855E2,2.8402332E1,8.3496216E1,2.3713814E1,4.688519E0,7.753711E1,5.9591117E0,2.3599045E0,2.1353909E1,2.4889424E0,2.1995766E0,3.6120224E0,7.392509E1,1.1253879E0,1.2345166E0,1.6989616E1,4.3642926E0,1.3045882E0,1.1843541E0,3.5448506E0,7.038023E1,1.09069E0,3.2736025E0,1.0134268E0,2.5314238E0,1.7748224E1,5.263201E1,1.3934585E1,3.8136396E0,1.1019859E1,4.161215E1],"tree_param":{"num_deleted":"0","num_feature":"30","num_nodes":"31","size_leaf_vector":"1"}},{"base_weights":[1.1041784E-1,-3.6216307E-1,4.0883964E-1,-3.948823E-1,1.3427366E-1,5.779958E-2,4.835565E-1,-1.7622669E-1,-4.9066633E-1,-1.2468229E-1,4.620514E-1,5.29015E-1,-2.818127E-1,3.025537E-1,-4.271442E-1,3.525836E-2,-5.177611E-1,1.516705E-1,-3.323148E-1,2.2594051E-1,-1.2680742E-2,2.4717094E-2,5.770698E-1,1.8472604E-2,-1.2932315E-1,5.7154983E-1,-1.03997074E-1,-1.527169E-1,3.3208963E-2,-1.6412142E-1,2.252995E-2,-1.5327609E-1,9.533151E-2,-3.0437994E-1,1.5812188E-1,4.1527182E-1,7.6876855E-1,2.6564577E-1,-1.3963772E-3,-9.6952856E-2,1.3742615E-1,-1.3666172E-1,1.882809E-2,1.6196892E-1,-4.730901E-2,2.5247282E-1,6.322567E-2],"categories":[],"categories_nodes":[],"categories_segments":[],"categories_sizes":[],"default_left":[0,0,0,0,0,0,0,0,0,0,0,0,0,0,0,0,0,0,0,0,0,0,0,0,0,0,0,0,0,0,0,0,0,0,0,0,0,0,0,0,0,0,0,0,0,0,0],"id":19,"left_children":[1,3,5,7,-1,9,11,13,15,17,19,21,23,25,27,-1,29,-1,31,-1,-1,33,35,-1,-1,37,-1,-1,-1,-1,-1,-1,39,41,-1,43,45,-1,-1,-1,-1,-1,-1,-1,-1,-1,-1],"loss_changes":[1.6937225E1,1.4115958E0,1.8982649E0,8.6290455E-1,0E0,1.0921245E0,2.2510939E0,1.9755439E0,5.71054E-1,1.5354606E0,7.033071E-1,1.3761845E0,2.3359582E-1,1.2232625E0,5.1887274E-1,0E0,5.5936193E-1,0E0,6.9515514E-1,0E0,0E0,1.1584041E0,1.3041401E0,0E0,0E0,8.2319117E-1,0E0,0E0,0E0,0E0,0E0,0E0,6.54528E-1,2.6617628E-1,0E0,2.2671714E0,7.481947E-1,0E0,0E0,0E0,0E0,0E0,0E0,0E0,0E0,0E0,0E0],"parents":[2147483647,0,0,1,1,2,2,3,3,5,5,6,6,7,7,8,8,9,9,10,10,11,11,12,12,13,13,14,14,16,16,18,18,21,21,22,22,25,25,32,32,33,33,35,35,36,36],"right_children":[2,4,6,8,-1,10,12,14,16,18,20,22,24,26,28,-1,30,-1,32,-1,-1,34,36,-1,-1,38,-1,-1,-1,-1,-1,-1,40,42,-1,44,46,-1,-1,-1,-1,-1,-1,-1,-1,-1,-1],"split_conditions":[4.2055346E-2,4.1891265E0,-6.8250185E-1,-1.27123175E-2,1.3427366E-1,5.8250856E-1,1.5718572E0,2.6798648E-1,-1.008055E0,-7.098925E-1,1.2681524E0,-7.79218E-1,7.371267E-1,4.3056828E-1,-2.8878596E-1,3.525836E-2,2.2359712E0,1.516705E-1,-4.4372517E-1,2.2594051E-1,-1.2680742E-2,-3.457731E-1,8.5948296E-2,1.8472604E-2,-1.2932315E-1,3.898124E-1,-1.03997074E-1,-1.527169E-1,3.3208963E-2,-1.6412142E-1,2.252995E-2,-1.5327609E-1,-2.8793716E-1,-3.6376502E-2,1.5812188E-1,-2.6542965E-1,9.8827577E-1,2.6564577E-1,-1.3963772E-3,-9.6952856E-2,1.3742615E-1,-1.3666172E-1,1.882809E-2,1.6196892E-1,-4.730901E-2,2.5247282E-1,6.322567E-2],"split_indices":[2,10,24,1,0,5,14,8,29,6,5,22,1,27,21,0,5,0,22,0,0,11,10,0,0,29,0,0,0,0,0,0,23,23,0,10,15,0,0,0,0,0,0,0,0,0,0],"split_type":[0,0,0,0,0,0,0,0,0,0,0,0,0,0,0,0,0,0,0,0,0,0,0,0,0,0,0,0,0,0,0,0,0,0,0,0,0,0,0,0,0,0,0,0,0,0,0],"sum_hessian":[1.1804804E2,4.5608616E1,7.243942E1,4.4329723E1,1.2788954E0,1.3023778E1,5.941564E1,1.4368705E1,2.9961018E1,9.449697E0,3.5740814E0,5.6376045E1,3.0395968E0,4.8701296E0,9.498575E0,1.1354734E0,2.8825544E1,1.9861102E0,7.4635863E0,1.9533064E0,1.620775E0,5.036478E0,5.133957E1,1.0989347E0,1.9406623E0,3.5279644E0,1.3421651E0,8.289602E0,1.2089728E0,2.7541178E1,1.2843668E0,5.1274095E0,2.3361769E0,3.2811E0,1.755378E0,2.9558126E1,2.1781443E1,1.9362643E0,1.5917001E0,1.1353928E0,1.200784E0,2.1536298E0,1.1274701E0,2.4324995E1,5.233132E0,1.8817999E1,2.9634433E0],"tree_param":{"num_deleted":"0","num_feature":"30","num_nodes":"47","size_leaf_vector":"1"}},{"base_weights":[6.421051E-2,2.790965E-1,-3.2867834E-1,2.2621775E-2,4.3105796E-1,-1.5766485E-1,-9.6832596E-2,2.484068E-1,-2.0798251E-1,4.88122E-1,4.5708016E-2,1.20165095E-1,-1.444877E-1,-1.1824565E-1,3.594666E-1,1.5198356E-1,-3.1588063E-1,-7.888397E-2,5.263673E-1,1.5508871E-1,-3.1847405E-1,3.2475048E-1,-1.2823743E-1,-9.9958785E-2,4.7580752E-1,-4.3845567E-1,1.379052E-1,5.732215E-2,-9.990103E-2,2.5222537E-1,5.9367764E-1,-1.3120584E-1,1.1845763E-2,-1.9095355E-1,7.095943E-1,1.9895038E-1,1.2582186E-2,-1.5435576E-1,4.6569973E-2,1.8543236E-1,-8.052616E-2,1.9108132E-1,-4.570863E-2,-1.2726848E-1,5.7102717E-2,2.7894437E-1,-1.3404702E-3],"categories":[],"categories_nodes":[],"categories_segments":[],"categories_sizes":[],"default_left":[0,0,0,0,0,0,0,0,0,0,0,0,0,0,0,0,0,0,0,0,0,0,0,0,0,0,0,0,0,0,0,0,0,0,0,0,0,0,0,0,0,0,0,0,0,0,0],"id":20,"left_children":[1,3,5,7,9,-1,11,13,15,17,19,21,-1,-1,23,-1,25,27,29,-1,31,33,-1,-1,35,37,-1,-1,-1,39,41,-1,-1,43,45,-1,-1,-1,-1,-1,-1,-1,-1,-1,-1,-1,-1],"loss_changes":[8.992038E0,2.6673493E0,1.6713414E0,1.4372486E0,9.249439E-1,0E0,1.607019E0,1.1337655E0,1.2170827E0,8.529377E-1,1.3075718E0,1.5575515E0,0E0,0E0,1.1558806E0,0E0,1.3924321E0,2.8548998E-1,4.9949074E-1,0E0,2.0345667E-1,2.0779533E0,0E0,0E0,8.6704874E-1,5.914757E-1,0E0,0E0,0E0,1.8183513E0,9.8487186E-1,0E0,0E0,5.2286077E-1,9.188576E-1,0E0,0E0,0E0,0E0,0E0,0E0,0E0,0E0,0E0,0E0,0E0,0E0],"parents":[2147483647,0,0,1,1,2,2,3,3,4,4,6,6,7,7,8,8,9,9,10,10,11,11,14,14,16,16,17,17,18,18,20,20,21,21,24,24,25,25,29,29,30,30,33,33,34,34],"right_children":[2,4,6,8,10,-1,12,14,16,18,20,22,-1,-1,24,-1,26,28,30,-1,32,34,-1,-1,36,38,-1,-1,-1,40,42,-1,-1,44,46,-1,-1,-1,-1,-1,-1,-1,-1,-1,-1,-1,-1],"split_conditions":[-4.7054138E-2,-3.770183E-1,1.06753565E-1,-6.6190434E-1,8.840686E-1,-1.5766485E-1,8.375458E-2,-1.2686518E0,-7.2045785E-1,-1.1974547E0,-1.718984E-1,6.2543964E-1,-1.444877E-1,-1.1824565E-1,-1.1286075E0,1.5198356E-1,1.4092394E0,-3.5268387E-1,-5.154273E-1,1.5508871E-1,1.3938086E0,2.0954898E-1,-1.2823743E-1,-9.9958785E-2,2.0788254E-1,1.1317935E0,1.379052E-1,5.732215E-2,-9.990103E-2,-4.3823242E-1,1.2217062E0,-1.3120584E-1,1.1845763E-2,3.8447875E-1,1.2003226E0,1.9895038E-1,1.2582186E-2,-1.5435576E-1,4.6569973E-2,1.8543236E-1,-8.052616E-2,1.9108132E-1,-4.570863E-2,-1.2726848E-1,5.7102717E-2,2.7894437E-1,-1.3404702E-3],"split_indices":[2,24,15,2,29,0,10,22,23,15,19,2,0,0,17,0,22,0,12,0,5,2,0,0,1,25,0,0,0,2,11,0,0,8,15,0,0,0,0,0,0,0,0,0,0,0,0],"split_type":[0,0,0,0,0,0,0,0,0,0,0,0,0,0,0,0,0,0,0,0,0,0,0,0,0,0,0,0,0,0,0,0,0,0,0,0,0,0,0,0,0,0,0,0,0,0,0],"sum_hessian":[1.04420975E2,6.768893E1,3.6732044E1,2.5611568E1,4.2077362E1,1.917924E1,1.7552805E1,1.2901999E1,1.2709568E1,3.641778E1,5.6595783E0,1.1663232E1,5.8895726E0,1.5257071E0,1.1376293E1,1.1825333E0,1.1527035E1,2.2340648E0,3.418372E1,2.2842393E0,3.375339E0,8.787362E0,2.8758705E0,1.3679459E0,1.0008347E1,1.03292055E1,1.1978294E0,1.2035724E0,1.0304923E0,7.6744366E0,2.6509281E1,2.3673484E0,1.0079906E0,3.9705298E0,4.816832E0,6.620748E0,3.3875988E0,9.274328E0,1.0548773E0,4.397154E0,3.2772825E0,2.5194584E1,1.3146979E0,2.3935647E0,1.5769651E0,3.4505262E0,1.3663061E0],"tree_param":{"num_deleted":"0","num_feature":"30","num_nodes":"47","size_leaf_vector":"1"}},{"base_weights":[3.896332E-2,-8.8097125E-2,2.1625853E-1,-1.251453E-1,1.8009284E-1,3.6044195E-1,-1.6700052E-1,6.0467785E-3,-2.916234E-1,4.9241242E-1,3.005284E-4,-4.2303878E-1,5.1853585E-1,1.1390077E-1,-1.4238326E-1,2.2293752E-1,-3.940507E-1,5.992796E-1,1.0516429E-1,2.286826E-1,-1.291617E-1,-1.5169251E-1,4.3298624E-2,-1.8695566E-3,2.6216024E-1,2.118223E-1,-1.3193531E-1,6.150455E-1,-1.0360492E-1,-4.64689E-1,1.1503979E-1,1.5075777E-1,7.0312434E-1,-2.887805E-1,1.6625643E-1,-1.2558438E-1,4.843494E-1,-7.2395485E-3,1.6461152E-1,2.0262992E-2,2.5143063E-1,-1.6422488E-2,-1.6256171E-1,-1.24140024E-1,1.6558987E-1,2.4513403E-1,8.988422E-2,-1.3299055E-1,2.2566183E-2,9.869982E-3,2.2349481E-1],"categories":[],"categories_nodes":[],"categories_segments":[],"categories_sizes":[],"default_left":[0,0,0,0,0,0,0,0,0,0,0,0,0,0,0,0,0,0,0,0,0,0,0,0,0,0,0,0,0,0,0,0,0,0,0,0,0,0,0,0,0,0,0,0,0,0,0,0,0,0,0],"id":21,"left_children":[1,3,5,7,-1,9,11,13,15,17,19,21,23,25,-1,27,29,31,33,35,-1,-1,-1,-1,-1,37,-1,39,-1,41,-1,43,45,47,-1,-1,49,-1,-1,-1,-1,-1,-1,-1,-1,-1,-1,-1,-1,-1,-1],"loss_changes":[2.4197416E0,1.6765223E0,2.534662E0,1.3211632E0,0E0,1.5613699E0,2.4878805E0,1.8563278E0,1.4921734E0,9.3199015E-1,1.0638498E0,5.397928E-1,7.4455047E-1,1.676344E0,0E0,1.340381E0,1.4185019E0,7.6174116E-1,1.2944251E0,1.3720183E0,0E0,0E0,0E0,0E0,0E0,2.0391994E0,0E0,3.5310733E-1,0E0,6.3968086E-1,0E0,1.3100681E0,4.3844795E-1,2.6245743E-1,0E0,0E0,6.259841E-1,0E0,0E0,0E0,0E0,0E0,0E0,0E0,0E0,0E0,0E0,0E0,0E0,0E0,0E0],"parents":[2147483647,0,0,1,1,2,2,3,3,5,5,6,6,7,7,8,8,9,9,10,10,11,11,12,12,13,13,15,15,16,16,17,17,18,18,19,19,25,25,27,27,29,29,31,31,32,32,33,33,36,36],"right_children":[2,4,6,8,-1,10,12,14,16,18,20,22,24,26,-1,28,30,32,34,36,-1,-1,-1,-1,-1,38,-1,40,-1,42,-1,44,46,48,-1,-1,50,-1,-1,-1,-1,-1,-1,-1,-1,-1,-1,-1,-1,-1,-1],"split_conditions":[2.3949356E-1,2.1917284E0,2.1074852E-1,-1.7125396E-1,1.8009284E-1,-3.9388353E-1,1.6110748E-1,4.6483865E-1,-8.065647E-1,-4.0848595E-1,-1.0413012E-1,1.241024E-1,-2.996446E-1,5.874057E-1,-1.4238326E-1,-5.205977E-1,1.2563593E0,-1.4042934E0,-5.2428883E-1,-1.2576815E0,-1.291617E-1,-1.5169251E-1,4.3298624E-2,-1.8695566E-3,2.6216024E-1,-3.297891E-1,-1.3193531E-1,-9.4976044E-1,-1.0360492E-1,-7.7252007E-1,1.1503979E-1,-1.7743222E-1,-3.6189276E-1,1.9454083E-1,1.6625643E-1,-1.2558438E-1,-6.261434E-3,-7.2395485E-3,1.6461152E-1,2.0262992E-2,2.5143063E-1,-1.6422488E-2,-1.6256171E-1,-1.24140024E-1,1.6558987E-1,2.4513403E-1,8.988422E-2,-1.3299055E-1,2.2566183E-2,9.869982E-3,2.2349481E-1],"split_indices":[12,21,2,26,0,13,15,2,29,24,18,3,24,13,0,27,1,9,22,20,0,0,0,0,0,13,0,29,0,13,0,4,2,10,0,0,0,0,0,0,0,0,0,0,0,0,0,0,0,0,0],"split_type":[0,0,0,0,0,0,0,0,0,0,0,0,0,0,0,0,0,0,0,0,0,0,0,0,0,0,0,0,0,0,0,0,0,0,0,0,0,0,0,0,0,0,0,0,0,0,0,0,0,0,0],"sum_hessian":[1.0556846E2,6.1789486E1,4.377897E1,5.941039E1,2.379097E0,3.1854666E1,1.1924305E1,3.3765423E1,2.5644964E1,2.3043364E1,8.811301E0,8.9605665E0,2.963738E0,2.8200575E1,5.56485E0,4.062044E0,2.158292E1,1.7630436E1,5.4129267E0,6.0653563E0,2.7459452E0,7.9167604E0,1.0438061E0,1.59324E0,1.3704981E0,2.4487322E1,3.713253E0,2.3549156E0,1.7071286E0,2.0154226E1,1.4286928E0,3.7754474E0,1.3854989E1,3.0733957E0,2.339531E0,1.5368968E0,4.5284595E0,1.494685E1,9.540472E0,1.0588152E0,1.2961005E0,3.4641554E0,1.6690071E1,1.5553967E0,2.2200506E0,1.000393E1,3.8510594E0,2.004578E0,1.0688176E0,2.0697038E0,2.4587555E0],"tree_param":{"num_deleted":"0","num_feature":"30","num_nodes":"51","size_leaf_vector":"1"}},{"base_weights":[-2.7579364E-1,2.0065849E-1,-3.0391264E-1,-9.892949E-2,4.9960795E-1,-3.5409194E-1,-3.1652793E-2,2.0102091E-1,2.5162527E-2,-2.0639828E-1,-4.6204123E-1,5.955465E-1,-3.1425193E-1,-2.5029546E-1,1.1691006E-1,-5.094583E-1,1.8673691E-1,8.818152E-3,2.6922593E-1,-1.4652093E-1,6.0888167E-2,-3.008213E-1,1.0211452E-1,-1.6113472E-1,-4.962378E-3,1.7267396E-1,-8.906217E-2,-1.0544523E-1,5.3010758E-2],"categories":[],"categories_nodes":[],"categories_segments":[],"categories_sizes":[],"default_left":[0,0,0,0,0,0,0,0,0,0,0,0,0,0,0,0,0,0,0,0,0,0,0,0,0,0,0,0,0],"id":22,"left_children":[1,3,5,-1,7,9,11,-1,-1,13,15,17,19,21,-1,23,25,-1,-1,-1,-1,27,-1,-1,-1,-1,-1,-1,-1],"loss_changes":[1.1078858E0,9.5079744E-1,1.0022993E0,0E0,1.9664264E-1,9.017725E-1,2.4281092E0,0E0,0E0,8.35891E-1,1.1818557E0,7.038369E-1,9.431657E-1,9.0492165E-1,0E0,4.4355583E-1,7.6092416E-1,0E0,0E0,0E0,0E0,6.742382E-1,0E0,0E0,0E0,0E0,0E0,0E0,0E0],"parents":[2147483647,0,0,1,1,2,2,4,4,5,5,6,6,9,9,10,10,11,11,12,12,13,13,15,15,16,16,21,21],"right_children":[2,4,6,-1,8,10,12,-1,-1,14,16,18,20,22,-1,24,26,-1,-1,-1,-1,28,-1,-1,-1,-1,-1,-1,-1],"split_conditions":[-1.537344E0,-2.6933968E-1,6.212322E-1,-9.892949E-2,-8.409959E-2,-5.480285E-1,7.8418815E-1,2.0102091E-1,2.5162527E-2,1.1428832E0,1.5708648E0,-3.9002958E-1,-1.5035455E-1,1.4092394E0,1.1691006E-1,2.1602721E0,1.8345724E0,8.818152E-3,2.6922593E-1,-1.4652093E-1,6.0888167E-2,1.2123541E0,1.0211452E-1,-1.6113472E-1,-4.962378E-3,1.7267396E-1,-8.906217E-2,-1.0544523E-1,5.3010758E-2],"split_indices":[9,20,10,0,26,13,10,0,0,1,19,20,12,22,0,18,19,0,0,0,0,25,0,0,0,0,0,0,0],"split_type":[0,0,0,0,0,0,0,0,0,0,0,0,0,0,0,0,0,0,0,0,0,0,0,0,0,0,0,0,0],"sum_hessian":[7.7142525E1,3.9570863E0,7.318544E1,1.3891864E0,2.5679E0,6.154223E1,1.1643207E1,1.3872929E0,1.1806072E0,2.7216816E1,3.4325413E1,3.272607E0,8.3706E0,2.589034E1,1.3264759E0,3.2187664E1,2.1377492E0,1.5197468E0,1.7528603E0,6.3037567E0,2.0668428E0,2.430227E1,1.5880699E0,3.0392677E1,1.7949877E0,1.0795639E0,1.0581853E0,2.2209864E1,2.0924067E0],"tree_param":{"num_deleted":"0","num_feature":"30","num_nodes":"29","size_leaf_vector":"1"}},{"base_weights":[3.9100847E-3,-2.5574306E-1,8.581357E-2,-3.6705557E-1,2.185188E-1,1.273107E-1,-1.3947442E-1,1.9499939E-2,-4.7294912E-1,-9.836226E-2,4.658113E-1,-1.3142006E-1,1.5714304E-1,-1.2130989E-1,4.8832285E-1,-1.5621766E-1,1.9867675E-2,2.0506385E-1,-6.1475295E-3,-1.22630045E-1,1.7828973E-1,4.3993264E-2,1.7667697E-1,5.2921563E-1,1.20168224E-1,1.2397424E-3,2.5699696E-1,-4.9865562E-2,6.852146E-2],"categories":[],"categories_nodes":[],"categories_segments":[],"categories_sizes":[],"default_left":[0,0,0,0,0,0,0,0,0,0,0,0,0,0,0,0,0,0,0,0,0,0,0,0,0,0,0,0,0],"id":23,"left_children":[1,3,5,7,9,11,-1,13,15,-1,17,-1,19,-1,21,-1,-1,-1,-1,-1,23,-1,-1,25,27,-1,-1,-1,-1],"loss_changes":[2.320759E0,1.4618609E0,1.9542937E0,8.9216685E-1,9.09649E-1,1.3827112E0,0E0,1.3100281E0,4.7166514E-1,0E0,4.660927E-1,0E0,9.671793E-1,0E0,2.0584404E-2,0E0,0E0,0E0,0E0,0E0,1.4199173E0,0E0,0E0,1.7228501E0,2.012298E0,0E0,0E0,0E0,0E0],"parents":[2147483647,0,0,1,1,2,2,3,3,4,4,5,5,7,7,8,8,10,10,12,12,14,14,20,20,23,23,24,24],"right_children":[2,4,6,8,10,12,-1,14,16,-1,18,-1,20,-1,22,-1,-1,-1,-1,-1,24,-1,-1,26,28,-1,-1,-1,-1],"split_conditions":[-4.4103253E-1,4.8432076E-1,1.4616622E0,-1.0644964E0,-2.7058807E-1,-1.4446105E0,-1.3947442E-1,-1.1771103E0,2.2054205E0,-9.836226E-2,-6.6079545E-1,-1.3142006E-1,-1.9511408E0,-1.2130989E-1,-7.219318E-1,-1.5621766E-1,1.9867675E-2,2.0506385E-1,-6.1475295E-3,-1.22630045E-1,-1.4337101E0,4.3993264E-2,1.7667697E-1,-1.6784134E0,-5.4182696E-1,1.2397424E-3,2.5699696E-1,-4.9865562E-2,6.852146E-2],"split_indices":[2,10,24,15,12,9,0,17,27,0,2,0,8,0,9,0,0,0,0,0,8,0,0,12,27,0,0,0,0],"split_type":[0,0,0,0,0,0,0,0,0,0,0,0,0,0,0,0,0,0,0,0,0,0,0,0,0,0,0,0,0],"sum_hessian":[1.0709553E2,2.5171982E1,8.1923546E1,2.057009E1,4.6018925E0,7.689813E1,5.0254073E0,4.598716E0,1.5971373E1,1.3323059E0,3.2695866E0,3.168323E0,7.372981E1,2.487361E0,2.111355E0,1.4702773E1,1.2686001E0,1.9782556E0,1.2913309E0,1.9955848E0,7.173423E1,1.0392706E0,1.0720844E0,9.041023E0,6.2693203E1,3.8614438E0,5.1795793E0,1.7048458E1,4.5644745E1],"tree_param":{"num_deleted":"0","num_feature":"30","num_nodes":"29","size_leaf_vector":"1"}},{"base_weights":[9.070139E-2,-3.3253887E-1,3.296029E-1,-3.666317E-1,1.2040237E-1,1.1645125E-1,4.2453003E-1,-1.3843916E-1,-4.7057623E-1,3.17525E-1,-2.7781045E-1,1.4743952E-1,4.965729E-1,3.2905936E-1,-4.01561E-1,3.990007E-2,-5.0125325E-1,-1.2395965E-1,4.3526036E-1,-1.5794721E-1,1.4070527E-1,6.129386E-1,-4.3189475E-1,5.359476E-1,-1.6852556E-2,-1.3335817E-3,2.1478193E-1,3.7321072E-2,-1.4805618E-1,-1.6010553E-1,1.8858146E-2,-9.735773E-2,5.2056044E-1,1.328417E-1,-1.0321338E-1,3.0951602E-2,2.0879489E-1,-1.7724323E-1,4.463519E-2,1.9898173E-1,6.1345536E-1,1.3091324E-1,-1.2421425E-1,1.5842037E-1,-1.1844288E-1,2.4545702E-1,6.689702E-2,-3.1910453E-2,2.4398334E-1,3.360123E-2,2.022516E-1],"categories":[],"categories_nodes":[],"categories_segments":[],"categories_sizes":[],"default_left":[0,0,0,0,0,0,0,0,0,0,0,0,0,0,0,0,0,0,0,0,0,0,0,0,0,0,0,0,0,0,0,0,0,0,0,0,0,0,0,0,0,0,0,0,0,0,0,0,0,0,0],"id":24,"left_children":[1,3,5,7,-1,9,11,13,15,17,19,21,23,25,27,-1,29,-1,31,-1,33,35,37,39,41,43,-1,-1,-1,-1,-1,-1,45,-1,-1,-1,-1,-1,-1,47,49,-1,-1,-1,-1,-1,-1,-1,-1,-1,-1],"loss_changes":[1.148841E1,1.1754885E0,1.4162025E0,8.7885666E-1,0E0,1.9668155E0,9.1967297E-1,1.8385348E0,5.652404E-1,1.570134E0,9.6258384E-1,3.416091E0,7.9851055E-1,7.0978856E-1,5.1250315E-1,0E0,5.0618744E-1,0E0,1.1024973E0,0E0,7.3388004E-1,2.1998572E-1,6.2246335E-1,8.260298E-1,8.559599E-1,1.0394692E0,0E0,0E0,0E0,0E0,0E0,0E0,9.985502E-1,0E0,0E0,0E0,0E0,0E0,0E0,1.6374733E0,8.0842876E-1,0E0,0E0,0E0,0E0,0E0,0E0,0E0,0E0,0E0,0E0],"parents":[2147483647,0,0,1,1,2,2,3,3,5,5,6,6,7,7,8,8,9,9,10,10,11,11,12,12,13,13,14,14,16,16,18,18,20,20,21,21,22,22,23,23,24,24,25,25,32,32,39,39,40,40],"right_children":[2,4,6,8,-1,10,12,14,16,18,20,22,24,26,28,-1,30,-1,32,-1,34,36,38,40,42,44,-1,-1,-1,-1,-1,-1,46,-1,-1,-1,-1,-1,-1,48,50,-1,-1,-1,-1,-1,-1,-1,-1,-1,-1],"split_conditions":[4.2055346E-2,4.1577263E0,-4.559625E-1,-1.27123175E-2,1.2040237E-1,8.941037E-2,-5.872546E-1,2.6798648E-1,-8.8573915E-1,-2.2208884E0,-6.0255235E-1,-7.116307E-1,1.7934738E0,-1.5431799E-1,-1.3336893E0,3.990007E-2,2.2359712E0,-1.2395965E-1,-1.2546648E0,-1.5794721E-1,8.0643654E-1,-9.1945666E-1,9.7000134E-1,-5.9363365E-1,-1.8079433E0,-4.104217E-1,2.1478193E-1,3.7321072E-2,-1.4805618E-1,-1.6010553E-1,1.8858146E-2,-9.735773E-2,3.6319606E-2,1.328417E-1,-1.0321338E-1,3.0951602E-2,2.0879489E-1,-1.7724323E-1,4.463519E-2,1.9932085E0,-8.627939E-1,1.3091324E-1,-1.2421425E-1,1.5842037E-1,-1.1844288E-1,2.4545702E-1,6.689702E-2,-3.1910453E-2,2.4398334E-1,3.360123E-2,2.022516E-1],"split_indices":[2,25,9,1,0,15,10,8,5,0,9,15,20,1,17,0,5,0,15,0,0,17,14,23,8,1,0,0,0,0,0,0,4,0,0,0,0,0,0,17,25,0,0,0,0,0,0,0,0,0,0],"split_type":[0,0,0,0,0,0,0,0,0,0,0,0,0,0,0,0,0,0,0,0,0,0,0,0,0,0,0,0,0,0,0,0,0,0,0,0,0,0,0,0,0,0,0,0,0,0,0,0,0,0,0],"sum_hessian":[1.11535805E2,4.0100834E1,7.1434975E1,3.8798832E1,1.3020011E0,2.2697102E1,4.8737873E1,1.2872127E1,2.5926704E1,1.5160083E1,7.5370193E0,1.06855955E1,3.8052277E1,4.5454526E0,8.326674E0,1.0926722E0,2.4834032E1,1.7554344E0,1.3404649E1,4.565954E0,2.971065E0,5.892737E0,4.792859E0,3.530116E1,2.751119E0,2.9892273E0,1.5562252E0,1.1866722E0,7.140002E0,2.3534912E1,1.2991202E0,1.06994E0,1.2334708E1,1.8836715E0,1.0873935E0,1.1396127E0,4.753124E0,3.7493224E0,1.0435368E0,7.268503E0,2.8032654E1,1.2388487E0,1.5122702E0,1.1286409E0,1.8605863E0,5.2920437E0,7.042665E0,5.407451E0,1.861052E0,3.3348908E0,2.4697763E1],"tree_param":{"num_deleted":"0","num_feature":"30","num_nodes":"51","size_leaf_vector":"1"}},{"base_weights":[5.0986536E-2,2.3427871E-1,-3.0731326E-1,-2.6677072E-1,2.845839E-1,-1.5344155E-1,-8.782089E-2,9.0162545E-2,-1.4156619E-1,-2.7248538E-1,3.3145264E-1,1.06218845E-1,-1.3859774E-1,6.574525E-2,-1.3534717E-1,5.16884E-1,2.1394578E-1,-2.9056382E-1,3.4834224E-1,6.001807E-1,1.3014921E-2,-1.217982E-1,2.7457792E-1,4.1662145E-2,-1.3150942E-1,5.504056E-1,-1.301958E-1,-5.163022E-3,1.956775E-1,-1.4826962E-1,1.3531944E-1,1.0109323E-1,-5.2930485E-2,1.5226496E-2,1.9948255E-1,-9.1811866E-2,3.766472E-2],"categories":[],"categories_nodes":[],"categories_segments":[],"categories_sizes":[],"default_left":[0,0,0,0,0,0,0,0,0,0,0,0,0,0,0,0,0,0,0,0,0,0,0,0,0,0,0,0,0,0,0,0,0,0,0,0,0],"id":25,"left_children":[1,3,5,7,9,-1,11,-1,-1,13,15,17,-1,-1,-1,19,21,23,25,27,29,-1,31,-1,-1,33,35,-1,-1,-1,-1,-1,-1,-1,-1,-1,-1],"loss_changes":[6.4587345E0,1.7118671E0,1.4493139E0,8.909825E-1,1.6429405E0,0E0,1.3034074E0,0E0,0E0,5.5246305E-1,1.0944376E0,1.2722826E0,0E0,0E0,0E0,8.6287975E-1,1.4480305E0,3.8868648E-1,8.4763736E-1,5.8289623E-1,1.1039815E0,0E0,9.877906E-1,0E0,0E0,3.0010533E-1,1.819367E-1,0E0,0E0,0E0,0E0,0E0,0E0,0E0,0E0,0E0,0E0],"parents":[2147483647,0,0,1,1,2,2,3,3,4,4,6,6,9,9,10,10,11,11,15,15,16,16,17,17,18,18,19,19,20,20,22,22,25,25,26,26],"right_children":[2,4,6,8,10,-1,12,-1,-1,14,16,18,-1,-1,-1,20,22,24,26,28,30,-1,32,-1,-1,34,36,-1,-1,-1,-1,-1,-1,-1,-1,-1,-1],"split_conditions":[-4.7054138E-2,-8.626096E-1,1.06753565E-1,-1.3496959E0,-1.1974547E0,-1.5344155E-1,8.375458E-2,9.0162545E-2,-1.4156619E-1,-9.9588E-1,-9.291625E-1,-6.3521075E-1,-1.3859774E-1,6.574525E-2,-1.3534717E-1,9.2486644E-1,-8.6145526E-1,-3.1815174E-1,1.310767E0,-1.4225545E0,1.2691251E0,-1.217982E-1,1.1432838E0,4.1662145E-2,-1.3150942E-1,-5.246882E-1,1.5131298E-1,-5.163022E-3,1.956775E-1,-1.4826962E-1,1.3531944E-1,1.0109323E-1,-5.2930485E-2,1.5226496E-2,1.9948255E-1,-9.1811866E-2,3.766472E-2],"split_indices":[2,13,15,9,15,0,10,0,0,7,2,19,0,0,0,24,24,22,17,21,24,0,20,0,0,20,13,0,0,0,0,0,0,0,0,0,0],"split_type":[0,0,0,0,0,0,0,0,0,0,0,0,0,0,0,0,0,0,0,0,0,0,0,0,0,0,0,0,0,0,0,0,0,0,0,0,0],"sum_hessian":[9.624976E1,6.3904736E1,3.2345028E1,5.438014E0,5.846672E1,1.6068672E1,1.6276356E1,1.3205113E0,4.1175027E0,4.163746E0,5.4302975E1,1.1189679E1,5.0866766E0,1.0494657E0,3.1142805E0,1.9745258E1,3.4557716E1,4.1646852E0,7.024994E0,1.6780125E1,2.9651344E0,2.5712886E0,3.1986427E1,1.0818255E0,3.08286E0,4.833753E0,2.191241E0,1.3574007E0,1.5422724E1,1.3146077E0,1.6505266E0,2.8320951E1,3.6654766E0,1.1705408E0,3.6632123E0,1.1819218E0,1.0093193E0],"tree_param":{"num_deleted":"0","num_feature":"30","num_nodes":"37","size_leaf_vector":"1"}},{"base_weights":[3.755887E-2,2.8806493E-1,-3.3144385E-2,-1.16262786E-1,3.7175214E-1,1.588616E-2,-3.4589127E-1,4.6813664E-1,-1.1226047E-1,-6.755745E-2,4.1892162E-1,1.481597E-1,-1.4827545E-1,2.4613309E-1,6.7084724E-1,1.8196443E-1,-1.9824606E-1,-1.7671448E-1,5.596673E-1,1.6566437E-1,-9.501394E-2,1.7808864E-1,-8.391788E-3,2.2372963E-1,2.2110518E-2,-2.3988631E-1,3.3294848E-1,2.4937849E-1,-2.884309E-1,-9.820016E-2,1.7367966E-2,-4.2049136E-2,7.2862095E-1,-8.5384145E-2,7.258892E-2,-1.3566305E-1,3.3209916E-2,-1.19360365E-1,1.469491E-1,1.2995006E-1,-9.522393E-2,-1.3530578E-1,2.7852366E-2,6.576957E-3,2.6389304E-1],"categories":[],"categories_nodes":[],"categories_segments":[],"categories_sizes":[],"default_left":[0,0,0,0,0,0,0,0,0,0,0,0,0,0,0,0,0,0,0,0,0,0,0,0,0,0,0,0,0,0,0,0,0,0,0,0,0,0,0,0,0,0,0,0,0],"id":26,"left_children":[1,3,5,-1,7,9,11,13,-1,15,17,19,-1,21,23,25,27,29,31,-1,-1,-1,33,-1,-1,35,37,39,41,-1,-1,-1,43,-1,-1,-1,-1,-1,-1,-1,-1,-1,-1,-1,-1],"loss_changes":[1.7873011E0,1.3990659E0,1.2195852E0,0E0,1.6318862E0,2.3623161E0,8.629594E-1,6.623235E-1,0E0,1.9391185E0,1.1085014E0,7.8678614E-1,0E0,9.208609E-1,3.4907293E-1,1.3907127E0,1.6373382E0,1.2714396E-1,1.2822871E0,0E0,0E0,0E0,5.50399E-1,0E0,0E0,4.971152E-1,1.9805858E0,8.707315E-1,2.0713565E0,0E0,0E0,0E0,8.560324E-1,0E0,0E0,0E0,0E0,0E0,0E0,0E0,0E0,0E0,0E0,0E0,0E0],"parents":[2147483647,0,0,1,1,2,2,4,4,5,5,6,6,7,7,9,9,10,10,11,11,13,13,14,14,15,15,16,16,17,17,18,18,22,22,25,25,26,26,27,27,28,28,32,32],"right_children":[2,4,6,-1,8,10,12,14,-1,16,18,20,-1,22,24,26,28,30,32,-1,-1,-1,34,-1,-1,36,38,40,42,-1,-1,-1,44,-1,-1,-1,-1,-1,-1,-1,-1,-1,-1,-1,-1],"split_conditions":[-8.100973E-1,-2.7650297E0,7.796863E-1,-1.16262786E-1,3.2333896E-1,4.528859E-1,-6.3904375E-1,-5.875552E-1,-1.1226047E-1,-4.1040024E-1,-7.019312E-1,-3.8028467E-1,-1.4827545E-1,-1.0994655E0,9.737276E-1,-4.0729338E-1,-1.2126504E0,4.9466822E-1,-4.4589126E-1,1.6566437E-1,-9.501394E-2,1.7808864E-1,-9.032023E-1,2.2372963E-1,2.2110518E-2,1.3724984E-1,-7.6669073E-1,4.0295663E-1,1.3411574E0,-9.820016E-2,1.7367966E-2,-4.2049136E-2,-7.0773524E-1,-8.5384145E-2,7.258892E-2,-1.3566305E-1,3.3209916E-2,-1.19360365E-1,1.469491E-1,1.2995006E-1,-9.522393E-2,-1.3530578E-1,2.7852366E-2,6.576957E-3,2.6389304E-1],"split_indices":[24,0,20,0,10,20,24,26,0,2,2,23,0,24,29,8,9,25,24,0,0,0,24,0,0,9,5,2,22,0,0,0,26,0,0,0,0,0,0,0,0,0,0,0,0],"split_type":[0,0,0,0,0,0,0,0,0,0,0,0,0,0,0,0,0,0,0,0,0,0,0,0,0,0,0,0,0,0,0,0,0,0,0,0,0,0,0,0,0,0,0,0,0],"sum_hessian":[9.93723E1,2.1196718E1,7.817558E1,1.9360579E0,1.926066E1,6.840125E1,9.774326E0,1.7386576E1,1.874084E0,5.7358295E1,1.1042961E1,2.257622E0,7.5167046E0,9.355203E0,8.031374E0,1.9580732E1,3.777756E1,2.0618112E0,8.98115E0,1.107302E0,1.15032E0,3.391957E0,5.9632454E0,6.914939E0,1.116435E0,5.005764E0,1.4574969E1,6.038886E0,3.1738676E1,1.0149616E0,1.0468496E0,1.7797135E0,7.2014365E0,2.7700958E0,3.1931496E0,2.9371076E0,2.0686564E0,2.3043437E0,1.2270625E1,4.738222E0,1.3006638E0,2.212208E1,9.616596E0,1.4696223E0,5.7318144E0],"tree_param":{"num_deleted":"0","num_feature":"30","num_nodes":"45","size_leaf_vector":"1"}},{"base_weights":[-2.456513E-1,-1.8232732E-1,-1.5179509E-1,-3.682605E-1,-4.3697327E-2,-4.597425E-1,-1.4758787E-2,8.4794715E-2,-3.9387625E-1,-4.952793E-1,2.1148229E-2,4.373049E-1,-1.2296774E-1,1.5981641E-1,-1.239809E-1,-1.4492004E-1,3.8322486E-2,-1.3535032E-3,-1.5725215E-1,1.8706375E-1,2.5403434E-2,-1.1781323E-1,2.417075E-1,-6.1973374E-2,9.888894E-2],"categories":[],"categories_nodes":[],"categories_segments":[],"categories_sizes":[],"default_left":[0,0,0,0,0,0,0,0,0,0,0,0,0,0,0,0,0,0,0,0,0,0,0,0,0],"id":27,"left_children":[1,3,-1,5,7,9,11,13,15,17,-1,19,-1,21,-1,-1,-1,-1,-1,-1,-1,-1,23,-1,-1],"loss_changes":[1.0579538E0,1.470771E0,0E0,7.8564644E-1,1.5713481E0,4.010911E-1,1.2636482E0,1.0311257E0,4.9680972E-1,2.5766325E-1,0E0,1.6492343E-1,0E0,1.1432046E0,0E0,0E0,0E0,0E0,0E0,0E0,0E0,0E0,8.8777196E-1,0E0,0E0],"parents":[2147483647,0,0,1,1,3,3,4,4,5,5,6,6,7,7,8,8,9,9,11,11,13,13,22,22],"right_children":[2,4,-1,6,8,10,12,14,16,18,-1,20,-1,22,-1,-1,-1,-1,-1,-1,-1,-1,24,-1,-1],"split_conditions":[7.0602703E-1,-3.5575533E-1,-1.5179509E-1,5.624178E-1,1.8349927E-2,1.2540411E0,-3.7070105E-3,4.3608534E-1,2.3800123E0,-1.3457996E0,2.1148229E-2,-9.164979E-1,-1.2296774E-1,-7.9540825E-1,-1.239809E-1,-1.4492004E-1,3.8322486E-2,-1.3535032E-3,-1.5725215E-1,1.8706375E-1,2.5403434E-2,-1.1781323E-1,-7.098925E-1,-6.1973374E-2,9.888894E-2],"split_indices":[2,2,0,19,24,1,6,26,24,8,0,9,0,26,0,0,0,0,0,0,0,0,6,0,0],"split_type":[0,0,0,0,0,0,0,0,0,0,0,0,0,0,0,0,0,0,0,0,0,0,0,0,0],"sum_hessian":[6.877185E1,5.6684185E1,1.2087664E1,2.3503891E1,3.3180294E1,1.8433092E1,5.0707994E0,2.4827961E1,8.352333E0,1.7337076E1,1.0960158E0,2.3152485E0,2.7555509E0,2.2167997E1,2.6599634E0,7.195837E0,1.1564965E0,1.0282669E0,1.630881E1,1.0123072E0,1.3029412E0,2.3715298E0,1.9796469E1,3.0247517E0,1.6771717E1],"tree_param":{"num_deleted":"0","num_feature":"30","num_nodes":"25","size_leaf_vector":"1"}},{"base_weights":[4.034155E-3,-2.2849962E-1,7.017363E-2,-3.370131E-1,1.9371557E-1,1.0412111E-1,-1.3274202E-1,3.2997567E-2,-4.514008E-1,-9.004072E-2,3.9955878E-1,-1.2388202E-1,1.287039E-1,-1.1502103E-1,4.4387883E-1,2.467617E-2,-1.5123597E-1,1.7932698E-1,-9.501377E-3,1.9305713E-1,-6.29244E-2,1.605107E-1,4.0262945E-2,8.036655E-2,3.9919388E-1,3.7888986E-1,-2.6677477E-1,-5.281246E-2,9.924467E-2,1.4214355E-1,-1.0452932E-1,2.1120577E-1,-6.2175184E-2,-1.1515753E-1,1.4835155E-1],"categories":[],"categories_nodes":[],"categories_segments":[],"categories_sizes":[],"default_left":[0,0,0,0,0,0,0,0,0,0,0,0,0,0,0,0,0,0,0,0,0,0,0,0,0,0,0,0,0,0,0,0,0,0,0],"id":28,"left_children":[1,3,5,7,9,11,-1,13,15,-1,17,-1,19,-1,21,-1,-1,-1,-1,23,25,-1,-1,27,29,31,33,-1,-1,-1,-1,-1,-1,-1,-1],"loss_changes":[1.6064348E0,1.125209E0,1.4605052E0,8.092983E-1,6.65314E-1,1.0323455E0,0E0,1.0879405E0,4.4673705E-1,0E0,3.7924105E-1,0E0,9.284421E-1,0E0,1.7491102E-2,0E0,0E0,0E0,0E0,1.2657366E0,1.851359E0,0E0,0E0,2.4582882E0,1.2526438E0,1.3939291E0,1.4274292E0,0E0,0E0,0E0,0E0,0E0,0E0,0E0,0E0],"parents":[2147483647,0,0,1,1,2,2,3,3,4,4,5,5,7,7,8,8,10,10,12,12,14,14,19,19,20,20,23,23,24,24,25,25,26,26],"right_children":[2,4,6,8,10,12,-1,14,16,-1,18,-1,20,-1,22,-1,-1,-1,-1,24,26,-1,-1,28,30,32,34,-1,-1,-1,-1,-1,-1,-1,-1],"split_conditions":[-4.4103253E-1,4.8432076E-1,1.4616622E0,-1.0644964E0,-2.7058807E-1,-1.4446105E0,-1.3274202E-1,-1.1771103E0,-9.93005E-1,-9.004072E-2,-6.6079545E-1,-1.2388202E-1,2.397475E-1,-1.1502103E-1,-2.0402269E-1,2.467617E-2,-1.5123597E-1,1.7932698E-1,-9.501377E-3,4.2691585E-1,-5.875082E-1,1.605107E-1,4.0262945E-2,-2.802319E-1,7.7724814E-2,2.1340115E-1,1.4687692E0,-5.281246E-2,9.924467E-2,1.4214355E-1,-1.0452932E-1,2.1120577E-1,-6.2175184E-2,-1.1515753E-1,1.4835155E-1],"split_indices":[2,10,24,15,12,9,0,17,10,0,2,0,27,0,4,0,0,0,0,19,23,0,0,27,12,2,2,0,0,0,0,0,0,0,0],"split_type":[0,0,0,0,0,0,0,0,0,0,0,0,0,0,0,0,0,0,0,0,0,0,0,0,0,0,0,0,0,0,0,0,0,0,0],"sum_hessian":[1.0240932E2,2.213435E1,8.027496E1,1.776927E1,4.36508E0,7.603671E1,4.2382565E0,4.364127E0,1.3405143E1,1.1494008E0,3.215679E0,2.7339675E0,7.330274E1,2.200719E0,2.163408E0,1.1548473E0,1.2250296E1,1.9385396E0,1.2771393E0,5.4869E1,1.8433743E1,1.1091442E0,1.0542638E0,3.6373985E1,1.8495016E1,5.548834E0,1.2884908E1,1.8119972E1,1.8254013E1,1.7149614E1,1.3454014E0,3.4397247E0,2.1091092E0,1.159707E1,1.2878383E0],"tree_param":{"num_deleted":"0","num_feature":"30","num_nodes":"35","size_leaf_vector":"1"}},{"base_weights":[7.612797E-2,-2.6459348E-1,2.9565796E-1,-4.3599668E-1,-1.1998015E-1,6.675129E-1,2.4223736E-1,5.2114747E-2,-1.5464994E-1,1.9783841E-2,-1.4460014E-1,2.1841954E-1,6.689605E-2,-1.988817E-2,3.3456787E-1,-9.7617105E-2,1.3373041E-1,-2.8923255E-1,2.5021762E-1,1.6228043E-1,-4.0685964E-1,1.947777E-1,2.0518629E-1,-1.4081289E-1,5.3773656E-2,-2.2404952E-1,4.9074447E-1,-1.0566715E-1,2.7094522E-1,3.0201077E-2,-1.6418038E-1,3.2032573E-1,-2.8186384E-1,-9.994918E-2,1.3989033E-1,-1.17939115E-1,5.0136127E-2,1.9423138E-1,-2.9608594E-2,1.2897977E-1,-5.82893E-2,-1.15895666E-1,1.1393941E-1,-1.766575E-1,6.569636E-2],"categories":[],"categories_nodes":[],"categories_segments":[],"categories_sizes":[],"default_left":[0,0,0,0,0,0,0,0,0,0,0,0,0,0,0,0,0,0,0,0,0,0,0,0,0,0,0,0,0,0,0,0,0,0,0,0,0,0,0,0,0,0,0,0,0],"id":29,"left_children":[1,3,5,7,9,11,13,15,-1,17,-1,-1,-1,19,21,-1,-1,23,25,27,29,-1,31,-1,33,35,37,-1,39,-1,-1,41,43,-1,-1,-1,-1,-1,-1,-1,-1,-1,-1,-1,-1],"loss_changes":[7.9327087E0,9.8068094E-1,1.1162796E0,7.521987E-1,1.2230294E0,3.9842367E-2,1.4060812E0,6.6905767E-1,0E0,1.3728908E0,0E0,0E0,0E0,1.1943353E0,1.6100683E0,0E0,0E0,5.359653E-1,1.3645682E0,7.4383456E-1,4.404896E-1,0E0,1.8738105E0,0E0,7.5288033E-1,3.5588342E-1,7.668445E-1,0E0,8.336004E-1,0E0,0E0,1.2474225E0,1.1457419E0,0E0,0E0,0E0,0E0,0E0,0E0,0E0,0E0,0E0,0E0,0E0,0E0],"parents":[2147483647,0,0,1,1,2,2,3,3,4,4,5,5,6,6,7,7,9,9,13,13,14,14,17,17,18,18,19,19,20,20,22,22,24,24,25,25,26,26,28,28,31,31,32,32],"right_children":[2,4,6,8,10,12,14,16,-1,18,-1,-1,-1,20,22,-1,-1,24,26,28,30,-1,32,-1,34,36,38,-1,40,-1,-1,42,44,-1,-1,-1,-1,-1,-1,-1,-1,-1,-1,-1,-1],"split_conditions":[1.5525435E-1,-1.7551127E-1,-1.5332409E0,-1.1256125E0,1.0351863E0,1.098496E0,-4.9741745E-1,7.0247847E-1,-1.5464994E-1,-5.2944624E-1,-1.4460014E-1,2.1841954E-1,6.689605E-2,-5.1575977E-1,-8.247659E-1,-9.7617105E-2,1.3373041E-1,9.94367E-1,-7.676283E-1,-9.644882E-1,-7.098925E-1,1.947777E-1,5.936875E-1,-1.4081289E-1,-2.4987881E-1,1.6163464E-1,5.681133E-1,-1.0566715E-1,-5.2011825E-2,3.0201077E-2,-1.6418038E-1,-8.109027E-1,9.176797E-1,-9.994918E-2,1.3989033E-1,-1.17939115E-1,5.0136127E-2,1.9423138E-1,-2.9608594E-2,1.2897977E-1,-5.82893E-2,-1.15895666E-1,1.1393941E-1,-1.766575E-1,6.569636E-2],"split_indices":[2,9,8,15,14,13,24,6,0,18,0,0,0,13,18,0,0,8,2,13,6,0,19,0,26,24,7,0,9,0,0,13,26,0,0,0,0,0,0,0,0,0,0,0,0],"split_type":[0,0,0,0,0,0,0,0,0,0,0,0,0,0,0,0,0,0,0,0,0,0,0,0,0,0,0,0,0,0,0,0,0,0,0,0,0,0,0,0,0,0,0,0,0],"sum_hessian":[1.0400841E2,4.0674416E1,6.3333992E1,1.76911E1,2.2983318E1,6.511655E0,5.6822334E1,2.5261607E0,1.5164939E1,1.7263721E1,5.7195964E0,5.169617E0,1.3420379E0,1.5005747E1,4.181659E1,1.3780495E0,1.1481112E0,7.265445E0,9.998276E0,1.0597544E1,4.4082026E0,1.1012654E1,3.0803934E1,4.522074E0,2.743371E0,3.3874533E0,6.6108227E0,1.4571021E0,9.140442E0,1.0165879E0,3.3916147E0,2.5191046E1,5.6128893E0,1.5148621E0,1.2285091E0,2.3616378E0,1.0258154E0,5.1447706E0,1.466052E0,6.8689976E0,2.2714443E0,1.528909E0,2.3662136E1,3.3709617E0,2.2419274E0],"tree_param":{"num_deleted":"0","num_feature":"30","num_nodes":"45","size_leaf_vector":"1"}},{"base_weights":[3.9067484E-2,1.929941E-1,-2.8445968E-1,1.2279598E-2,3.0130476E-1,-1.4944795E-1,-7.4738026E-2,4.3824083E-1,-7.007523E-2,4.6658128E-1,1.7388302E-1,1.0349907E-1,-1.3483211E-1,4.702063E-2,1.6753665E-1,1.4757511E-1,-1.360832E-1,6.1673146E-2,5.604702E-1,2.4299414E-1,-1.18943244E-1,2.7222493E-1,-1.1564862E-1,-2.561703E-1,2.966503E-1,-9.480973E-2,9.013438E-2,2.3209909E-1,6.371E-1,-1.1070966E-1,3.0174455E-1,-1.7842752E-1,5.7263744E-1,7.8894496E-2,-9.6137814E-2,1.7221935E-1,-9.730405E-2,1.392205E-1,-5.940491E-2,2.0255138E-1,5.863549E-2,-1.0363516E-1,1.0791972E-1,-1.1580081E-1,4.527352E-2,2.1630524E-1,3.2622905E-3],"categories":[],"categories_nodes":[],"categories_segments":[],"categories_sizes":[],"default_left":[0,0,0,0,0,0,0,0,0,0,0,0,0,0,0,0,0,0,0,0,0,0,0,0,0,0,0,0,0,0,0,0,0,0,0,0,0,0,0,0,0,0,0,0,0,0,0],"id":30,"left_children":[1,3,5,7,9,-1,11,13,15,17,19,21,-1,-1,-1,-1,23,25,27,29,-1,31,-1,33,35,-1,-1,37,39,-1,41,43,45,-1,-1,-1,-1,-1,-1,-1,-1,-1,-1,-1,-1,-1,-1],"loss_changes":[4.5264177E0,1.1988587E0,1.2782457E0,8.749552E-1,7.26985E-1,0E0,1.1144443E0,4.908538E-2,8.470458E-1,5.779073E-1,1.0132742E0,1.0660334E0,0E0,0E0,0E0,0E0,1.0946406E0,4.6978334E-1,1.7810631E-1,8.796648E-1,0E0,1.3539926E0,0E0,6.1430836E-1,9.995888E-1,0E0,0E0,4.9340242E-1,3.5007E-2,0E0,8.7659526E-1,3.6321148E-1,4.744215E-1,0E0,0E0,0E0,0E0,0E0,0E0,0E0,0E0,0E0,0E0,0E0,0E0,0E0,0E0],"parents":[2147483647,0,0,1,1,2,2,3,3,4,4,6,6,7,7,8,8,9,9,10,10,11,11,16,16,17,17,18,18,19,19,21,21,23,23,24,24,27,27,28,28,30,30,31,31,32,32],"right_children":[2,4,6,8,10,-1,12,14,16,18,20,22,-1,-1,-1,-1,24,26,28,30,-1,32,-1,34,36,-1,-1,38,40,-1,42,44,46,-1,-1,-1,-1,-1,-1,-1,-1,-1,-1,-1,-1,-1,-1],"split_conditions":[-4.7054138E-2,-3.770183E-1,1.06753565E-1,-9.660545E-1,-1.0571092E-1,-1.4944795E-1,6.2543964E-1,-8.2989717E-1,-1.5364406E0,-3.8437238E-1,1.2951789E0,8.375458E-2,-1.3483211E-1,4.702063E-2,1.6753665E-1,1.4757511E-1,4.8272642E-1,-3.849921E-1,9.049593E-2,-6.96692E-1,-1.18943244E-1,2.0954898E-1,-1.1564862E-1,-1.224123E0,8.704779E-1,-9.480973E-2,9.013438E-2,-9.174259E-1,1.3730538E0,-1.1070966E-1,-7.97523E-1,3.8447875E-1,1.2003226E0,7.8894496E-2,-9.6137814E-2,1.7221935E-1,-9.730405E-2,1.392205E-1,-5.940491E-2,2.0255138E-1,5.863549E-2,-1.0363516E-1,1.0791972E-1,-1.1580081E-1,4.527352E-2,2.1630524E-1,3.2622905E-3],"split_indices":[2,24,15,27,19,0,2,24,2,27,29,10,0,0,0,0,0,12,1,13,0,2,0,19,0,0,0,29,5,0,25,8,15,0,0,0,0,0,0,0,0,0,0,0,0,0,0],"split_type":[0,0,0,0,0,0,0,0,0,0,0,0,0,0,0,0,0,0,0,0,0,0,0,0,0,0,0,0,0,0,0,0,0,0,0,0,0,0,0,0,0,0,0,0,0,0,0],"sum_hessian":[8.879054E1,6.0438698E1,2.8351843E1,2.3066313E1,3.7372383E1,1.3361517E1,1.4990326E1,3.0369613E0,2.0029352E1,1.51107645E1,2.226162E1,1.0648749E1,4.3415766E0,1.5982206E0,1.4387407E0,1.42705E0,1.8602303E1,3.156185E0,1.195458E1,2.0367619E1,1.8940002E0,8.246589E0,2.402161E0,1.488078E1,3.7215211E0,1.0971309E0,2.059054E0,3.0242045E0,8.930375E0,1.3213402E0,1.9046278E1,3.4609034E0,4.785685E0,1.2991519E0,1.3581629E1,2.6246178E0,1.0969032E0,1.9133565E0,1.110848E0,7.7348566E0,1.1955191E0,1.1585498E0,1.7887728E1,2.0173566E0,1.4435468E0,3.5614893E0,1.2241956E0],"tree_param":{"num_deleted":"0","num_feature":"30","num_nodes":"47","size_leaf_vector":"1"}},{"base_weights":[3.5959173E-2,-6.51135E-2,1.7584139E-1,-1.0175502E-1,3.8433564E-1,2.7812803E-1,-1.1746578E-1,-1.063596E-2,-3.5118377E-1,1.8459237E-1,-1.6790893E-2,3.7365752E-1,3.9879153E-3,-3.8121015E-1,4.255943E-1,-6.2456883E-2,1.6540079E-1,-4.497436E-1,1.14084736E-1,1.8461367E-2,4.4892615E-1,1.9783144E-1,-1.1838875E-1,-1.4134148E-1,3.5780143E-2,-8.881342E-3,2.1908246E-1,5.6309298E-2,-3.390181E-1,2.8122641E-2,-1.5294498E-1,-1.218529E-1,3.3017388E-1,1.8977307E-1,5.730615E-1,-1.041262E-1,3.7898728E-1,4.2725757E-2,-1.302061E-1,-1.499283E-1,-2.788749E-3,-1.42606655E-2,1.5397123E-1,1.02892525E-1,-1.0596861E-1,1.8630022E-1,1.3929082E-2,-1.9404138E-2,1.5963139E-1],"categories":[],"categories_nodes":[],"categories_segments":[],"categories_sizes":[],"default_left":[0,0,0,0,0,0,0,0,0,0,0,0,0,0,0,0,0,0,0,0,0,0,0,0,0,0,0,0,0,0,0,0,0,0,0,0,0,0,0,0,0,0,0,0,0,0,0,0,0],"id":31,"left_children":[1,3,5,7,9,11,13,15,17,-1,-1,19,21,23,25,27,-1,29,-1,31,33,35,-1,-1,-1,-1,-1,37,39,-1,-1,-1,41,43,45,-1,47,-1,-1,-1,-1,-1,-1,-1,-1,-1,-1,-1,-1],"loss_changes":[1.3431311E0,9.516286E-1,1.2261198E0,1.1786497E0,4.8050213E-1,7.7869225E-1,1.736144E0,1.1741296E0,1.1723034E0,0E0,0E0,5.8206964E-1,7.5103605E-1,4.1282701E-1,5.853543E-1,1.2255102E0,0E0,4.623525E-1,0E0,7.8322214E-1,4.7602773E-1,7.7574515E-1,0E0,0E0,0E0,0E0,0E0,1.1829222E0,5.877348E-1,0E0,0E0,0E0,2.5808045E-1,7.352771E-1,2.6895738E-1,0E0,3.9960557E-1,0E0,0E0,0E0,0E0,0E0,0E0,0E0,0E0,0E0,0E0,0E0,0E0],"parents":[2147483647,0,0,1,1,2,2,3,3,4,4,5,5,6,6,7,7,8,8,11,11,12,12,13,13,14,14,15,15,17,17,19,19,20,20,21,21,27,27,28,28,32,32,33,33,34,34,36,36],"right_children":[2,4,6,8,10,12,14,16,18,-1,-1,20,22,24,26,28,-1,30,-1,32,34,36,-1,-1,-1,-1,-1,38,40,-1,-1,-1,42,44,46,-1,48,-1,-1,-1,-1,-1,-1,-1,-1,-1,-1,-1,-1],"split_conditions":[2.3949356E-1,1.6895406E0,2.1074852E-1,1.0128167E0,2.8857118E-1,-3.9388353E-1,1.6110748E-1,8.650846E-1,1.109939E0,1.8459237E-1,-1.6790893E-2,-1.4042934E0,-4.1657975E-1,1.241024E-1,7.0247847E-1,6.9830066E-1,1.6540079E-1,-1.7410806E0,1.14084736E-1,-1.7743222E-1,-3.7070105E-3,-1.2576815E0,-1.1838875E-1,-1.4134148E-1,3.5780143E-2,-8.881342E-3,2.1908246E-1,1.2459818E0,1.1978812E0,2.8122641E-2,-1.5294498E-1,-1.218529E-1,-4.0729338E-1,3.0842933E-1,-2.026178E-1,-1.041262E-1,-1.3874854E0,4.2725757E-2,-1.302061E-1,-1.499283E-1,-2.788749E-3,-1.42606655E-2,1.5397123E-1,1.02892525E-1,-1.0596861E-1,1.8630022E-1,1.3929082E-2,-1.9404138E-2,1.5963139E-1],"split_indices":[12,28,2,21,24,13,15,21,1,0,0,9,4,3,6,9,0,12,0,4,6,20,0,0,0,0,0,28,28,0,0,0,8,1,24,0,2,0,0,0,0,0,0,0,0,0,0,0,0],"split_type":[0,0,0,0,0,0,0,0,0,0,0,0,0,0,0,0,0,0,0,0,0,0,0,0,0,0,0,0,0,0,0,0,0,0,0,0,0,0,0,0,0,0,0,0,0,0,0,0,0],"sum_hessian":[9.318985E1,5.4410065E1,3.877978E1,5.1023922E1,3.3861454E0,2.8791065E1,9.988715E0,3.8135315E1,1.2888607E1,1.9603443E0,1.425801E0,2.1081713E1,7.709354E0,6.9240108E0,3.064705E0,3.5729465E1,2.4058478E0,1.1697589E1,1.1910185E0,3.90397E0,1.7177742E1,5.525879E0,2.1834745E0,5.919067E0,1.0049435E0,1.5908211E0,1.4738837E0,2.5552584E1,1.0176882E1,1.1084915E0,1.0589097E1,1.5243461E0,2.379624E0,6.38233E0,1.0795412E1,1.1501763E0,4.375703E0,2.233903E1,3.213555E0,6.494867E0,3.6820145E0,1.0185055E0,1.3611184E0,5.265187E0,1.117143E0,9.730454E0,1.0649574E0,1.2708641E0,3.1048386E0],"tree_param":{"num_deleted":"0","num_feature":"30","num_nodes":"49","size_leaf_vector":"1"}},{"base_weights":[-2.202673E-1,-1.6006766E-1,-1.4708792E-1,-3.3885655E-1,-3.9128147E-2,-4.3706062E-1,1.8244281E-3,6.89526E-2,-3.6807188E-1,-4.7615626E-1,1.9730458E-2,4.0958142E-1,-1.15910105E-1,3.4130996E-1,-5.6027934E-2,-1.3973713E-1,4.2390794E-2,-1.5545386E-3,-1.5255773E-1,1.3685624E-2,1.8189944E-1,-9.511621E-2,5.0945306E-1,-2.4471486E-1,2.919909E-1,-2.2446988E-2,2.1543936E-1,-1.260234E-1,8.133784E-2,1.5534477E-1,-3.8976956E-2],"categories":[],"categories_nodes":[],"categories_segments":[],"categories_sizes":[],"default_left":[0,0,0,0,0,0,0,0,0,0,0,0,0,0,0,0,0,0,0,0,0,0,0,0,0,0,0,0,0,0,0],"id":32,"left_children":[1,3,-1,5,7,9,11,13,15,17,-1,19,-1,21,23,-1,-1,-1,-1,-1,-1,-1,25,27,29,-1,-1,-1,-1,-1,-1],"loss_changes":[9.499867E-1,1.1374964E0,0E0,7.148721E-1,1.1942166E0,3.5709357E-1,1.0718273E0,8.9011997E-1,4.783777E-1,2.3363066E-1,0E0,2.0867294E-1,0E0,1.0681024E0,1.2796134E0,0E0,0E0,0E0,0E0,0E0,0E0,0E0,8.958856E-1,1.2423031E0,7.270034E-1,0E0,0E0,0E0,0E0,0E0,0E0],"parents":[2147483647,0,0,1,1,3,3,4,4,5,5,6,6,7,7,8,8,9,9,11,11,13,13,14,14,22,22,23,23,24,24],"right_children":[2,4,-1,6,8,10,12,14,16,18,-1,20,-1,22,24,-1,-1,-1,-1,-1,-1,-1,26,28,30,-1,-1,-1,-1,-1,-1],"split_conditions":[7.0602703E-1,-3.5575533E-1,-1.4708792E-1,5.624178E-1,1.8349927E-2,1.2540411E0,-6.4563745E-1,-6.125576E-1,2.105016E0,-1.3457996E0,1.9730458E-2,-1.5545537E-1,-1.15910105E-1,-6.3397646E-1,3.7655988E-1,-1.3973713E-1,4.2390794E-2,-1.5545386E-3,-1.5255773E-1,1.3685624E-2,1.8189944E-1,-9.511621E-2,8.2677406E-1,5.947047E-1,-8.439103E-2,-2.2446988E-2,2.1543936E-1,-1.260234E-1,8.133784E-2,1.5534477E-1,-3.8976956E-2],"split_indices":[2,2,0,19,24,1,9,29,26,8,0,12,0,22,1,0,0,0,0,0,0,0,8,27,27,0,0,0,0,0,0],"split_type":[0,0,0,0,0,0,0,0,0,0,0,0,0,0,0,0,0,0,0,0,0,0,0,0,0,0,0,0,0,0,0],"sum_hessian":[6.226905E1,5.2219913E1,1.0049136E1,2.034353E1,3.1876383E1,1.5571901E1,4.7716303E0,2.458793E1,7.288452E0,1.4497727E1,1.0741735E0,2.3002946E0,2.4713356E0,7.189556E0,1.7398375E1,6.187085E0,1.1013675E0,1.0069361E0,1.3490791E1,1.2394079E0,1.0608867E0,1.2824609E0,5.9070954E0,1.1474194E1,5.9241805E0,1.7233483E0,4.183747E0,8.701659E0,2.7725348E0,3.7107432E0,2.213437E0],"tree_param":{"num_deleted":"0","num_feature":"30","num_nodes":"31","size_leaf_vector":"1"}},{"base_weights":[9.980861E-3,1.3294202E-1,-9.6641E-2,3.605849E-1,1.1532251E-2,-4.1559085E-1,1.9594735E-2,5.5100683E-2,7.459011E-1,-2.7393937E-1,1.2415758E-1,-1.611663E-1,7.662506E-3,6.2482834E-1,-6.2013637E-2,3.5979593E-1,-3.1589958E-1,7.2658405E-2,2.514123E-1,-1.4979555E-1,1.12667434E-1,1.955703E-1,-1.2061542E-1,-1.1339513E-1,1.7062613E-1,4.86914E-2,2.7001178E-1,-1.553785E-1,4.127327E-1,1.6554755E-1,-5.4216284E-2,3.54801E-2,-1.3778023E-1,3.7257397E-1,-4.7156543E-2,-3.376696E-1,2.1632102E-1,-5.3015526E-2,2.1142241E-1,-3.9698012E-2,1.4286086E-1,-1.3607904E-1,4.8678514E-2,2.1803306E-2,-1.2614423E-1,1.2546551E-1,-1.121851E-1],"categories":[],"categories_nodes":[],"categories_segments":[],"categories_sizes":[],"default_left":[0,0,0,0,0,0,0,0,0,0,0,0,0,0,0,0,0,0,0,0,0,0,0,0,0,0,0,0,0,0,0,0,0,0,0,0,0,0,0,0,0,0,0,0,0,0,0],"id":33,"left_children":[1,3,5,7,9,11,13,15,17,19,21,-1,23,25,27,29,31,-1,-1,-1,-1,33,-1,-1,-1,-1,-1,35,37,-1,-1,-1,-1,39,41,43,45,-1,-1,-1,-1,-1,-1,-1,-1,-1,-1],"loss_changes":[1.3006995E0,1.2683331E0,1.9800929E0,1.8400309E0,1.0326296E0,7.3780966E-1,2.0113978E0,1.2433859E0,1.2132907E-1,1.5194659E0,9.4145465E-1,0E0,1.1167073E0,4.694581E-1,1.664377E0,7.1780413E-1,3.6797595E-1,0E0,0E0,0E0,0E0,9.150755E-1,0E0,0E0,0E0,0E0,0E0,2.1664915E0,1.1928756E0,0E0,0E0,0E0,0E0,7.0097136E-1,8.9898026E-1,7.482531E-1,1.4406055E0,0E0,0E0,0E0,0E0,0E0,0E0,0E0,0E0,0E0,0E0],"parents":[2147483647,0,0,1,1,2,2,3,3,4,4,5,5,6,6,7,7,8,8,9,9,10,10,12,12,13,13,14,14,15,15,16,16,21,21,27,27,28,28,33,33,34,34,35,35,36,36],"right_children":[2,4,6,8,10,12,14,16,18,20,22,-1,24,26,28,30,32,-1,-1,-1,-1,34,-1,-1,-1,-1,-1,36,38,-1,-1,-1,-1,40,42,44,46,-1,-1,-1,-1,-1,-1,-1,-1,-1,-1],"split_conditions":[-4.9741745E-1,-9.799769E-1,3.3084393E-2,-6.103269E-1,-3.9804423E-1,1.5063359E0,1.04479656E-1,-6.646188E-1,-8.325014E-1,1.6859393E0,1.0435345E0,-1.611663E-1,1.6575821E-3,6.9925207E-1,1.1432838E0,-4.559625E-1,-1.0256765E0,7.2658405E-2,2.514123E-1,-1.4979555E-1,1.12667434E-1,1.138055E-1,-1.2061542E-1,-1.1339513E-1,1.7062613E-1,4.86914E-2,2.7001178E-1,7.6001775E-1,2.3309821E-1,1.6554755E-1,-5.4216284E-2,3.54801E-2,-1.3778023E-1,-1.5712384E0,-7.425805E-2,-1.1030781E0,1.4616622E0,-5.3015526E-2,2.1142241E-1,-3.9698012E-2,1.4286086E-1,-1.3607904E-1,4.8678514E-2,2.1803306E-2,-1.2614423E-1,1.2546551E-1,-1.121851E-1],"split_indices":[24,18,1,13,7,2,1,3,28,12,4,0,17,2,20,9,9,0,0,0,0,27,0,0,0,0,0,13,1,0,0,0,0,22,17,7,24,0,0,0,0,0,0,0,0,0,0],"split_type":[0,0,0,0,0,0,0,0,0,0,0,0,0,0,0,0,0,0,0,0,0,0,0,0,0,0,0,0,0,0,0,0,0,0,0,0,0,0,0,0,0,0,0,0,0,0,0],"sum_hessian":[9.7231705E1,4.504125E1,5.219046E1,1.4981327E1,3.005992E1,1.3251913E1,3.893855E1,8.993863E0,5.9874635E0,8.099017E0,2.1960903E1,1.0084632E1,3.167281E0,3.8356588E0,3.510289E1,4.954791E0,4.039072E0,1.4869921E0,4.5004716E0,6.184267E0,1.9147501E0,1.9889944E1,2.070958E0,2.0705223E0,1.0967586E0,