{"learner":{"attributes":{"scikit_learn":"{\"_estimator_type\": \"classifier\"}"},"feature_names":[],"feature_types":[],"gradient_booster":{"model":{"gbtree_model_param":{"num_parallel_tree":"1","num_trees":"500"},"iteration_indptr":[0,5,10,15,20,25,30,35,40,45,50,55,60,65,70,75,80,85,90,95,100,105,110,115,120,125,130,135,140,145,150,155,160,165,170,175,180,185,190,195,200,205,210,215,220,225,230,235,240,245,250,255,260,265,270,275,280,285,290,295,300,305,310,315,320,325,330,335,340,345,350,355,360,365,370,375,380,385,390,395,400,405,410,415,420,425,430,435,440,445,450,455,460,465,470,475,480,485,490,495,500],"tree_info":[0,1,2,3,4,0,1,2,3,4,0,1,2,3,4,0,1,2,3,4,0,1,2,3,4,0,1,2,3,4,0,1,2,3,4,0,1,2,3,4,0,1,2,3,4,0,1,2,3,4,0,1,2,3,4,0,1,2,3,4,0,1,2,3,4,0,1,2,3,4,0,1,2,3,4,0,1,2,3,4,0,1,2,3,4,0,1,2,3,4,0,1,2,3,4,0,1,2,3,4,0,1,2,3,4,0,1,2,3,4,0,1,2,3,4,0,1,2,3,4,0,1,2,3,4,0,1,2,3,4,0,1,2,3,4,0,1,2,3,4,0,1,2,3,4,0,1,2,3,4,0,1,2,3,4,0,1,2,3,4,0,1,2,3,4,0,1,2,3,4,0,1,2,3,4,0,1,2,3,4,0,1,2,3,4,0,1,2,3,4,0,1,2,3,4,0,1,2,3,4,0,1,2,3,4,0,1,2,3,4,0,1,2,3,4,0,1,2,3,4,0,1,2,3,4,0,1,2,3,4,0,1,2,3,4,0,1,2,3,4,0,1,2,3,4,0,1,2,3,4,0,1,2,3,4,0,1,2,3,4,0,1,2,3,4,0,1,2,3,4,0,1,2,3,4,0,1,2,3,4,0,1,2,3,4,0,1,2,3,4,0,1,2,3,4,0,1,2,3,4,0,1,2,3,4,0,1,2,3,4,0,1,2,3,4,0,1,2,3,4,0,1,2,3,4,0,1,2,3,4,0,1,2,3,4,0,1,2,3,4,0,1,2,3,4,0,1,2,3,4,0,1,2,3,4,0,1,2,3,4,0,1,2,3,4,0,1,2,3,4,0,1,2,3,4,0,1,2,3,4,0,1,2,3,4,0,1,2,3,4,0,1,2,3,4,0,1,2,3,4,0,1,2,3,4,0,1,2,3,4,0,1,2,3,4,0,1,2,3,4,0,1,2,3,4,0,1,2,3,4,0,1,2,3,4,0,1,2,3,4,0,1,2,3,4,0,1,2,3,4,0,1,2,3,4,0,1,2,3,4,0,1,2,3,4,0,1,2,3,4,0,1,2,3,4,0,1,2,3,4,0,1,2,3,4,0,1,2,3,4,0,1,2,3,4,0,1,2,3,4],"trees":[{"base_weights":[1.5875326E-1,1.0778443E0,-3.1236345E-1,1.0638297E-1,1.4161849E0,-3.811457E-1,4.0206185E-1,5.2631575E-1,-1.5517241E-1,4.5197737E-1,1.6058905E0,3.0042917E-1,-4.5545045E-1,-0E0,3.7078652E-1,-2.0618556E-1,9.523809E-1,4.6511626E-1,1.781609E0,4.550562E-1,-3.8461536E-1,-7.2463766E-2,-5.26939E-1,1.4814815E-1,-1.3483146E-1,2.6315792E-2,-1.15384616E-1,3.9041096E-1,2.6315792E-2,-2.0618556E-1,4.2105266E-1,1.8717504E0,2.6315792E-2,2.6315792E-2,-1.5328467E-1,-4.2288557E-1,3.5502958E-1,-5.4013276E-1,2.6315792E-2,2.6315792E-2,-1.15384616E-1,5.869565E-1,1.849315E-1,2.6315792E-2,-1.5976332E-1,2.522124E-1,-1.2962963E-1,-0E0,-1.6604823E-1],"categories":[],"categories_nodes":[],"categories_segments":[],"categories_sizes":[],"default_left":[0,0,0,0,0,0,0,0,0,0,0,0,0,0,0,0,0,0,0,0,0,0,0,0,0,0,0,0,0,0,0,0,0,0,0,0,0,0,0,0,0,0,0,0,0,0,0,0,0],"id":0,"left_children":[1,3,5,7,9,11,-1,13,-1,15,17,19,21,23,-1,25,27,29,31,-1,33,35,37,-1,-1,-1,-1,-1,-1,39,-1,41,-1,-1,-1,43,45,47,-1,-1,-1,-1,-1,-1,-1,-1,-1,-1,-1],"loss_changes":[5.9796127E1,1.5218639E1,1.09182E1,3.7185774E0,5.603058E0,4.627965E0,0E0,3.1224124E0,0E0,2.5281444E0,4.888321E0,8.34981E0,2.1620045E0,1.5092247E0,0E0,2.3721075E-1,1.1532259E0,3.5398974E0,3.555336E0,0E0,4.482007E-1,2.217418E0,5.9526825E-1,0E0,0E0,0E0,0E0,0E0,0E0,2.3721075E-1,0E0,1.2499695E0,0E0,0E0,0E0,4.968928E-1,2.9475572E0,4.7833633E-1,0E0,0E0,0E0,0E0,0E0,0E0,0E0,0E0,0E0,0E0,0E0],"parents":[2147483647,0,0,1,1,2,2,3,3,4,4,5,5,7,7,9,9,10,10,11,11,12,12,13,13,15,15,16,16,17,17,18,18,20,20,21,21,22,22,29,29,31,31,35,35,36,36,37,37],"right_children":[2,4,6,8,10,12,-1,14,-1,16,18,20,22,24,-1,26,28,30,32,-1,34,36,38,-1,-1,-1,-1,-1,-1,40,-1,42,-1,-1,-1,44,46,48,-1,-1,-1,-1,-1,-1,-1,-1,-1,-1,-1],"split_conditions":[-4.321472E-1,-6.6233534E-1,2.241645E0,-2.5531155E-1,-7.0513314E-1,-9.589589E-1,4.0206185E-1,-5.6003594E-1,-1.5517241E-1,-2.5242987E-1,-1.1633741E0,4.151332E-2,-1.7377168E-1,-6.95792E-1,3.7078652E-1,-8.1344235E-1,-8.159352E-1,9.831557E-2,1.9514432E0,4.550562E-1,-7.57657E-1,-3.2788485E-1,2.0993786E0,1.4814815E-1,-1.3483146E-1,2.6315792E-2,-1.15384616E-1,3.9041096E-1,2.6315792E-2,2.707337E-1,4.2105266E-1,8.03204E-1,2.6315792E-2,2.6315792E-2,-1.5328467E-1,-7.940387E-1,2.8326553E-1,-1.6860057E0,2.6315792E-2,2.6315792E-2,-1.15384616E-1,5.869565E-1,1.849315E-1,2.6315792E-2,-1.5976332E-1,2.522124E-1,-1.2962963E-1,-0E0,-1.6604823E-1],"split_indices":[1,10,5,25,3,2,0,5,0,13,28,13,1,1,0,0,3,7,6,0,0,9,12,0,0,0,0,0,0,0,0,8,0,0,0,0,14,4,0,0,0,0,0,0,0,0,0,0,0],"split_type":[0,0,0,0,0,0,0,0,0,0,0,0,0,0,0,0,0,0,0,0,0,0,0,0,0,0,0,0,0,0,0,0,0,0,0,0,0,0,0,0,0,0,0,0,0,0,0,0,0],"sum_hessian":[1.3632E2,4.5760002E1,9.0560005E1,1.2160001E1,3.3600002E1,8.768001E1,2.88E0,7.3600006E0,4.8E0,6.0800004E0,2.7520002E1,8.320001E0,7.936001E1,4.8E0,2.5600002E0,2.88E0,3.2000003E0,4.1600003E0,2.3360003E1,2.5600002E0,5.76E0,1.2800001E1,6.6560005E1,2.2400002E0,2.5600002E0,1.2800001E0,1.6000001E0,1.9200001E0,1.2800001E0,2.88E0,1.2800001E0,2.2080002E1,1.2800001E0,1.2800001E0,4.4800005E0,7.0400004E0,5.76E0,6.528001E1,1.2800001E0,1.2800001E0,1.6000001E0,2.0160002E1,1.9200001E0,1.2800001E0,5.76E0,3.5200002E0,2.2400002E0,1.6000001E0,6.3680004E1],"tree_param":{"num_deleted":"0","num_feature":"30","num_nodes":"49","size_leaf_vector":"1"}},{"base_weights":[6.408389E-2,6.936416E-1,-1.4654839E-1,1.3682092E0,-2.0356233E-1,1.4662756E-2,-4.4359252E-1,5.809128E-1,1.9217081E0,7.142857E-1,-4.9520764E-1,-1.1710432E-1,5.919003E-1,3.0927834E-1,-5.1724136E-1,8.80829E-1,-1.2328767E-1,1.5789473E-1,6.1445785E-1,-1.15384616E-1,4.6153846E-1,-1.7081851E-1,2.6315792E-2,9.5505613E-1,-1.858736E-1,1.3636363E0,1.11111104E-1,-1.15384616E-1,2.8947368E-1,2.6315792E-2,-5.438813E-1,2.713178E-1,4.550562E-1,2.6315792E-2,4.2105266E-1,-3.0343005E-1,4.077253E-1,5.3932583E-1,2.6315792E-2,-1.5328467E-1,8.4070796E-1,-0E0,-5.721716E-1,2.8767124E-1,-1.2962963E-1,5.660377E-2,-1.3210702E-1,3.333333E-1,8.474576E-3,3.9041096E-1,-0E0,-1.8092567E-1,-3.7037037E-2],"categories":[],"categories_nodes":[],"categories_segments":[],"categories_sizes":[],"default_left":[0,0,0,0,0,0,0,0,0,0,0,0,0,0,0,0,0,0,0,0,0,0,0,0,0,0,0,0,0,0,0,0,0,0,0,0,0,0,0,0,0,0,0,0,0,0,0,0,0,0,0,0,0],"id":1,"left_children":[1,3,5,7,9,11,13,15,17,19,21,23,25,27,29,31,-1,-1,-1,-1,-1,-1,-1,33,35,37,39,-1,-1,-1,41,43,-1,-1,-1,45,47,-1,-1,-1,49,-1,51,-1,-1,-1,-1,-1,-1,-1,-1,-1,-1],"loss_changes":[1.8310995E1,2.121929E1,4.9733257E0,7.5467186E0,4.561745E0,5.256668E0,2.1849341E0,3.229676E0,9.058113E-1,4.395604E0,5.913842E-1,4.3330383E0,4.6126685E0,2.1362882E0,5.8985615E-1,2.5812187E0,0E0,0E0,0E0,0E0,0E0,0E0,0E0,1.261581E0,3.8779554E0,2.523162E0,4.5142355E0,0E0,0E0,0E0,4.9790955E-1,2.910025E0,0E0,0E0,0E0,3.1476603E0,2.4562933E0,0E0,0E0,0E0,1.7505157E0,0E0,3.5223293E-1,0E0,0E0,0E0,0E0,0E0,0E0,0E0,0E0,0E0,0E0],"parents":[2147483647,0,0,1,1,2,2,3,3,4,4,5,5,6,6,7,7,8,8,9,9,10,10,11,11,12,12,13,13,14,14,15,15,23,23,24,24,25,25,26,26,30,30,31,31,35,35,36,36,40,40,42,42],"right_children":[2,4,6,8,10,12,14,16,18,20,22,24,26,28,30,32,-1,-1,-1,-1,-1,-1,-1,34,36,38,40,-1,-1,-1,42,44,-1,-1,-1,46,48,-1,-1,-1,50,-1,52,-1,-1,-1,-1,-1,-1,-1,-1,-1,-1],"split_conditions":[-7.552467E-1,-1.1587431E-1,5.504364E-1,-4.106489E-1,-8.085914E-1,6.936011E-1,-1.201625E0,2.441436E-1,-1.5146308E0,-4.9835443E-1,2.6707132E0,-1.118356E0,3.109921E-1,-4.4541448E-1,-9.1046035E-1,-9.899914E-1,-1.2328767E-1,1.5789473E-1,6.1445785E-1,-1.15384616E-1,4.6153846E-1,-1.7081851E-1,2.6315792E-2,-5.1662856E-1,9.348668E-1,-7.4890215E-4,1.1127502E0,-1.15384616E-1,2.8947368E-1,2.6315792E-2,-1.3801968E0,-1.0859048E0,4.550562E-1,2.6315792E-2,4.2105266E-1,-6.9280213E-1,1.2004812E0,5.3932583E-1,2.6315792E-2,-1.5328467E-1,-9.778514E-1,-0E0,1.3142027E0,2.8767124E-1,-1.2962963E-1,5.660377E-2,-1.3210702E-1,3.333333E-1,8.474576E-3,3.9041096E-1,-0E0,-1.8092567E-1,-3.7037037E-2],"split_indices":[10,1,10,21,0,4,26,12,3,21,15,14,24,22,0,10,0,0,0,0,0,0,0,16,19,16,24,0,0,0,5,10,0,0,0,15,5,0,0,0,29,0,3,0,0,0,0,0,0,0,0,0,0],"split_type":[0,0,0,0,0,0,0,0,0,0,0,0,0,0,0,0,0,0,0,0,0,0,0,0,0,0,0,0,0,0,0,0,0,0,0,0,0,0,0,0,0,0,0,0,0,0,0,0,0,0,0,0,0],"sum_hessian":[1.3632E2,3.3600002E1,1.0272001E2,1.8880001E1,1.4720001E1,6.7200005E1,3.5520004E1,8.64E0,1.0240001E1,3.2000003E0,1.152E1,5.5360004E1,1.1840001E1,2.88E0,3.2640003E1,6.7200003E0,1.9200001E0,1.2800001E0,8.960001E0,1.6000001E0,1.6000001E0,1.0240001E1,1.2800001E0,2.5600002E0,5.2800003E1,3.8400002E0,8.000001E0,1.6000001E0,1.2800001E0,1.2800001E0,3.1360003E1,4.1600003E0,2.5600002E0,1.2800001E0,1.2800001E0,4.4480003E1,8.320001E0,2.5600002E0,1.2800001E0,4.4800005E0,3.5200002E0,1.6000001E0,2.9760002E1,1.9200001E0,2.2400002E0,9.6E0,3.488E1,2.2400002E0,6.0800004E0,1.9200001E0,1.6000001E0,2.7520002E1,2.2400002E0],"tree_param":{"num_deleted":"0","num_feature":"30","num_nodes":"53","size_leaf_vector":"1"}},{"base_weights":[-4.0198076E-1,-4.219347E-1,2.8947368E-1,-4.597885E-1,-0E0,-2.8230184E-1,-5.280899E-1,8.2474226E-1,-3.433476E-1,1.2747875E-1,-5.1433384E-1,-0E0,-5.477855E-1,4.2105266E-1,-0E0,8.219178E-2,-1.6216215E-1,-3.2258064E-1,7.142857E-1,5.5555556E-2,-1.7877096E-1,-1.2328767E-1,1.5789473E-1,-5.885619E-1,-3.116531E-1,-1.6216215E-1,1.5789473E-1,-0E0,4.2592594E-1,-1.8057922E-1,-0E0,1.5789473E-1,-1.2908012E-1],"categories":[],"categories_nodes":[],"categories_segments":[],"categories_sizes":[],"default_left":[0,0,0,0,0,0,0,0,0,0,0,0,0,0,0,0,0,0,0,0,0,0,0,0,0,0,0,0,0,0,0,0,0],"id":2,"left_children":[1,3,-1,5,7,9,11,13,15,17,19,21,23,-1,-1,-1,-1,25,27,-1,-1,-1,-1,29,31,-1,-1,-1,-1,-1,-1,-1,-1],"loss_changes":[4.152519E0,2.1728077E0,0E0,1.3643036E0,3.7378879E0,3.5683963E0,9.256973E-1,1.8520527E0,1.2826278E0,3.959478E0,1.463798E0,1.1247296E0,6.427059E-1,0E0,0E0,0E0,0E0,1.8905152E0,3.2451499E0,0E0,0E0,0E0,0E0,5.668392E-1,1.6935234E0,0E0,0E0,0E0,0E0,0E0,0E0,0E0,0E0],"parents":[2147483647,0,0,1,1,3,3,4,4,5,5,6,6,7,7,8,8,9,9,10,10,11,11,12,12,17,17,18,18,23,23,24,24],"right_children":[2,4,-1,6,8,10,12,14,16,18,20,22,24,-1,-1,-1,-1,26,28,-1,-1,-1,-1,30,32,-1,-1,-1,-1,-1,-1,-1,-1],"split_conditions":[3.5898142E0,1.2389548E0,2.8947368E-1,-4.1492388E-1,-8.536656E-1,-3.8205475E-1,-1.2442542E0,-4.3996426E-1,-5.48995E-1,6.795566E-2,-8.9323694E-1,-3.8344854E-1,3.8301983E-1,4.2105266E-1,-0E0,8.219178E-2,-1.6216215E-1,4.7807384E-1,-5.84975E-1,5.5555556E-2,-1.7877096E-1,-1.2328767E-1,1.5789473E-1,2.1249094E0,-8.982358E-1,-1.6216215E-1,1.5789473E-1,-0E0,4.2592594E-1,-1.8057922E-1,-0E0,1.5789473E-1,-1.2908012E-1],"split_indices":[8,4,0,24,10,25,10,13,16,26,18,11,9,0,0,0,0,14,25,0,0,0,0,7,8,0,0,0,0,0,0,0,0],"split_type":[0,0,0,0,0,0,0,0,0,0,0,0,0,0,0,0,0,0,0,0,0,0,0,0,0,0,0,0,0,0,0,0,0],"sum_hessian":[1.3632E2,1.3504001E2,1.2800001E0,1.2384001E2,1.1200001E1,3.5840004E1,8.800001E1,2.88E0,8.320001E0,1.3120001E1,2.2720001E1,3.2000003E0,8.48E1,1.2800001E0,1.6000001E0,1.9200001E0,6.4000006E0,7.6800003E0,5.4400005E0,2.2400002E0,2.0480001E1,1.9200001E0,1.2800001E0,7.104001E1,1.3760001E1,6.4000006E0,1.2800001E0,3.2000003E0,2.2400002E0,6.944E1,1.6000001E0,1.2800001E0,1.24800005E1],"tree_param":{"num_deleted":"0","num_feature":"30","num_nodes":"33","size_leaf_vector":"1"}},{"base_weights":[-2.3303231E-2,-4.118689E-1,1.6530699E-1,-4.8886734E-1,3.305785E-1,2.9645315E-1,-3.7634405E-1,1.15384616E-1,-5.337361E-1,-1.2328767E-1,2.8767124E-1,1.2745098E0,2.0726858E-1,-5.2757794E-1,1.849315E-1,-5.797101E-1,-8.264463E-2,2.6315792E-2,1.5702479E0,3.4453057E-2,5.2E-1,2.6315792E-2,-1.7532468E-1,2.6315792E-2,-1.8208092E-1,1.5789473E-1,-1.3483146E-1,5.3932583E-1,1.5789473E-1,-4.613466E-1,2.866242E-1,3.251318E-1,5.185185E-1,-3.4883723E-2,-1.7171717E-1,1.3614263E-1,-8.549222E-2,-4.3568462E-2,1.8696883E-1],"categories":[],"categories_nodes":[],"categories_segments":[],"categories_sizes":[],"default_left":[0,0,0,0,0,0,0,0,0,0,0,0,0,0,0,0,0,0,0,0,0,0,0,0,0,0,0,0,0,0,0,0,0,0,0,0,0,0,0],"id":3,"left_children":[1,3,5,7,9,11,13,-1,15,-1,-1,17,19,21,-1,23,25,-1,27,29,31,-1,-1,-1,-1,-1,-1,-1,-1,33,35,37,-1,-1,-1,-1,-1,-1,-1],"loss_changes":[1.0131919E1,2.7432842E0,6.729231E0,1.8247013E0,2.6491566E0,6.3267465E0,3.1178665E0,0E0,7.7582264E-1,0E0,0E0,2.010253E0,3.7890027E0,6.345978E-1,0E0,7.0523643E-1,1.3176223E0,0E0,2.0331287E-1,5.938458E0,5.3249874E0,0E0,0E0,0E0,0E0,0E0,0E0,0E0,0E0,5.480583E-1,3.1299832E0,3.2817636E0,0E0,0E0,0E0,0E0,0E0,0E0,0E0],"parents":[2147483647,0,0,1,1,2,2,3,3,4,4,5,5,6,6,8,8,11,11,12,12,13,13,15,15,16,16,18,18,19,19,20,20,29,29,30,30,31,31],"right_children":[2,4,6,8,10,12,14,-1,16,-1,-1,18,20,22,-1,24,26,-1,28,30,32,-1,-1,-1,-1,-1,-1,-1,-1,34,36,38,-1,-1,-1,-1,-1,-1,-1],"split_conditions":[-4.443721E-1,7.9198325E-1,7.633397E-1,-1.1382384E0,-9.2301697E-1,-1.27199E0,1.0323077E0,1.15384616E-1,1.1495979E0,-1.2328767E-1,2.8767124E-1,-5.806798E-1,-3.2266274E-2,-1.0328015E0,1.849315E-1,-1.7423108E0,1.1316849E-1,2.6315792E-2,-5.098915E-1,-2.0338523E-1,1.2403921E0,2.6315792E-2,-1.7532468E-1,2.6315792E-2,-1.8208092E-1,1.5789473E-1,-1.3483146E-1,5.3932583E-1,1.5789473E-1,-7.0737857E-1,1.470379E0,-5.7617307E-1,5.185185E-1,-3.4883723E-2,-1.7171717E-1,1.3614263E-1,-8.549222E-2,-4.3568462E-2,1.8696883E-1],"split_indices":[1,17,10,17,2,7,13,0,6,0,0,15,11,4,0,29,10,0,6,24,3,0,0,0,0,0,0,0,0,4,5,6,0,0,0,0,0,0,0],"split_type":[0,0,0,0,0,0,0,0,0,0,0,0,0,0,0,0,0,0,0,0,0,0,0,0,0,0,0,0,0,0,0,0,0,0,0,0,0,0,0],"sum_hessian":[1.3632E2,4.4160004E1,9.216E1,4.0320004E1,3.8400002E0,7.4560005E1,1.76E1,1.6000001E0,3.872E1,1.9200001E0,1.9200001E0,5.1200004E0,6.944E1,1.5680001E1,1.9200001E0,3.488E1,3.8400002E0,1.2800001E0,3.8400002E0,4.5440002E1,2.4000002E1,1.2800001E0,1.4400001E1,1.2800001E0,3.3600002E1,1.2800001E0,2.5600002E0,2.5600002E0,1.2800001E0,1.5040001E1,3.0400002E1,2.1760002E1,2.2400002E0,4.1600003E0,1.0880001E1,2.3680002E1,6.7200003E0,8.64E0,1.3120001E1],"tree_param":{"num_deleted":"0","num_feature":"30","num_nodes":"39","size_leaf_vector":"1"}},{"base_weights":[2.0244683E-1,-4.0911317E-1,1.0797459E0,-4.620547E-1,4.6511626E-1,8.0218774E-1,1.8840579E0,-5.1724136E-1,1.0362694E-1,-1.15384616E-1,9.5505613E-1,1.1190817E0,2.352941E-1,2.6315792E-2,2.0607028E0,-5.6694424E-1,-1.2875536E-1,6.19469E-1,-1.4285713E-1,2.6315792E-2,4.2105266E-1,-1.15384616E-1,1.2252663E0,-4.0650405E-2,4.2592594E-1,6.565836E-1,1.5789473E-1,-2.9850745E-1,-5.9566784E-1,4.7619045E-1,-1.5686274E-1,-3.7037037E-2,4.2105266E-1,-1.05263166E-1,1.3199999E0,-2.0771512E-1,2.8947368E-1,-1.583851E-1,1.15384616E-1,-5.0561797E-2,-1.8395156E-1,-1.15384616E-1,3.4615386E-1,3.3707865E-2,4.3582886E-1,1.849315E-1,-1.1937716E-1],"categories":[],"categories_nodes":[],"categories_segments":[],"categories_sizes":[],"default_left":[0,0,0,0,0,0,0,0,0,0,0,0,0,0,0,0,0,0,0,0,0,0,0,0,0,0,0,0,0,0,0,0,0,0,0,0,0,0,0,0,0,0,0,0,0,0,0],"id":4,"left_children":[1,3,5,7,9,11,13,15,17,-1,19,21,23,-1,25,27,29,31,-1,-1,-1,-1,33,35,-1,-1,-1,37,39,41,-1,-1,-1,-1,43,45,-1,-1,-1,-1,-1,-1,-1,-1,-1,-1,-1],"loss_changes":[7.411681E1,3.9934587E0,1.1142059E1,2.4723759E0,2.5155272E0,7.619522E0,4.1981735E0,1.2932987E0,2.6039925E0,0E0,1.261581E0,4.92284E0,5.6140776E0,0E0,1.3053055E0,3.0362892E-1,2.4710772E0,2.8060975E0,0E0,0E0,0E0,0E0,4.387123E0,2.680019E0,0E0,0E0,0E0,1.4632285E0,3.1085205E-1,2.8937728E0,0E0,0E0,0E0,0E0,3.8450127E0,2.3584363E0,0E0,0E0,0E0,0E0,0E0,0E0,0E0,0E0,0E0,0E0,0E0],"parents":[2147483647,0,0,1,1,2,2,3,3,4,4,5,5,6,6,7,7,8,8,10,10,11,11,12,12,14,14,15,15,16,16,17,17,22,22,23,23,27,27,28,28,29,29,34,34,35,35],"right_children":[2,4,6,8,10,12,14,16,18,-1,20,22,24,-1,26,28,30,32,-1,-1,-1,-1,34,36,-1,-1,-1,38,40,42,-1,-1,-1,-1,44,46,-1,-1,-1,-1,-1,-1,-1,-1,-1,-1,-1],"split_conditions":[1.5056878E-1,1.8781339E0,9.2266613E-1,1.883891E-2,-1.8128201E0,3.3386922E-1,-1.060427E0,7.135028E-1,-3.1121412E-1,-1.15384616E-1,-3.1356278E-1,-1.1907719E0,1.7222626E0,2.6315792E-2,9.803866E-1,-8.862344E-1,8.3319575E-2,-1.4275059E-1,-1.4285713E-1,2.6315792E-2,4.2105266E-1,-1.15384616E-1,-1.3600074E0,1.1434337E0,4.2592594E-1,6.565836E-1,1.5789473E-1,-9.584E-1,-1.5087391E0,-8.645006E-1,-1.5686274E-1,-3.7037037E-2,4.2105266E-1,-1.05263166E-1,-8.918421E-1,-8.1863964E-1,2.8947368E-1,-1.583851E-1,1.15384616E-1,-5.0561797E-2,-1.8395156E-1,-1.15384616E-1,3.4615386E-1,3.3707865E-2,4.3582886E-1,1.849315E-1,-1.1937716E-1],"split_indices":[1,18,10,1,7,12,29,11,18,0,1,10,5,0,13,26,25,11,0,0,0,0,5,25,0,0,0,26,29,1,0,0,0,0,2,4,0,0,0,0,0,0,0,0,0,0,0],"split_type":[0,0,0,0,0,0,0,0,0,0,0,0,0,0,0,0,0,0,0,0,0,0,0,0,0,0,0,0,0,0,0,0,0,0,0,0,0,0,0,0,0,0,0,0,0,0,0],"sum_hessian":[1.3632E2,8.064001E1,5.5680004E1,7.648E1,4.1600003E0,4.2880005E1,1.2800001E1,6.976E1,6.7200003E0,1.6000001E0,2.5600002E0,2.6880001E1,1.6000002E1,1.2800001E0,1.152E1,6.1440002E1,8.320001E0,3.5200002E0,3.2000003E0,1.2800001E0,1.2800001E0,1.6000001E0,2.5280003E1,1.3760001E1,2.2400002E0,1.0240001E1,1.2800001E0,7.0400004E0,5.4400005E1,3.2000003E0,5.1200004E0,2.2400002E0,1.2800001E0,1.2800001E0,2.4000002E1,1.24800005E1,1.2800001E0,5.4400005E0,1.6000001E0,2.5600002E0,5.1840004E1,1.6000001E0,1.6000001E0,2.5600002E0,2.1440002E1,1.9200001E0,1.056E1],"tree_param":{"num_deleted":"0","num_feature":"30","num_nodes":"47","size_leaf_vector":"1"}},{"base_weights":[1.20964706E-1,6.702866E-1,-3.1382507E-1,-2.4502888E-2,8.5956615E-1,-3.7654766E-1,8.6168885E-1,5.2162796E-1,-2.742543E-1,5.528297E-2,9.5834637E-1,-4.1196015E-1,2.9922697E-1,2.318026E-2,3.4243238E-1,-1.1370089E-1,3.2048094E-1,-4.289381E-1,9.7308286E-2,-1.4450072E-1,5.884266E-1,2.0810865E-1,1.0359117E0,9.2115805E-2,-4.4293222E-1,-1.5934028E-1,5.32398E-2,2.7178666E-1,1.0626537E-2,5.9666985E-1,-1.21522166E-1,6.250553E-1,1.2716185E0,1.9155794E-1,-1.2523721E-1,-4.939661E-2,-4.8478717E-1,-9.928008E-2,3.254242E-1,6.7265615E-2,3.491202E-1,1.7766628E-1,4.1484258E-1,2.486265E-1,-1.5203483E-1,-1.4941758E-1,2.7422564E-2],"categories":[],"categories_nodes":[],"categories_segments":[],"categories_sizes":[],"default_left":[0,0,0,0,0,0,0,0,0,0,0,0,0,0,0,0,0,0,0,0,0,0,0,0,0,0,0,0,0,0,0,0,0,0,0,0,0,0,0,0,0,0,0,0,0,0,0],"id":5,"left_children":[1,3,5,7,9,11,13,15,17,19,21,23,-1,-1,-1,-1,-1,25,-1,-1,27,29,31,33,35,-1,-1,-1,-1,37,-1,39,41,-1,-1,43,45,-1,-1,-1,-1,-1,-1,-1,-1,-1,-1],"loss_changes":[3.352058E1,8.1663265E0,6.1146064E0,2.0843914E0,3.8163986E0,4.072155E0,8.514695E-1,2.773421E0,1.1041673E0,2.1123083E0,2.3050232E0,1.1971273E0,0E0,0E0,0E0,0E0,0E0,6.3419175E-1,0E0,0E0,6.098474E-1,1.5068585E0,2.9824905E0,1.690818E0,1.1282301E0,0E0,0E0,0E0,0E0,2.0136266E0,0E0,3.2340245E0,9.804077E-1,0E0,0E0,3.5681207E0,5.281391E-1,0E0,0E0,0E0,0E0,0E0,0E0,0E0,0E0,0E0,0E0],"parents":[2147483647,0,0,1,1,2,2,3,3,4,4,5,5,6,6,7,7,8,8,9,9,10,10,11,11,17,17,20,20,21,21,22,22,23,23,24,24,29,29,31,31,32,32,35,35,36,36],"right_children":[2,4,6,8,10,12,14,16,18,20,22,24,-1,-1,-1,-1,-1,26,-1,-1,28,30,32,34,36,-1,-1,-1,-1,38,-1,40,42,-1,-1,44,46,-1,-1,-1,-1,-1,-1,-1,-1,-1,-1],"split_conditions":[-3.2275215E-1,-7.3544246E-1,2.241645E0,-9.5016277E-1,-1.060427E0,2.1416204E0,-1.6111061E-1,3.7380284E-1,6.649838E-1,4.4887885E-2,-1.0673178E0,-8.6895245E-1,2.9922697E-1,2.318026E-2,3.4243238E-1,-1.1370089E-1,3.2048094E-1,6.076841E-1,9.7308286E-2,-1.4450072E-1,-2.455477E-1,-1.1063987E0,-6.2425816E-1,5.580942E-2,-9.589589E-1,-1.5934028E-1,5.32398E-2,2.7178666E-1,1.0626537E-2,-9.1539127E-1,-1.21522166E-1,5.0077385E-1,-9.18308E-1,1.9155794E-1,-1.2523721E-1,4.151332E-2,2.2206097E0,-9.928008E-2,3.254242E-1,6.7265615E-2,3.491202E-1,1.7766628E-1,4.1484258E-1,2.486265E-1,-1.5203483E-1,-1.4941758E-1,2.7422564E-2],"split_indices":[1,10,5,29,29,7,24,4,19,19,27,20,0,0,0,0,0,29,0,0,18,7,2,1,2,0,0,0,0,22,0,16,26,0,0,13,12,0,0,0,0,0,0,0,0,0,0],"split_type":[0,0,0,0,0,0,0,0,0,0,0,0,0,0,0,0,0,0,0,0,0,0,0,0,0,0,0,0,0,0,0,0,0,0,0,0,0,0,0,0,0,0,0,0,0,0,0],"sum_hessian":[1.3846698E2,6.0936714E1,7.7530266E1,1.3232964E1,4.770375E1,7.424823E1,3.282034E0,3.8109593E0,9.422004E0,5.3886023E0,4.2315147E1,7.306523E1,1.183002E0,1.1982787E0,2.0837553E0,1.5552484E0,2.2557108E0,7.7125177E0,1.7094859E0,2.732815E0,2.655787E0,4.3100348E0,3.8005116E1,4.1152124E0,6.895002E1,6.7064223E0,1.0060958E0,1.2816416E0,1.3741453E0,2.6547215E0,1.6553131E0,1.5186183E1,2.2818932E1,1.863711E0,2.2515016E0,6.837888E0,6.211213E1,1.0262578E0,1.6284636E0,9.519132E0,5.6670513E0,4.099041E0,1.871989E1,2.0637279E0,4.77416E0,6.084628E1,1.26585E0],"tree_param":{"num_deleted":"0","num_feature":"30","num_nodes":"47","size_leaf_vector":"1"}},{"base_weights":[5.8566503E-2,5.0896657E-1,-1.1777364E-1,9.01595E-1,-1.7589423E-1,5.128199E-1,-1.8080786E-1,4.3614963E-1,1.1702247E0,5.9058845E-1,-4.6468487E-1,1.089466E0,-2.7691597E-1,-3.7744604E-2,-4.1324803E-1,6.4578974E-1,-1.1690057E-1,3.9076157E-2,1.2431833E0,-1.0594297E-1,3.4052283E-1,3.4566205E-2,-1.6359118E-1,4.4180724E-1,4.1699055E-1,-1.3403055E-1,5.21832E-2,7.4492395E-1,-1.06925994E-1,-1.923829E-1,-5.28828E-1,8.281398E-1,-1.03215985E-1,1.2996249E0,1.2390691E-1,2.8516304E-1,-9.8133996E-2,3.5870606E-1,-9.955662E-2,5.5653775E-1,-1.9298798E-1,-1.6096285E-1,3.7407514E-1,5.445155E-2,-1.7145114E-1,3.9534297E-2,3.3400792E-1,1.24559425E-1,4.1072923E-1,-4.5800515E-2,3.0356985E-1,1.7107832E-1,-8.069555E-2,3.4248134E-1,-1.4217163E-2],"categories":[],"categories_nodes":[],"categories_segments":[],"categories_sizes":[],"default_left":[0,0,0,0,0,0,0,0,0,0,0,0,0,0,0,0,0,0,0,0,0,0,0,0,0,0,0,0,0,0,0,0,0,0,0,0,0,0,0,0,0,0,0,0,0,0,0,0,0,0,0,0,0,0,0],"id":6,"left_children":[1,3,5,7,9,11,13,15,17,19,21,23,25,27,29,31,-1,-1,33,-1,-1,-1,-1,-1,35,-1,-1,37,39,41,43,45,-1,47,-1,-1,-1,-1,-1,49,51,-1,53,-1,-1,-1,-1,-1,-1,-1,-1,-1,-1,-1,-1],"loss_changes":[1.0854313E1,1.0491537E1,4.0072603E0,2.563898E0,3.5591767E0,4.496039E0,2.986249E0,2.0853708E0,9.758911E-1,2.7138648E0,5.9289885E-1,8.100004E-1,4.36435E-1,3.164856E0,7.736535E-1,1.8776038E0,0E0,0E0,1.14328384E-1,0E0,0E0,0E0,0E0,0E0,1.6611774E0,0E0,0E0,2.7037616E0,3.146572E0,2.8037534E0,7.6881266E-1,1.3914895E0,0E0,2.0238686E-1,0E0,0E0,0E0,0E0,0E0,2.211331E0,2.92934E0,0E0,1.8771348E0,0E0,0E0,0E0,0E0,0E0,0E0,0E0,0E0,0E0,0E0,0E0,0E0],"parents":[2147483647,0,0,1,1,2,2,3,3,4,4,5,5,6,6,7,7,8,8,9,9,10,10,11,11,12,12,13,13,14,14,15,15,18,18,24,24,27,27,28,28,29,29,30,30,31,31,33,33,39,39,40,40,42,42],"right_children":[2,4,6,8,10,12,14,16,18,20,22,24,26,28,30,32,-1,-1,34,-1,-1,-1,-1,-1,36,-1,-1,38,40,42,44,46,-1,48,-1,-1,-1,-1,-1,50,52,-1,54,-1,-1,-1,-1,-1,-1,-1,-1,-1,-1,-1,-1],"split_conditions":[-7.552467E-1,-1.1587431E-1,-1.1122673E0,-4.106489E-1,-8.085914E-1,5.131154E-2,4.4711E-1,2.441436E-1,-1.5801339E0,-4.9835443E-1,-1.3899742E0,-4.122999E-1,5.0590247E-1,-1.2659003E0,-3.8642055E-1,-3.8484752E-1,-1.1690057E-1,3.9076157E-2,1.8466897E0,-1.0594297E-1,3.4052283E-1,3.4566205E-2,-1.6359118E-1,4.4180724E-1,-4.7074094E-1,-1.3403055E-1,5.21832E-2,-3.627991E-1,-8.2459986E-1,1.4879346E-1,-4.310365E-1,-7.81529E-1,-1.03215985E-1,-1.0123292E0,1.2390691E-1,2.8516304E-1,-9.8133996E-2,3.5870606E-1,-9.955662E-2,-2.8641543E-1,-9.5917296E-1,-1.6096285E-1,2.0599785E-1,5.445155E-2,-1.7145114E-1,3.9534297E-2,3.3400792E-1,1.24559425E-1,4.1072923E-1,-4.5800515E-2,3.0356985E-1,1.7107832E-1,-8.069555E-2,3.4248134E-1,-1.4217163E-2],"split_indices":[10,1,29,21,0,19,10,12,3,21,29,1,4,1,26,6,0,0,3,0,0,0,0,0,14,0,0,13,15,5,19,23,0,0,0,0,0,0,0,9,14,0,5,0,0,0,0,0,0,0,0,0,0,0,0],"split_type":[0,0,0,0,0,0,0,0,0,0,0,0,0,0,0,0,0,0,0,0,0,0,0,0,0,0,0,0,0,0,0,0,0,0,0,0,0,0,0,0,0,0,0,0,0,0,0,0,0,0,0,0,0,0,0],"sum_hessian":[1.3490884E2,3.7427338E1,9.74815E1,2.3587967E1,1.3839369E1,8.210289E0,8.927121E1,9.591946E0,1.3996022E1,3.501351E0,1.0338017E1,4.525989E0,3.6843E0,5.597925E1,3.329196E1,7.823812E0,1.768133E0,1.1001076E0,1.2895915E1,1.4095953E0,2.0917559E0,1.2094011E0,9.128616E0,2.125036E0,2.400953E0,2.6827152E0,1.0015849E0,3.7529852E0,5.2226265E1,1.2352231E1,2.093973E1,6.7446647E0,1.0791477E0,1.1545442E1,1.3504729E0,1.236732E0,1.1642212E0,2.5676734E0,1.1853118E0,5.3690224E0,4.6857243E1,7.7166677E0,4.635564E0,1.0023643E0,1.9937365E1,2.3846414E0,4.360023E0,1.3489468E0,1.0196495E1,2.3592792E0,3.0097432E0,3.6541767E0,4.3203068E1,1.0375084E0,3.5980554E0],"tree_param":{"num_deleted":"0","num_feature":"30","num_nodes":"55","size_leaf_vector":"1"}},{"base_weights":[-3.6114052E-1,-3.817701E-1,2.3090447E-1,-4.208556E-1,1.5889598E-2,-2.4670765E-1,-4.9169993E-1,-1.9360901E-1,3.257025E-1,1.2286693E-1,-4.808668E-1,1.1499288E-2,-5.128877E-1,4.9541795E-1,-1.5917534E-1,-2.8366107E-1,5.6517756E-1,1.585801E-1,-1.7055261E-1,1.9633658E-1,-1.24783225E-1,-5.581481E-1,-2.6507178E-1,-1.0006894E-1,2.8754494E-1,-1.5496197E-1,1.5837993E-1,-2.547191E-3,3.067368E-1,-1.0646862E-1,1.9863355E-1,-1.7186826E-1,1.2427238E-3,1.436148E-1,-1.1654201E-1],"categories":[],"categories_nodes":[],"categories_segments":[],"categories_sizes":[],"default_left":[0,0,0,0,0,0,0,0,0,0,0,0,0,0,0,0,0,0,0,0,0,0,0,0,0,0,0,0,0,0,0,0,0,0,0],"id":7,"left_children":[1,3,-1,5,7,9,11,13,-1,15,17,19,21,23,-1,25,27,29,-1,-1,-1,31,33,-1,-1,-1,-1,-1,-1,-1,-1,-1,-1,-1,-1],"loss_changes":[3.170992E0,1.8996544E0,0E0,1.2472572E0,2.8689244E0,3.0086932E0,8.3584785E-1,2.763259E0,0E0,2.6805682E0,1.2708554E0,1.4054255E0,6.9013596E-1,1.875952E0,0E0,1.7789154E0,1.857235E0,1.0937315E0,0E0,0E0,0E0,5.1875114E-1,1.4198965E0,0E0,0E0,0E0,0E0,0E0,0E0,0E0,0E0,0E0,0E0,0E0,0E0],"parents":[2147483647,0,0,1,1,3,3,4,4,5,5,6,6,7,7,9,9,10,10,11,11,12,12,13,13,15,15,16,16,17,17,21,21,22,22],"right_children":[2,4,-1,6,8,10,12,14,-1,16,18,20,22,24,-1,26,28,30,-1,-1,-1,32,34,-1,-1,-1,-1,-1,-1,-1,-1,-1,-1,-1,-1],"split_conditions":[3.5898142E0,1.2389548E0,2.3090447E-1,-4.1492388E-1,8.14613E-1,-3.8205475E-1,-1.2442542E0,-1.1746217E0,3.257025E-1,6.795566E-2,-8.9323694E-1,-7.4053615E-1,3.8301983E-1,-1.0255089E0,-1.5917534E-1,5.4912955E-1,-5.6457627E-1,1.1175334E0,-1.7055261E-1,1.9633658E-1,-1.24783225E-1,2.1249094E0,-8.982358E-1,-1.0006894E-1,2.8754494E-1,-1.5496197E-1,1.5837993E-1,-2.547191E-3,3.067368E-1,-1.0646862E-1,1.9863355E-1,-1.7186826E-1,1.2427238E-3,1.436148E-1,-1.1654201E-1],"split_indices":[8,4,0,24,3,25,10,13,0,26,18,15,9,8,0,15,4,20,0,0,0,7,8,0,0,0,0,0,0,0,0,0,0,0,0],"split_type":[0,0,0,0,0,0,0,0,0,0,0,0,0,0,0,0,0,0,0,0,0,0,0,0,0,0,0,0,0,0,0,0,0,0,0],"sum_hessian":[1.22332466E2,1.2079127E2,1.5412015E0,1.0992822E2,1.0863043E1,3.308407E1,7.6844154E1,9.768981E0,1.0940623E0,1.3016052E1,2.0068018E1,3.12335E0,7.37208E1,3.0540514E0,6.7149296E0,6.9692726E0,6.0467796E0,2.3213968E0,1.774662E1,1.0351682E0,2.0881817E0,6.1277065E1,1.2443739E1,1.1947922E0,1.8592592E0,5.697874E0,1.2713987E0,3.1173773E0,2.9294024E0,1.2955004E0,1.0258963E0,5.9692757E1,1.5843062E0,1.3610206E0,1.1082718E1],"tree_param":{"num_deleted":"0","num_feature":"30","num_nodes":"35","size_leaf_vector":"1"}},{"base_weights":[-1.4111976E-2,-3.6861753E-1,1.359966E-1,-4.4820672E-1,2.803465E-1,2.3243985E-1,-3.3159342E-1,1.1289095E-1,-4.9759457E-1,-1.2200748E-1,2.4474591E-1,9.378909E-1,1.6015783E-1,-4.89759E-1,4.962314E-1,-5.475125E-1,-6.3853644E-2,2.2390174E-2,1.1179472E0,2.2359401E-1,-4.0922734E-1,2.6036864E-2,-1.6563846E-1,-1.0200552E-1,3.2730475E-1,2.2848785E-2,-1.7328957E-1,1.5442897E-1,-1.3046736E-1,3.9119235E-1,4.376725E-2,-1.5555165E-2,3.9134002E-1,-1.56603E-1,4.691558E-2,6.8618745E-2,-1.4211491E-1,6.278309E-2,2.98717E-1],"categories":[],"categories_nodes":[],"categories_segments":[],"categories_sizes":[],"default_left":[0,0,0,0,0,0,0,0,0,0,0,0,0,0,0,0,0,0,0,0,0,0,0,0,0,0,0,0,0,0,0,0,0,0,0,0,0,0,0],"id":8,"left_children":[1,3,5,7,9,11,13,-1,15,-1,-1,17,19,21,23,25,27,-1,29,31,33,-1,-1,-1,-1,-1,-1,-1,-1,-1,-1,35,37,-1,-1,-1,-1,-1,-1],"loss_changes":[7.2029414E0,2.2048063E0,4.3684416E0,1.6630306E0,2.175907E0,3.9024534E0,2.4274642E0,0E0,7.146988E-1,0E0,0E0,1.0326867E0,2.738951E0,5.697019E-1,1.9491642E0,6.247883E-1,1.2340888E0,0E0,8.7120295E-1,2.6776686E0,5.728811E-1,0E0,0E0,0E0,0E0,0E0,0E0,0E0,0E0,0E0,0E0,3.288771E0,4.1027555E0,0E0,0E0,0E0,0E0,0E0,0E0],"parents":[2147483647,0,0,1,1,2,2,3,3,4,4,5,5,6,6,8,8,11,11,12,12,13,13,14,14,15,15,16,16,18,18,19,19,20,20,31,31,32,32],"right_children":[2,4,6,8,10,12,14,-1,16,-1,-1,18,20,22,24,26,28,-1,30,32,34,-1,-1,-1,-1,-1,-1,-1,-1,-1,-1,36,38,-1,-1,-1,-1,-1,-1],"split_conditions":[-4.443721E-1,7.9198325E-1,7.633397E-1,-1.1382384E0,-7.715954E-1,-1.27199E0,1.0323077E0,1.1289095E-1,1.1495979E0,-1.2200748E-1,2.4474591E-1,-5.806798E-1,1.6504132E0,-1.0328015E0,-8.216987E-1,-1.7423108E0,-4.7868565E-2,2.2390174E-2,-5.038015E-1,-6.536451E-1,1.1201861E0,2.6036864E-2,-1.6563846E-1,-1.0200552E-1,3.2730475E-1,2.2848785E-2,-1.7328957E-1,1.5442897E-1,-1.3046736E-1,3.9119235E-1,4.376725E-2,-7.12647E-1,4.6085745E-1,-1.56603E-1,4.691558E-2,6.8618745E-2,-1.4211491E-1,6.278309E-2,2.98717E-1],"split_indices":[1,17,10,17,12,7,13,0,6,0,0,15,12,4,2,29,24,0,6,23,24,0,0,0,0,0,0,0,0,0,0,23,26,0,0,0,0,0,0],"split_type":[0,0,0,0,0,0,0,0,0,0,0,0,0,0,0,0,0,0,0,0,0,0,0,0,0,0,0,0,0,0,0,0,0,0,0,0,0,0,0],"sum_hessian":[1.3341515E2,3.9254246E1,9.41609E1,3.5241558E1,4.0126867E0,7.847736E1,1.5683529E1,1.617569E0,3.362399E1,1.8629422E0,2.1497447E0,6.180647E0,7.229672E1,1.3510558E1,2.1729708E0,2.9918465E1,3.705526E0,1.3107806E0,4.8698664E0,6.559588E1,6.700844E0,1.2806382E0,1.222992E1,1.0811868E0,1.0917841E0,1.3078773E0,2.8610588E1,1.2964332E0,2.409093E0,3.8009925E0,1.0688738E0,2.7416489E1,3.8179386E1,5.651108E0,1.049736E0,1.8208677E1,9.207811E0,3.0375427E1,7.803961E0],"tree_param":{"num_deleted":"0","num_feature":"30","num_nodes":"39","size_leaf_vector":"1"}},{"base_weights":[1.5339029E-1,-4.1026896E-1,6.804923E-1,-4.6047267E-1,5.2111244E-1,3.5850185E-1,9.178234E-1,-4.9577007E-1,-4.4971574E-2,-9.531368E-3,2.9462224E-1,-1.4243318E-1,4.6327987E-1,-1.0328978E-1,9.599714E-1,-5.235458E-1,8.3639175E-2,3.0048662E-1,-1.4625195E-1,7.682E-2,7.2438043E-1,3.665526E-1,1.098963E0,-5.389198E-1,3.042771E-2,-1.1011923E-1,1.7114563E-1,-1.9933994E-1,8.027379E-1,9.554414E-1,1.4623728E-2,-1.3652863E-1,7.546184E-1,1.1573354E0,-1.6346133E-3,-7.682367E-2,-1.7091349E-1,6.949611E-2,-1.6178258E-1,3.128236E-1,3.49352E-2,3.304025E-1,-9.323327E-3,-1.4866354E-1,2.3404334E-1,3.0402786E-1,4.8707E-2,3.758504E-1,1.4856805E-1],"categories":[],"categories_nodes":[],"categories_segments":[],"categories_sizes":[],"default_left":[0,0,0,0,0,0,0,0,0,0,0,0,0,0,0,0,0,0,0,0,0,0,0,0,0,0,0,0,0,0,0,0,0,0,0,0,0,0,0,0,0,0,0,0,0,0,0,0,0],"id":9,"left_children":[1,3,5,7,9,11,13,15,17,-1,-1,-1,19,-1,21,23,25,-1,-1,27,29,31,33,35,-1,-1,-1,37,39,41,43,-1,45,47,-1,-1,-1,-1,-1,-1,-1,-1,-1,-1,-1,-1,-1,-1,-1],"loss_changes":[4.213024E1,3.4520311E0,5.2623215E0,9.414444E-1,1.0461822E0,3.0738802E0,2.5371094E0,1.0169153E0,3.3806925E0,0E0,0E0,0E0,2.9253411E0,0E0,2.9296913E0,6.103945E-1,1.0055422E0,0E0,0E0,2.7722101E0,2.8579721E0,3.2666821E0,2.0844574E0,3.4712029E-1,0E0,0E0,0E0,1.6252522E0,5.028267E-1,1.9335308E0,2.4629128E0,0E0,8.476157E-1,1.3158379E0,0E0,0E0,0E0,0E0,0E0,0E0,0E0,0E0,0E0,0E0,0E0,0E0,0E0,0E0,0E0],"parents":[2147483647,0,0,1,1,2,2,3,3,4,4,5,5,6,6,7,7,8,8,12,12,14,14,15,15,16,16,19,19,20,20,21,21,22,22,23,23,27,27,28,28,29,29,30,30,32,32,33,33],"right_children":[2,4,6,8,10,12,14,16,18,-1,-1,-1,20,-1,22,24,26,-1,-1,28,30,32,34,36,-1,-1,-1,38,40,42,44,-1,46,48,-1,-1,-1,-1,-1,-1,-1,-1,-1,-1,-1,-1,-1,-1,-1],"split_conditions":[5.6692466E-2,2.1352978E0,5.858226E-1,9.798489E-1,-3.1356278E-1,-1.0105792E0,-2.602871E0,1.883891E-2,8.3319575E-2,-9.531368E-3,2.9462224E-1,-1.4243318E-1,-1.3715823E-1,-1.0328978E-1,-5.646464E-1,1.7637807E0,1.247673E0,3.0048662E-1,-1.4625195E-1,1.5702055E0,1.1319212E0,1.0204607E0,3.3270738E0,-8.862344E-1,3.042771E-2,-1.1011923E-1,1.7114563E-1,-3.8953778E-1,3.1528616E-1,6.7802614E-1,1.9418741E0,-1.3652863E-1,-8.88568E-2,8.7490165E-1,-1.6346133E-3,-7.682367E-2,-1.7091349E-1,6.949611E-2,-1.6178258E-1,3.128236E-1,3.49352E-2,3.304025E-1,-9.323327E-3,-1.4866354E-1,2.3404334E-1,3.0402786E-1,4.8707E-2,3.758504E-1,1.4856805E-1],"split_indices":[1,18,1,11,1,10,19,1,25,0,0,0,7,0,8,8,27,0,0,17,27,1,16,26,0,0,0,20,24,19,28,0,14,4,0,0,0,0,0,0,0,0,0,0,0,0,0,0,0],"split_type":[0,0,0,0,0,0,0,0,0,0,0,0,0,0,0,0,0,0,0,0,0,0,0,0,0,0,0,0,0,0,0,0,0,0,0,0,0,0,0,0,0,0,0,0,0,0,0,0,0],"sum_hessian":[1.398624E2,6.769454E1,7.216786E1,6.471201E1,2.9825304E0,3.1687513E1,4.0480347E1,5.946702E1,5.2449946E0,1.7793866E0,1.2031438E0,3.1449637E0,2.854255E1,1.0764768E0,3.940387E1,5.68387E1,2.6283193E0,1.1832461E0,4.0617485E0,1.2030378E1,1.651217E1,8.16803E0,3.123584E1,5.5608444E1,1.2302532E0,1.4925821E0,1.1357373E0,9.240445E0,2.789934E0,1.219571E1,4.316461E0,2.5648246E0,5.603205E0,2.9622269E1,1.6135712E0,6.3741913E0,4.9234253E1,4.21496E0,5.0254846E0,1.6822273E0,1.1077065E0,1.0523027E1,1.6726828E0,2.8018699E0,1.5145913E0,3.404422E0,2.1987834E0,2.5108545E1,4.513724E0],"tree_param":{"num_deleted":"0","num_feature":"30","num_nodes":"49","size_leaf_vector":"1"}},{"base_weights":[9.8776616E-2,5.0867176E-1,-2.79371E-1,-1.11655155E-2,6.331194E-1,-3.4172073E-1,7.0552564E-1,2.3731877E-1,-1.4316933E-1,6.74564E-2,7.0557094E-1,-3.7840304E-1,2.5553527E-1,1.1141094E-2,2.8296804E-1,-1.2766764E-1,5.245484E-1,-1.3350824E-1,4.7191417E-1,8.011898E-1,2.4334565E-1,-2.7584055E-1,-1.6684383E-1,2.988002E-1,-3.5516467E-2,-1.0971366E-2,2.2132951E-1,9.115345E-2,8.6559385E-1,7.505682E-1,-3.7464607E-1,-1.675801E-1,-1.6277571E-1,1.4221992E-1,-1.21926256E-1,-1.287598E-1,1.9213068E-1,2.9742453E-1,1.3777997E-1,3.4359805E-2,2.6397878E-1,-1.6074777E-1,2.438482E-2,-1.1489576E-1,5.016865E-2],"categories":[],"categories_nodes":[],"categories_segments":[],"categories_sizes":[],"default_left":[0,0,0,0,0,0,0,0,0,0,0,0,0,0,0,0,0,0,0,0,0,0,0,0,0,0,0,0,0,0,0,0,0,0,0,0,0,0,0,0,0,0,0,0,0],"id":10,"left_children":[1,3,5,7,9,11,13,15,-1,17,19,21,-1,-1,-1,-1,23,-1,25,27,29,31,-1,-1,33,-1,-1,35,37,39,41,43,-1,-1,-1,-1,-1,-1,-1,-1,-1,-1,-1,-1,-1],"loss_changes":[2.1169134E1,4.2412376E0,4.6137624E0,1.6911526E0,2.1173744E0,3.2836785E0,6.9035935E-1,2.0424247E0,0E0,1.6824254E0,1.8700371E0,1.0555277E0,0E0,0E0,0E0,0E0,1.9138099E0,0E0,6.292886E-1,1.6714935E0,3.2417524E0,1.1807339E0,0E0,0E0,9.8972046E-1,0E0,0E0,1.5041691E0,1.3328362E0,3.5341406E-1,4.054414E-1,2.4274032E0,0E0,0E0,0E0,0E0,0E0,0E0,0E0,0E0,0E0,0E0,0E0,0E0,0E0],"parents":[2147483647,0,0,1,1,2,2,3,3,4,4,5,5,6,6,7,7,9,9,10,10,11,11,16,16,18,18,19,19,20,20,21,21,24,24,27,27,28,28,29,29,30,30,31,31],"right_children":[2,4,6,8,10,12,14,16,-1,18,20,22,-1,-1,-1,-1,24,-1,26,28,30,32,-1,-1,34,-1,-1,36,38,40,42,44,-1,-1,-1,-1,-1,-1,-1,-1,-1,-1,-1,-1,-1],"split_conditions":[-3.2275215E-1,-7.3544246E-1,2.241645E0,-2.5531155E-1,-1.0886275E0,2.1416204E0,-7.8918785E-1,-9.3397176E-1,-1.4316933E-1,-5.3757913E-2,4.0183908E-1,6.691987E-1,2.5553527E-1,1.1141094E-2,2.8296804E-1,-1.2766764E-1,-6.380592E-1,-1.3350824E-1,-1.0673178E0,-6.76319E-1,-7.825843E-1,3.0967784E-1,-1.6684383E-1,2.988002E-1,-5.967996E-1,-1.0971366E-2,2.2132951E-1,-4.3109125E-1,3.6400434E-1,-5.054171E-1,2.6565388E-1,-2.1640016E-1,-1.6277571E-1,1.4221992E-1,-1.21926256E-1,-1.287598E-1,1.9213068E-1,2.9742453E-1,1.3777997E-1,3.4359805E-2,2.6397878E-1,-1.6074777E-1,2.438482E-2,-1.1489576E-1,5.016865E-2],"split_indices":[1,10,5,25,5,7,0,22,0,16,18,1,0,0,0,0,20,0,27,4,1,25,0,0,8,0,0,13,6,23,10,25,0,0,0,0,0,0,0,0,0,0,0,0,0],"split_type":[0,0,0,0,0,0,0,0,0,0,0,0,0,0,0,0,0,0,0,0,0,0,0,0,0,0,0,0,0,0,0,0,0,0,0,0,0,0,0,0,0,0,0,0,0],"sum_hessian":[1.3465747E2,6.445067E1,7.020681E1,1.2624877E1,5.182579E1,6.6641075E1,3.5657303E0,8.55471E0,4.070166E0,6.103553E0,4.5722237E1,6.531653E1,1.3245516E0,1.2387472E0,2.326983E0,2.440606E0,6.1141043E0,2.6479983E0,3.4555545E0,3.7277454E1,8.44478E0,4.3035694E1,2.2280834E1,2.8970528E0,3.2170515E0,1.4824848E0,1.9730697E0,3.3009324E0,3.3976524E1,4.520231E0,3.92455E0,3.1769892E1,1.12658E1,1.2380152E0,1.9790365E0,1.8073701E0,1.4935623E0,2.4843632E1,9.132891E0,1.0826224E0,3.4376085E0,2.7700446E0,1.1545055E0,1.924461E1,1.2525283E1],"tree_param":{"num_deleted":"0","num_feature":"30","num_nodes":"45","size_leaf_vector":"1"}},{"base_weights":[5.3505983E-2,3.4051508E-1,-1.4503014E-1,1.3352558E-2,6.3299155E-1,5.7713526E-1,-2.269895E-1,2.6917288E-1,-3.0799174E-1,7.1420956E-1,-1.1314022E-1,9.344036E-1,-1.6399299E-1,3.6495215E-1,-2.9298747E-1,-1.5555906E-1,5.803367E-1,1.5261076E-1,-4.4988328E-1,-1.3202518E-1,7.962062E-1,3.327137E-1,3.1839106E-2,-1.07628495E-1,4.9740437E-2,7.647269E-1,-1.2449571E-1,2.7993394E-2,-3.9075804E-1,1.604744E-1,-1.521076E-1,-1.1389161E-1,8.5195637E-1,3.7187967E-2,-1.5958509E-1,-9.914193E-2,4.2532198E-2,-1.06869705E-1,8.626209E-1,1.2718168E-1,3.7439924E-1,4.0043378E-1,-1.5308523E-1,4.0078285E-1,-4.4009435E-1,3.4229615E-1,-1.8634696E-2,2.7950895E-1,-9.206233E-2,1.7172283E-1,-1.0080602E-1,-1.2109381E-1,1.8366867E-1,-9.946636E-2,2.793738E-1,9.039791E-2,-1.4256881E-1],"categories":[],"categories_nodes":[],"categories_segments":[],"categories_sizes":[],"default_left":[0,0,0,0,0,0,0,0,0,0,0,0,0,0,0,0,0,0,0,0,0,0,0,0,0,0,0,0,0,0,0,0,0,0,0,0,0,0,0,0,0,0,0,0,0,0,0,0,0,0,0,0,0,0,0,0,0],"id":11,"left_children":[1,3,5,7,9,11,13,15,17,19,-1,21,23,25,27,29,31,-1,33,35,37,-1,-1,-1,-1,39,-1,41,43,-1,-1,-1,45,-1,-1,-1,-1,-1,47,49,-1,51,-1,53,55,-1,-1,-1,-1,-1,-1,-1,-1,-1,-1,-1,-1],"loss_changes":[7.553905E0,5.173031E0,4.780262E0,2.2680335E0,2.6131783E0,2.3478591E0,2.8909144E0,2.1167011E0,1.6481845E0,1.963934E0,0E0,7.1285725E-1,2.872955E-1,2.6850326E0,2.0403924E0,2.0359612E0,2.6860797E0,0E0,5.823569E-1,2.2203748E-1,2.1874247E0,0E0,0E0,0E0,0E0,1.4964561E0,0E0,3.4183705E0,2.114769E0,0E0,0E0,0E0,2.0182347E0,0E0,0E0,0E0,0E0,0E0,2.1857948E0,8.996692E-1,0E0,1.9562534E0,0E0,1.643438E0,1.3727684E0,0E0,0E0,0E0,0E0,0E0,0E0,0E0,0E0,0E0,0E0,0E0,0E0],"parents":[2147483647,0,0,1,1,2,2,3,3,4,4,5,5,6,6,7,7,8,8,9,9,11,11,12,12,13,13,14,14,15,15,16,16,18,18,19,19,20,20,25,25,27,27,28,28,32,32,38,38,39,39,41,41,43,43,44,44],"right_children":[2,4,6,8,10,12,14,16,18,20,-1,22,24,26,28,30,32,-1,34,36,38,-1,-1,-1,-1,40,-1,42,44,-1,-1,-1,46,-1,-1,-1,-1,-1,48,50,-1,52,-1,54,56,-1,-1,-1,-1,-1,-1,-1,-1,-1,-1,-1,-1],"split_conditions":[-4.9547198E-1,-4.3901592E-1,-1.1122673E0,-1.1587431E-1,8.910119E-1,5.131154E-2,-1.1882609E0,-5.0356036E-1,-1.2036712E0,-1.5801339E0,-1.1314022E-1,4.042386E-1,3.3882013E-1,1.2251251E0,-7.080804E-1,-9.385165E-1,-6.73527E-1,1.5261076E-1,-1.3899742E0,-1.1121813E0,-1.0187334E0,3.327137E-1,3.1839106E-2,-1.07628495E-1,4.9740437E-2,-4.119678E-1,-1.2449571E-1,4.1910297E-1,-8.5479695E-1,1.604744E-1,-1.521076E-1,-1.1389161E-1,4.2110196E-1,3.7187967E-2,-1.5958509E-1,-9.914193E-2,4.2532198E-2,-1.06869705E-1,7.274272E-1,-1.2604958E-1,3.7439924E-1,-8.068462E-1,-1.5308523E-1,-6.705069E-1,-1.4145572E0,3.4229615E-1,-1.8634696E-2,2.7950895E-1,-9.206233E-2,1.7172283E-1,-1.0080602E-1,-1.2109381E-1,1.8366867E-1,-9.946636E-2,2.793738E-1,9.039791E-2,-1.4256881E-1],"split_indices":[10,21,29,1,29,19,26,28,5,3,0,18,18,25,15,28,24,0,29,13,11,0,0,0,0,28,0,1,23,0,0,0,24,0,0,0,0,0,14,10,0,4,0,6,13,0,0,0,0,0,0,0,0,0,0,0,0],"split_type":[0,0,0,0,0,0,0,0,0,0,0,0,0,0,0,0,0,0,0,0,0,0,0,0,0,0,0,0,0,0,0,0,0,0,0,0,0,0,0,0,0,0,0,0,0,0,0,0,0,0,0,0,0,0,0,0,0],"sum_hessian":[1.3070058E2,5.3150158E1,7.7550415E1,2.5581022E1,2.7569138E1,7.288429E0,7.0261986E1,1.4332977E1,1.1248046E1,2.5788584E1,1.7805533E0,4.741808E0,2.546621E0,6.593605E0,6.366838E1,6.2719593E0,8.061018E0,1.2822965E0,9.965749E0,2.2241726E0,2.3564411E1,3.6361396E0,1.1056681E0,1.5458469E0,1.000774E0,4.372093E0,2.221512E0,1.5032E1,4.8636383E1,1.9395874E0,4.332372E0,1.6900948E0,6.370923E0,1.1830374E0,8.782712E0,1.1695206E0,1.0546521E0,1.0462344E0,2.2518177E1,2.429798E0,1.9422952E0,9.035982E0,5.9960175E0,2.4356625E0,4.6200718E1,4.651778E0,1.719145E0,2.1454325E1,1.0638522E0,1.1187208E0,1.3110771E0,1.6950177E0,7.340965E0,1.1806597E0,1.2550027E0,1.7475526E0,4.4453167E1],"tree_param":{"num_deleted":"0","num_feature":"30","num_nodes":"57","size_leaf_vector":"1"}},{"base_weights":[-3.262894E-1,-3.4729666E-1,1.8870077E-1,-3.866718E-1,1.8326199E-2,-2.1253511E-1,-4.607685E-1,-1.7806269E-1,2.651212E-1,1.2487591E-1,-4.504337E-1,-5.1758194E-1,-2.1890377E-1,4.0964124E-1,-1.5257531E-1,3.6883083E-1,-1.3931394E-1,1.4492956E-1,-1.6369602E-1,5.2146062E-2,-5.3443456E-1,2.4269307E-1,-4.3553358E-1,-9.757943E-2,2.3703547E-1,-3.805061E-2,2.183732E-1,-1.0377894E-1,1.8070918E-1,-1.7114155E-1,-5.137849E-2,2.06997E-1,-1.1682743E-1,5.7662744E-2,-1.5767866E-1],"categories":[],"categories_nodes":[],"categories_segments":[],"categories_sizes":[],"default_left":[0,0,0,0,0,0,0,0,0,0,0,0,0,0,0,0,0,0,0,0,0,0,0,0,0,0,0,0,0,0,0,0,0,0,0],"id":12,"left_children":[1,3,-1,5,7,9,11,13,-1,15,17,19,21,23,-1,25,-1,27,-1,-1,29,31,33,-1,-1,-1,-1,-1,-1,-1,-1,-1,-1,-1,-1],"loss_changes":[2.4357233E0,1.5727673E0,0E0,1.1694822E0,2.1166613E0,2.5587635E0,8.21785E-1,2.1951668E0,0E0,2.137056E0,1.1279416E0,7.264433E-1,1.573349E0,1.4413378E0,0E0,1.9127977E0,0E0,9.5859236E-1,0E0,0E0,6.001997E-1,1.7757632E0,6.859993E-1,0E0,0E0,0E0,0E0,0E0,0E0,0E0,0E0,0E0,0E0,0E0,0E0],"parents":[2147483647,0,0,1,1,3,3,4,4,5,5,6,6,7,7,9,9,10,10,11,11,12,12,13,13,15,15,17,17,20,20,21,21,22,22],"right_children":[2,4,-1,6,8,10,12,14,-1,16,18,20,22,24,-1,26,-1,28,-1,-1,30,32,34,-1,-1,-1,-1,-1,-1,-1,-1,-1,-1,-1,-1],"split_conditions":[3.5898142E0,1.2389548E0,1.8870077E-1,-4.1492388E-1,8.14613E-1,-3.8205475E-1,3.6775172E-1,-1.1746217E0,2.651212E-1,-1.7387061E-1,-8.9323694E-1,-1.2546511E0,-8.178019E-1,-8.5626215E-1,-1.5257531E-1,-6.221842E-1,-1.3931394E-1,7.490548E-1,-1.6369602E-1,5.2146062E-2,1.4807955E0,8.456894E-1,-1.02108E0,-9.757943E-2,2.3703547E-1,-3.805061E-2,2.183732E-1,-1.0377894E-1,1.8070918E-1,-1.7114155E-1,-5.137849E-2,2.06997E-1,-1.1682743E-1,5.7662744E-2,-1.5767866E-1],"split_indices":[8,4,0,24,3,25,0,13,0,21,18,18,2,29,0,21,0,5,0,0,6,11,20,0,0,0,0,0,0,0,0,0,0,0,0],"split_type":[0,0,0,0,0,0,0,0,0,0,0,0,0,0,0,0,0,0,0,0,0,0,0,0,0,0,0,0,0,0,0,0,0,0,0],"sum_hessian":[1.0948768E2,1.0775456E2,1.7331159E0,9.722636E1,1.0528206E1,3.017637E1,6.704998E1,9.228268E0,1.2999382E0,1.2674808E1,1.7501564E1,5.337286E1,1.3677122E1,3.2356133E0,5.9926543E0,9.228312E0,3.446496E0,2.3411875E0,1.5160376E1,1.0483558E0,5.2324505E1,4.330129E0,9.346993E0,1.1532259E0,2.0823874E0,4.148536E0,5.079776E0,1.2469177E0,1.0942699E0,4.708182E1,5.2426834E0,2.4821596E0,1.8479697E0,1.0304494E0,8.316544E0],"tree_param":{"num_deleted":"0","num_feature":"30","num_nodes":"35","size_leaf_vector":"1"}},{"base_weights":[-7.83698E-3,-3.317423E-1,1.1394653E-1,-4.3843776E-1,1.9174902E-1,1.8736978E-1,-2.9385066E-1,1.9986741E-1,-4.9627396E-1,7.0386136E-1,-2.4672705E-1,7.250199E-1,1.28823E-1,-4.5747745E-1,4.174128E-1,-9.60899E-2,2.0260368E-1,-5.285131E-1,4.4580907E-2,4.387791E-2,2.7512175E-1,4.763199E-2,-1.2398753E-1,4.5286097E-2,8.969241E-1,-9.548884E-2,2.5887644E-1,2.8832693E-2,-1.5882286E-1,-9.706224E-2,2.6574588E-1,3.328858E-2,-1.6874751E-1,3.0358303E-1,5.267791E-2,-4.4433987E-1,2.9184484E-1,-1.4767523E-1,3.258066E-1,5.238668E-2,-1.502337E-1,1.3941516E-2,2.4768476E-1,-5.3350404E-2,1.2704636E-1],"categories":[],"categories_nodes":[],"categories_segments":[],"categories_sizes":[],"default_left":[0,0,0,0,0,0,0,0,0,0,0,0,0,0,0,0,0,0,0,0,0,0,0,0,0,0,0,0,0,0,0,0,0,0,0,0,0,0,0,0,0,0,0,0,0],"id":13,"left_children":[1,3,5,7,9,11,13,15,17,19,21,23,25,27,29,-1,-1,31,-1,-1,-1,-1,-1,-1,33,35,37,-1,-1,-1,-1,-1,-1,-1,-1,39,41,-1,43,-1,-1,-1,-1,-1,-1],"loss_changes":[5.1872215E0,2.090692E0,2.917984E0,1.2121611E0,1.6957203E0,2.47638E0,1.9341508E0,1.0121177E0,6.59214E-1,2.684393E-1,3.6227316E-1,6.3442516E-1,2.207913E0,5.5477166E-1,1.4403245E0,0E0,0E0,6.451702E-1,0E0,0E0,0E0,0E0,0E0,0E0,3.0358553E-1,3.9395869E0,2.5554452E0,0E0,0E0,0E0,0E0,0E0,0E0,0E0,0E0,6.195369E-1,1.7906291E0,0E0,2.256927E0,0E0,0E0,0E0,0E0,0E0,0E0],"parents":[2147483647,0,0,1,1,2,2,3,3,4,4,5,5,6,6,7,7,8,8,9,9,10,10,11,11,12,12,13,13,14,14,17,17,24,24,25,25,26,26,35,35,36,36,38,38],"right_children":[2,4,6,8,10,12,14,16,18,20,22,24,26,28,30,-1,-1,32,-1,-1,-1,-1,-1,-1,34,36,38,-1,-1,-1,-1,-1,-1,-1,-1,40,42,-1,44,-1,-1,-1,-1,-1,-1],"split_conditions":[-4.443721E-1,4.7023737E-1,7.633397E-1,-1.2787634E0,5.860473E-1,-1.27199E0,1.0323077E0,-3.474706E-1,1.8072133E0,-3.5565066E-1,-6.76909E-1,-8.669484E-1,-2.0338523E-1,-1.060427E0,-8.216987E-1,-9.60899E-2,2.0260368E-1,-8.538201E-1,4.4580907E-2,4.387791E-2,2.7512175E-1,4.763199E-2,-1.2398753E-1,4.5286097E-2,-8.4710824E-1,1.3111212E-2,-1.02108E0,2.8832693E-2,-1.5882286E-1,-9.706224E-2,2.6574588E-1,3.328858E-2,-1.6874751E-1,3.0358303E-1,5.267791E-2,-6.425204E-1,7.379091E-1,-1.4767523E-1,-1.0177375E0,5.238668E-2,-1.502337E-1,1.3941516E-2,2.4768476E-1,-5.3350404E-2,1.2704636E-1],"split_indices":[1,25,10,5,25,7,13,4,12,8,15,17,24,29,2,0,0,23,0,0,0,0,0,0,12,11,20,0,0,0,0,0,0,0,0,16,1,0,28,0,0,0,0,0,0],"split_type":[0,0,0,0,0,0,0,0,0,0,0,0,0,0,0,0,0,0,0,0,0,0,0,0,0,0,0,0,0,0,0,0,0,0,0,0,0,0,0,0,0,0,0,0,0],"sum_hessian":[1.2954247E2,3.492611E1,9.461635E1,2.9147816E1,5.7782917E0,8.0638115E1,1.3978236E1,2.2176075E0,2.6930208E1,2.3861616E0,3.3921304E0,6.800823E0,7.383729E1,1.1654026E1,2.3242097E0,1.214893E0,1.0027145E0,2.581985E1,1.1103591E0,1.1263783E0,1.2597831E0,1.0012857E0,2.3908446E0,2.0000093E0,4.800814E0,2.7196117E1,4.6641174E1,1.3015144E0,1.0352512E1,1.019995E0,1.3042145E0,1.188411E0,2.463144E1,3.7931042E0,1.00771E0,1.4231437E1,1.296468E1,3.2960765E0,4.3345097E1,1.0142508E0,1.3217186E1,9.626476E0,3.3382034E0,6.9078593E0,3.6437237E1],"tree_param":{"num_deleted":"0","num_feature":"30","num_nodes":"45","size_leaf_vector":"1"}},{"base_weights":[1.2003991E-1,-3.978734E-1,4.9218124E-1,-4.5427367E-1,4.6753842E-1,5.945502E-1,8.300089E-2,-5.088741E-1,-1.1685256E-1,-5.2085645E-3,2.493157E-1,2.3631142E-1,7.602682E-1,-2.9699445E-1,5.986896E-1,-2.2400871E-1,-5.4408693E-1,3.8894558E-1,-1.4611065E-1,3.6346093E-1,-1.4194927E-1,8.0299044E-1,-3.6766008E-2,-1.6415687E-1,2.7699113E-1,2.9970998E-1,-5.2194063E-2,-1.4314783E-1,1.12272374E-1,-9.228527E-2,-1.6996868E-1,-1.0369212E-1,2.4847078E-1,1.3031036E-1,8.424782E-1,9.456359E-1,4.6844897E-1,1.9401129E-1,-9.7327866E-2,-1.3238342E-1,1.181473E-1,-9.378318E-2,5.2661784E-2,1.0716244E-1,-1.4971872E-1,2.9946503E-1,2.688179E-2,2.9979873E-1,-1.559004E-2,-1.3254476E-1,1.9646822E-1],"categories":[],"categories_nodes":[],"categories_segments":[],"categories_sizes":[],"default_left":[0,0,0,0,0,0,0,0,0,0,0,0,0,0,0,0,0,0,0,0,0,0,0,0,0,0,0,0,0,0,0,0,0,0,0,0,0,0,0,0,0,0,0,0,0,0,0,0,0,0,0],"id":14,"left_children":[1,3,5,7,9,11,13,15,17,-1,-1,19,21,23,25,27,29,31,-1,33,-1,35,-1,-1,37,-1,39,-1,-1,41,-1,-1,-1,43,45,47,49,-1,-1,-1,-1,-1,-1,-1,-1,-1,-1,-1,-1,-1,-1],"loss_changes":[2.6893E1,3.066184E0,3.3455448E0,9.611511E-1,7.3186064E-1,3.6593895E0,3.583822E0,3.5342503E-1,1.877165E0,0E0,0E0,2.1479216E0,1.7489758E0,1.6846771E0,2.0600464E0,1.2254866E0,3.6883068E-1,1.6948988E0,0E0,2.0278971E0,0E0,1.5553379E0,0E0,0E0,1.0780259E0,0E0,8.4796745E-1,0E0,0E0,2.4133344E-1,0E0,0E0,0E0,2.1856952E0,6.23827E-1,1.5718651E0,2.7501092E0,0E0,0E0,0E0,0E0,0E0,0E0,0E0,0E0,0E0,0E0,0E0,0E0,0E0,0E0],"parents":[2147483647,0,0,1,1,2,2,3,3,4,4,5,5,6,6,7,7,8,8,11,11,12,12,13,13,14,14,15,15,16,16,17,17,19,19,21,21,24,24,26,26,29,29,33,33,34,34,35,35,36,36],"right_children":[2,4,6,8,10,12,14,16,18,-1,-1,20,22,24,26,28,30,32,-1,34,-1,36,-1,-1,38,-1,40,-1,-1,42,-1,-1,-1,44,46,48,50,-1,-1,-1,-1,-1,-1,-1,-1,-1,-1,-1,-1,-1,-1],"split_conditions":[1.883891E-2,2.1352978E0,1.212459E0,7.135028E-1,-3.1356278E-1,4.1910297E-1,1.0204607E0,-8.862344E-1,8.3319575E-2,-5.2085645E-3,2.493157E-1,1.7343069E0,1.0195848E0,-4.3993434E-1,-4.0251002E-1,-9.584E-1,-1.5087391E0,-5.4660684E-1,-1.4611065E-1,6.384189E-1,-1.4194927E-1,2.6551604E-1,-3.6766008E-2,-1.6415687E-1,-3.8953778E-1,2.9970998E-1,6.4539766E-1,-1.4314783E-1,1.12272374E-1,1.3303044E-1,-1.6996868E-1,-1.0369212E-1,2.4847078E-1,3.0884865E-1,-3.697693E-1,1.90847E0,-4.86691E-2,1.9401129E-1,-9.7327866E-2,-1.3238342E-1,1.181473E-1,-9.378318E-2,5.2661784E-2,1.0716244E-1,-1.4971872E-1,2.9946503E-1,2.688179E-2,2.9979873E-1,-1.559004E-2,-1.3254476E-1,1.9646822E-1],"split_indices":[1,18,2,11,1,1,1,26,25,0,0,8,24,3,21,26,29,14,0,8,0,3,0,0,20,0,24,0,0,2,0,0,0,8,10,8,10,0,0,0,0,0,0,0,0,0,0,0,0,0,0],"split_type":[0,0,0,0,0,0,0,0,0,0,0,0,0,0,0,0,0,0,0,0,0,0,0,0,0,0,0,0,0,0,0,0,0,0,0,0,0,0,0,0,0,0,0,0,0,0,0,0,0,0,0],"sum_hessian":[1.3751611E2,5.746804E1,8.004807E1,5.439792E1,3.0701206E0,6.366684E1,1.6381233E1,4.6384064E1,8.013856E0,1.7234311E0,1.3466895E0,2.090396E1,4.2762882E1,9.675634E0,6.705599E0,5.9127226E0,4.0471344E1,3.3651752E0,4.64868E0,1.814058E1,2.7633805E0,4.087524E1,1.887641E0,6.7709317E0,2.9047031E0,3.8206918E0,2.8849068E0,4.2968917E0,1.6158308E0,2.1598485E0,3.8311493E1,1.3391011E0,2.0260742E0,1.3057284E1,5.0832944E0,2.7375788E1,1.3499453E1,1.7522382E0,1.152465E0,1.5464711E0,1.3384356E0,1.0932593E0,1.0665891E0,9.915165E0,3.142119E0,3.9419816E0,1.141313E0,2.5975973E1,1.3998146E0,2.0621097E0,1.1437344E1],"tree_param":{"num_deleted":"0","num_feature":"30","num_nodes":"51","size_leaf_vector":"1"}},{"base_weights":[8.0976985E-2,3.360543E-1,-3.6623362E-1,-1.03571385E-1,4.647366E-1,1.2458196E-1,-4.3997177E-1,-2.532708E-1,3.5062805E-1,5.8043766E-1,2.1286237E-1,-1.21772416E-1,4.3589425E-1,-5.197716E-1,-1.8462096E-1,1.01103194E-1,-1.5581548E-1,2.2133863E-1,1.5828647E-2,9.717568E-2,6.629499E-1,-1.0478685E-1,5.338995E-1,-2.5787463E-2,2.2573535E-1,-1.6464297E-1,-2.3240872E-1,2.0555024E-1,-3.3663517E-1,-1.1905175E-1,3.910825E-1,-9.8639116E-2,9.887178E-2,3.219627E-1,-1.2726413E-1,7.258057E-1,1.3587505E-1,-3.4777063E-1,3.5866678E-1,-4.2160675E-2,6.842892E-1,-1.244979E-1,5.840336E-2,1.8550171E-1,-1.5565741E-1,2.0611975E-1,2.002753E-2,1.831927E-1,-4.5389183E-2,2.3955987E-1,5.6565944E-2,-1.3626195E-1,1.9109745E-1,-1.5965624E-1,2.3383E-2,-1.0967719E-1,2.0557046E-1,4.7854356E-2,2.6607892E-1],"categories":[],"categories_nodes":[],"categories_segments":[],"categories_sizes":[],"default_left":[0,0,0,0,0,0,0,0,0,0,0,0,0,0,0,0,0,0,0,0,0,0,0,0,0,0,0,0,0,0,0,0,0,0,0,0,0,0,0,0,0,0,0,0,0,0,0,0,0,0,0,0,0,0,0,0,0,0,0],"id":15,"left_children":[1,3,5,7,9,11,13,15,17,19,21,-1,23,25,27,29,-1,-1,31,33,35,37,39,-1,-1,-1,41,-1,43,-1,45,-1,-1,47,-1,49,51,53,55,-1,57,-1,-1,-1,-1,-1,-1,-1,-1,-1,-1,-1,-1,-1,-1,-1,-1,-1,-1],"loss_changes":[1.4834454E1,4.7235174E0,1.7673922E0,1.416787E0,1.7448559E0,1.3263429E0,7.4682045E-1,1.4925461E0,6.702592E-1,1.6643057E0,2.2749763E0,0E0,8.6888456E-1,1.3080692E-1,1.7377822E0,1.2216974E0,0E0,0E0,5.239035E-1,1.0149405E0,1.1225147E0,1.4505882E0,1.2104957E0,0E0,0E0,0E0,4.3762642E-1,0E0,2.1259909E0,0E0,4.505626E-1,0E0,0E0,8.855031E-1,0E0,1.1271801E0,1.8144224E0,6.877458E-1,1.3247681E0,0E0,8.3192444E-1,0E0,0E0,0E0,0E0,0E0,0E0,0E0,0E0,0E0,0E0,0E0,0E0,0E0,0E0,0E0,0E0,0E0,0E0],"parents":[2147483647,0,0,1,1,2,2,3,3,4,4,5,5,6,6,7,7,8,8,9,9,10,10,12,12,13,13,14,14,15,15,18,18,19,19,20,20,21,21,22,22,26,26,28,28,30,30,33,33,35,35,36,36,37,37,38,38,40,40],"right_children":[2,4,6,8,10,12,14,16,18,20,22,-1,24,26,28,30,-1,-1,32,34,36,38,40,-1,-1,-1,42,-1,44,-1,46,-1,-1,48,-1,50,52,54,56,-1,58,-1,-1,-1,-1,-1,-1,-1,-1,-1,-1,-1,-1,-1,-1,-1,-1,-1,-1],"split_conditions":[-3.5673875E-2,-7.354156E-1,-9.6718127E-1,8.6395264E-1,-6.5922156E-2,-6.69854E-1,2.8047806E-1,-5.1034874E-1,-1.8288516E-1,-8.546626E-1,-9.480931E-4,-1.21772416E-1,-1.0002916E0,8.736663E-1,-6.267416E-1,-3.3995217E-1,-1.5581548E-1,2.2133863E-1,2.4491338E-1,1.0459613E0,1.8223293E0,1.1381657E0,-1.4296392E0,-2.5787463E-2,2.2573535E-1,-1.6464297E-1,-1.6009387E-1,2.0555024E-1,-3.683527E-1,-1.1905175E-1,-1.2520556E-1,-9.8639116E-2,9.887178E-2,-8.0131507E-1,-1.2726413E-1,2.037293E0,6.433414E-1,6.636116E-2,-1.098933E-1,-4.2160675E-2,-9.129277E-2,-1.244979E-1,5.840336E-2,1.8550171E-1,-1.5565741E-1,2.0611975E-1,2.002753E-2,1.831927E-1,-4.5389183E-2,2.3955987E-1,5.6565944E-2,-1.3626195E-1,1.9109745E-1,-1.5965624E-1,2.3383E-2,-1.0967719E-1,2.0557046E-1,4.7854356E-2,2.6607892E-1],"split_indices":[1,10,2,13,17,15,5,1,14,27,10,0,2,12,6,18,0,0,4,24,6,27,24,0,0,0,18,0,19,0,18,0,0,0,0,19,5,4,25,0,15,0,0,0,0,0,0,0,0,0,0,0,0,0,0,0,0,0,0],"split_type":[0,0,0,0,0,0,0,0,0,0,0,0,0,0,0,0,0,0,0,0,0,0,0,0,0,0,0,0,0,0,0,0,0,0,0,0,0,0,0,0,0,0,0,0,0,0,0,0,0,0,0,0,0,0,0,0,0,0,0],"sum_hessian":[1.2796428E2,8.1644775E1,4.6319504E1,1.8531061E1,6.3113716E1,5.9598756E0,4.0359627E1,1.4270148E1,4.2609134E0,4.235365E1,2.0760069E1,2.0916867E0,3.8681889E0,2.9960985E1,1.0398643E1,6.386099E0,7.8840494E0,1.4177319E0,2.8431816E0,6.494433E0,3.5859215E1,1.0773681E1,9.986387E0,1.735549E0,2.13264E0,2.6384943E1,3.576042E0,1.0252354E0,9.373407E0,2.2146575E0,4.171441E0,1.3320448E0,1.5111368E0,4.805238E0,1.6891952E0,3.1701628E1,4.157589E0,7.2317576E0,3.5419228E0,1.8327583E0,8.153629E0,2.524925E0,1.051117E0,1.1184806E0,8.254927E0,1.596236E0,2.5752053E0,2.8043487E0,2.0008888E0,2.7493536E1,4.2080913E0,1.9523004E0,2.2052886E0,4.871393E0,2.3603647E0,1.0635986E0,2.4783244E0,2.7692714E0,5.384358E0],"tree_param":{"num_deleted":"0","num_feature":"30","num_nodes":"59","size_leaf_vector":"1"}},{"base_weights":[4.787487E-2,1.607645E-1,-3.1891406E-1,2.5041854E-1,-3.1521994E-1,1.9005385E-1,-3.7580276E-1,3.1806624E-1,-1.3425863E-1,4.199518E-1,-4.705138E-1,3.5505038E-1,-4.4956508E-1,3.710789E-1,-3.5355935E-1,2.1062288E-1,-4.037721E-1,2.8654294E-2,1.6500641E-1,-1.5722287E-1,2.6400277E-2,1.4510246E-1,1.1622034E-2,-4.8058528E-1,1.0505245E-2,-2.8400838E-1,4.1328678E-1,3.0173313E-2,-1.437968E-1,6.009195E-1,-1.235014E-1,-1.4730869E-1,1.9916631E-2,-1.6597585E-1,-1.4785525E-1,3.0955378E-2,-1.2713917E-1,-1.2569045E-1,1.3364092E-1,2.4705388E-1,1.629447E-2,1.9838881E-1,-1.360865E-1],"categories":[],"categories_nodes":[],"categories_segments":[],"categories_sizes":[],"default_left":[0,0,0,0,0,0,0,0,0,0,0,0,0,0,0,0,0,0,0,0,0,0,0,0,0,0,0,0,0,0,0,0,0,0,0,0,0,0,0,0,0,0,0],"id":16,"left_children":[1,3,5,7,9,-1,11,13,15,17,19,21,23,25,27,29,31,-1,-1,-1,-1,-1,-1,33,-1,35,37,-1,-1,39,-1,-1,-1,-1,41,-1,-1,-1,-1,-1,-1,-1,-1],"loss_changes":[5.241811E0,4.197755E0,1.8547025E0,2.1707597E0,1.9946997E0,0E0,1.7112794E0,2.617971E0,1.2872108E0,8.560729E-2,4.4900155E-1,1.11347854E-1,4.1645622E-1,1.920763E0,3.692854E-1,1.7849624E0,3.4450257E-1,0E0,0E0,0E0,0E0,0E0,0E0,5.239668E-1,0E0,2.8949374E-1,1.8387423E0,0E0,0E0,4.7809982E-1,0E0,0E0,0E0,0E0,1.748724E0,0E0,0E0,0E0,0E0,0E0,0E0,0E0,0E0],"parents":[2147483647,0,0,1,1,2,2,3,3,4,4,6,6,7,7,8,8,9,9,10,10,11,11,12,12,13,13,14,14,15,15,16,16,23,23,25,25,26,26,29,29,34,34],"right_children":[2,4,6,8,10,-1,12,14,16,18,20,22,24,26,28,30,32,-1,-1,-1,-1,-1,-1,34,-1,36,38,-1,-1,40,-1,-1,-1,-1,42,-1,-1,-1,-1,-1,-1,-1,-1],"split_conditions":[2.525439E-1,5.7464767E-1,-9.319233E-1,-6.2811255E-2,-1.1882609E0,1.9005385E-1,-6.710605E-1,1.7222626E0,-2.5590563E-1,-7.5280607E-1,1.3774259E0,1.9311932E-1,1.0736355E0,-6.69383E-1,-5.44823E-1,3.4100184E-1,1.01085E0,2.8654294E-2,1.6500641E-1,-1.5722287E-1,2.6400277E-2,1.4510246E-1,1.1622034E-2,1.6278709E0,1.0505245E-2,-1.0114869E0,-1.0187334E0,3.0173313E-2,-1.437968E-1,7.806827E-2,-1.235014E-1,-1.4730869E-1,1.9916631E-2,-1.6597585E-1,1.0784956E0,3.0955378E-2,-1.2713917E-1,-1.2569045E-1,1.3364092E-1,2.4705388E-1,1.629447E-2,1.9838881E-1,-1.360865E-1],"split_indices":[20,1,19,16,26,0,14,5,15,0,4,0,19,6,6,8,12,0,0,0,0,0,0,17,0,10,11,0,0,20,0,0,0,0,11,0,0,0,0,0,0,0,0],"split_type":[0,0,0,0,0,0,0,0,0,0,0,0,0,0,0,0,0,0,0,0,0,0,0,0,0,0,0,0,0,0,0,0,0,0,0,0,0,0,0,0,0,0,0],"sum_hessian":[1.24355194E2,9.55184E1,2.8836786E1,8.0777466E1,1.4740942E1,1.0540442E0,2.7782742E1,6.884401E1,1.1933455E1,2.2735522E0,1.246739E1,2.1973624E0,2.5585379E1,6.422231E1,4.6216965E0,5.3306384E0,6.602817E0,1.1469654E0,1.1265867E0,1.1432642E1,1.0347474E0,1.18598E0,1.0113825E0,2.4053839E1,1.5315394E0,3.5406613E0,6.0681652E1,1.0457406E0,3.575956E0,3.2970867E0,2.0335515E0,5.5317903E0,1.0710268E0,1.9198221E1,4.8556185E0,1.008667E0,2.5319943E0,1.8117282E0,5.8869923E1,1.9829673E0,1.3141196E0,1.0127702E0,3.8428485E0],"tree_param":{"num_deleted":"0","num_feature":"30","num_nodes":"43","size_leaf_vector":"1"}},{"base_weights":[-2.9558182E-1,-3.166359E-1,1.5572011E-1,-3.5688365E-1,3.422393E-2,-1.2941085E-1,-4.100751E-1,5.048369E-1,-2.5341076E-1,-2.5735855E-1,2.1293473E-1,1.2856723E-1,-4.4122005E-1,2.2913064E-1,-5.1438255E-4,8.955422E-2,-1.4357017E-1,6.0082324E-2,-1.560654E-1,1.438301E-1,-1.0678059E-1,-4.5306224E-1,4.4769183E-2,-9.190991E-2,1.8970142E-1,-1.100126E-1,-1.6451895E-1],"categories":[],"categories_nodes":[],"categories_segments":[],"categories_sizes":[],"default_left":[0,0,0,0,0,0,0,0,0,0,0,0,0,0,0,0,0,0,0,0,0,0,0,0,0,0,0],"id":17,"left_children":[1,3,-1,5,7,9,11,13,15,17,-1,19,21,-1,-1,-1,-1,23,-1,-1,-1,25,-1,-1,-1,-1,-1],"loss_changes":[1.8564768E0,1.3790398E0,0E0,9.9861526E-1,1.5997576E0,2.1082835E0,1.2307892E0,5.861366E-1,1.0642235E0,1.390969E0,0E0,9.5258915E-1,5.3179073E-1,0E0,0E0,0E0,0E0,1.9295893E0,0E0,0E0,0E0,3.3670425E-1,0E0,0E0,0E0,0E0,0E0],"parents":[2147483647,0,0,1,1,3,3,4,4,5,5,6,6,7,7,8,8,9,9,11,11,12,12,17,17,21,21],"right_children":[2,4,-1,6,8,10,12,14,16,18,-1,20,22,-1,-1,-1,-1,24,-1,-1,-1,26,-1,-1,-1,-1,-1],"split_conditions":[3.5898142E0,1.2389548E0,1.5572011E-1,-7.648315E-1,-8.536656E-1,-7.9482484E-1,-1.2442542E0,-4.3996426E-1,-8.127548E-1,-2.8650883E-1,2.1293473E-1,-4.483473E-1,2.2730775E0,2.2913064E-1,-5.1438255E-4,8.955422E-2,-1.4357017E-1,-6.729962E-1,-1.560654E-1,1.438301E-1,-1.0678059E-1,1.8487623E-1,4.4769183E-2,-9.190991E-2,1.8970142E-1,-1.100126E-1,-1.6451895E-1],"split_indices":[8,4,0,4,10,4,10,13,20,1,0,14,13,0,0,0,0,1,0,0,0,24,0,0,0,0,0],"split_type":[0,0,0,0,0,0,0,0,0,0,0,0,0,0,0,0,0,0,0,0,0,0,0,0,0,0,0],"sum_hessian":[9.7656136E1,9.579177E1,1.8643591E0,8.5918724E1,9.873051E0,1.693391E1,6.898481E1,3.4588034E0,6.4142475E0,1.5295246E1,1.6386652E0,3.599775E0,6.538504E1,1.9528115E0,1.5059918E0,1.7641035E0,4.650144E0,7.2777433E0,8.017503E0,2.0938878E0,1.5058873E0,6.432755E1,1.0574833E0,4.7199306E0,2.557813E0,3.6296658E1,2.8030897E1],"tree_param":{"num_deleted":"0","num_feature":"30","num_nodes":"27","size_leaf_vector":"1"}},{"base_weights":[-3.368364E-4,-2.9512876E-1,9.8613106E-2,-4.0553772E-1,1.89107E-1,1.7741321E-1,-1.9957505E-1,1.7069782E-1,-4.6734378E-1,6.0312074E-1,-2.184064E-1,4.8554325E-1,8.1064634E-2,-3.428802E-1,3.7819105E-1,1.7785406E-1,-9.421835E-2,-5.035144E-1,4.2586014E-2,2.3477916E-1,3.789925E-2,4.417661E-2,-1.1703686E-1,7.418453E-1,1.1147094E-3,4.2188394E-1,-3.6289927E-2,2.1740521E-1,-4.350719E-1,2.3938417E-1,-1.0071383E-1,2.8248003E-2,-1.6243124E-1,-6.111396E-3,8.598107E-1,2.7084228E-1,-3.497799E-1,-1.3933587E-1,7.124534E-1,-1.8147925E-1,2.5239757E-1,-9.630938E-2,1.9381039E-1,1.7148298E-1,-1.6794477E-1,5.566694E-3,2.9917637E-1,-1.5043944E-1,5.361103E-2,2.8543267E-1,2.3389268E-3,-9.157766E-2,7.6850444E-2,1.3388121E-1,-1.405192E-1,1.865268E-1,-9.630246E-2],"categories":[],"categories_nodes":[],"categories_segments":[],"categories_sizes":[],"default_left":[0,0,0,0,0,0,0,0,0,0,0,0,0,0,0,0,0,0,0,0,0,0,0,0,0,0,0,0,0,0,0,0,0,0,0,0,0,0,0,0,0,0,0,0,0,0,0,0,0,0,0,0,0,0,0,0,0],"id":18,"left_children":[1,3,5,7,9,11,13,15,17,19,21,23,25,27,29,-1,-1,31,-1,-1,-1,-1,-1,33,35,37,39,41,43,-1,-1,-1,-1,-1,45,-1,47,-1,49,51,53,-1,-1,55,-1,-1,-1,-1,-1,-1,-1,-1,-1,-1,-1,-1,-1],"loss_changes":[3.682346E0,1.7728031E0,2.256294E0,1.0111766E0,1.2405825E0,2.1958354E0,1.8044081E0,8.545005E-1,5.978985E-1,2.028637E-1,3.1151596E-1,2.2010207E0,2.3573518E0,9.5883596E-1,1.6150029E0,0E0,0E0,5.670252E-1,0E0,0E0,0E0,0E0,0E0,1.0601969E0,2.5741377E0,4.2139816E0,1.910089E0,9.068957E-1,1.2083147E0,0E0,0E0,0E0,0E0,0E0,1.1452918E0,0E0,5.592808E-1,0E0,1.9712701E0,1.7128987E0,2.347405E0,0E0,0E0,9.2542493E-1,0E0,0E0,0E0,0E0,0E0,0E0,0E0,0E0,0E0,0E0,0E0,0E0,0E0],"parents":[2147483647,0,0,1,1,2,2,3,3,4,4,5,5,6,6,7,7,8,8,9,9,10,10,11,11,12,12,13,13,14,14,17,17,23,23,24,24,25,25,26,26,27,27,28,28,34,34,36,36,38,38,39,39,40,40,43,43],"right_children":[2,4,6,8,10,12,14,16,18,20,22,24,26,28,30,-1,-1,32,-1,-1,-1,-1,-1,34,36,38,40,42,44,-1,-1,-1,-1,-1,46,-1,48,-1,50,52,54,-1,-1,56,-1,-1,-1,-1,-1,-1,-1,-1,-1,-1,-1,-1,-1],"split_conditions":[-4.443721E-1,4.7023737E-1,2.0352606E-1,-1.2787634E0,5.860473E-1,-8.798737E-1,9.2781794E-1,-4.1169572E-1,1.8072133E0,7.2280034E-2,-4.5821738E-1,3.0036727E-1,-5.217061E-1,-9.01823E-1,-3.4159827E-1,1.7785406E-1,-9.421835E-2,-8.538201E-1,4.2586014E-2,2.3477916E-1,3.789925E-2,4.417661E-2,-1.1703686E-1,-6.351937E-1,-5.1105565E-1,-5.662636E-1,3.9748266E-1,-4.9475196E-1,-1.060427E0,2.3938417E-1,-1.0071383E-1,2.8248003E-2,-1.6243124E-1,-6.111396E-3,-1.0748063E0,2.7084228E-1,-4.423338E-1,-1.3933587E-1,7.484778E-1,7.439695E-1,-4.0070593E-1,-9.630938E-2,1.9381039E-1,2.487607E-1,-1.6794477E-1,5.566694E-3,2.9917637E-1,-1.5043944E-1,5.361103E-2,2.8543267E-1,2.3389268E-3,-9.157766E-2,7.6850444E-2,1.3388121E-1,-1.405192E-1,1.865268E-1,-9.630246E-2],"split_indices":[1,25,21,5,25,10,4,10,12,19,9,7,14,15,19,0,0,23,0,0,0,0,0,15,16,6,20,20,29,0,0,0,0,0,17,0,21,0,25,7,6,0,0,1,0,0,0,0,0,0,0,0,0,0,0,0,0],"split_type":[0,0,0,0,0,0,0,0,0,0,0,0,0,0,0,0,0,0,0,0,0,0,0,0,0,0,0,0,0,0,0,0,0,0,0,0,0,0,0,0,0,0,0,0,0,0,0,0,0,0,0,0,0,0,0,0,0],"sum_hessian":[1.2424126E2,3.072441E1,9.3516846E1,2.5152086E1,5.572323E0,7.428982E1,1.9227024E1,2.2657764E0,2.288631E1,2.5260136E0,3.046309E0,1.6733948E1,5.7555874E1,1.5731606E1,3.4954178E0,1.0919163E0,1.1738602E0,2.1767694E1,1.1186148E0,1.3692163E0,1.1567974E0,1.0189517E0,2.0273573E0,1.0596275E1,6.137672E0,1.4077439E1,4.3478436E1,2.0308914E0,1.3700714E1,2.1270475E0,1.3683704E0,1.2102933E0,2.0557402E1,1.5310334E0,9.065242E0,1.2787635E0,4.8589087E0,3.32787E0,1.0749569E1,2.9176228E1,1.4302208E1,1.0114077E0,1.0194837E0,2.2731376E0,1.1427577E1,1.432474E0,7.6327677E0,3.8150427E0,1.043866E0,7.765599E0,2.9839704E0,2.2979458E1,6.196769E0,1.1570845E1,2.7313626E0,1.0503532E0,1.2227844E0],"tree_param":{"num_deleted":"0","num_feature":"30","num_nodes":"57","size_leaf_vector":"1"}},{"base_weights":[9.6580476E-2,-3.809565E-1,3.8203913E-1,-4.405397E-1,4.0051734E-1,-2.729349E-1,4.35282E-1,-4.5715943E-1,3.3785746E-2,1.9459128E-1,-6.668515E-3,-1.477624E-1,1.1487944E-1,-3.2181114E-1,4.7325942E-1,-5.064437E-1,-2.1465966E-1,1.9715218E-2,-1.4287472E-1,5.264644E-1,2.3707712E-2,-5.306399E-1,1.7816152E-2,9.032225E-2,-3.6688444E-1,-1.16000466E-1,5.524163E-1,-4.0288115E-1,2.0247144E-1,-6.1969504E-2,-1.6595073E-1,-1.4429007E-1,5.83913E-2,9.725668E-2,1.9243413E-1,-1.5566352E-1,2.3229359E-2],"categories":[],"categories_nodes":[],"categories_segments":[],"categories_sizes":[],"default_left":[0,0,0,0,0,0,0,0,0,0,0,0,0,0,0,0,0,0,0,0,0,0,0,0,0,0,0,0,0,0,0,0,0,0,0,0,0],"id":19,"left_children":[1,3,5,7,9,11,13,15,-1,-1,-1,-1,-1,17,19,21,23,-1,-1,25,27,29,-1,-1,31,-1,33,35,-1,-1,-1,-1,-1,-1,-1,-1,-1],"loss_changes":[1.8153534E1,2.5010643E0,3.0194855E0,4.823208E-1,4.4034237E-1,1.1778138E0,2.3751898E0,4.3740273E-1,0E0,0E0,0E0,0E0,0E0,2.8793693E-1,1.7580357E0,5.413761E-1,8.526534E-1,0E0,0E0,1.7810116E0,2.7389255E0,1.4721966E-1,0E0,0E0,5.900817E-1,0E0,1.1072407E0,3.7401813E-1,0E0,0E0,0E0,0E0,0E0,0E0,0E0,0E0,0E0],"parents":[2147483647,0,0,1,1,2,2,3,3,4,4,5,5,6,6,7,7,13,13,14,14,15,15,16,16,19,19,20,20,21,21,24,24,26,26,27,27],"right_children":[2,4,6,8,10,12,14,16,-1,-1,-1,-1,-1,18,20,22,24,-1,-1,26,28,30,-1,-1,32,-1,34,36,-1,-1,-1,-1,-1,-1,-1,-1,-1],"split_conditions":[-1.8644826E-2,1.6342173E0,-9.733587E-1,1.7637807E0,2.537484E-1,1.1220666E0,-1.034258E0,8.9669347E-1,3.3785746E-2,1.9459128E-1,-6.668515E-3,-1.477624E-1,1.1487944E-1,-7.645819E-1,1.0195848E0,1.8661921E0,-1.7490783E-1,1.9715218E-2,-1.4287472E-1,-1.3600074E0,-1.6938229E-1,-6.951957E-1,1.7816152E-2,9.032225E-2,2.4747226E-1,-1.16000466E-1,4.1974613E-1,1.2594028E0,2.0247144E-1,-6.1969504E-2,-1.6595073E-1,-1.4429007E-1,5.83913E-2,9.725668E-2,1.9243413E-1,-1.5566352E-1,2.3229359E-2],"split_indices":[1,26,10,8,3,0,14,24,0,0,0,0,0,7,24,12,4,0,0,5,18,6,0,0,18,0,1,4,0,0,0,0,0,0,0,0,0],"split_type":[0,0,0,0,0,0,0,0,0,0,0,0,0,0,0,0,0,0,0,0,0,0,0,0,0,0,0,0,0,0,0,0,0,0,0,0,0],"sum_hessian":[1.3110373E2,4.8924522E1,8.217921E1,4.5863914E1,3.0606065E0,5.8679256E0,7.631129E1,4.469461E1,1.1693076E0,1.5919222E0,1.4686842E0,4.582553E0,1.2853731E0,3.2881024E0,7.302318E1,3.6240807E1,8.453801E0,1.1006736E0,2.187429E0,6.514241E1,7.8807693E0,3.4814262E1,1.4265442E0,1.7037414E0,6.75006E0,1.4161165E0,6.3726295E1,4.991946E0,2.8888228E0,2.9238873E0,3.1890375E1,5.7294803E0,1.0205796E0,1.9185698E1,4.4540596E1,3.9562125E0,1.0357339E0],"tree_param":{"num_deleted":"0","num_feature":"30","num_nodes":"37","size_leaf_vector":"1"}},{"base_weights":[6.7746796E-2,2.7852604E-1,-3.3552614E-1,-8.221407E-2,3.7866184E-1,-1.5949994E-1,-1.312671E-1,-1.3763465E-1,7.013004E-2,-1.7143817E-1,4.1313368E-1,6.491045E-2,-1.4684902E-1,3.274991E-1,-1.7237033E-1,8.793875E-2,-1.2948506E-1,5.112693E-1,1.8351597E-1,-1.4802863E-1,6.806897E-1,-9.4021045E-2,5.0744134E-1,-1.410837E-1,3.5804582E-1,7.3426026E-1,3.9000055E-1,-1.5196776E-1,3.2912266E-1,-1.4730471E-1,1.9581853E-1,2.7731222E-1,1.6518462E-2,2.2497496E-1,-2.4327438E-2,1.5414643E-1,1.317435E-2,-3.216621E-2,2.54925E-1,1.3383658E-1,-7.149859E-2,1.9124655E-1,3.5315637E-2,1.4309807E-1,-1.10267065E-1],"categories":[],"categories_nodes":[],"categories_segments":[],"categories_sizes":[],"default_left":[0,0,0,0,0,0,0,0,0,0,0,0,0,0,0,0,0,0,0,0,0,0,0,0,0,0,0,0,0,0,0,0,0,0,0,0,0,0,0,0,0,0,0,0,0],"id":20,"left_children":[1,3,5,7,9,-1,11,-1,13,15,17,19,-1,21,23,-1,-1,25,27,29,31,-1,33,-1,35,37,39,-1,41,-1,43,-1,-1,-1,-1,-1,-1,-1,-1,-1,-1,-1,-1,-1,-1],"loss_changes":[1.03589325E1,2.9159064E0,1.6092043E0,1.0747199E0,1.259553E0,0E0,1.5678208E0,0E0,9.1811013E-1,6.587521E-1,1.2420483E0,2.0683877E0,0E0,9.7121114E-1,1.3951321E0,0E0,0E0,8.2162094E-1,2.1070323E0,1.508012E0,5.6416833E-1,0E0,8.99981E-1,0E0,1.4184898E-1,1.3836589E0,1.1174011E0,0E0,1.0039808E0,0E0,1.2355659E0,0E0,0E0,0E0,0E0,0E0,0E0,0E0,0E0,0E0,0E0,0E0,0E0,0E0,0E0],"parents":[2147483647,0,0,1,1,2,2,3,3,4,4,6,6,8,8,9,9,10,10,11,11,13,13,14,14,17,17,18,18,19,19,20,20,22,22,24,24,25,25,26,26,28,28,30,30],"right_children":[2,4,6,8,10,-1,12,-1,14,16,18,20,-1,22,24,-1,-1,26,28,30,32,-1,34,-1,36,38,40,-1,42,-1,44,-1,-1,-1,-1,-1,-1,-1,-1,-1,-1,-1,-1,-1,-1],"split_conditions":[-3.5673875E-2,-7.354156E-1,-1.0846449E-1,-1.080458E0,-1.2787634E0,-1.5949994E-1,6.0017653E-2,-1.3763465E-1,-4.9804693E-1,-9.635953E-1,8.303616E-2,3.7837186E-4,-1.4684902E-1,-9.3397176E-1,1.0135157E0,8.793875E-2,-1.2948506E-1,-5.455682E-1,1.5653834E-1,-6.503445E-2,8.614811E-2,-9.4021045E-2,-4.6211568E-1,-1.410837E-1,-5.2691895E-1,-1.1125904E0,1.5821017E0,-1.5196776E-1,-8.04017E-1,-1.4730471E-1,6.691987E-1,2.7731222E-1,1.6518462E-2,2.2497496E-1,-2.4327438E-2,1.5414643E-1,1.317435E-2,-3.216621E-2,2.54925E-1,1.3383658E-1,-7.149859E-2,1.9124655E-1,3.5315637E-2,1.4309807E-1,-1.10267065E-1],"split_indices":[1,10,5,13,5,0,25,0,1,7,22,20,0,22,13,0,0,15,22,24,28,0,20,0,6,8,27,0,24,0,1,0,0,0,0,0,0,0,0,0,0,0,0,0,0],"split_type":[0,0,0,0,0,0,0,0,0,0,0,0,0,0,0,0,0,0,0,0,0,0,0,0,0,0,0,0,0,0,0,0,0,0,0,0,0,0,0,0,0,0,0,0,0],"sum_hessian":[1.1976815E2,7.885975E1,4.09084E1,1.7172968E1,6.1686783E1,2.0051237E1,2.0857164E1,4.3670053E0,1.2805962E1,3.4033294E0,5.8283455E1,1.4005903E1,6.851261E0,6.0424814E0,6.76348E0,1.1763064E0,2.2270231E0,3.997294E1,1.8310513E1,1.0971515E1,3.0343885E0,1.162018E0,4.8804636E0,4.403582E0,2.359898E0,1.2300233E1,2.7672707E1,2.758443E0,1.5552071E1,5.278356E0,5.6931586E0,1.8401358E0,1.1942528E0,3.262218E0,1.6182455E0,1.1526278E0,1.2072703E0,1.4930649E0,1.0807168E1,2.5669897E1,2.0028086E0,5.5056753E0,1.0046395E1,3.9000247E0,1.793134E0],"tree_param":{"num_deleted":"0","num_feature":"30","num_nodes":"45","size_leaf_vector":"1"}},{"base_weights":[4.0258516E-2,1.2620471E-1,-3.1984857E-1,2.0436354E-1,-2.4300617E-1,2.2452776E-1,-4.0691376E-1,2.721203E-1,-1.03479415E-1,6.9730826E-2,-4.3508708E-1,-1.0314429E-1,2.1010162E-1,-5.108321E-2,-4.8363054E-1,3.073048E-1,-1.3113776E-1,-3.1510806E-1,4.9671736E-1,2.3286276E-1,-1.3564311E-1,-1.5607125E-1,4.4691518E-2,1.462424E-1,-1.18058115E-1,3.3193015E-2,-1.585662E-1,3.5200897E-1,-2.924394E-1,-4.4504368E-1,1.06980406E-1,2.2245903E-1,1.6356221E-3,1.19249865E-1,-5.125132E-2,-1.3257702E-1,4.5982737E-2,3.921662E-2,-1.5606816E-1],"categories":[],"categories_nodes":[],"categories_segments":[],"categories_sizes":[],"default_left":[0,0,0,0,0,0,0,0,0,0,0,0,0,0,0,0,0,0,0,0,0,0,0,0,0,0,0,0,0,0,0,0,0,0,0,0,0,0,0],"id":21,"left_children":[1,3,5,7,9,11,13,15,17,19,21,-1,-1,23,25,27,-1,29,31,-1,-1,-1,-1,-1,-1,-1,-1,33,35,37,-1,-1,-1,-1,-1,-1,-1,-1,-1],"loss_changes":[3.7664602E0,2.8750958E0,1.2042334E0,1.7249646E0,1.0853415E0,1.2905525E0,5.375874E-1,1.8050117E0,2.1125436E0,3.1325166E0,6.2547016E-1,0E0,0E0,1.0718043E0,5.0770307E-1,1.828826E0,0E0,1.2057856E0,5.254394E-1,0E0,0E0,0E0,0E0,0E0,0E0,0E0,0E0,1.5035582E0,4.016446E-1,5.224111E-1,0E0,0E0,0E0,0E0,0E0,0E0,0E0,0E0,0E0],"parents":[2147483647,0,0,1,1,2,2,3,3,4,4,5,5,6,6,7,7,8,8,9,9,10,10,13,13,14,14,15,15,17,17,18,18,27,27,28,28,29,29],"right_children":[2,4,6,8,10,12,14,16,18,20,22,-1,-1,24,26,28,-1,30,32,-1,-1,-1,-1,-1,-1,-1,-1,34,36,38,-1,-1,-1,-1,-1,-1,-1,-1,-1],"split_conditions":[5.504364E-1,2.386213E-1,-1.201625E0,2.7150172E-1,-3.847855E-1,-4.1535783E-1,-6.0538006E-1,1.5536956E0,2.0311774E-1,-2.0949025E-1,2.6156864E-1,-1.0314429E-1,2.1010162E-1,-3.3166683E-1,-8.452655E-1,5.6968075E-1,-1.3113776E-1,6.196841E-1,-7.57657E-1,2.3286276E-1,-1.3564311E-1,-1.5607125E-1,4.4691518E-2,1.462424E-1,-1.18058115E-1,3.3193015E-2,-1.585662E-1,9.1111296E-1,7.4765325E-1,-1.0583248E0,1.06980406E-1,2.2245903E-1,1.6356221E-3,1.19249865E-1,-5.125132E-2,-1.3257702E-1,4.5982737E-2,3.921662E-2,-1.5606816E-1],"split_indices":[10,20,26,1,7,22,6,7,6,18,10,0,0,24,9,22,0,22,0,0,0,0,0,0,0,0,0,29,19,28,0,0,0,0,0,0,0,0,0],"split_type":[0,0,0,0,0,0,0,0,0,0,0,0,0,0,0,0,0,0,0,0,0,0,0,0,0,0,0,0,0,0,0,0,0,0,0,0,0,0,0],"sum_hessian":[1.1939141E2,9.6911285E1,2.248013E1,8.034864E1,1.6562643E1,2.8819358E0,1.9598192E1,6.594916E1,1.4399481E1,6.5443754E0,1.0018268E1,1.4396868E0,1.4422491E0,3.771403E0,1.582679E1,6.3372093E1,2.577066E0,1.0996959E1,3.4025218E0,2.5733714E0,3.971004E0,8.838909E0,1.1793585E0,1.3013175E0,2.4700856E0,1.0095072E0,1.4817283E1,5.9360504E1,4.0115886E0,9.497253E0,1.4997053E0,1.9308772E0,1.4716448E0,5.482975E1,4.5307536E0,3.0104508E0,1.0011377E0,1.0115969E0,8.485657E0],"tree_param":{"num_deleted":"0","num_feature":"30","num_nodes":"39","size_leaf_vector":"1"}},{"base_weights":[-2.6478514E-1,-2.852035E-1,1.2760086E-1,-3.2440016E-1,3.644301E-2,-1.5689187E-1,-4.0376663E-1,-1.4574753E-1,2.046483E-1,1.4814767E-1,-4.0997073E-1,-4.7262466E-1,-1.4561746E-1,3.1844148E-1,-1.4017159E-1,-2.342914E-1,4.5283565E-1,9.572705E-2,-1.5388301E-1,-5.1538056E-1,-8.634984E-2,1.7093377E-1,-2.6874655E-1,-8.998415E-2,1.836206E-1,-1.408664E-1,9.016249E-2,1.9804917E-1,-9.5404014E-2,-9.364067E-2,1.2902485E-1,3.8495243E-2,-1.6205503E-1,-1.224097E-1,1.2824973E-1,5.461464E-2,-1.191493E-1],"categories":[],"categories_nodes":[],"categories_segments":[],"categories_sizes":[],"default_left":[0,0,0,0,0,0,0,0,0,0,0,0,0,0,0,0,0,0,0,0,0,0,0,0,0,0,0,0,0,0,0,0,0,0,0,0,0],"id":22,"left_children":[1,3,-1,5,7,9,11,13,-1,15,17,19,21,23,-1,25,27,29,-1,31,33,-1,35,-1,-1,-1,-1,-1,-1,-1,-1,-1,-1,-1,-1,-1,-1],"loss_changes":[1.3671503E0,1.102005E0,0E0,9.627142E-1,1.3102069E0,2.1024537E0,8.507414E-1,1.469654E0,0E0,1.5891216E0,8.156321E-1,6.226139E-1,1.2399749E0,9.4919133E-1,0E0,9.3414766E-1,1.3965336E0,5.887763E-1,0E0,6.4673424E-1,1.0383934E0,0E0,7.210312E-1,0E0,0E0,0E0,0E0,0E0,0E0,0E0,0E0,0E0,0E0,0E0,0E0,0E0,0E0],"parents":[2147483647,0,0,1,1,3,3,4,4,5,5,6,6,7,7,9,9,10,10,11,11,12,12,13,13,15,15,16,16,17,17,19,19,20,20,22,22],"right_children":[2,4,-1,6,8,10,12,14,-1,16,18,20,22,24,-1,26,28,30,-1,32,34,-1,36,-1,-1,-1,-1,-1,-1,-1,-1,-1,-1,-1,-1,-1,-1],"split_conditions":[3.5898142E0,1.2389548E0,1.2760086E-1,-4.1492388E-1,8.14613E-1,-3.8205475E-1,3.6775172E-1,-1.1746217E0,2.046483E-1,-1.0453888E-1,-8.9323694E-1,1.5688874E0,-8.982358E-1,-1.0255089E0,-1.4017159E-1,-5.84975E-1,-2.9812914E-1,7.490548E-1,-1.5388301E-1,-1.2541786E0,8.9308035E-1,1.7093377E-1,-1.0105792E0,-8.998415E-2,1.836206E-1,-1.408664E-1,9.016249E-2,1.9804917E-1,-9.5404014E-2,-9.364067E-2,1.2902485E-1,3.8495243E-2,-1.6205503E-1,-1.224097E-1,1.2824973E-1,5.461464E-2,-1.191493E-1],"split_indices":[8,4,0,24,3,25,0,13,0,14,18,7,8,8,0,25,23,5,0,18,20,0,10,0,0,0,0,0,0,0,0,0,0,0,0,0,0],"split_type":[0,0,0,0,0,0,0,0,0,0,0,0,0,0,0,0,0,0,0,0,0,0,0,0,0,0,0,0,0,0,0,0,0,0,0,0,0],"sum_hessian":[8.74132E1,8.547113E1,1.9420677E0,7.617918E1,9.291955E0,2.544744E1,5.0731735E1,7.8510523E0,1.440903E0,1.1727153E1,1.3720285E1,3.9393265E1,1.1338472E1,3.2164402E0,4.634612E0,5.302541E0,6.4246125E0,2.3330505E0,1.1387235E1,3.5166523E1,4.2267385E0,1.1322799E0,1.0206192E1,1.0286162E0,2.1878238E0,3.7673893E0,1.5351515E0,5.176047E0,1.2485657E0,1.0809342E0,1.2521163E0,1.1499102E0,3.4016613E1,2.7260756E0,1.500663E0,2.170229E0,8.035963E0],"tree_param":{"num_deleted":"0","num_feature":"30","num_nodes":"37","size_leaf_vector":"1"}},{"base_weights":[8.349959E-3,-2.6216966E-1,9.080333E-2,-3.7411332E-1,1.7172123E-1,1.5473282E-1,-2.2132322E-1,1.6027819E-1,-4.4024065E-1,5.296371E-1,-2.063485E-1,1.9817835E-1,-1.4510033E-1,-3.9146727E-1,2.4189854E-1,-8.934721E-2,1.5831634E-1,5.0535526E-2,-4.828384E-1,3.4051605E-2,2.0513085E-1,-1.12329565E-1,4.0506832E-2,3.365771E-2,3.5410076E-1,8.733963E-2,-1.5759549E-1,-1.1318266E-1,6.1794895E-1,-1.5802178E-1,3.0004852E-2,3.3433726E-1,-1.6074073E-1,4.5409617E-1,-6.707169E-2,-1.0871607E-1,1.7463942E-1,2.7397176E-2,2.467374E-1,-5.85974E-2,1.4252274E-1,-1.3923801E-1,1.966823E-2,-1.1042416E-1,1.5157689E-1,-1.3381043E-1,1.176489E-1],"categories":[],"categories_nodes":[],"categories_segments":[],"categories_sizes":[],"default_left":[0,0,0,0,0,0,0,0,0,0,0,0,0,0,0,0,0,0,0,0,0,0,0,0,0,0,0,0,0,0,0,0,0,0,0,0,0,0,0,0,0,0,0,0,0,0,0],"id":23,"left_children":[1,3,5,7,9,11,13,15,17,19,21,23,-1,25,27,-1,-1,-1,29,-1,-1,-1,-1,31,33,35,-1,-1,37,-1,-1,39,41,43,45,-1,-1,-1,-1,-1,-1,-1,-1,-1,-1,-1,-1],"loss_changes":[2.6874511E0,1.4316664E0,1.8753092E0,8.7250805E-1,9.833294E-1,2.2361703E0,1.3633313E0,7.012092E-1,6.118827E-1,1.5318775E-1,2.7208436E-1,1.8597066E0,0E0,8.2483816E-1,1.3838707E0,0E0,0E0,0E0,5.4862547E-1,0E0,0E0,0E0,0E0,2.1934571E0,1.603642E0,9.9264467E-1,0E0,0E0,2.96865E-1,0E0,0E0,1.1884918E0,1.6032083E0,1.4611402E0,1.5738623E0,0E0,0E0,0E0,0E0,0E0,0E0,0E0,0E0,0E0,0E0,0E0,0E0],"parents":[2147483647,0,0,1,1,2,2,3,3,4,4,5,5,6,6,7,7,8,8,9,9,10,10,11,11,13,13,14,14,18,18,23,23,24,24,25,25,28,28,31,31,32,32,33,33,34,34],"right_children":[2,4,6,8,10,12,14,16,18,20,22,24,-1,26,28,-1,-1,-1,30,-1,-1,-1,-1,32,34,36,-1,-1,38,-1,-1,40,42,44,46,-1,-1,-1,-1,-1,-1,-1,-1,-1,-1,-1,-1],"split_conditions":[-4.443721E-1,4.7023737E-1,9.333994E-1,-1.2787634E0,5.860473E-1,1.3154688E0,6.865263E-1,-4.1252023E-1,-1.1829153E0,-3.5565066E-1,1.3342308E-1,-5.5427456E-1,-1.4510033E-1,-5.0662076E-1,-9.143124E-1,-8.934721E-2,1.5831634E-1,5.0535526E-2,2.1975827E0,3.4051605E-2,2.0513085E-1,-1.12329565E-1,4.0506832E-2,-7.81529E-1,7.302912E-1,1.6083862E0,-1.5759549E-1,-1.1318266E-1,-6.795192E-1,-1.5802178E-1,3.0004852E-2,-7.356428E-1,-5.344853E-1,-9.0611184E-1,1.8592627E-1,-1.0871607E-1,1.7463942E-1,2.7397176E-2,2.467374E-1,-5.85974E-2,1.4252274E-1,-1.3923801E-1,1.966823E-2,-1.1042416E-1,1.5157689E-1,-1.3381043E-1,1.176489E-1],"split_indices":[1,25,12,5,25,6,24,6,26,8,23,23,0,22,8,0,0,0,15,0,0,0,0,23,10,7,0,0,15,0,0,6,12,15,14,0,0,0,0,0,0,0,0,0,0,0,0],"split_type":[0,0,0,0,0,0,0,0,0,0,0,0,0,0,0,0,0,0,0,0,0,0,0,0,0,0,0,0,0,0,0,0,0,0,0,0,0,0,0,0,0,0,0,0,0,0,0],"sum_hessian":[1.1841784E2,2.7152882E1,9.126495E1,2.169369E1,5.4591923E0,7.6168465E1,1.5096496E1,2.232061E0,1.9461628E1,2.598404E0,2.8607883E0,7.196083E1,4.207632E0,1.1154344E1,3.9421518E0,1.0778016E0,1.1542594E0,1.0796533E0,1.8381975E1,1.171625E0,1.426779E0,1.8520398E0,1.0087485E0,3.5606594E1,3.6354233E1,2.5128727E0,8.641471E0,1.4883302E0,2.4538214E0,1.7183949E1,1.198026E0,1.3698706E1,2.1907888E1,2.931585E1,7.038385E0,1.4565665E0,1.0563062E0,1.0909922E0,1.3628292E0,2.7943735E0,1.0904332E1,8.910846E0,1.2997044E1,1.3544396E0,2.796141E1,3.8719625E0,3.1664221E0],"tree_param":{"num_deleted":"0","num_feature":"30","num_nodes":"47","size_leaf_vector":"1"}},{"base_weights":[7.494093E-2,-3.51255E-1,3.0061314E-1,-4.1308767E-1,3.5246423E-1,2.089559E-1,5.877387E-1,-4.5836687E-1,-1.3567959E-1,1.7206219E-1,-1.03425635E-2,2.856192E-1,-1.641284E-1,-3.6254622E-2,6.594614E-1,-1.3718498E-1,-5.0480396E-1,3.7277168E-1,-1.355061E-1,1.4274248E-1,6.247319E-1,3.741334E-1,-3.8868067E-1,7.1982634E-1,2.6675494E-2,-1.2808922E-1,1.1732746E-1,-7.1344995E-3,-1.6060013E-1,1.3288873E-2,1.5998389E-1,-1.7004496E-1,2.190399E-1,7.1924436E-1,-3.1054936E-2,1.6379836E-1,-3.978696E-3,8.273514E-2,-1.7142373E-1,6.512848E-2,2.2402592E-1,-1.2463645E-1,8.376823E-2,2.4068746E-1,6.421215E-2],"categories":[],"categories_nodes":[],"categories_segments":[],"categories_sizes":[],"default_left":[0,0,0,0,0,0,0,0,0,0,0,0,0,0,0,0,0,0,0,0,0,0,0,0,0,0,0,0,0,0,0,0,0,0,0,0,0,0,0,0,0,0,0,0,0],"id":24,"left_children":[1,3,5,7,9,11,13,15,17,-1,-1,19,21,-1,23,25,27,29,-1,31,33,35,37,39,-1,-1,-1,-1,-1,-1,-1,-1,41,43,-1,-1,-1,-1,-1,-1,-1,-1,-1,-1,-1],"loss_changes":[1.2150387E1,2.0521255E0,2.046136E0,4.4949627E-1,3.686607E-1,1.8781016E0,1.0651898E0,4.468012E-1,1.3150476E0,0E0,0E0,2.5018058E0,1.541274E0,0E0,5.477905E-1,1.0462646E0,4.2572403E-1,1.494807E-1,0E0,2.2311978E0,1.1451383E0,2.675047E-1,1.2065796E0,5.343342E-2,0E0,0E0,0E0,0E0,0E0,0E0,0E0,0E0,1.4855577E0,4.1123867E-1,0E0,0E0,0E0,0E0,0E0,0E0,0E0,0E0,0E0,0E0,0E0],"parents":[2147483647,0,0,1,1,2,2,3,3,4,4,5,5,6,6,7,7,8,8,11,11,12,12,14,14,15,15,16,16,17,17,19,19,20,20,21,21,22,22,23,23,32,32,33,33],"right_children":[2,4,6,8,10,12,14,16,18,-1,-1,20,22,-1,24,26,28,30,-1,32,34,36,38,40,-1,-1,-1,-1,-1,-1,-1,-1,42,44,-1,-1,-1,-1,-1,-1,-1,-1,-1,-1,-1],"split_conditions":[-1.8644826E-2,1.6342173E0,9.2266613E-1,7.135028E-1,-2.1003418E0,8.378894E-1,-1.060427E0,-8.862344E-1,-8.93268E-2,1.7206219E-1,-1.03425635E-2,3.2472196E-1,-7.865497E-1,-3.6254622E-2,1.3363823E0,-9.584E-1,-1.5087391E0,6.197731E-1,-1.355061E-1,-8.5152054E-1,3.0845568E0,-3.1865057E-1,-8.073874E-1,-1.4542181E0,2.6675494E-2,-1.2808922E-1,1.1732746E-1,-7.1344995E-3,-1.6060013E-1,1.3288873E-2,1.5998389E-1,-1.7004496E-1,-1.0105792E0,1.3385554E-1,-3.1054936E-2,1.6379836E-1,-3.978696E-3,8.273514E-2,-1.7142373E-1,6.512848E-2,2.2402592E-1,-1.2463645E-1,8.376823E-2,2.4068746E-1,6.421215E-2],"split_indices":[1,26,10,11,4,4,29,26,25,0,0,25,15,0,27,26,29,17,0,23,16,0,23,8,0,0,0,0,0,0,0,0,10,23,0,0,0,0,0,0,0,0,0,0,0],"split_type":[0,0,0,0,0,0,0,0,0,0,0,0,0,0,0,0,0,0,0,0,0,0,0,0,0,0,0,0,0,0,0,0,0,0,0,0,0,0,0,0,0,0,0,0,0],"sum_hessian":[1.2423106E2,4.2815277E1,8.141578E1,3.973678E1,3.0784988E0,6.3024597E1,1.8391182E1,3.360016E1,6.1366177E0,1.6522453E0,1.4262534E0,5.2475994E1,1.0548603E1,1.6274796E0,1.6763702E1,4.7438116E0,2.8856348E1,2.2832584E0,3.8533592E0,3.792019E1,1.4555804E1,2.909138E0,7.639465E0,1.4923144E1,1.8405583E0,3.1872613E0,1.5565505E0,1.8283389E0,2.702801E1,1.1683121E0,1.1149465E0,3.0574203E0,3.486277E1,1.2894688E1,1.6611166E0,1.7315638E0,1.1775742E0,1.5379211E0,6.101544E0,1.2193767E0,1.3703768E1,2.5091138E0,3.2353657E1,1.0569228E1,2.32546E0],"tree_param":{"num_deleted":"0","num_feature":"30","num_nodes":"45","size_leaf_vector":"1"}},{"base_weights":[5.666074E-2,2.323593E-1,-3.080346E-1,4.389931E-1,1.0188528E-1,-1.5517862E-1,-1.0790615E-1,-4.6199773E-2,4.8298532E-1,-1.241419E-1,3.4731355E-1,6.920237E-2,-1.4081559E-1,3.1904068E-2,5.629014E-1,3.0174616E-1,-2.947021E-1,-1.093708E-1,4.1000056E-1,4.407303E-1,-2.1988195E-1,2.60062E-1,-1.1331681E-1,6.468595E-1,1.6393933E-1,5.9514874E-1,-1.3368203E-1,1.9838949E-1,-5.092714E-1,4.9257588E-1,-1.8729357E-2,-1.0193393E-1,7.4424684E-1,2.024086E-1,-1.4274497E-1,-8.9570194E-2,1.6727434E-1,2.1144478E-1,6.626666E-2,1.6628325E-1,-1.253343E-1,4.9101535E-2,2.1153702E-1,8.54807E-2,-1.1709721E-1,1.6540274E-1,-1.2796485E-1,1.4799601E-2,-1.6739325E-1,1.8801446E-1,3.143756E-2,1.2392882E-1,-1.3417347E-1,4.7245813E-3,2.9706144E-1,1.8334977E-1,-9.902857E-2],"categories":[],"categories_nodes":[],"categories_segments":[],"categories_sizes":[],"default_left":[0,0,0,0,0,0,0,0,0,0,0,0,0,0,0,0,0,0,0,0,0,0,0,0,0,0,0,0,0,0,0,0,0,0,0,0,0,0,0,0,0,0,0,0,0,0,0,0,0,0,0,0,0,0,0,0,0],"id":25,"left_children":[1,3,5,7,9,-1,11,-1,13,15,17,19,-1,21,23,25,27,-1,29,31,33,35,-1,37,39,41,43,45,47,49,51,-1,53,55,-1,-1,-1,-1,-1,-1,-1,-1,-1,-1,-1,-1,-1,-1,-1,-1,-1,-1,-1,-1,-1,-1,-1],"loss_changes":[7.3113294E0,2.0263915E0,1.5003805E0,8.421345E-1,2.7275019E0,0E0,1.329502E0,0E0,9.78415E-1,1.972293E0,1.1965232E0,1.6508939E0,0E0,5.86082E-1,6.7842674E-1,1.0898964E0,2.1133132E0,0E0,7.8930783E-1,1.8316557E0,1.0478747E0,8.2211375E-1,0E0,3.135953E-1,1.460258E0,1.1748934E-1,5.4097915E-1,1.6659203E0,3.957181E-1,8.9729977E-1,1.0215136E0,0E0,9.003482E-1,1.0776203E0,0E0,0E0,0E0,0E0,0E0,0E0,0E0,0E0,0E0,0E0,0E0,0E0,0E0,0E0,0E0,0E0,0E0,0E0,0E0,0E0,0E0,0E0,0E0],"parents":[2147483647,0,0,1,1,2,2,3,3,4,4,6,6,8,8,9,9,10,10,11,11,13,13,14,14,15,15,16,16,18,18,19,19,20,20,21,21,23,23,24,24,25,25,26,26,27,27,28,28,29,29,30,30,32,32,33,33],"right_children":[2,4,6,8,10,-1,12,-1,14,16,18,20,-1,22,24,26,28,-1,30,32,34,36,-1,38,40,42,44,46,48,50,52,-1,54,56,-1,-1,-1,-1,-1,-1,-1,-1,-1,-1,-1,-1,-1,-1,-1,-1,-1,-1,-1,-1,-1,-1,-1],"split_conditions":[-3.5673875E-2,-9.3174464E-1,-1.0846449E-1,-1.7370101E0,7.221357E-1,-1.5517862E-1,6.0017653E-2,-4.6199773E-2,-9.778514E-1,-6.3385147E-1,-9.0761197E-1,4.151332E-2,-1.4081559E-1,8.9516334E-2,1.2292211E0,6.183436E-2,-1.0105109E0,-1.093708E-1,5.5599904E-1,-4.4430062E-1,6.7125684E-1,-1.2787634E0,-1.1331681E-1,1.0736355E0,-1.6123949E0,-3.235015E-1,-1.6958429E0,-2.0617354E-1,-1.034258E0,-2.3331279E-1,1.1454211E0,-1.0193393E-1,2.3304375E-1,2.5396723E-1,-1.4274497E-1,-8.9570194E-2,1.6727434E-1,2.1144478E-1,6.626666E-2,1.6628325E-1,-1.253343E-1,4.9101535E-2,2.1153702E-1,8.54807E-2,-1.1709721E-1,1.6540274E-1,-1.2796485E-1,1.4799601E-2,-1.6739325E-1,1.8801446E-1,3.143756E-2,1.2392882E-1,-1.3417347E-1,4.7245813E-3,2.9706144E-1,1.8334977E-1,-9.902857E-2],"split_indices":[1,1,5,27,27,0,25,0,29,24,4,13,0,10,20,14,29,0,18,16,3,5,0,19,1,0,7,18,14,1,3,0,1,4,0,0,0,0,0,0,0,0,0,0,0,0,0,0,0,0,0,0,0,0,0,0,0],"split_type":[0,0,0,0,0,0,0,0,0,0,0,0,0,0,0,0,0,0,0,0,0,0,0,0,0,0,0,0,0,0,0,0,0,0,0,0,0,0,0,0,0,0,0,0,0,0,0,0,0,0,0,0,0,0,0,0,0],"sum_hessian":[1.119862E2,7.582095E1,3.6165245E1,2.8430508E1,4.739045E1,1.6905977E1,1.925927E1,1.7908031E0,2.6639704E1,2.4927578E1,2.246287E1,1.3468746E1,5.790522E0,4.2199087E0,2.2419794E1,6.908339E0,1.8019238E1,1.4282095E0,2.103466E1,5.6643777E0,7.804369E0,2.944806E0,1.2751027E0,1.8008669E1,4.411126E0,3.9081295E0,3.0002096E0,5.4864626E0,1.2532776E1,1.7512714E1,3.521946E0,1.5525165E0,4.111861E0,3.0239723E0,4.7803965E0,1.0221217E0,1.9226844E0,1.5275688E1,2.7329803E0,2.6680336E0,1.7430928E0,1.2991772E0,2.6089523E0,1.0983715E0,1.9018381E0,3.5814805E0,1.9049821E0,1.0040956E0,1.152868E1,1.2553998E1,4.958717E0,1.7721205E0,1.7498254E0,1.3064222E0,2.805439E0,1.6271944E0,1.3967779E0],"tree_param":{"num_deleted":"0","num_feature":"30","num_nodes":"57","size_leaf_vector":"1"}},{"base_weights":[3.463469E-2,1.0438263E-1,-2.8844008E-1,1.7529191E-1,-2.136119E-1,2.0579533E-1,-3.7575513E-1,2.2778217E-1,-3.0528548E-1,2.9409528E-1,-3.2282618E-1,-9.5257826E-2,1.8011928E-1,-2.3489365E-2,-4.5894572E-1,2.6702332E-1,-2.5157452E-1,-1.418865E-1,7.700367E-2,-9.6613646E-2,2.2000252E-1,2.0328574E-1,-4.605894E-1,1.3084319E-1,-1.10345826E-1,3.1663563E-2,-1.5304017E-1,2.2013603E-1,2.7467927E-1,6.876975E-2,-1.4137846E-1,-9.047735E-2,1.5966165E-1,-1.5621859E-1,2.9987322E-2,8.95487E-2,-1.1341507E-2],"categories":[],"categories_nodes":[],"categories_segments":[],"categories_sizes":[],"default_left":[0,0,0,0,0,0,0,0,0,0,0,0,0,0,0,0,0,0,0,0,0,0,0,0,0,0,0,0,0,0,0,0,0,0,0,0,0],"id":26,"left_children":[1,3,5,7,9,11,13,15,17,19,21,-1,-1,23,25,27,29,-1,-1,-1,-1,31,33,-1,-1,-1,-1,35,-1,-1,-1,-1,-1,-1,-1,-1,-1],"loss_changes":[2.6047044E0,2.1728697E0,9.6424794E-1,2.036749E0,1.0773823E0,9.6129173E-1,5.1145124E-1,1.4004328E0,8.8520926E-1,1.2266799E0,1.1850215E0,0E0,0E0,8.6603355E-1,4.6883678E-1,1.805501E0,7.289143E-1,0E0,0E0,0E0,0E0,7.9463047E-1,4.6465468E-1,0E0,0E0,0E0,0E0,1.2819638E0,0E0,0E0,0E0,0E0,0E0,0E0,0E0,0E0,0E0],"parents":[2147483647,0,0,1,1,2,2,3,3,4,4,5,5,6,6,7,7,8,8,9,9,10,10,13,13,14,14,15,15,16,16,21,21,22,22,27,27],"right_children":[2,4,6,8,10,12,14,16,18,20,22,-1,-1,24,26,28,30,-1,-1,-1,-1,32,34,-1,-1,-1,-1,36,-1,-1,-1,-1,-1,-1,-1,-1,-1],"split_conditions":[5.504364E-1,-2.1939037E-2,-1.201625E0,5.7464767E-1,-1.0826337E0,-4.1535783E-1,-6.0538006E-1,1.7222626E0,4.4041395E-1,3.4244284E-1,-7.0403343E-1,-9.5257826E-2,1.8011928E-1,-3.3166683E-1,-8.452655E-1,1.5961655E0,-3.0571488E-1,-1.418865E-1,7.700367E-2,-9.6613646E-2,2.2000252E-1,-7.2661316E-1,1.5108628E0,1.3084319E-1,-1.10345826E-1,3.1663563E-2,-1.5304017E-1,4.5532423E-1,2.7467927E-1,6.876975E-2,-1.4137846E-1,-9.047735E-2,1.5966165E-1,-1.5621859E-1,2.9987322E-2,8.95487E-2,-1.1341507E-2],"split_indices":[10,16,26,1,28,22,6,5,6,14,6,0,0,24,9,5,4,0,0,0,0,6,23,0,0,0,0,7,0,0,0,0,0,0,0,0,0],"split_type":[0,0,0,0,0,0,0,0,0,0,0,0,0,0,0,0,0,0,0,0,0,0,0,0,0,0,0,0,0,0,0,0,0,0,0,0,0],"sum_hessian":[1.13254875E2,9.370254E1,1.9552336E1,7.698458E1,1.6717958E1,2.7318916E0,1.6820444E1,6.9878265E1,7.106313E0,2.659915E0,1.4058043E1,1.258369E0,1.4735227E0,3.4584012E0,1.3362043E1,6.500017E1,4.878096E0,5.595278E0,1.5110356E0,1.2180923E0,1.4418225E0,2.8185406E0,1.1239502E1,1.3669994E0,2.0914016E0,1.0226445E0,1.2339398E1,6.186704E1,3.1331303E0,1.5162284E0,3.361868E0,1.1446462E0,1.6738944E0,1.02146435E1,1.0248585E0,4.7331142E1,1.4535898E1],"tree_param":{"num_deleted":"0","num_feature":"30","num_nodes":"37","size_leaf_vector":"1"}},{"base_weights":[-2.3750572E-1,-1.06856085E-1,-3.692713E-1,-3.5657948E-1,4.9282774E-2,1.6697924E-1,-4.0472826E-1,1.3972583E-1,-4.64619E-1,-1.3052587E-1,1.4164735E-1,1.5940586E-1,-8.5606046E-2,-4.744496E-1,-1.8873496E-1,-1.5535796E-1,3.629261E-2,-2.8409848E-1,2.593277E-1,-5.014866E-1,3.4409005E-2,4.2962167E-1,-1.4506482E-1,-1.2954754E-1,5.2496433E-2,4.1874257E-1,-2.9932213E-1,-1.5875053E-1,-2.2769399E-2,5.069805E-3,1.9511043E-1,1.6051015E-1,-4.3063667E-2,1.3542495E-2,-1.2217391E-1],"categories":[],"categories_nodes":[],"categories_segments":[],"categories_sizes":[],"default_left":[0,0,0,0,0,0,0,0,0,0,0,0,0,0,0,0,0,0,0,0,0,0,0,0,0,0,0,0,0,0,0,0,0,0,0],"id":27,"left_children":[1,3,5,7,9,11,13,-1,15,-1,17,-1,-1,19,21,-1,-1,23,25,27,-1,29,-1,-1,-1,31,33,-1,-1,-1,-1,-1,-1,-1,-1],"loss_changes":[1.3191786E0,1.6176133E0,8.069444E-1,1.629751E0,1.2305307E0,6.6578805E-1,4.6412563E-1,0E0,5.166385E-1,0E0,1.2108611E0,0E0,0E0,4.8972368E-1,2.1460283E0,0E0,0E0,4.4127333E-1,1.755534E0,2.6766682E-1,0E0,3.4998894E-1,0E0,0E0,0E0,1.035281E0,1.911403E-1,0E0,0E0,0E0,0E0,0E0,0E0,0E0,0E0],"parents":[2147483647,0,0,1,1,2,2,3,3,4,4,5,5,6,6,8,8,10,10,13,13,14,14,17,17,18,18,19,19,21,21,25,25,26,26],"right_children":[2,4,6,8,10,12,14,-1,16,-1,18,-1,-1,20,22,-1,-1,24,26,28,-1,30,-1,-1,-1,32,34,-1,-1,-1,-1,-1,-1,-1,-1],"split_conditions":[-3.142121E-1,-5.146046E-1,-1.0834324E0,-8.073874E-1,-8.048174E-1,-9.165222E-1,8.400704E-1,1.3972583E-1,1.043659E0,-1.3052587E-1,-5.217061E-1,1.5940586E-1,-8.5606046E-2,1.9626129E0,1.0189499E0,-1.5535796E-1,3.629261E-2,8.507738E-1,6.2225074E-1,1.2025492E0,3.4409005E-2,-2.0949025E-1,-1.4506482E-1,-1.2954754E-1,5.2496433E-2,1.6084945E0,7.8199E-1,-1.5875053E-1,-2.2769399E-2,5.069805E-3,1.9511043E-1,1.6051015E-1,-4.3063667E-2,1.3542495E-2,-1.2217391E-1],"split_indices":[10,20,18,23,28,2,12,0,4,0,14,0,0,5,12,0,0,24,14,3,0,18,0,0,0,28,22,0,0,0,0,0,0,0,0],"split_type":[0,0,0,0,0,0,0,0,0,0,0,0,0,0,0,0,0,0,0,0,0,0,0,0,0,0,0,0,0,0,0,0,0,0,0],"sum_hessian":[7.792115E1,4.003559E1,3.788556E1,1.4908189E1,2.5127401E1,2.1195889E0,3.5765972E1,1.3467313E0,1.3561458E1,3.4299376E0,2.1697464E1,1.0771796E0,1.0424092E0,2.6133606E1,9.632366E0,1.2537268E1,1.0241894E0,4.3924036E0,1.730506E1,2.5129173E1,1.0044332E0,2.962154E0,6.6702123E0,3.3680136E0,1.0243901E0,1.3658068E1,3.6469922E0,2.3365986E1,1.763186E0,1.4073789E0,1.554775E0,1.1357586E1,2.3004823E0,1.0088273E0,2.6381648E0],"tree_param":{"num_deleted":"0","num_feature":"30","num_nodes":"35","size_leaf_vector":"1"}},{"base_weights":[1.1385622E-2,-2.3203662E-1,7.920542E-2,-3.435246E-1,1.5920417E-1,2.7635133E-1,4.414933E-3,1.4034369E-2,-4.4857994E-1,4.6606305E-1,-1.9038212E-1,4.844735E-3,5.1512086E-1,-1.74158E-1,1.2999794E-1,-1.18268244E-1,4.3426725E-1,5.2990843E-2,-1.5197806E-1,1.8692006E-1,2.4826478E-2,-1.0531284E-1,3.480572E-2,-3.92066E-1,2.906884E-1,-1.1188344E-1,6.730548E-1,4.0007108E-1,-2.8397906E-1,6.42752E-1,5.9284102E-2,3.7507262E-2,1.5956053E-1,3.1529663E-3,-1.444228E-1,4.388844E-1,-9.026322E-2,-2.3569826E-2,8.113374E-1,-1.098078E-1,2.3304978E-1,1.2644646E-1,-3.4716773E-1,2.600447E-1,-1.0917662E-3,-6.442898E-2,3.6328453E-1,-3.7180535E-2,1.9502318E-1,2.1218322E-2,2.6922047E-1,2.769739E-3,-1.540502E-1,-4.846626E-2,1.2979813E-1,2.4609746E-1,2.621627E-2],"categories":[],"categories_nodes":[],"categories_segments":[],"categories_sizes":[],"default_left":[0,0,0,0,0,0,0,0,0,0,0,0,0,0,0,0,0,0,0,0,0,0,0,0,0,0,0,0,0,0,0,0,0,0,0,0,0,0,0,0,0,0,0,0,0,0,0,0,0,0,0,0,0,0,0,0,0],"id":28,"left_children":[1,3,5,7,9,11,13,15,17,19,21,23,25,27,29,-1,31,-1,-1,-1,-1,-1,-1,33,35,-1,37,39,41,43,45,-1,-1,-1,-1,47,-1,-1,49,-1,-1,-1,51,-1,-1,53,55,-1,-1,-1,-1,-1,-1,-1,-1,-1,-1],"loss_changes":[1.8994695E0,1.1487783E0,1.3237536E0,7.5144815E-1,7.587478E-1,1.5986321E0,1.5063957E0,1.1104318E0,6.467018E-1,1.6606557E-1,2.1940291E-1,1.539679E0,2.0928385E0,1.8633107E0,1.3911302E0,0E0,2.928865E-2,0E0,0E0,0E0,0E0,0E0,0E0,2.0960027E-1,8.2283175E-1,0E0,1.2595992E0,1.6898685E0,1.2106578E0,6.803403E-1,1.3676192E0,0E0,0E0,0E0,0E0,8.77875E-1,0E0,0E0,5.615697E-1,0E0,0E0,0E0,1.3362844E0,0E0,0E0,1.3374012E0,1.2509025E0,0E0,0E0,0E0,0E0,0E0,0E0,0E0,0E0,0E0,0E0],"parents":[2147483647,0,0,1,1,2,2,3,3,4,4,5,5,6,6,7,7,8,8,9,9,10,10,11,11,12,12,13,13,14,14,16,16,23,23,24,24,26,26,27,27,28,28,29,29,30,30,35,35,38,38,42,42,45,45,46,46],"right_children":[2,4,6,8,10,12,14,16,18,20,22,24,26,28,30,-1,32,-1,-1,-1,-1,-1,-1,34,36,-1,38,40,42,44,46,-1,-1,-1,-1,48,-1,-1,50,-1,-1,-1,52,-1,-1,54,56,-1,-1,-1,-1,-1,-1,-1,-1,-1,-1],"split_conditions":[-4.443721E-1,4.7023737E-1,-6.0343647E-1,-1.0886275E0,5.860473E-1,3.109921E-1,-2.1678169E-1,-1.3777347E-1,-1.0258499E0,7.2280034E-2,1.3342308E-1,2.5600505E-1,-6.873237E-1,-8.510339E-1,-1.060427E0,-1.18268244E-1,-4.2063853E-1,5.2990843E-2,-1.5197806E-1,1.8692006E-1,2.4826478E-2,-1.0531284E-1,3.480572E-2,-8.5952586E-1,7.051541E-1,-1.1188344E-1,-1.1138623E0,-5.2390504E-1,-9.320445E-1,1.3086243E-1,6.85124E-1,3.7507262E-2,1.5956053E-1,3.1529663E-3,-1.444228E-1,-1.006958E0,-9.026322E-2,-2.3569826E-2,-8.043969E-1,-1.098078E-1,2.3304978E-1,1.2644646E-1,-5.217061E-1,2.600447E-1,-1.0917662E-3,1.0895243E-2,8.632869E-1,-3.7180535E-2,1.9502318E-1,2.1218322E-2,2.6922047E-1,2.769739E-3,-1.540502E-1,-4.846626E-2,1.2979813E-1,2.4609746E-1,2.621627E-2],"split_indices":[1,25,25,5,25,24,0,19,25,19,23,1,23,11,29,0,6,0,0,0,0,0,0,0,10,0,18,15,15,16,15,0,0,0,0,25,0,0,20,0,0,0,14,0,0,6,15,0,0,0,0,0,0,0,0,0,0],"split_type":[0,0,0,0,0,0,0,0,0,0,0,0,0,0,0,0,0,0,0,0,0,0,0,0,0,0,0,0,0,0,0,0,0,0,0,0,0,0,0,0,0,0,0,0,0,0,0,0,0,0,0,0,0,0,0,0,0],"sum_hessian":[1.12944405E2,2.4083025E1,8.8861374E1,1.8837152E1,5.245873E0,2.369828E1,6.516309E1,4.474493E0,1.43626585E1,2.6162255E0,2.6296477E0,1.1566368E1,1.2131912E1,2.6745499E1,3.8417595E1,2.3009615E0,2.1735315E0,1.0459243E0,1.3316734E1,1.4122615E0,1.2039639E0,1.6295178E0,1.0001298E0,4.6868253E0,6.879543E0,1.6262248E0,1.0505688E1,3.8695533E0,2.2875946E1,3.6756392E0,3.474196E1,1.0686265E0,1.104905E0,1.011487E0,3.6753383E0,5.707761E0,1.1717817E0,1.6995888E0,8.806099E0,1.2850533E0,2.5844998E0,1.4144189E0,2.1461527E1,2.4762645E0,1.1993747E0,2.5253216E1,9.488743E0,1.6701232E0,4.0376377E0,1.1064603E0,7.699639E0,7.1295624E0,1.4331964E1,2.1690212E1,3.5630035E0,2.8290105E0,6.659732E0],"tree_param":{"num_deleted":"0","num_feature":"30","num_nodes":"57","size_leaf_vector":"1"}},{"base_weights":[6.0638208E-2,-3.21355E-1,2.4475977E-1,-4.1825235E-1,1.5330043E-1,1.6951999E-1,5.1955724E-1,-4.4083485E-1,3.650926E-2,4.911916E-1,-1.18272126E-1,2.1475792E-1,-3.1659114E-1,6.1297655E-1,1.3444489E-1,-1.9653636E-1,-1.5777545E-1,1.9172306E-1,1.9915935E-2,1.3187532E-1,-1.22490436E-1,4.1770273E-1,6.901545E-2,-1.598934E-1,1.9936953E-2,2.0010543E-1,5.76234E-4,1.4966771E-1,-8.4980324E-2,-1.4053468E-1,4.8384383E-1,5.1732683E-1,1.4749765E-2,3.0811173E-1,-1.136523E-1,2.9918524E-2,2.0125541E-1,2.2682104E-2,2.060703E-1,7.7718996E-2,-1.1459685E-1,-3.2366425E-2,1.2893014E-1,4.264416E-2,-1.4991951E-1],"categories":[],"categories_nodes":[],"categories_segments":[],"categories_sizes":[],"default_left":[0,0,0,0,0,0,0,0,0,0,0,0,0,0,0,0,0,0,0,0,0,0,0,0,0,0,0,0,0,0,0,0,0,0,0,0,0,0,0,0,0,0,0,0,0],"id":29,"left_children":[1,3,5,7,9,11,13,15,-1,17,19,21,23,25,27,29,-1,-1,-1,-1,-1,31,33,-1,-1,-1,-1,-1,-1,-1,35,37,39,41,43,-1,-1,-1,-1,-1,-1,-1,-1,-1,-1],"loss_changes":[8.299706E0,1.8324711E0,1.5543776E0,4.4625664E-1,7.233758E-1,1.4720479E0,5.1447916E-1,5.435333E-1,0E0,1.7271835E-1,9.602134E-1,1.7164869E0,5.1948076E-1,4.3035603E-1,8.293955E-1,2.0093346E0,0E0,0E0,0E0,0E0,0E0,9.745226E-1,1.5873203E0,0E0,0E0,0E0,0E0,0E0,0E0,0E0,1.6607112E-1,1.415195E0,6.6881627E-1,8.3904207E-1,2.1330361E0,0E0,0E0,0E0,0E0,0E0,0E0,0E0,0E0,0E0,0E0],"parents":[2147483647,0,0,1,1,2,2,3,3,4,4,5,5,6,6,7,7,9,9,10,10,11,11,12,12,13,13,14,14,15,15,21,21,22,22,30,30,31,31,32,32,33,33,34,34],"right_children":[2,4,6,8,10,12,14,16,-1,18,20,22,24,26,28,30,-1,-1,-1,-1,-1,32,34,-1,-1,-1,-1,-1,-1,-1,36,38,40,42,44,-1,-1,-1,-1,-1,-1,-1,-1,-1,-1],"split_conditions":[-1.8644826E-2,9.798489E-1,1.0041337E0,1.7637807E0,-1.4296392E0,1.7343069E0,1.014507E0,-6.082973E-1,3.650926E-2,-6.4897984E-1,9.0040046E-1,-5.6621736E-1,4.335322E-2,1.0195848E0,-2.1800892E-2,-7.136106E-1,-1.5777545E-1,1.9172306E-1,1.9915935E-2,1.3187532E-1,-1.22490436E-1,-8.362088E-2,-5.956812E-1,-1.598934E-1,1.9936953E-2,2.0010543E-1,5.76234E-4,1.4966771E-1,-8.4980324E-2,-1.4053468E-1,-5.846878E-1,-8.3643985E-1,2.1773776E-1,-8.8323563E-1,-3.4388468E-1,2.9918524E-2,2.0125541E-1,2.2682104E-2,2.060703E-1,7.7718996E-2,-1.1459685E-1,-3.2366425E-2,1.2893014E-1,4.264416E-2,-1.4991951E-1],"split_indices":[1,11,10,8,24,8,27,9,0,28,9,23,18,24,9,17,0,0,0,0,0,12,2,0,0,0,0,0,0,0,11,23,18,24,25,0,0,0,0,0,0,0,0,0,0],"split_type":[0,0,0,0,0,0,0,0,0,0,0,0,0,0,0,0,0,0,0,0,0,0,0,0,0,0,0,0,0,0,0,0,0,0,0,0,0,0,0,0,0,0,0,0,0],"sum_hessian":[1.15887245E2,3.7448425E1,7.843882E1,3.1198345E1,6.25008E0,6.28479E1,1.5590918E1,3.0122103E1,1.0762436E0,2.4246418E0,3.8254383E0,5.800785E1,4.8400483E0,1.2071073E1,3.5198445E0,8.635897E0,2.1486206E1,1.4243796E0,1.0002621E0,1.1321502E0,2.6932878E0,2.346586E1,3.4541992E1,2.8427444E0,1.997304E0,1.1006114E1,1.0649588E0,1.7759838E0,1.7438605E0,6.392597E0,2.243299E0,1.8586731E1,4.8791294E0,1.4662853E1,1.9879139E1,1.2365983E0,1.0067008E0,5.5570803E0,1.302965E1,3.2343953E0,1.6447343E0,3.343374E0,1.1319479E1,1.2336997E1,7.5421414E0],"tree_param":{"num_deleted":"0","num_feature":"30","num_nodes":"45","size_leaf_vector":"1"}},{"base_weights":[4.5333214E-2,1.9514997E-1,-2.834829E-1,3.8042137E-1,7.9974756E-2,-1.5084018E-1,-9.371158E-2,-4.2413633E-2,4.2168212E-1,-5.8266904E-2,3.6773428E-1,6.836703E-2,-1.3574123E-1,2.4375858E-2,4.9313673E-1,2.828336E-1,-2.1599373E-1,-1.3083185E-1,5.35179E-1,-1.2168611E-1,5.343022E-1,2.3942986E-1,-1.06449835E-1,5.347052E-1,-2.9771661E-2,3.8830757E-1,-9.359401E-2,1.796431E-1,-3.73807E-1,-1.21331036E-1,8.5754015E-2,-2.9960102E-3,5.9461963E-1,-1.3524939E-1,1.4980406E-1,2.1100314E-1,1.2044842E-2,-2.3971593E-2,1.3719931E-1,1.8082021E-1,5.4364044E-2,-3.1210233E-2,1.4378424E-1,-4.798433E-2,1.7848161E-1,-1.3548127E-1,2.002307E-2,2.4333638E-3,1.9727854E-1,1.1274759E-1,-1.0630583E-1],"categories":[],"categories_nodes":[],"categories_segments":[],"categories_sizes":[],"default_left":[0,0,0,0,0,0,0,0,0,0,0,0,0,0,0,0,0,0,0,0,0,0,0,0,0,0,0,0,0,0,0,0,0,0,0,0,0,0,0,0,0,0,0,0,0,0,0,0,0,0,0],"id":30,"left_children":[1,3,5,7,9,-1,11,-1,13,15,17,19,-1,21,23,25,27,29,31,33,35,37,-1,39,-1,41,-1,43,45,-1,-1,-1,47,-1,49,-1,-1,-1,-1,-1,-1,-1,-1,-1,-1,-1,-1,-1,-1,-1,-1],"loss_changes":[5.1558294E0,1.5000262E0,1.318696E0,6.458354E-1,1.8311833E0,0E0,1.1253927E0,0E0,7.1145344E-1,1.7608578E0,1.3139E0,1.2900246E0,0E0,4.8753902E-1,5.836501E-1,7.750434E-1,1.4514353E0,6.3428783E-1,3.7374568E-1,1.0183496E0,3.220458E-1,2.97288E-1,0E0,3.7872744E-1,0E0,4.6633947E-1,0E0,1.0819988E0,5.8447003E-1,0E0,0E0,0E0,3.732915E-1,0E0,8.8312817E-1,0E0,0E0,0E0,0E0,0E0,0E0,0E0,0E0,0E0,0E0,0E0,0E0,0E0,0E0,0E0,0E0],"parents":[2147483647,0,0,1,1,2,2,3,3,4,4,6,6,8,8,9,9,10,10,11,11,13,13,14,14,15,15,16,16,17,17,18,18,19,19,20,20,21,21,23,23,25,25,27,27,28,28,32,32,34,34],"right_children":[2,4,6,8,10,-1,12,-1,14,16,18,20,-1,22,24,26,28,30,32,34,36,38,-1,40,-1,42,-1,44,46,-1,-1,-1,48,-1,50,-1,-1,-1,-1,-1,-1,-1,-1,-1,-1,-1,-1,-1,-1,-1,-1],"split_conditions":[-3.5673875E-2,-9.3174464E-1,-1.0846449E-1,-1.7370101E0,1.0544486E0,-1.5084018E-1,6.0017653E-2,-4.2413633E-2,-9.778514E-1,-6.3385147E-1,-7.9363275E-1,3.7837186E-4,-1.3574123E-1,8.9516334E-2,1.9514432E0,1.3478961E0,-1.0105109E0,8.616296E-1,-9.733826E-1,-6.503445E-2,-1.0298077E-1,-9.140398E-1,-1.06449835E-1,1.2292211E0,-2.9771661E-2,-6.4897984E-1,-9.359401E-2,-1.060427E0,2.2007053E-1,-1.21331036E-1,8.5754015E-2,-2.9960102E-3,-8.860874E-1,-1.3524939E-1,-4.2662314E-1,2.1100314E-1,1.2044842E-2,-2.3971593E-2,1.3719931E-1,1.8082021E-1,5.4364044E-2,-3.1210233E-2,1.4378424E-1,-4.798433E-2,1.7848161E-1,-1.3548127E-1,2.002307E-2,2.4333638E-3,1.9727854E-1,1.1274759E-1,-1.0630583E-1],"split_indices":[1,1,5,27,5,0,25,0,29,24,13,20,0,10,6,13,29,25,29,24,13,27,0,20,0,28,0,29,10,0,0,0,4,0,20,0,0,0,0,0,0,0,0,0,0,0,0,0,0,0,0],"split_type":[0,0,0,0,0,0,0,0,0,0,0,0,0,0,0,0,0,0,0,0,0,0,0,0,0,0,0,0,0,0,0,0,0,0,0,0,0,0,0,0,0,0,0,0,0,0,0,0,0,0,0],"sum_hessian":[1.0253803E2,7.072189E1,3.1816137E1,2.6228165E1,4.449373E1,1.3993926E1,1.782221E1,1.7441727E0,2.4483992E1,3.059378E1,1.3899948E1,1.2833695E1,4.9885144E0,3.9366007E0,2.054739E1,9.422806E0,2.1170975E1,3.5496204E0,1.03503275E1,9.640293E0,3.193403E0,2.7472224E0,1.1893781E0,1.9291042E1,1.2563474E0,8.298475E0,1.1243304E0,5.997345E0,1.517363E1,2.1604059E0,1.3892145E0,1.0993668E0,9.25096E0,4.058874E0,5.5814185E0,2.0640073E0,1.129396E0,1.371126E0,1.3760964E0,1.5586389E1,3.704655E0,1.2718316E0,7.026644E0,3.6376584E0,2.3596869E0,1.2874943E1,2.2986875E0,1.0064454E0,8.244515E0,4.029485E0,1.5519333E0],"tree_param":{"num_deleted":"0","num_feature":"30","num_nodes":"51","size_leaf_vector":"1"}},{"base_weights":[3.0279526E-2,8.9284085E-2,-2.7166054E-1,1.798552E-1,-1.1203214E-1,9.801495E-2,-3.5187778E-1,1.0570883E-1,4.6726197E-1,1.3852203E-1,-1.9346963E-1,-4.3993253E-1,5.5918243E-2,5.5800833E-2,5.0127435E-1,1.972149E-1,1.3254298E-1,-3.1799474E-1,2.2055352E-2,-1.5161575E-1,4.5153163E-2,1.6105068E-1,-1.0208719E-1,1.1657357E-1,-3.7657577E-1,6.561103E-1,-1.5492897E-2,4.6255556E-1,-1.2036302E-1,-4.4804934E-1,-3.4784723E-2,4.1547808E-1,-2.5566232E-1,6.672386E-2,-3.983788E-2,-1.418336E-1,1.39333E-2,6.529868E-2,2.453856E-1,-5.2792686E-3,1.9473867E-1,-1.5441176E-1,3.0220557E-2,-9.090339E-2,1.1745524E-1,-6.0899593E-3,1.8766464E-1,8.724195E-2,-1.4083609E-1],"categories":[],"categories_nodes":[],"categories_segments":[],"categories_sizes":[],"default_left":[0,0,0,0,0,0,0,0,0,0,0,0,0,0,0,0,0,0,0,0,0,0,0,0,0,0,0,0,0,0,0,0,0,0,0,0,0,0,0,0,0,0,0,0,0,0,0,0,0],"id":31,"left_children":[1,3,5,7,9,-1,11,13,15,-1,17,19,21,23,25,-1,27,29,31,-1,-1,-1,-1,33,35,37,-1,39,-1,41,43,45,47,-1,-1,-1,-1,-1,-1,-1,-1,-1,-1,-1,-1,-1,-1,-1,-1],"loss_changes":[1.9512737E0,1.6836618E0,9.7556317E-1,1.2997208E0,1.4409297E0,0E0,6.095886E-1,9.910596E-1,7.2047234E-1,0E0,7.0575196E-1,5.982132E-1,9.029847E-1,1.2778549E0,5.182438E-1,0E0,1.2159812E0,5.9458745E-1,1.2500825E0,0E0,0E0,0E0,0E0,1.136358E0,2.6708722E-1,1.4077461E-1,0E0,3.768574E-1,0E0,4.6405196E-1,8.3872634E-1,4.4415116E-1,9.258326E-1,0E0,0E0,0E0,0E0,0E0,0E0,0E0,0E0,0E0,0E0,0E0,0E0,0E0,0E0,0E0,0E0],"parents":[2147483647,0,0,1,1,2,2,3,3,4,4,6,6,7,7,8,8,10,10,11,11,12,12,13,13,14,14,16,16,17,17,18,18,23,23,24,24,25,25,27,27,29,29,30,30,31,31,32,32],"right_children":[2,4,6,8,10,-1,12,14,16,-1,18,20,22,24,26,-1,28,30,32,-1,-1,-1,-1,34,36,38,-1,40,-1,42,44,46,48,-1,-1,-1,-1,-1,-1,-1,-1,-1,-1,-1,-1,-1,-1,-1,-1],"split_conditions":[3.9748266E-1,-1.0769332E-2,-6.710605E-1,2.1168578E-1,-1.0897194E0,9.801495E-2,1.1367934E0,4.536285E-1,-1.2515081E-1,1.3852203E-1,2.3777953E-1,1.0736355E0,1.2037792E0,-3.697693E-1,6.1272216E-1,1.972149E-1,-7.5280607E-1,3.872901E-1,2.5477275E-1,-1.5161575E-1,4.5153163E-2,1.6105068E-1,-1.0208719E-1,6.02114E-1,1.9114377E-1,2.0282112E-1,-1.5492897E-2,-9.833922E-1,-1.2036302E-1,1.8592627E-1,-3.7859663E-1,-6.5803087E-1,-1.419951E0,6.672386E-2,-3.983788E-2,-1.418336E-1,1.39333E-2,6.529868E-2,2.453856E-1,-5.2792686E-3,1.9473867E-1,-1.5441176E-1,3.0220557E-2,-9.090339E-2,1.1745524E-1,-6.0899593E-3,1.8766464E-1,8.724195E-2,-1.4083609E-1],"split_indices":[20,10,14,6,5,0,8,18,1,0,29,19,8,10,0,0,0,13,5,0,0,0,0,24,24,0,0,2,0,14,16,2,13,0,0,0,0,0,0,0,0,0,0,0,0,0,0,0,0],"split_type":[0,0,0,0,0,0,0,0,0,0,0,0,0,0,0,0,0,0,0,0,0,0,0,0,0,0,0,0,0,0,0,0,0,0,0,0,0,0,0,0,0,0,0,0,0,0,0,0,0],"sum_hessian":[1.0716324E2,9.023415E1,1.6929089E1,6.2308487E1,2.7925661E1,1.6379528E0,1.5291135E1,