{"learner":{"attributes":{"scikit_learn":"{\"_estimator_type\": \"classifier\"}"},"feature_names":[],"feature_types":[],"gradient_booster":{"model":{"gbtree_model_param":{"num_parallel_tree":"1","num_trees":"500"},"iteration_indptr":[0,5,10,15,20,25,30,35,40,45,50,55,60,65,70,75,80,85,90,95,100,105,110,115,120,125,130,135,140,145,150,155,160,165,170,175,180,185,190,195,200,205,210,215,220,225,230,235,240,245,250,255,260,265,270,275,280,285,290,295,300,305,310,315,320,325,330,335,340,345,350,355,360,365,370,375,380,385,390,395,400,405,410,415,420,425,430,435,440,445,450,455,460,465,470,475,480,485,490,495,500],"tree_info":[0,1,2,3,4,0,1,2,3,4,0,1,2,3,4,0,1,2,3,4,0,1,2,3,4,0,1,2,3,4,0,1,2,3,4,0,1,2,3,4,0,1,2,3,4,0,1,2,3,4,0,1,2,3,4,0,1,2,3,4,0,1,2,3,4,0,1,2,3,4,0,1,2,3,4,0,1,2,3,4,0,1,2,3,4,0,1,2,3,4,0,1,2,3,4,0,1,2,3,4,0,1,2,3,4,0,1,2,3,4,0,1,2,3,4,0,1,2,3,4,0,1,2,3,4,0,1,2,3,4,0,1,2,3,4,0,1,2,3,4,0,1,2,3,4,0,1,2,3,4,0,1,2,3,4,0,1,2,3,4,0,1,2,3,4,0,1,2,3,4,0,1,2,3,4,0,1,2,3,4,0,1,2,3,4,0,1,2,3,4,0,1,2,3,4,0,1,2,3,4,0,1,2,3,4,0,1,2,3,4,0,1,2,3,4,0,1,2,3,4,0,1,2,3,4,0,1,2,3,4,0,1,2,3,4,0,1,2,3,4,0,1,2,3,4,0,1,2,3,4,0,1,2,3,4,0,1,2,3,4,0,1,2,3,4,0,1,2,3,4,0,1,2,3,4,0,1,2,3,4,0,1,2,3,4,0,1,2,3,4,0,1,2,3,4,0,1,2,3,4,0,1,2,3,4,0,1,2,3,4,0,1,2,3,4,0,1,2,3,4,0,1,2,3,4,0,1,2,3,4,0,1,2,3,4,0,1,2,3,4,0,1,2,3,4,0,1,2,3,4,0,1,2,3,4,0,1,2,3,4,0,1,2,3,4,0,1,2,3,4,0,1,2,3,4,0,1,2,3,4,0,1,2,3,4,0,1,2,3,4,0,1,2,3,4,0,1,2,3,4,0,1,2,3,4,0,1,2,3,4,0,1,2,3,4,0,1,2,3,4,0,1,2,3,4,0,1,2,3,4,0,1,2,3,4,0,1,2,3,4,0,1,2,3,4,0,1,2,3,4,0,1,2,3,4,0,1,2,3,4,0,1,2,3,4,0,1,2,3,4,0,1,2,3,4,0,1,2,3,4,0,1,2,3,4,0,1,2,3,4,0,1,2,3,4,0,1,2,3,4],"trees":[{"base_weights":[1.9166973E-1,1.223203E0,-2.3136246E-1,1.3824885E-1,1.5640599E0,-4.0749553E-1,8.1314874E-1,2.8767124E-1,-2.3668638E-1,4.6511626E-1,1.7706237E0,3.9823008E-1,-4.5825484E-1,1.3989637E0,-2.892562E-1,-1.4876033E-1,8.219178E-2,2.8651685E-1,-1.15384616E-1,1.9153674E0,8.219178E-2,-1.2328767E-1,3.4615386E-1,-5.2631575E-1,1.0362694E-1,5.7142854E-1,6.19469E-1,2.6315792E-2,-1.3483146E-1,2.0415647E0,1.15384616E-1,-5.591866E-1,8.219178E-2,8.2474226E-1,-1.4876033E-1,4.2105266E-1,-3.7037037E-2,6.5217394E-1,2.8651685E-1,-1.7286246E-1,2.6315792E-2,3.4615386E-1,2.6315792E-2],"categories":[],"categories_nodes":[],"categories_segments":[],"categories_sizes":[],"default_left":[0,0,0,0,0,0,0,0,0,0,0,0,0,0,0,0,0,0,0,0,0,0,0,0,0,0,0,0,0,0,0,0,0,0,0,0,0,0,0,0,0,0,0],"id":0,"left_children":[1,3,5,7,9,11,13,-1,15,17,19,21,23,25,27,-1,-1,-1,-1,29,-1,-1,-1,31,33,-1,35,-1,-1,37,-1,39,-1,41,-1,-1,-1,-1,-1,-1,-1,-1,-1],"loss_changes":[4.763807E1,1.1514271E1,1.4644451E1,2.897731E0,4.633583E0,2.932479E0,7.8701687E0,0E0,1.0305625E0,2.5155272E0,3.7818565E0,3.237875E0,2.491333E0,1.8637981E0,3.3168632E-1,0E0,0E0,0E0,0E0,2.6842422E0,0E0,0E0,0E0,1.6526508E0,3.7463565E0,0E0,2.8060975E0,0E0,0E0,2.7631378E-1,0E0,6.570511E-1,0E0,8.399067E-1,0E0,0E0,0E0,0E0,0E0,0E0,0E0,0E0,0E0],"parents":[2147483647,0,0,1,1,2,2,3,3,4,4,5,5,6,6,8,8,9,9,10,10,11,11,12,12,13,13,14,14,19,19,23,23,24,24,26,26,29,29,31,31,33,33],"right_children":[2,4,6,8,10,12,14,-1,16,18,20,22,24,26,28,-1,-1,-1,-1,30,-1,-1,-1,32,34,-1,36,-1,-1,38,-1,40,-1,42,-1,-1,-1,-1,-1,-1,-1,-1,-1],"split_conditions":[-5.8280045E-1,-6.079742E-1,1.4326177E0,-8.384653E-1,-5.757179E-1,-8.2125777E-1,2.5144172E-1,2.8767124E-1,-4.32581E-1,-1.9645742E-1,-6.652364E-1,-5.1341283E-1,7.434391E-1,-5.488224E-1,1.1255102E0,-1.4876033E-1,8.219178E-2,2.8651685E-1,-1.15384616E-1,1.4518687E0,8.219178E-2,-1.2328767E-1,3.4615386E-1,2.4734683E0,6.631659E-2,5.7142854E-1,-3.6535802E-1,2.6315792E-2,-1.3483146E-1,1.083059E0,1.15384616E-1,2.1959944E0,8.219178E-2,8.845037E-1,-1.4876033E-1,4.2105266E-1,-3.7037037E-2,6.5217394E-1,2.8651685E-1,-1.7286246E-1,2.6315792E-2,3.4615386E-1,2.6315792E-2],"split_indices":[2,24,20,6,18,22,2,0,6,3,2,27,3,16,1,0,0,0,0,6,0,0,0,4,25,0,2,0,0,14,0,0,0,9,0,0,0,0,0,0,0,0,0],"split_type":[0,0,0,0,0,0,0,0,0,0,0,0,0,0,0,0,0,0,0,0,0,0,0,0,0,0,0,0,0,0,0,0,0,0,0,0,0,0,0,0,0,0,0],"sum_hessian":[1.07520004E2,3.0720001E1,7.68E1,7.6800003E0,2.304E1,6.6240005E1,1.056E1,1.9200001E0,5.76E0,4.1600003E0,1.8880001E1,3.5200002E0,6.2720005E1,6.7200003E0,3.8400002E0,3.8400002E0,1.9200001E0,2.5600002E0,1.6000001E0,1.6960001E1,1.9200001E0,1.9200001E0,1.6000001E0,5.6000004E1,6.7200003E0,3.2000003E0,3.5200002E0,1.2800001E0,2.5600002E0,1.5360001E1,1.6000001E0,5.4080006E1,1.9200001E0,2.88E0,3.8400002E0,1.2800001E0,2.2400002E0,1.2800001E1,2.5600002E0,5.2800003E1,1.2800001E0,1.6000001E0,1.2800001E0],"tree_param":{"num_deleted":"0","num_feature":"30","num_nodes":"43","size_leaf_vector":"1"}},{"base_weights":[4.4231474E-2,8.1847644E-1,-1.8151814E-1,1.2732095E0,9.433962E-2,2.0408163E-2,-4.4516826E-1,1.557377E0,5.154639E-2,-2.8497407E-1,8.2474226E-1,-8.35532E-2,1.0619469E0,-5.446756E-1,2.713178E-1,1.770428E0,8.219178E-2,1.5789473E-1,-1.15384616E-1,8.219178E-2,-1.5517241E-1,4.6153846E-1,-1.05263166E-1,2.8767124E-1,-1.5151514E-1,4.2592594E-1,2.6315792E-2,-8.264463E-2,-1.8099862E-1,-1.6853932E-1,2.3076923E-1,1.849315E-1,1.9617224E0,5.839416E-1,-2.5076765E-1,-1.3483146E-1,1.5789473E-1,-1.05263166E-1,2.6315792E-2,6.4406776E-1,1.5789473E-1,4.2592594E-1,-1.2962963E-1,2.8947368E-1,-9.52381E-2],"categories":[],"categories_nodes":[],"categories_segments":[],"categories_sizes":[],"default_left":[0,0,0,0,0,0,0,0,0,0,0,0,0,0,0,0,0,0,0,0,0,0,0,0,0,0,0,0,0,0,0,0,0,0,0,0,0,0,0,0,0,0,0,0,0],"id":1,"left_children":[1,3,5,7,9,11,13,15,17,19,21,23,25,27,29,31,-1,-1,-1,-1,-1,-1,-1,-1,33,-1,-1,35,-1,37,-1,-1,39,41,43,-1,-1,-1,-1,-1,-1,-1,-1,-1,-1],"loss_changes":[1.9116293E1,8.006739E0,4.5257883E0,5.154848E0,3.171779E0,5.3944387E0,2.7743096E0,2.8508053E0,1.0058851E0,1.1439592E0,3.795372E0,3.3674293E0,1.4510627E0,8.357525E-1,1.2597401E0,1.0600471E0,0E0,0E0,0E0,0E0,0E0,0E0,0E0,0E0,3.326136E0,0E0,0E0,1.3176223E0,0E0,1.9712201E-1,0E0,0E0,1.0920982E0,5.2671885E0,3.4748073E0,0E0,0E0,0E0,0E0,0E0,0E0,0E0,0E0,0E0,0E0],"parents":[2147483647,0,0,1,1,2,2,3,3,4,4,5,5,6,6,7,7,8,8,9,9,10,10,11,11,12,12,13,13,14,14,15,15,24,24,27,27,29,29,32,32,33,33,34,34],"right_children":[2,4,6,8,10,12,14,16,18,20,22,24,26,28,30,32,-1,-1,-1,-1,-1,-1,-1,-1,34,-1,-1,36,-1,38,-1,-1,40,42,44,-1,-1,-1,-1,-1,-1,-1,-1,-1,-1],"split_conditions":[-7.901068E-1,-1.13381684E-1,2.0256788E-1,4.595365E-1,-2.9889697E-1,1.6420298E0,1.0217566E0,7.510578E-2,-1.1390491E-1,-9.93675E-1,1.9076593E-1,-8.6094946E-1,3.9124754E-1,-6.881006E-1,-6.7338103E-1,-9.462283E-1,8.219178E-2,1.5789473E-1,-1.15384616E-1,8.219178E-2,-1.5517241E-1,4.6153846E-1,-1.05263166E-1,2.8767124E-1,-9.2093915E-1,4.2592594E-1,2.6315792E-2,-1.7071494E-1,-1.8099862E-1,-1.616577E-1,2.3076923E-1,1.849315E-1,7.9413074E-1,-3.7177318E-1,-1.5663934E0,-1.3483146E-1,1.5789473E-1,-1.05263166E-1,2.6315792E-2,6.4406776E-1,1.5789473E-1,4.2592594E-1,-1.2962963E-1,2.8947368E-1,-9.52381E-2],"split_indices":[18,2,14,23,20,19,8,21,10,3,14,22,2,13,27,6,0,0,0,0,0,0,0,0,16,0,0,7,0,0,0,0,1,19,1,0,0,0,0,0,0,0,0,0,0],"split_type":[0,0,0,0,0,0,0,0,0,0,0,0,0,0,0,0,0,0,0,0,0,0,0,0,0,0,0,0,0,0,0,0,0,0,0,0,0,0,0,0,0,0,0,0,0],"sum_hessian":[1.07520004E2,2.3680002E1,8.3840004E1,1.4080001E1,9.6E0,4.8000004E1,3.5840004E1,1.1200001E1,2.88E0,6.7200003E0,2.88E0,4.4480003E1,3.5200002E0,3.1680002E1,4.1600003E0,9.280001E0,1.9200001E0,1.2800001E0,1.6000001E0,1.9200001E0,4.8E0,1.6000001E0,1.2800001E0,1.9200001E0,4.256E1,2.2400002E0,1.2800001E0,3.8400002E0,2.7840002E1,2.5600002E0,1.6000001E0,1.9200001E0,7.3600006E0,4.4800005E0,3.808E1,2.5600002E0,1.2800001E0,1.2800001E0,1.2800001E0,6.0800004E0,1.2800001E0,2.2400002E0,2.2400002E0,1.2800001E0,3.6800003E1],"tree_param":{"num_deleted":"0","num_feature":"30","num_nodes":"45","size_leaf_vector":"1"}},{"base_weights":[-4.3494284E-1,3.9325842E-1,-4.586636E-1,1.5789473E-1,2.6315792E-2,1.5789473E-1,-4.7573555E-1,-3.3755273E-1,-5.799588E-1,-4.8207662E-1,-2.4937654E-2,2.6315792E-2,-5.964912E-1,-5.396619E-1,1.15384616E-1,2.8947368E-1,-1.7615175E-1,-1.8413496E-1,2.6315792E-2,3.3707865E-2,-1.8085106E-1,1.0344827E-1,-1.3855422E-1],"categories":[],"categories_nodes":[],"categories_segments":[],"categories_sizes":[],"default_left":[0,0,0,0,0,0,0,0,0,0,0,0,0,0,0,0,0,0,0,0,0,0,0],"id":2,"left_children":[1,3,5,-1,-1,-1,7,9,11,13,15,-1,17,19,-1,-1,21,-1,-1,-1,-1,-1,-1],"loss_changes":[2.3123112E0,9.856099E-2,2.032156E0,0E0,0E0,0E0,1.3118229E0,2.1295266E0,6.9563675E-1,1.8226061E0,2.5708263E0,0E0,7.282276E-1,1.3347836E0,0E0,0E0,2.3561583E0,0E0,0E0,0E0,0E0,0E0,0E0],"parents":[2147483647,0,0,1,1,2,2,6,6,7,7,8,8,9,9,10,10,12,12,13,13,16,16],"right_children":[2,4,6,-1,-1,-1,8,10,12,14,16,-1,18,20,-1,-1,22,-1,-1,-1,-1,-1,-1],"split_conditions":[-1.0613084E0,9.3243253E-1,-1.1965917E0,1.5789473E-1,2.6315792E-2,1.5789473E-1,-3.5369697E-1,1.4096321E-1,-1.0506938E0,1.3560685E0,-2.1009417E-1,2.6315792E-2,3.7844663E0,-1.3103669E0,1.15384616E-1,2.8947368E-1,-4.6993503E-1,-1.8413496E-1,2.6315792E-2,3.3707865E-2,-1.8085106E-1,1.0344827E-1,-1.3855422E-1],"split_indices":[28,0,5,0,0,0,18,10,27,14,4,0,28,18,0,0,17,0,0,0,0,0,0],"split_type":[0,0,0,0,0,0,0,0,0,0,0,0,0,0,0,0,0,0,0,0,0,0,0],"sum_hessian":[1.07520004E2,2.5600002E0,1.0496001E2,1.2800001E0,1.2800001E0,1.2800001E0,1.0368001E2,4.64E1,5.7280003E1,3.1360003E1,1.5040001E1,1.2800001E0,5.6000004E1,2.9760002E1,1.6000001E0,1.2800001E0,1.3760001E1,5.4720005E1,1.2800001E0,2.5600002E0,2.7200003E1,4.8E0,8.960001E0],"tree_param":{"num_deleted":"0","num_feature":"30","num_nodes":"23","size_leaf_vector":"1"}},{"base_weights":[-1.1057869E-2,8.0586076E-1,-1.0141987E-1,9.31677E-2,1.4963503E0,-4.143646E-1,7.886435E-2,-2.892562E-1,2.3076923E-1,1.849315E-1,5.3932583E-1,-4.8881033E-1,1.4814815E-1,2.426412E-1,-5.09915E-1,-1.3483146E-1,2.6315792E-2,-5.438813E-1,1.15384616E-1,1.4767931E-1,4.0206185E-1,-1.728972E-1,2.6315792E-2,-4.4247787E-2,-1.8099862E-1,4.4093177E-1,-1.4778325E-1,-1.2962963E-1,1.5789473E-1,-2.0202018E-2,2.5987843E-1,-1.0122699E-1,1.5517241E-1],"categories":[],"categories_nodes":[],"categories_segments":[],"categories_sizes":[],"default_left":[0,0,0,0,0,0,0,0,0,0,0,0,0,0,0,0,0,0,0,0,0,0,0,0,0,0,0,0,0,0,0,0,0],"id":3,"left_children":[1,3,5,7,9,11,13,15,-1,-1,-1,17,-1,19,21,-1,-1,23,-1,25,-1,-1,-1,27,-1,29,31,-1,-1,-1,-1,-1,-1],"loss_changes":[8.092504E0,5.234399E0,5.5955925E0,1.8875196E0,3.4513378E-1,2.6889057E0,6.237289E0,3.3168632E-1,0E0,0E0,0E0,1.8426752E0,0E0,5.042605E0,6.109531E-1,0E0,0E0,9.344568E-1,0E0,4.172141E0,0E0,0E0,0E0,1.2276677E0,0E0,5.255375E0,3.2466984E0,0E0,0E0,0E0,0E0,0E0,0E0],"parents":[2147483647,0,0,1,1,2,2,3,3,4,4,5,5,6,6,7,7,11,11,13,13,14,14,17,17,19,19,23,23,25,25,26,26],"right_children":[2,4,6,8,10,12,14,16,-1,-1,-1,18,-1,20,22,-1,-1,24,-1,26,-1,-1,-1,28,-1,30,32,-1,-1,-1,-1,-1,-1],"split_conditions":[-7.559522E-1,-3.8107944E-1,-4.1592556E-1,-7.1853507E-1,-7.395817E-1,1.4747483E0,6.936002E-1,1.2101503E-1,2.3076923E-1,1.849315E-1,5.3932583E-1,1.2038885E0,1.4814815E-1,1.2875019E0,1.4565747E0,-1.3483146E-1,2.6315792E-2,-7.474526E-1,1.15384616E-1,-3.0700195E-1,4.0206185E-1,-1.728972E-1,2.6315792E-2,-1.0326789E-1,-1.8099862E-1,-2.1624814E-1,1.7609246E-1,-1.2962963E-1,1.5789473E-1,-2.0202018E-2,2.5987843E-1,-1.0122699E-1,1.5517241E-1],"split_indices":[24,22,2,6,29,9,18,2,0,0,0,7,0,16,8,0,0,19,0,4,0,0,0,4,0,11,22,0,0,0,0,0,0],"split_type":[0,0,0,0,0,0,0,0,0,0,0,0,0,0,0,0,0,0,0,0,0,0,0,0,0,0,0,0,0,0,0,0,0],"sum_hessian":[1.07520004E2,9.920001E0,9.7600006E1,5.4400005E0,4.4800005E0,3.52E1,6.2400005E1,3.8400002E0,1.6000001E0,1.9200001E0,2.5600002E0,3.2960003E1,2.2400002E0,4.9280003E1,1.3120001E1,2.5600002E0,1.2800001E0,3.1360003E1,1.6000001E0,4.64E1,2.88E0,1.1840001E1,1.2800001E0,3.5200002E0,2.7840002E1,2.304E1,2.3360003E1,2.2400002E0,1.2800001E0,1.0880001E1,1.2160001E1,1.8560001E1,4.8E0],"tree_param":{"num_deleted":"0","num_feature":"30","num_nodes":"33","size_leaf_vector":"1"}},{"base_weights":[2.100995E-1,-3.6059055E-1,1.2333674E0,-4.4943818E-1,1.6483516E-1,9.060402E-1,6.186771E-1,-4.9488053E-1,1.849315E-1,-2.8497407E-1,9.523809E-1,1.2676055E0,1.6483516E-1,-1.1299434E-1,-5.369383E-1,-1.583851E-1,1.5789473E-1,2.6315792E-2,3.9041096E-1,1.4332603E0,-1.15384616E-1,7.6642334E-1,-3.726708E-1,-1.511628E-1,1.849315E-1,2.6315792E-2,-5.542545E-1,1.6412213E0,1.12359546E-1,4.0206185E-1,-1.15384616E-1,-1.511628E-1,2.6315792E-2,-1.7153285E-1,-2.0547945E-2,5.4347825E-1,8.219178E-2,1.5789473E-1,-1.05263166E-1],"categories":[],"categories_nodes":[],"categories_segments":[],"categories_sizes":[],"default_left":[0,0,0,0,0,0,0,0,0,0,0,0,0,0,0,0,0,0,0,0,0,0,0,0,0,0,0,0,0,0,0,0,0,0,0,0,0,0,0],"id":4,"left_children":[1,3,5,7,9,11,-1,13,-1,15,17,19,21,23,25,-1,-1,-1,-1,27,-1,29,31,-1,-1,-1,33,35,37,-1,-1,-1,-1,-1,-1,-1,-1,-1,-1],"loss_changes":[6.381704E1,3.362422E0,8.734623E0,3.2364044E0,4.1397634E0,7.777277E0,0E0,8.805208E-1,0E0,1.799667E0,1.1532259E0,5.9923763E0,3.8166847E0,2.3292708E0,6.1671066E-1,0E0,0E0,0E0,0E0,4.8370323E0,0E0,4.1347094E0,4.3321145E-1,0E0,0E0,0E0,3.9696026E-1,3.1655197E0,8.6733687E-1,0E0,0E0,0E0,0E0,0E0,0E0,0E0,0E0,0E0,0E0],"parents":[2147483647,0,0,1,1,2,2,3,3,4,4,5,5,7,7,9,9,10,10,11,11,12,12,13,13,14,14,19,19,21,21,22,22,26,26,27,27,28,28],"right_children":[2,4,6,8,10,12,-1,14,-1,16,18,20,22,24,26,-1,-1,-1,-1,28,-1,30,32,-1,-1,-1,34,36,38,-1,-1,-1,-1,-1,-1,-1,-1,-1,-1],"split_conditions":[3.0473375E-1,5.74362E-2,8.3244634E-1,1.7800022E0,2.4270214E-1,1.114361E-1,6.186771E-1,-1.0245637E0,1.849315E-1,7.7654934E-1,-3.3900982E-1,1.6189847E0,-1.8665327E-1,2.5070557E-1,-1.1106387E0,-1.583851E-1,1.5789473E-1,2.6315792E-2,3.9041096E-1,1.09942E0,-1.15384616E-1,-1.9404086E-1,-9.7953625E-2,-1.511628E-1,1.849315E-1,2.6315792E-2,-2.23933E-2,3.915856E-1,-4.8357794E-1,4.0206185E-1,-1.15384616E-1,-1.511628E-1,2.6315792E-2,-1.7153285E-1,-2.0547945E-2,5.4347825E-1,8.219178E-2,1.5789473E-1,-1.05263166E-1],"split_indices":[2,2,18,7,3,8,0,3,0,4,0,27,3,12,12,0,0,0,0,9,0,21,0,0,0,0,2,24,8,0,0,0,0,0,0,0,0,0,0],"split_type":[0,0,0,0,0,0,0,0,0,0,0,0,0,0,0,0,0,0,0,0,0,0,0,0,0,0,0,0,0,0,0,0,0,0,0,0,0,0,0],"sum_hessian":[1.07520004E2,6.944E1,3.808E1,5.9520004E1,9.920001E0,2.8800001E1,9.280001E0,5.7600002E1,1.9200001E0,6.7200003E0,3.2000003E0,1.8880001E1,9.920001E0,6.0800004E0,5.1520004E1,5.4400005E0,1.2800001E0,1.2800001E0,1.9200001E0,1.728E1,1.6000001E0,4.4800005E0,5.4400005E0,4.1600003E0,1.9200001E0,1.2800001E0,5.024E1,1.4720001E1,2.5600002E0,2.88E0,1.6000001E0,4.1600003E0,1.2800001E0,4.8320004E1,1.9200001E0,1.2800001E1,1.9200001E0,1.2800001E0,1.2800001E0],"tree_param":{"num_deleted":"0","num_feature":"30","num_nodes":"39","size_leaf_vector":"1"}},{"base_weights":[1.5001675E-1,6.645971E-1,-2.8970155E-1,1.5720497E-1,1.0040913E0,-4.136524E-1,2.6329976E-1,4.0232748E-1,-3.9931628E-1,1.0789477E0,1.1233638E-1,4.2772686E-1,-4.6540222E-1,2.7902696E-1,-8.713246E-2,-2.0519917E-1,7.029856E-1,-1.5641265E-1,5.1651206E-2,1.2655145E-2,1.1297948E0,1.8944842E-1,-1.13823034E-1,1.9321011E-1,1.7144071E-2,-5.032569E-1,1.3741131E-1,5.7941926E-1,-1.5222564E-1,-1.4592695E-1,1.3737291E-1,-9.761574E-2,8.627935E-1,2.2921404E-2,1.1758541E0,-5.4276556E-1,2.3742877E-1,3.0913466E-4,3.0107868E-1,3.9016348E-1,1.4424965E-1,2.7935138E-2,3.6688823E-1,4.0783666E-2,-1.6930993E-1,2.0336592E-1,-9.61555E-2],"categories":[],"categories_nodes":[],"categories_segments":[],"categories_sizes":[],"default_left":[0,0,0,0,0,0,0,0,0,0,0,0,0,0,0,0,0,0,0,0,0,0,0,0,0,0,0,0,0,0,0,0,0,0,0,0,0,0,0,0,0,0,0,0,0,0,0],"id":5,"left_children":[1,3,5,7,9,11,13,15,17,19,21,23,25,-1,27,29,31,-1,-1,-1,33,-1,-1,-1,-1,35,-1,37,-1,-1,-1,-1,39,-1,41,43,45,-1,-1,-1,-1,-1,-1,-1,-1,-1,-1],"loss_changes":[2.517434E1,8.657633E0,4.2374063E0,3.1210034E0,1.9131508E0,2.3583221E0,2.8007386E0,2.9870348E0,5.8764136E-1,1.42836E0,1.1270775E0,2.3529571E-1,1.8803387E0,0E0,2.6875257E0,1.3279039E0,2.0288515E0,0E0,0E0,0E0,1.2032433E0,0E0,0E0,0E0,0E0,1.4695616E0,0E0,9.2410433E-1,0E0,0E0,0E0,0E0,9.597907E-1,0E0,1.184967E0,7.188463E-1,9.5839E-1,0E0,0E0,0E0,0E0,0E0,0E0,0E0,0E0,0E0,0E0],"parents":[2147483647,0,0,1,1,2,2,3,3,4,4,5,5,6,6,7,7,8,8,9,9,10,10,11,11,12,12,14,14,15,15,16,16,20,20,25,25,27,27,32,32,34,34,35,35,36,36],"right_children":[2,4,6,8,10,12,14,16,18,20,22,24,26,-1,28,30,32,-1,-1,-1,34,-1,-1,-1,-1,36,-1,38,-1,-1,-1,-1,40,-1,42,44,46,-1,-1,-1,-1,-1,-1,-1,-1,-1,-1],"split_conditions":[-2.9853556E-1,-4.6405232E-1,1.3643441E0,5.038324E-1,1.5341206E0,-8.2895595E-1,-5.6749016E-1,-8.292902E-1,-3.4645116E-1,-6.356971E-1,-1.3802963E0,1.62292E-1,2.1943157E0,2.7902696E-1,8.895937E-1,-5.8035296E-1,-1.7320902E0,-1.5641265E-1,5.1651206E-2,1.2655145E-2,-1.1050422E0,1.8944842E-1,-1.13823034E-1,1.9321011E-1,1.7144071E-2,2.4734683E0,1.3741131E-1,-3.2018453E-1,-1.5222564E-1,-1.4592695E-1,1.3737291E-1,-9.761574E-2,-8.384653E-1,2.2921404E-2,-1.2559354E0,-1.0746897E0,3.5684496E-1,3.0913466E-4,3.0107868E-1,3.9016348E-1,1.4424965E-1,2.7935138E-2,3.6688823E-1,4.0783666E-2,-1.6930993E-1,2.0336592E-1,-9.61555E-2],"split_indices":[2,24,15,9,6,22,8,26,2,13,2,8,5,0,6,24,8,0,0,0,27,0,0,0,0,4,0,10,0,0,0,0,6,0,25,27,27,0,0,0,0,0,0,0,0,0,0],"split_type":[0,0,0,0,0,0,0,0,0,0,0,0,0,0,0,0,0,0,0,0,0,0,0,0,0,0,0,0,0,0,0,0,0,0,0,0,0,0,0,0,0,0,0,0,0,0,0],"sum_hessian":[1.0940686E2,5.017645E1,5.9230408E1,2.0700901E1,2.947555E1,4.8591087E1,1.06393175E1,1.4563433E1,6.1374674E0,2.6999239E1,2.4763098E0,2.394507E0,4.6196583E1,3.0953927E0,7.5439253E0,4.926391E0,9.637042E0,5.129571E0,1.0078967E0,1.3477851E0,2.5651455E1,1.0663401E0,1.4099697E0,1.0460323E0,1.3484746E0,4.4814514E1,1.3820673E0,2.7708597E0,4.773065E0,3.6464043E0,1.2799869E0,1.1568096E0,8.480232E0,1.186003E0,2.4465452E1,4.2798813E1,2.015703E0,1.5964448E0,1.1744149E0,2.8309155E0,5.6493163E0,1.1441488E0,2.3321302E1,1.1568356E0,4.1641975E1,1.0063218E0,1.0093813E0],"tree_param":{"num_deleted":"0","num_feature":"30","num_nodes":"47","size_leaf_vector":"1"}},{"base_weights":[4.3783892E-2,6.027552E-1,-1.5065809E-1,8.795317E-1,7.630732E-2,3.3660617E-2,-4.106887E-1,7.613858E-3,1.0461915E0,-2.6154327E-1,6.352974E-1,-5.9456605E-2,8.226607E-1,-5.1495266E-1,2.3677199E-1,-1.22564316E-1,1.5751797E-1,2.379323E-2,1.130703E0,2.2450149E-1,-1.4753094E-1,3.3092603E-1,-9.89111E-2,-1.1289334E-1,3.0600667E-1,3.4808964E-1,6.4582E-2,-9.210068E-2,-1.729343E-1,5.4756534E-1,-1.1241735E-1,1.1961279E0,4.8508275E-2,1.9984776E-1,-9.76663E-2,2.2840282E-1,-1.6458616E-1,-1.3438055E-1,1.4334375E-1,-1.00644335E-1,3.1855825E-1,3.8476053E-1,1.0336033E-1,1.1554669E-1,-7.251198E-2],"categories":[],"categories_nodes":[],"categories_segments":[],"categories_sizes":[],"default_left":[0,0,0,0,0,0,0,0,0,0,0,0,0,0,0,0,0,0,0,0,0,0,0,0,0,0,0,0,0,0,0,0,0,0,0,0,0,0,0,0,0,0,0,0,0],"id":6,"left_children":[1,3,5,7,9,11,13,15,17,19,21,23,25,27,29,-1,-1,-1,31,33,-1,-1,-1,35,-1,-1,-1,37,-1,39,-1,41,-1,-1,-1,-1,43,-1,-1,-1,-1,-1,-1,-1,-1],"loss_changes":[1.1707714E1,3.9813385E0,3.8528447E0,2.6244726E0,2.1810677E0,3.5605826E0,2.369988E0,1.0574262E0,1.1524506E0,9.337976E-1,2.3096595E0,2.6350536E0,7.987728E-1,7.0093584E-1,1.2131876E0,0E0,0E0,0E0,6.880665E-1,9.582387E-1,0E0,0E0,0E0,2.0470643E0,0E0,0E0,0E0,1.202003E0,0E0,2.1378021E0,0E0,5.050125E-1,0E0,0E0,0E0,0E0,1.8301877E0,0E0,0E0,0E0,0E0,0E0,0E0,0E0,0E0],"parents":[2147483647,0,0,1,1,2,2,3,3,4,4,5,5,6,6,7,7,8,8,9,9,10,10,11,11,12,12,13,13,14,14,18,18,19,19,23,23,27,27,29,29,31,31,36,36],"right_children":[2,4,6,8,10,12,14,16,18,20,22,24,26,28,30,-1,-1,-1,32,34,-1,-1,-1,36,-1,-1,-1,38,-1,40,-1,42,-1,-1,-1,-1,44,-1,-1,-1,-1,-1,-1,-1,-1],"split_conditions":[-7.901068E-1,-1.13381684E-1,2.0256788E-1,-7.813975E-1,-2.9889697E-1,1.6420298E0,1.0217566E0,-1.4730391E-1,-6.624918E-1,-9.93675E-1,1.9076593E-1,7.965815E-2,-6.593261E-1,-6.881006E-1,7.072673E-1,-1.22564316E-1,1.5751797E-1,2.379323E-2,1.407639E0,-3.441848E-1,-1.4753094E-1,3.3092603E-1,-9.89111E-2,-1.5663934E0,3.0600667E-1,3.4808964E-1,6.4582E-2,-4.3574688E-1,-1.729343E-1,2.8383952E-1,-1.1241735E-1,3.156552E-1,4.8508275E-2,1.9984776E-1,-9.76663E-2,2.2840282E-1,-9.2093915E-1,-1.3438055E-1,1.4334375E-1,-1.00644335E-1,3.1855825E-1,3.8476053E-1,1.0336033E-1,1.1554669E-1,-7.251198E-2],"split_indices":[18,2,14,5,20,19,8,4,13,3,14,14,5,13,5,0,0,0,24,10,0,0,0,1,0,0,0,16,0,5,0,12,0,0,0,0,16,0,0,0,0,0,0,0,0],"split_type":[0,0,0,0,0,0,0,0,0,0,0,0,0,0,0,0,0,0,0,0,0,0,0,0,0,0,0,0,0,0,0,0,0,0,0,0,0,0,0,0,0,0,0,0,0],"sum_hessian":[1.05883545E2,2.6784626E1,7.9098915E1,1.711555E1,9.669078E0,4.6797665E1,3.2301254E1,2.9143207E0,1.4201228E1,6.3582816E0,3.3107965E0,4.2684692E1,4.1129737E0,2.7997353E1,4.303902E0,1.7318861E0,1.1824346E0,1.2973169E0,1.2903912E1,2.0516946E0,4.3065867E0,2.1334846E0,1.1773118E0,4.1524548E1,1.160144E0,2.0584173E0,2.0545561E0,3.8717918E0,2.4125559E1,2.9228904E0,1.3810116E0,1.18682165E1,1.0356944E0,1.0209029E0,1.0307918E0,1.5518159E0,3.9972733E1,2.5153325E0,1.3564594E0,1.2037454E0,1.7191452E0,1.031551E1,1.5527068E0,4.4262986E0,3.5546432E1],"tree_param":{"num_deleted":"0","num_feature":"30","num_nodes":"45","size_leaf_vector":"1"}},{"base_weights":[-3.948661E-1,1.9187936E-1,-4.129219E-1,3.589848E-1,-4.3872863E-1,1.9962545E-1,-3.776892E-3,-2.979422E-1,-5.4996705E-1,-4.4547063E-1,-5.4010246E-3,2.5691936E-2,-5.681353E-1,-5.072768E-1,1.042536E-1,-3.9611185E-1,3.0397886E-1,-1.7615439E-1,2.3838373E-2,3.2454103E-2,-1.7283547E-1,4.982164E-2,-1.5426666E-1,2.9691392E-1,-5.8807403E-2],"categories":[],"categories_nodes":[],"categories_segments":[],"categories_sizes":[],"default_left":[0,0,0,0,0,0,0,0,0,0,0,0,0,0,0,0,0,0,0,0,0,0,0,0,0],"id":7,"left_children":[1,-1,3,5,7,-1,-1,9,11,13,15,-1,17,19,-1,21,23,-1,-1,-1,-1,-1,-1,-1,-1],"loss_changes":[2.0760794E0,0E0,2.068943E0,4.2445356E-1,1.2973022E0,0E0,0E0,1.8690553E0,6.368742E-1,1.5884771E0,1.9999663E0,0E0,6.590786E-1,1.2120843E0,0E0,5.704882E-1,3.3633525E0,0E0,0E0,0E0,0E0,0E0,0E0,0E0,0E0],"parents":[2147483647,0,0,2,2,3,3,4,4,7,7,8,8,9,9,10,10,12,12,13,13,15,15,16,16],"right_children":[2,-1,4,6,8,-1,-1,10,12,14,16,-1,18,20,-1,22,24,-1,-1,-1,-1,-1,-1,-1,-1],"split_conditions":[-1.2433999E0,1.9187936E-1,-1.0613084E0,1.8659796E-1,-3.5369697E-1,1.9962545E-1,-3.776892E-3,1.4096321E-1,-1.0506938E0,1.3560685E0,-6.7498535E-1,2.5691936E-2,3.7844663E0,-1.3103669E0,1.042536E-1,-1.9190049E-1,4.573174E-1,-1.7615439E-1,2.3838373E-2,3.2454103E-2,-1.7283547E-1,4.982164E-2,-1.5426666E-1,2.9691392E-1,-5.8807403E-2],"split_indices":[5,0,28,11,18,0,0,10,27,14,24,0,28,18,0,4,10,0,0,0,0,0,0,0,0],"split_type":[0,0,0,0,0,0,0,0,0,0,0,0,0,0,0,0,0,0,0,0,0,0,0,0,0],"sum_hessian":[9.601082E1,1.0565224E0,9.49543E1,2.654189E0,9.230011E1,1.0212052E0,1.6329838E0,4.2362873E1,4.9937237E1,2.7813677E1,1.4549195E1,1.2845433E0,4.8652695E1,2.6136831E1,1.6768464E0,6.3056064E0,8.243589E0,4.7353313E1,1.2993801E0,2.571916E0,2.3564915E1,1.0242559E0,5.2813506E0,3.0631683E0,5.180421E0],"tree_param":{"num_deleted":"0","num_feature":"30","num_nodes":"25","size_leaf_vector":"1"}},{"base_weights":[-3.8845409E-3,5.6896996E-1,-9.824541E-2,1.7639746E-1,4.388351E-1,-3.7154233E-1,4.6522584E-2,9.070074E-1,-4.028721E-1,-4.4978356E-1,4.0285814E-1,1.7463061E-1,-4.718341E-1,3.408957E-2,3.2529855E-1,4.1150898E-2,-1.5574093E-1,-5.092862E-1,9.5056586E-2,2.5618395E-1,-9.88986E-2,9.0962596E-2,9.751377E-1,4.8526935E-2,-1.643785E-1,-1.7311092E-1,6.844637E-3,2.0817807E-1,-3.528956E-1,2.9439712E-2,3.7262487E-1,2.0087771E-1,-1.236415E-1,-4.1736864E-2,1.4490539E-1,9.919566E-2,-1.6198562E-1],"categories":[],"categories_nodes":[],"categories_segments":[],"categories_sizes":[],"default_left":[0,0,0,0,0,0,0,0,0,0,0,0,0,0,0,0,0,0,0,0,0,0,0,0,0,0,0,0,0,0,0,0,0,0,0,0,0],"id":8,"left_children":[1,3,5,7,-1,9,11,13,15,17,19,21,23,-1,-1,-1,-1,25,-1,-1,-1,27,29,-1,-1,-1,31,33,35,-1,-1,-1,-1,-1,-1,-1,-1],"loss_changes":[5.80875E0,5.074923E0,3.6662254E0,5.3159957E0,0E0,2.1229792E0,4.145057E0,6.477995E-1,5.243416E-1,1.5107007E0,1.4275596E0,3.245778E0,6.861713E-1,0E0,0E0,0E0,0E0,9.771986E-1,0E0,0E0,0E0,2.4759343E0,9.569578E-1,0E0,0E0,0E0,1.447166E0,3.6141284E0,1.4594669E0,0E0,0E0,0E0,0E0,0E0,0E0,0E0,0E0],"parents":[2147483647,0,0,1,1,2,2,3,3,5,5,6,6,7,7,8,8,9,9,10,10,11,11,12,12,17,17,21,21,22,22,26,26,27,27,28,28],"right_children":[2,4,6,8,-1,10,12,14,16,18,20,22,24,-1,-1,-1,-1,26,-1,-1,-1,28,30,-1,-1,-1,32,34,36,-1,-1,-1,-1,-1,-1,-1,-1],"split_conditions":[-7.344965E-1,-4.9929318E-1,-4.1592556E-1,-5.73489E-1,4.388351E-1,1.4747483E0,6.936002E-1,-3.2504013E-1,-8.7267786E-1,1.2038885E0,-1.04286745E-1,1.2875019E0,-1.2148789E0,3.408957E-2,3.2529855E-1,4.1150898E-2,-1.5574093E-1,1.0268006E0,9.5056586E-2,2.5618395E-1,-9.88986E-2,8.7393236E-1,-8.914073E-1,4.8526935E-2,-1.643785E-1,-1.7311092E-1,-4.9551633E-1,-4.4100618E-1,-2.3771565E-1,2.9439712E-2,3.7262487E-1,2.0087771E-1,-1.236415E-1,-4.1736864E-2,1.4490539E-1,9.919566E-2,-1.6198562E-1],"split_indices":[24,18,2,11,0,9,18,25,15,7,22,16,14,0,0,0,0,21,0,0,0,0,6,0,0,0,19,21,12,0,0,0,0,0,0,0,0],"split_type":[0,0,0,0,0,0,0,0,0,0,0,0,0,0,0,0,0,0,0,0,0,0,0,0,0,0,0,0,0,0,0,0,0,0,0,0,0],"sum_hessian":[1.054258E2,1.4198504E1,9.1227295E1,1.0697432E1,3.5010724E0,3.1047852E1,6.017944E1,4.480533E0,6.2168984E0,2.8579517E1,2.4683337E0,4.8785557E1,1.1393883E1,1.1182134E0,3.36232E0,1.0694677E0,5.147431E0,2.6832594E1,1.746923E0,1.4250302E0,1.0433037E0,4.5177315E1,3.6082454E0,1.1009755E0,1.0292908E1,2.3614784E1,3.2178097E0,3.6159245E1,9.018067E0,1.1611348E0,2.4471107E0,1.0146685E0,2.203141E0,1.6192024E1,1.9967222E1,1.7726679E0,7.2453995E0],"tree_param":{"num_deleted":"0","num_feature":"30","num_nodes":"37","size_leaf_vector":"1"}},{"base_weights":[1.5655294E-1,-3.7783813E-1,7.360359E-1,-4.1878483E-1,3.8587058E-1,-1.4715804E-1,8.062647E-1,8.220875E-2,-4.4820088E-1,2.424319E-1,-9.731491E-2,9.204079E-1,6.0928635E-2,-4.775272E-1,4.46192E-2,-2.094219E-1,9.985875E-1,-3.355152E-1,6.450034E-1,4.8349284E-2,-4.9374774E-1,1.6637793E-1,-1.1587669E-1,4.808581E-2,-1.22734815E-1,1.1976415E0,4.86997E-1,-1.4823644E-1,5.157003E-2,4.699711E-2,2.3510575E-1,-6.0032144E-2,-1.631175E-1,4.692739E-2,3.8308498E-1,2.0027998E-1,-1.21979035E-1],"categories":[],"categories_nodes":[],"categories_segments":[],"categories_sizes":[],"default_left":[0,0,0,0,0,0,0,0,0,0,0,0,0,0,0,0,0,0,0,0,0,0,0,0,0,0,0,0,0,0,0,0,0,0,0,0,0],"id":9,"left_children":[1,3,5,7,9,-1,11,-1,13,-1,-1,15,17,19,21,23,25,27,29,-1,31,-1,-1,-1,-1,33,35,-1,-1,-1,-1,-1,-1,-1,-1,-1,-1],"loss_changes":[3.4848675E1,1.9984369E0,5.0382595E0,1.2687626E0,1.3146169E0,0E0,4.3131447E0,0E0,8.063507E-1,0E0,0E0,4.1367836E0,2.0436838E0,6.1158943E-1,1.0855389E0,3.390636E-1,3.6694946E0,5.161925E-1,1.1649144E-1,0E0,6.297655E-1,0E0,0E0,0E0,0E0,2.226265E0,2.4312403E0,0E0,0E0,0E0,0E0,0E0,0E0,0E0,0E0,0E0,0E0],"parents":[2147483647,0,0,1,1,2,2,3,3,4,4,6,6,8,8,11,11,12,12,13,13,14,14,15,15,16,16,17,17,18,18,20,20,25,25,26,26],"right_children":[2,4,6,8,10,-1,12,-1,14,-1,-1,16,18,20,22,24,26,28,30,-1,32,-1,-1,-1,-1,34,36,-1,-1,-1,-1,-1,-1,-1,-1,-1,-1],"split_conditions":[1.5552285E-1,1.7800022E0,-7.7274203E-1,-1.231121E0,5.797386E-1,-1.4715804E-1,6.615593E-1,8.220875E-2,8.8213855E-1,2.424319E-1,-9.731491E-2,-9.7960943E-1,8.718117E-2,-7.688802E-1,1.3969544E0,-8.436623E-1,2.3220319E-1,9.7119117E-1,-4.9354115E-1,4.8349284E-2,-8.019085E-1,1.6637793E-1,-1.1587669E-1,4.808581E-2,-1.22734815E-1,-8.798842E-1,2.2686076E-1,-1.4823644E-1,5.157003E-2,4.699711E-2,2.3510575E-1,-6.0032144E-2,-1.631175E-1,4.692739E-2,3.8308498E-1,2.0027998E-1,-1.21979035E-1],"split_indices":[2,7,24,19,20,0,4,0,22,0,0,10,28,13,22,5,11,7,27,0,25,0,0,0,0,16,19,0,0,0,0,0,0,0,0,0,0],"split_type":[0,0,0,0,0,0,0,0,0,0,0,0,0,0,0,0,0,0,0,0,0,0,0,0,0,0,0,0,0,0,0,0,0,0,0,0,0],"sum_hessian":[1.10636635E2,5.7738743E1,5.289789E1,5.5229237E1,2.5095055E0,2.5406218E0,5.0357265E1,1.9107652E0,5.3318474E1,1.4874601E0,1.0220455E0,4.346587E1,6.891397E0,5.035313E1,2.9653423E0,2.7043686E0,4.07615E1,4.3585615E0,2.5328352E0,1.0258029E0,4.9327328E1,1.2265234E0,1.7388189E0,1.0176547E0,1.6867139E0,2.8378674E1,1.2382829E1,3.3405743E0,1.0179871E0,1.0312114E0,1.501624E0,7.902172E0,4.1425156E1,2.2189593E0,2.6159714E1,1.0511308E1,1.8715205E0],"tree_param":{"num_deleted":"0","num_feature":"30","num_nodes":"37","size_leaf_vector":"1"}},{"base_weights":[1.203817E-1,4.2881152E-1,-3.732E-1,-1.4156301E-1,5.882262E-1,-4.3133625E-1,1.7023537E-1,-3.6445028E-1,2.9883415E-1,3.5667247E-1,7.982966E-1,-4.7274852E-1,8.708681E-2,1.869514E-1,-1.5768465E-1,2.3327202E-1,-5.0959777E-2,6.6855687E-1,-7.822095E-3,-2.271708E-2,8.590531E-1,-5.1527745E-1,8.03235E-2,1.7734317E-1,-9.256799E-2,1.1423961E-1,-1.2179445E-1,1.7430517E-1,1.0428437E0,2.0831196E-1,-1.9247772E-1,9.241962E-1,1.4141779E-1,-5.406405E-1,4.624709E-2,1.4680408E-1,-1.3418993E-1,1.07748434E-1,3.3750004E-1,-1.1664835E-1,1.7916681E-1,4.6359822E-2,2.97272E-1,1.5856159E-1,-9.560509E-2,-1.7016107E-1,4.1082487E-2],"categories":[],"categories_nodes":[],"categories_segments":[],"categories_sizes":[],"default_left":[0,0,0,0,0,0,0,0,0,0,0,0,0,0,0,0,0,0,0,0,0,0,0,0,0,0,0,0,0,0,0,0,0,0,0,0,0,0,0,0,0,0,0,0,0,0,0],"id":10,"left_children":[1,3,5,7,9,11,-1,13,15,17,19,21,-1,23,-1,-1,25,27,29,-1,31,33,-1,-1,-1,-1,-1,35,37,-1,39,41,43,45,-1,-1,-1,-1,-1,-1,-1,-1,-1,-1,-1,-1,-1],"loss_changes":[1.658721E1,6.1638775E0,2.5433369E0,1.6219296E0,2.2670689E0,1.3371987E0,0E0,1.0477943E0,9.99022E-1,3.0475082E0,1.4828053E0,1.3458548E0,0E0,8.141513E-1,0E0,0E0,8.0587816E-1,2.4882565E0,1.861884E0,0E0,1.0400925E0,7.0500374E-1,0E0,0E0,0E0,0E0,0E0,1.6720566E0,4.600811E-2,0E0,1.9899952E0,1.01647E0,7.499547E-1,7.1660995E-1,0E0,0E0,0E0,0E0,0E0,0E0,0E0,0E0,0E0,0E0,0E0,0E0,0E0],"parents":[2147483647,0,0,1,1,2,2,3,3,4,4,5,5,7,7,8,8,9,9,10,10,11,11,13,13,16,16,17,17,18,18,20,20,21,21,27,27,28,28,30,30,31,31,32,32,33,33],"right_children":[2,4,6,8,10,12,-1,14,16,18,20,22,-1,24,-1,-1,26,28,30,-1,32,34,-1,-1,-1,-1,-1,36,38,-1,40,42,44,46,-1,-1,-1,-1,-1,-1,-1,-1,-1,-1,-1,-1,-1],"split_conditions":[-3.944562E-2,-7.6161325E-1,2.2476735E0,2.3237538E-2,-2.2813217E-1,2.4734683E0,1.7023537E-1,-6.4481807E-1,1.6473937E-1,-2.7331245E-1,-1.0087973E0,2.4920738E0,8.708681E-2,-5.718113E-2,-1.5768465E-1,2.3327202E-1,-5.131021E-1,-6.287595E-1,-1.372495E0,-2.271708E-2,-2.6653713E-1,1.7464533E0,8.03235E-2,1.7734317E-1,-9.256799E-2,1.1423961E-1,-1.2179445E-1,-7.6453054E-1,-9.546324E-1,2.0831196E-1,1.1212759E0,-7.474526E-1,1.1690934E-2,1.7371765E0,4.624709E-2,1.4680408E-1,-1.3418993E-1,1.07748434E-1,3.3750004E-1,-1.1664835E-1,1.7916681E-1,4.6359822E-2,2.97272E-1,1.5856159E-1,-9.560509E-2,-1.7016107E-1,4.1082487E-2],"split_indices":[2,18,5,25,28,4,0,22,25,21,17,24,0,7,0,0,12,20,2,0,2,8,0,0,0,0,0,29,4,0,27,19,12,20,0,0,0,0,0,0,0,0,0,0,0,0,0],"split_type":[0,0,0,0,0,0,0,0,0,0,0,0,0,0,0,0,0,0,0,0,0,0,0,0,0,0,0,0,0,0,0,0,0,0,0,0,0,0,0,0,0,0,0,0,0,0,0],"sum_hessian":[1.0690647E2,6.5874176E1,4.1032295E1,1.4413977E1,5.14602E1,3.915387E1,1.8784273E0,9.684867E0,4.7291102E0,2.5761738E1,2.5698463E1,3.735504E1,1.798827E0,2.1542926E0,7.5305743E0,1.4802482E0,3.248862E0,1.3433224E1,1.2328513E1,1.6542789E0,2.4044184E1,3.561377E1,1.7412696E0,1.0801818E0,1.0741107E0,1.4332333E0,1.8156286E0,6.4205213E0,7.012703E0,1.9922307E0,1.0336283E1,2.1779335E1,2.264849E0,3.449909E1,1.1146843E0,4.4021783E0,2.018343E0,1.3285528E0,5.68415E0,8.684585E0,1.6516979E0,2.0016804E0,1.9777655E1,1.1491944E0,1.1156546E0,3.3354404E1,1.1446831E0],"tree_param":{"num_deleted":"0","num_feature":"30","num_nodes":"47","size_leaf_vector":"1"}},{"base_weights":[4.345203E-2,4.6602198E-1,-1.21649064E-1,5.940041E-1,-1.725246E-1,4.404318E-2,-3.7685198E-1,7.712449E-1,1.8653095E-1,9.878342E-2,-1.360325E-1,2.0350492E-1,-2.959033E-1,-4.8600802E-1,1.9970053E-1,8.789516E-1,1.0066858E-1,4.52694E-1,-1.2451107E-1,3.3525255E-1,-1.4919451E-1,-1.6309315E-1,3.1542954E-1,-1.6667442E-1,-6.3033186E-2,-1.0721085E-1,4.6276647E-1,9.425297E-1,2.706904E-2,-1.0152977E-1,1.4746757E-1,6.7567486E-1,-9.7306885E-2,4.5190743E-1,-2.917291E-1,-1.17502086E-1,2.750952E-1,-1.2432574E-1,1.3472717E-1,-5.954411E-3,2.3518157E-1,3.1169298E-1,6.062716E-2,7.473734E-3,2.6653403E-1,-2.3236268E-3,2.0333977E-1,-1.3306826E-1,4.460479E-2],"categories":[],"categories_nodes":[],"categories_segments":[],"categories_sizes":[],"default_left":[0,0,0,0,0,0,0,0,0,0,0,0,0,0,0,0,0,0,0,0,0,0,0,0,0,0,0,0,0,0,0,0,0,0,0,0,0,0,0,0,0,0,0,0,0,0,0,0,0],"id":11,"left_children":[1,3,5,7,9,11,13,15,17,-1,-1,19,21,23,25,27,29,31,-1,33,-1,-1,35,-1,37,-1,39,41,-1,-1,-1,43,-1,45,47,-1,-1,-1,-1,-1,-1,-1,-1,-1,-1,-1,-1,-1,-1],"loss_changes":[7.262657E0,2.490778E0,3.190609E0,1.6306133E0,9.463717E-1,2.575925E0,1.9633093E0,1.1251478E0,1.5915825E0,0E0,0E0,3.1381693E0,2.4774332E0,7.0728827E-1,9.6102357E-1,6.344681E-1,7.593355E-1,1.3551039E0,0E0,2.156881E0,0E0,0E0,2.4960072E0,0E0,1.0302744E0,0E0,6.5472037E-1,7.3071E-1,0E0,0E0,0E0,7.2813964E-1,0E0,2.469811E0,3.9701536E-1,0E0,0E0,0E0,0E0,0E0,0E0,0E0,0E0,0E0,0E0,0E0,0E0,0E0,0E0],"parents":[2147483647,0,0,1,1,2,2,3,3,4,4,5,5,6,6,7,7,8,8,11,11,12,12,13,13,14,14,15,15,16,16,17,17,19,19,22,22,24,24,26,26,27,27,31,31,33,33,34,34],"right_children":[2,4,6,8,10,12,14,16,18,-1,-1,20,22,24,26,28,30,32,-1,34,-1,-1,36,-1,38,-1,40,42,-1,-1,-1,44,-1,46,48,-1,-1,-1,-1,-1,-1,-1,-1,-1,-1,-1,-1,-1,-1],"split_conditions":[-7.901068E-1,7.510578E-2,2.0256788E-1,-1.13381684E-1,-9.333418E-1,5.232044E-1,1.0217566E0,4.595365E-1,-1.3434583E-1,9.878342E-2,-1.360325E-1,1.2138616E0,-2.2656241E-1,1.7611473E0,-4.5515388E-1,9.0326977E-1,-1.0554497E0,1.9799767E-1,-1.2451107E-1,6.646164E-2,-1.4919451E-1,-1.6309315E-1,9.5879085E-2,-1.6667442E-1,-4.3574688E-1,-1.0721085E-1,-3.95116E-1,-2.0270862E-1,2.706904E-2,-1.0152977E-1,1.4746757E-1,-8.261177E-1,-9.7306885E-2,-5.7215506E-1,3.5646266E-1,-1.17502086E-1,2.750952E-1,-1.2432574E-1,1.3472717E-1,-5.954411E-3,2.3518157E-1,3.1169298E-1,6.062716E-2,7.473734E-3,2.6653403E-1,-2.3236268E-3,2.0333977E-1,-1.3306826E-1,4.460479E-2],"split_indices":[18,21,14,2,6,2,8,23,26,0,0,15,23,1,4,3,18,29,0,13,0,0,6,0,16,0,18,2,0,0,0,5,0,21,16,0,0,0,0,0,0,0,0,0,0,0,0,0,0],"split_type":[0,0,0,0,0,0,0,0,0,0,0,0,0,0,0,0,0,0,0,0,0,0,0,0,0,0,0,0,0,0,0,0,0,0,0,0,0,0,0,0,0,0,0,0,0,0,0,0,0],"sum_hessian":[1.0228653E2,2.8224459E1,7.406207E1,2.357012E1,4.6543384E0,4.5408024E1,2.8654049E1,1.5803317E1,7.766803E0,1.6086498E0,3.0456884E0,3.1182384E1,1.4225638E1,2.4224737E1,4.429313E0,1.3348556E1,2.4547617E0,5.5560226E0,2.21078E0,2.6687088E1,4.4952965E0,1.0202026E1,4.0236125E0,2.053372E1,3.691016E0,1.3057566E0,3.1235566E0,1.2172345E1,1.1762105E0,1.2192892E0,1.2354724E0,4.4185467E0,1.1374757E0,2.2736092E1,3.9509957E0,2.0099244E0,2.013688E0,2.302188E0,1.3888282E0,1.6229721E0,1.5005846E0,1.041282E1,1.7595254E0,1.3639606E0,3.0545862E0,7.809912E0,1.492618E1,2.9327726E0,1.0182229E0],"tree_param":{"num_deleted":"0","num_feature":"30","num_nodes":"49","size_leaf_vector":"1"}},{"base_weights":[-3.5888138E-1,1.7028245E-1,-3.780424E-1,3.263211E-1,-4.0544263E-1,2.0475714E-1,-9.647591E-2,-2.6660377E-1,-5.2307856E-1,-1.09789E-1,-1.6386887E-1,-5.4376864E-1,3.0127548E-2,-3.8350114E-1,1.029148E-1,2.642657E-2,-1.6965346E-1,-1.609747E-1,8.778812E-2,1.1021897E-1,-1.4606908E-1],"categories":[],"categories_nodes":[],"categories_segments":[],"categories_sizes":[],"default_left":[0,0,0,0,0,0,0,0,0,0,0,0,0,0,0,0,0,0,0,0,0],"id":12,"left_children":[1,-1,3,5,7,-1,-1,9,11,13,-1,15,-1,17,19,-1,-1,-1,-1,-1,-1],"loss_changes":[1.748724E0,0E0,1.7779493E0,1.0842093E0,1.208313E0,0E0,0E0,1.6891372E0,6.174774E-1,1.6002332E0,0E0,6.321392E-1,0E0,1.3922687E0,2.6550994E0,0E0,0E0,0E0,0E0,0E0,0E0],"parents":[2147483647,0,0,2,2,3,3,4,4,7,7,8,8,9,9,11,11,13,13,14,14],"right_children":[2,-1,4,6,8,-1,-1,10,12,14,-1,16,-1,18,20,-1,-1,-1,-1,-1,-1],"split_conditions":[-1.2433999E0,1.7028245E-1,-1.0613084E0,-3.0310023E-1,-3.5369697E-1,2.0475714E-1,-9.647591E-2,4.4708502E-1,3.7844663E0,-3.49429E-1,-1.6386887E-1,-1.0506938E0,3.0127548E-2,6.980032E-1,1.2101503E-1,2.642657E-2,-1.6965346E-1,-1.609747E-1,8.778812E-2,1.1021897E-1,-1.4606908E-1],"split_indices":[5,0,28,13,18,0,0,8,28,12,0,27,0,4,2,0,0,0,0,0,0],"split_type":[0,0,0,0,0,0,0,0,0,0,0,0,0,0,0,0,0,0,0,0,0],"sum_hessian":[8.541858E1,1.150805E0,8.426778E1,2.7468374E0,8.1520935E1,1.7379369E0,1.0089005E0,3.8888927E1,4.2632008E1,2.5808237E1,1.3080691E1,4.1386536E1,1.2454708E0,1.0934496E1,1.4873742E1,1.2752725E0,4.0111263E1,9.084155E0,1.8503401E0,1.0529312E1,4.3444304E0],"tree_param":{"num_deleted":"0","num_feature":"30","num_nodes":"21","size_leaf_vector":"1"}},{"base_weights":[1.7370904E-3,-2.9585293E-1,1.2779291E-1,3.8445988E-1,-3.7115544E-1,4.5008516E-1,1.598791E-2,1.9537972E-1,6.8054567E-3,-4.302093E-1,1.5797576E-1,4.197618E-2,7.8477705E-1,1.3602142E-1,-1.5739274E-1,1.3718604E-1,-4.9190217E-1,3.730586E-1,-1.3772812E-1,2.3626749E-1,9.5311075E-1,7.1770484E-3,5.4527026E-1,4.647711E-2,-5.263709E-1,2.5715807E-1,-1.9048855E-1,1.2745245E-1,-9.91127E-3,5.266736E-2,3.1379867E-1,1.8338063E-1,-4.626778E-1,-2.42545E-1,8.6388355E-1,-1.6930896E-1,1.4535917E-2,-1.20797954E-1,5.223156E-2,1.01600476E-1,-1.1446205E-1,3.770502E-2,-1.642797E-1,-1.2506424E-1,3.5987753E-2,5.1079605E-2,3.2500806E-1],"categories":[],"categories_nodes":[],"categories_segments":[],"categories_sizes":[],"default_left":[0,0,0,0,0,0,0,0,0,0,0,0,0,0,0,0,0,0,0,0,0,0,0,0,0,0,0,0,0,0,0,0,0,0,0,0,0,0,0,0,0,0,0,0,0,0,0],"id":13,"left_children":[1,3,5,7,9,11,13,-1,-1,15,-1,17,19,21,-1,-1,23,25,-1,27,29,31,33,-1,35,-1,37,-1,-1,-1,-1,39,41,43,45,-1,-1,-1,-1,-1,-1,-1,-1,-1,-1,-1,-1],"loss_changes":[3.9033127E0,1.7288833E0,2.6262321E0,3.3047557E-1,1.7314129E0,2.5330493E0,3.659728E0,0E0,0E0,1.7133284E0,0E0,1.7507783E0,7.225933E-1,2.4239383E0,0E0,0E0,6.589737E-1,1.8779616E0,0E0,2.0397046E-1,3.598299E-1,3.067937E0,2.973541E0,0E0,5.6930065E-1,0E0,3.580527E-1,0E0,0E0,0E0,0E0,2.4908566E0,5.740168E-1,2.9974943E-1,1.0425191E0,0E0,0E0,0E0,0E0,0E0,0E0,0E0,0E0,0E0,0E0,0E0,0E0],"parents":[2147483647,0,0,1,1,2,2,3,3,4,4,5,5,6,6,9,9,11,11,12,12,13,13,16,16,17,17,19,19,20,20,21,21,22,22,24,24,26,26,31,31,32,32,33,33,34,34],"right_children":[2,4,6,8,10,12,14,-1,-1,16,-1,18,20,22,-1,-1,24,26,-1,28,30,32,34,-1,36,-1,38,-1,-1,-1,-1,40,42,44,46,-1,-1,-1,-1,-1,-1,-1,-1,-1,-1,-1,-1],"split_conditions":[-4.1592556E-1,-1.0536419E0,-6.729229E-1,-6.1240524E-1,2.498373E0,-3.8107944E-1,6.936002E-1,1.9537972E-1,6.8054567E-3,-7.959865E-1,1.5797576E-1,-1.4784032E-1,-1.1007595E0,2.7484027E-1,-1.5739274E-1,1.3718604E-1,-1.1720932E0,1.2888107E0,-1.3772812E-1,-1.2959989E0,-4.8392305E-1,-2.987683E-2,-5.8964956E-1,4.647711E-2,2.4657402E0,2.5715807E-1,1.083059E0,1.2745245E-1,-9.91127E-3,5.266736E-2,3.1379867E-1,7.584026E-1,-7.53698E-1,-6.198174E-1,6.631659E-2,-1.6930896E-1,1.4535917E-2,-1.20797954E-1,5.223156E-2,1.01600476E-1,-1.1446205E-1,3.770502E-2,-1.642797E-1,-1.2506424E-1,3.5987753E-2,5.1079605E-2,3.2500806E-1],"split_indices":[2,5,24,19,6,22,18,0,0,24,0,11,3,29,0,0,3,0,0,3,10,12,24,0,28,0,14,0,0,0,0,5,22,24,25,0,0,0,0,0,0,0,0,0,0,0,0],"split_type":[0,0,0,0,0,0,0,0,0,0,0,0,0,0,0,0,0,0,0,0,0,0,0,0,0,0,0,0,0,0,0,0,0,0,0,0,0,0,0,0,0,0,0,0,0,0,0],"sum_hessian":[1.0204453E2,2.996255E1,7.2081985E1,2.5768378E0,2.7385712E1,1.778598E1,5.4296E1,1.0225335E0,1.5543042E0,2.6184097E1,1.2016151E0,8.521114E0,9.264866E0,4.5043594E1,9.252406E0,1.2850741E0,2.4899023E1,5.284712E0,3.2364025E0,2.7400565E0,6.52481E0,3.503197E1,1.0011625E1,1.0829135E0,2.3816109E1,2.5623593E0,2.7223527E0,1.2718962E0,1.4681602E0,1.0046644E0,5.5201454E0,2.5920898E1,9.111072E0,2.9517543E0,7.0598707E0,2.235667E1,1.4594389E0,1.6548969E0,1.0674558E0,2.0646118E1,5.2747808E0,1.0886382E0,8.022434E0,1.8918985E0,1.0598559E0,2.123787E0,4.9360843E0],"tree_param":{"num_deleted":"0","num_feature":"30","num_nodes":"47","size_leaf_vector":"1"}},{"base_weights":[1.2147829E-1,-3.442663E-1,5.4687285E-1,-3.85082E-1,3.1047672E-1,-1.3728912E-1,5.969212E-1,-4.4211283E-1,2.7105523E-2,2.0287864E-1,-9.720924E-2,7.3070145E-1,2.5482494E-1,-6.272371E-2,-4.941471E-1,1.9360419E-1,-3.0287606E-1,7.8127587E-1,-1.2692185E-1,2.8766325E-1,4.946233E-2,-1.386383E-1,1.6209063E-1,4.5452703E-2,-5.1736724E-1,4.5108438E-2,-1.3831717E-1,8.403667E-1,3.882063E-2,3.9443776E-2,-9.745969E-2,6.529198E-1,-2.2734906E-1,-6.693322E-2,-1.6999412E-1,2.6567224E-1,-2.1016944E-2,1.8157527E-1,-1.2235155E-1,2.9865277E-1,-9.523873E-2,7.8011826E-2,-1.6120018E-1],"categories":[],"categories_nodes":[],"categories_segments":[],"categories_sizes":[],"default_left":[0,0,0,0,0,0,0,0,0,0,0,0,0,0,0,0,0,0,0,0,0,0,0,0,0,0,0,0,0,0,0,0,0,0,0,0,0,0,0,0,0,0,0],"id":14,"left_children":[1,3,5,7,9,-1,11,13,15,-1,-1,17,19,21,23,-1,25,27,29,-1,31,-1,-1,-1,33,-1,-1,35,37,-1,-1,39,41,-1,-1,-1,-1,-1,-1,-1,-1,-1,-1],"loss_changes":[2.197297E1,1.5386314E0,3.1816425E0,1.1975045E0,1.0708313E0,0E0,2.3556747E0,8.4472466E-1,1.6381938E0,0E0,0E0,1.8077278E0,2.4321346E0,1.814175E0,6.61046E-1,0E0,4.4869104E-1,1.6054726E0,1.9891344E-1,0E0,2.5423694E0,0E0,0E0,0E0,4.208622E-1,0E0,0E0,1.4834995E0,1.2085063E0,0E0,0E0,1.9000843E0,1.7361112E0,0E0,0E0,0E0,0E0,0E0,0E0,0E0,0E0,0E0,0E0],"parents":[2147483647,0,0,1,1,2,2,3,3,4,4,6,6,7,7,8,8,11,11,12,12,13,13,14,14,16,16,17,17,18,18,20,20,24,24,27,27,28,28,31,31,32,32],"right_children":[2,4,6,8,10,-1,12,14,16,-1,-1,18,20,22,24,-1,26,28,30,-1,32,-1,-1,-1,34,-1,-1,36,38,-1,-1,40,42,-1,-1,-1,-1,-1,-1,-1,-1,-1,-1],"split_conditions":[1.5552285E-1,1.7800022E0,-7.7274203E-1,-2.23933E-2,2.188661E0,-1.3728912E-1,1.3686405E-1,-1.0245637E0,-7.235054E-1,2.0287864E-1,-9.720924E-2,1.7889149E0,-9.2302907E-1,8.5764635E-1,-1.0950508E0,1.9360419E-1,-6.9989413E-1,1.09942E0,-6.298008E-1,2.8766325E-1,-8.389696E-1,-1.386383E-1,1.6209063E-1,4.5452703E-2,-5.974478E-1,4.5108438E-2,-1.3831717E-1,2.1905062E0,-1.0082178E-1,3.9443776E-2,-9.745969E-2,2.0589457E0,-2.2305365E-1,-6.693322E-2,-1.6999412E-1,2.6567224E-1,-2.1016944E-2,1.8157527E-1,-1.2235155E-1,2.9865277E-1,-9.523873E-2,7.8011826E-2,-1.6120018E-1],"split_indices":[2,7,24,2,23,0,8,3,19,0,0,27,25,29,12,0,27,9,21,0,28,0,0,0,22,0,0,24,14,0,0,11,3,0,0,0,0,0,0,0,0,0,0],"split_type":[0,0,0,0,0,0,0,0,0,0,0,0,0,0,0,0,0,0,0,0,0,0,0,0,0,0,0,0,0,0,0,0,0,0,0,0,0,0,0,0,0,0,0],"sum_hessian":[1.089542E2,5.2101463E1,5.6852737E1,4.9431816E1,2.6696475E0,2.3116972E0,5.454104E1,4.3359882E1,6.0719333E0,1.6516731E0,1.0179744E0,3.8391647E1,1.6149393E1,5.495664E0,3.7864216E1,1.7804462E0,4.2914867E0,3.633781E1,2.0538366E0,2.8182583E0,1.3331135E1,3.4465513E0,2.049113E0,1.1226637E0,3.6741554E1,1.1230471E0,3.1684399E0,3.3536793E1,2.8010159E0,1.036516E0,1.0173208E0,3.7648742E0,9.566261E0,6.063427E0,3.0678127E1,3.1976295E1,1.5604994E0,1.078392E0,1.7226237E0,2.7633805E0,1.0014939E0,3.781593E0,5.784668E0],"tree_param":{"num_deleted":"0","num_feature":"30","num_nodes":"43","size_leaf_vector":"1"}},{"base_weights":[1.00712754E-1,3.4622774E-1,-3.3989835E-1,-1.1319569E-1,4.6303865E-1,-4.0081164E-1,1.4615238E-1,-3.2698286E-1,2.5849736E-1,5.799058E-1,1.5229641E-1,-4.4526944E-1,7.493078E-2,5.868808E-2,-1.496573E-1,1.9825017E-1,-5.5564266E-2,2.3404786E-1,7.0089555E-1,-1.5945187E-1,4.456221E-1,-4.902371E-1,6.5726355E-2,1.0515255E-1,-1.1406575E-1,3.9815328E-1,-1.3696173E-1,7.92368E-3,7.345357E-1,5.820892E-1,-4.3174073E-2,4.9857534E-2,-5.184731E-1,3.2857233E-3,2.161591E-1,2.3266336E-1,3.314243E-2,-8.286416E-3,2.0282568E-1,-1.6479555E-1,4.6788093E-2],"categories":[],"categories_nodes":[],"categories_segments":[],"categories_sizes":[],"default_left":[0,0,0,0,0,0,0,0,0,0,0,0,0,0,0,0,0,0,0,0,0,0,0,0,0,0,0,0,0,0,0,0,0,0,0,0,0,0,0,0,0],"id":15,"left_children":[1,3,5,7,9,11,-1,13,15,17,19,21,-1,-1,-1,-1,23,25,27,-1,29,31,-1,-1,-1,33,-1,-1,35,37,-1,-1,39,-1,-1,-1,-1,-1,-1,-1,-1],"loss_changes":[1.117734E1,3.602354E0,2.0637422E0,1.2139301E0,1.8340912E0,1.1262054E0,0E0,9.4773495E-1,7.6306766E-1,1.4307814E0,3.4107435E0,1.0994525E0,0E0,0E0,0E0,0E0,6.804786E-1,1.4713069E0,6.098709E-1,0E0,1.0184312E0,6.683626E-1,0E0,0E0,0E0,1.206411E0,0E0,0E0,5.894108E-1,5.706935E-1,0E0,0E0,7.1721745E-1,0E0,0E0,0E0,0E0,0E0,0E0,0E0,0E0],"parents":[2147483647,0,0,1,1,2,2,3,3,4,4,5,5,7,7,8,8,9,9,10,10,11,11,16,16,17,17,18,18,20,20,21,21,25,25,28,28,29,29,32,32],"right_children":[2,4,6,8,10,12,-1,14,16,18,20,22,-1,-1,-1,-1,24,26,28,-1,30,32,-1,-1,-1,34,-1,-1,36,38,-1,-1,40,-1,-1,-1,-1,-1,-1,-1,-1],"split_conditions":[-3.944562E-2,-7.6161325E-1,2.2476735E0,2.3237538E-2,4.5075044E-1,2.4734683E0,1.4615238E-1,-6.4481807E-1,1.6473937E-1,-6.287595E-1,-5.682651E-2,2.4920738E0,7.493078E-2,5.868808E-2,-1.496573E-1,1.9825017E-1,-1.0554497E0,-1.7829499E-1,-7.264895E-1,-1.5945187E-1,-6.652364E-1,-1.5332992E0,6.5726355E-2,1.0515255E-1,-1.1406575E-1,-5.9886104E-1,-1.3696173E-1,7.92368E-3,1.2667973E0,-3.4847343E-1,-4.3174073E-2,4.9857534E-2,1.7464533E0,3.2857233E-3,2.161591E-1,2.3266336E-1,3.314243E-2,-8.286416E-3,2.0282568E-1,-1.6479555E-1,4.6788093E-2],"split_indices":[2,18,5,25,12,4,0,22,25,20,18,24,0,0,0,0,18,6,13,0,2,26,0,0,0,24,0,0,9,5,0,0,8,0,0,0,0,0,0,0,0],"split_type":[0,0,0,0,0,0,0,0,0,0,0,0,0,0,0,0,0,0,0,0,0,0,0,0,0,0,0,0,0,0,0,0,0,0,0,0,0,0,0,0,0],"sum_hessian":[1.01237045E2,6.514918E1,3.6087868E1,1.3212942E1,5.1936237E1,3.4092377E1,1.9954925E0,8.4646225E0,4.74832E0,3.711242E1,1.4823819E1,3.220707E1,1.8853066E0,2.0606692E0,6.403953E0,1.5975652E0,3.1507547E0,1.0378673E1,2.6733746E1,4.2062297E0,1.061759E1,3.0410776E1,1.796293E0,1.3644679E0,1.786287E0,8.728064E0,1.650609E0,1.35482E0,2.5378925E1,8.632053E0,1.9855366E0,1.0526669E0,2.935811E1,4.4351106E0,4.292953E0,2.3586267E1,1.7926586E0,1.2473328E0,7.3847203E0,2.825153E1,1.1065805E0],"tree_param":{"num_deleted":"0","num_feature":"30","num_nodes":"41","size_leaf_vector":"1"}},{"base_weights":[3.7955217E-2,3.783362E-1,-1.0303892E-1,5.40934E-1,3.188798E-2,4.294182E-2,-3.4848163E-1,-3.0259097E-2,6.383156E-1,4.3383288E-1,-2.532106E-1,-3.8917046E-2,6.5776116E-1,-4.6279857E-1,1.7622033E-1,-1.1532959E-1,1.15981326E-1,8.269745E-1,3.6567017E-1,-1.0778141E-2,2.1436067E-1,-1.4668773E-1,1.09388284E-1,2.2834249E-1,-8.6826995E-2,2.5798085E-1,6.1628055E-2,-1.6100208E-1,-6.5692015E-2,4.1421998E-1,-1.03974275E-1,2.7811018E-1,5.8790196E-2,-1.17138706E-1,5.3785515E-1,-2.3962282E-1,1.8844359E-1,1.1525571E-1,-1.2070961E-1,-9.272029E-2,2.2844833E-1,2.1846169E-1,-3.3963893E-2,3.2668312E-3,-1.4156038E-1,1.7988168E-1,-6.0393322E-2],"categories":[],"categories_nodes":[],"categories_segments":[],"categories_sizes":[],"default_left":[0,0,0,0,0,0,0,0,0,0,0,0,0,0,0,0,0,0,0,0,0,0,0,0,0,0,0,0,0,0,0,0,0,0,0,0,0,0,0,0,0,0,0,0,0,0,0],"id":16,"left_children":[1,3,5,7,9,11,13,15,17,19,21,23,25,27,29,-1,-1,31,33,-1,-1,-1,-1,-1,35,-1,-1,-1,37,39,-1,-1,-1,-1,41,43,45,-1,-1,-1,-1,-1,-1,-1,-1,-1,-1],"loss_changes":[4.787011E0,1.6271744E0,2.5496628E0,1.1209307E0,1.3001366E0,2.3029342E0,1.6706672E0,7.1548146E-1,5.702481E-1,6.426287E-1,1.1553679E0,1.6329299E0,3.1467652E-1,6.110029E-1,8.2338816E-1,0E0,0E0,4.013734E-1,1.3467401E0,0E0,0E0,0E0,0E0,0E0,1.705059E0,0E0,0E0,0E0,8.505279E-1,1.2928283E0,0E0,0E0,0E0,0E0,1.0159132E0,1.5072587E0,2.4678535E0,0E0,0E0,0E0,0E0,0E0,0E0,0E0,0E0,0E0,0E0],"parents":[2147483647,0,0,1,1,2,2,3,3,4,4,5,5,6,6,7,7,8,8,9,9,10,10,11,11,12,12,13,13,14,14,17,17,18,18,24,24,28,28,29,29,34,34,35,35,36,36],"right_children":[2,4,6,8,10,12,14,16,18,20,22,24,26,28,30,-1,-1,32,34,-1,-1,-1,-1,-1,36,-1,-1,-1,38,40,-1,-1,-1,-1,42,44,46,-1,-1,-1,-1,-1,-1,-1,-1,-1,-1],"split_conditions":[-7.901068E-1,-1.13381684E-1,2.0256788E-1,-7.813975E-1,-5.2409446E-1,1.6420298E0,1.0217566E0,-4.747482E-1,-4.7413233E-1,-2.9889697E-1,1.531507E0,-9.402047E-1,-6.593261E-1,1.7611473E0,7.072673E-1,-1.1532959E-1,1.15981326E-1,5.7053722E-2,-9.462283E-1,-1.0778141E-2,2.1436067E-1,-1.4668773E-1,1.09388284E-1,2.2834249E-1,1.9353704E-1,2.5798085E-1,6.1628055E-2,-1.6100208E-1,-4.797156E-1,2.8383952E-1,-1.03974275E-1,2.7811018E-1,5.8790196E-2,-1.17138706E-1,2.6161543E-1,1.13501295E-1,-4.14966E-1,1.1525571E-1,-1.2070961E-1,-9.272029E-2,2.2844833E-1,2.1846169E-1,-3.3963893E-2,3.2668312E-3,-1.4156038E-1,1.7988168E-1,-6.0393322E-2],"split_indices":[18,2,14,5,25,19,8,0,12,20,25,22,5,1,5,0,0,0,6,0,0,0,0,0,26,0,0,0,9,5,0,0,0,0,9,2,10,0,0,0,0,0,0,0,0,0,0],"split_type":[0,0,0,0,0,0,0,0,0,0,0,0,0,0,0,0,0,0,0,0,0,0,0,0,0,0,0,0,0,0,0,0,0,0,0,0,0,0,0,0,0,0,0,0,0,0,0],"sum_hessian":[9.793431E1,2.8191782E1,6.974253E1,1.8804794E1,9.386987E0,4.424951E1,2.549302E1,2.8394184E0,1.5965376E1,3.6787803E0,5.708206E0,3.9876884E1,4.372625E0,2.1029331E1,4.4636874E0,1.5772038E0,1.2622148E0,8.2343855E0,7.7309904E0,1.7021751E0,1.9766052E0,4.282666E0,1.42554E0,1.4119247E0,3.8464962E1,2.3991814E0,1.9734433E0,1.7434479E1,3.5948524E0,3.2100415E0,1.2536457E0,6.7024407E0,1.5319449E0,1.198817E0,6.5321736E0,2.4818392E1,1.3646569E1,1.4783257E0,2.1165268E0,1.0769783E0,2.1330633E0,4.9627523E0,1.569421E0,1.2398165E1,1.2420227E1,6.3788943E0,7.2676744E0],"tree_param":{"num_deleted":"0","num_feature":"30","num_nodes":"47","size_leaf_vector":"1"}},{"base_weights":[-3.2600364E-1,1.4534561E-1,-3.458267E-1,2.7415374E-1,-3.7391937E-1,1.6643494E-1,-1.44718615E-2,-2.3594892E-1,-4.9978432E-1,-8.7939E-2,-1.5775006E-1,-5.2308536E-1,2.7633002E-2,-1.8318838E-1,4.2269444E-1,2.7236598E-2,-1.6442654E-1,1.4715898E-1,-7.4798346E-2,2.5896814E-1,-9.836226E-2],"categories":[],"categories_nodes":[],"categories_segments":[],"categories_sizes":[],"default_left":[0,0,0,0,0,0,0,0,0,0,0,0,0,0,0,0,0,0,0,0,0],"id":17,"left_children":[1,-1,3,5,7,-1,-1,9,11,13,-1,15,-1,17,19,-1,-1,-1,-1,-1,-1],"loss_changes":[1.40658E0,0E0,1.4237928E0,3.7648043E-1,1.1497087E0,0E0,0E0,1.5291703E0,5.623188E-1,1.3180766E0,0E0,6.025667E-1,0E0,1.1113224E0,1.7089233E0,0E0,0E0,0E0,0E0,0E0,0E0],"parents":[2147483647,0,0,2,2,3,3,4,4,7,7,8,8,9,9,11,11,13,13,14,14],"right_children":[2,-1,4,6,8,-1,-1,10,12,14,-1,16,-1,18,20,-1,-1,-1,-1,-1,-1],"split_conditions":[-1.2433999E0,1.4534561E-1,-1.0613084E0,-7.615587E-1,-3.5369697E-1,1.6643494E-1,-1.44718615E-2,4.4708502E-1,3.7844663E0,-4.4584167E-1,-1.5775006E-1,-1.0506938E0,2.7633002E-2,-9.5219296E-1,3.0210721E-1,2.7236598E-2,-1.6442654E-1,1.4715898E-1,-7.4798346E-2,2.5896814E-1,-9.836226E-2],"split_indices":[5,0,28,18,18,0,0,8,28,18,0,27,0,16,2,0,0,0,0,0,0],"split_type":[0,0,0,0,0,0,0,0,0,0,0,0,0,0,0,0,0,0,0,0,0],"sum_hessian":[7.611965E1,1.2576718E0,7.4861984E1,2.865439E0,7.1996544E1,1.1465713E0,1.7188677E0,3.5717934E1,3.627861E1,2.4507961E1,1.1209972E1,3.5016376E1,1.2622321E0,2.1195566E1,3.3123946E0,1.2674321E0,3.3748947E1,1.321162E0,1.9874405E1,1.9927112E0,1.3196833E0],"tree_param":{"num_deleted":"0","num_feature":"30","num_nodes":"21","size_leaf_vector":"1"}},{"base_weights":[8.416774E-3,-2.5542307E-1,1.09872006E-1,-3.755339E-1,1.7741258E-1,3.78804E-1,1.3236385E-2,-4.51727E-1,8.1815E-2,-1.4400238E-1,2.492605E-1,3.9821226E-2,6.308564E-1,1.0961833E-1,-1.4986074E-1,-4.8880946E-2,-1.6103932E-1,9.822359E-2,-1.294034E-1,3.2669017E-1,-1.3057466E-1,3.8722581E-3,7.0885056E-1,-1.5072232E-1,2.573737E-1,-1.23722136E-1,1.7232001E-1,2.0476355E-1,-1.500717E-1,1.5974498E-1,2.8287596E-1,-1.5716828E-1,8.209744E-2,-1.8642032E-1,4.482943E-1,-1.1005244E-1,5.538296E-2,1.5070246E-1,-1.03167355E-1,1.0805493E-1,-1.3988386E-1,-1.2528697E-1,1.299643E-1,1.8405984E-1,-4.4964794E-2],"categories":[],"categories_nodes":[],"categories_segments":[],"categories_sizes":[],"default_left":[0,0,0,0,0,0,0,0,0,0,0,0,0,0,0,0,0,0,0,0,0,0,0,0,0,0,0,0,0,0,0,0,0,0,0,0,0,0,0,0,0,0,0,0,0],"id":18,"left_children":[1,3,5,7,9,11,13,15,-1,17,-1,19,21,23,-1,25,-1,-1,-1,27,-1,-1,29,31,33,-1,-1,-1,35,37,-1,-1,39,41,43,-1,-1,-1,-1,-1,-1,-1,-1,-1,-1],"loss_changes":[2.6650884E0,1.5047058E0,1.8623226E0,1.2085302E0,1.5242897E0,1.5946438E0,2.7183578E0,6.60512E-1,0E0,8.6390835E-1,0E0,1.3894557E0,5.11641E-1,1.815481E0,0E0,1.277817E0,0E0,0E0,0E0,1.1674659E0,0E0,0E0,1.0801735E0,1.5507047E0,2.6114132E0,0E0,0E0,0E0,3.218421E-1,8.743132E-1,0E0,0E0,1.9293953E0,1.5677435E0,2.1828494E0,0E0,0E0,0E0,0E0,0E0,0E0,0E0,0E0,0E0,0E0],"parents":[2147483647,0,0,1,1,2,2,3,3,4,4,5,5,6,6,7,7,9,9,11,11,12,12,13,13,15,15,19,19,22,22,23,23,24,24,28,28,29,29,32,32,33,33,34,34],"right_children":[2,4,6,8,10,12,14,16,-1,18,-1,20,22,24,-1,26,-1,-1,-1,28,-1,-1,30,32,34,-1,-1,-1,36,38,-1,-1,40,42,44,-1,-1,-1,-1,-1,-1,-1,-1,-1,-1],"split_conditions":[-4.1592556E-1,9.1197044E-1,-6.729229E-1,2.136962E0,8.020798E-1,-3.8107944E-1,6.936002E-1,-9.168741E-1,8.1815E-2,-4.811529E-1,2.492605E-1,-1.4784032E-1,-1.7453894E-1,-2.7198786E-1,-1.4986074E-1,2.080623E-1,-1.6103932E-1,9.822359E-2,-1.294034E-1,1.2888107E0,-1.3057466E-1,3.8722581E-3,-9.91545E-1,-3.3435848E-2,-5.9342676E-1,-1.23722136E-1,1.7232001E-1,2.0476355E-1,2.0100026E0,-7.559522E-1,2.8287596E-1,-1.5716828E-1,5.992888E-1,6.050653E-1,1.5044606E-1,-1.1005244E-1,5.538296E-2,1.5070246E-1,-1.03167355E-1,1.0805493E-1,-1.3988386E-1,-1.2528697E-1,1.299643E-1,1.8405984E-1,-4.4964794E-2],"split_indices":[2,9,24,27,3,22,18,3,0,22,0,11,2,11,0,8,0,0,0,0,0,0,3,14,25,0,0,0,0,24,0,0,5,23,4,0,0,0,0,0,0,0,0,0,0],"split_type":[0,0,0,0,0,0,0,0,0,0,0,0,0,0,0,0,0,0,0,0,0,0,0,0,0,0,0,0,0,0,0,0,0,0,0,0,0,0,0,0,0,0,0,0,0],"sum_hessian":[9.751431E1,2.6661652E1,7.085266E1,2.0973846E1,5.6878057E0,1.7957615E1,5.2895046E1,1.9039206E1,1.9346409E0,4.335121E0,1.3526845E0,8.152025E0,9.805591E0,4.518768E1,7.707366E0,3.5941176E0,1.5445088E1,1.5889072E0,2.746214E0,5.2775393E0,2.8744857E0,1.2295265E0,8.576064E0,1.6353395E1,2.8834286E1,2.4837873E0,1.1103303E0,2.7748013E0,2.502738E0,3.065991E0,5.5100727E0,5.802586E0,1.0550808E1,8.680373E0,2.0153913E1,1.4606192E0,1.0421189E0,1.8262572E0,1.2397338E0,7.2284145E0,3.3223941E0,6.559033E0,2.1213405E0,1.5771558E1,4.3823547E0],"tree_param":{"num_deleted":"0","num_feature":"30","num_nodes":"45","size_leaf_vector":"1"}},{"base_weights":[9.800396E-2,-3.1319073E-1,4.3300954E-1,-3.7708205E-1,8.354423E-2,-1.2773457E-1,4.7245586E-1,-4.455866E-1,1.9589327E-2,4.181087E-1,-1.258537E-1,5.432317E-1,-9.645217E-3,-2.1809436E-1,-1.6431387E-1,4.0745407E-1,-1.3114047E-1,-8.988746E-2,6.769457E-1,-2.2766455E-1,5.920072E-1,-3.4500745E-1,4.7285622E-1,-4.2774552E-1,2.0671138E-1,-1.1992324E-1,2.8661725E-1,3.8802624E-2,2.4878743E-1,3.8340002E-2,-1.2360468E-1,2.7957797E-1,7.453238E-1,4.2107828E-2,-1.491985E-1,3.1358577E-2,1.7442448E-1,-1.5451291E-1,6.1003003E-2,3.9948832E-2,-9.2646986E-2,1.5995464E-1,-2.0740712E-2,2.3908493E-1,1.4436682E-2],"categories":[],"categories_nodes":[],"categories_segments":[],"categories_sizes":[],"default_left":[0,0,0,0,0,0,0,0,0,0,0,0,0,0,0,0,0,0,0,0,0,0,0,0,0,0,0,0,0,0,0,0,0,0,0,0,0,0,0,0,0,0,0,0,0],"id":19,"left_children":[1,3,5,7,9,-1,11,13,15,17,-1,19,21,23,-1,25,-1,-1,27,29,31,33,35,37,-1,39,-1,-1,-1,-1,-1,41,43,-1,-1,-1,-1,-1,-1,-1,-1,-1,-1,-1,-1],"loss_changes":[1.4557533E1,1.2376251E0,2.1697664E0,1.1273136E0,1.4239882E0,0E0,1.9171753E0,6.970482E-1,1.4216783E0,1.1235886E0,0E0,1.9726353E0,1.4828265E0,2.6815896E0,0E0,1.3611063E0,0E0,0E0,2.2222102E-1,2.9058254E-1,2.006897E0,4.6826673E-1,8.981109E-2,7.0035434E-1,0E0,1.8868652E-1,0E0,0E0,0E0,0E0,0E0,1.5247142E0,1.0566902E0,0E0,0E0,0E0,0E0,0E0,0E0,0E0,0E0,0E0,0E0,0E0,0E0],"parents":[2147483647,0,0,1,1,2,2,3,3,4,4,6,6,7,7,8,8,9,9,11,11,12,12,13,13,15,15,18,18,19,19,20,20,21,21,22,22,23,23,25,25,31,31,32,32],"right_children":[2,4,6,8,10,-1,12,14,16,18,-1,20,22,24,-1,26,-1,-1,28,30,32,34,36,38,-1,40,-1,-1,-1,-1,-1,42,44,-1,-1,-1,-1,-1,-1,-1,-1,-1,-1,-1,-1],"split_conditions":[1.5552285E-1,8.629744E-1,-7.7274203E-1,-2.23933E-2,5.797386E-1,-1.2773457E-1,6.615593E-1,-5.9342676E-1,8.962024E-2,-2.0280818E-3,-1.258537E-1,-9.7960943E-1,8.718117E-2,3.8160327E-1,-1.6431387E-1,-1.356893E-2,-1.3114047E-1,-8.988746E-2,-3.1206128E-1,-6.1930704E-1,-5.2649564E-1,-9.5219296E-1,-2.3180437E-1,3.0653673E-1,2.0671138E-1,-5.2366847E-1,2.8661725E-1,3.8802624E-2,2.4878743E-1,3.8340002E-2,-1.2360468E-1,-6.3265276E-1,1.2990447E0,4.2107828E-2,-1.491985E-1,3.1358577E-2,1.7442448E-1,-1.5451291E-1,6.1003003E-2,3.9948832E-2,-9.2646986E-2,1.5995464E-1,-2.0740712E-2,2.3908493E-1,1.4436682E-2],"split_indices":[2,7,24,2,20,0,4,25,2,25,0,10,28,14,0,29,0,0,28,23,16,16,19,26,0,19,0,0,0,0,0,1,24,0,0,0,0,0,0,0,0,0,0,0,0],"split_type":[0,0,0,0,0,0,0,0,0,0,0,0,0,0,0,0,0,0,0,0,0,0,0,0,0,0,0,0,0,0,0,0,0,0,0,0,0,0,0,0,0,0,0,0,0],"sum_hessian":[1.0369442E2,4.65827E1,5.711172E1,4.0164097E1,6.418601E0,2.0779724E0,5.503375E1,3.414414E1,6.0199566E0,3.9562848E0,2.4623163E0,4.78781E1,7.155646E0,1.1550425E1,2.2593716E1,3.3137186E0,2.706238E0,1.0068345E0,2.9494503E0,2.6307952E0,4.5247307E1,4.389611E0,2.7660348E0,9.811347E0,1.7390776E0,2.0865734E0,1.2271452E0,1.0443956E0,1.9050546E0,1.003196E0,1.6275991E0,1.5824204E1,2.9423103E1,1.0672791E0,3.322332E0,1.0764924E0,1.6895424E0,8.78062E0,1.0307269E0,1.0178852E0,1.0686882E0,8.855206E0,6.9689984E0,2.7261398E1,2.1617048E0],"tree_param":{"num_deleted":"0","num_feature":"30","num_nodes":"45","size_leaf_vector":"1"}},{"base_weights":[8.2975894E-2,2.8429562E-1,-3.112702E-1,3.7819706E-2,4.3643034E-1,-3.7300465E-1,1.2279961E-1,2.1828118E-1,-3.458579E-1,5.928581E-1,2.4069083E-1,-4.195376E-1,6.046517E-2,1.5407325E-2,5.297204E-1,5.556422E-2,-1.5273248E-1,2.4279162E-1,3.4166014E-1,-1.5585752E-1,5.170678E-1,-4.9587882E-1,3.7280533E-2,4.904549E-1,-2.4311157E-1,2.3509364E-1,-3.2623116E-2,-4.951268E-2,4.346078E-1,2.9189184E-1,-4.271973E-1,6.2745273E-1,-9.612985E-2,-1.5986449E-1,5.141957E-2,-1.23319454E-1,1.8034838E-1,2.0083106E-1,-3.7540137E-3,7.726556E-2,-1.5250456E-1,1.577996E-1,-3.3207197E-2,-4.0362615E-2,1.748032E-1,-7.802271E-3,-1.5391468E-1,-9.8435385E-3,2.1047242E-1],"categories":[],"categories_nodes":[],"categories_segments":[],"categories_sizes":[],"default_left":[0,0,0,0,0,0,0,0,0,0,0,0,0,0,0,0,0,0,0,0,0,0,0,0,0,0,0,0,0,0,0,0,0,0,0,0,0,0,0,0,0,0,0,0,0,0,0,0,0],"id":20,"left_children":[1,3,5,7,9,11,-1,13,15,17,19,21,-1,23,25,-1,-1,-1,27,29,31,33,35,37,39,-1,-1,-1,41,43,45,47,-1,-1,-1,-1,-1,-1,-1,-1,-1,-1,-1,-1,-1,-1,-1,-1,-1],"loss_changes":[7.6932855E0,2.3814335E0,1.6147501E0,1.8412211E0,1.065146E0,9.079008E-1,0E0,1.1264269E0,8.350986E-1,8.784399E-1,2.18544E0,1.0233064E0,0E0,1.5811313E0,1.2287239E0,0E0,0E0,0E0,6.1627686E-1,1.1763604E0,1.2687478E0,7.0261765E-1,1.5252601E0,4.158615E-1,1.2433922E0,0E0,0E0,0E0,5.588362E-1,5.5708826E-1,1.862812E-1,5.38959E-1,0E0,0E0,0E0,0E0,0E0,0E0,0E0,0E0,0E0,0E0,0E0,0E0,0E0,0E0,0E0,0E0,0E0],"parents":[2147483647,0,0,1,1,2,2,3,3,4,4,5,5,7,7,8,8,9,9,10,10,11,11,13,13,14,14,18,18,19,19,20,20,21,21,22,22,23,23,24,24,28,28,29,29,30,30,31,31],"right_children":[2,4,6,8,10,12,-1,14,16,18,20,22,-1,24,26,-1,-1,-1,28,30,32,34,36,38,40,-1,-1,-1,42,44,46,48,-1,-1,-1,-1,-1,-1,-1,-1,-1,-1,-1,-1,-1,-1,-1,-1,-1],"split_conditions":[-3.944562E-2,-4.6405232E-1,2.2476735E0,-2.6575718E-3,-2.7331245E-1,2.4734683E0,1.2279961E-1,-4.8076236E-1,-9.8373294E-1,5.971099E-1,9.9594876E-2,1.4326177E0,6.046517E-2,-9.454605E-1,-7.650818E-1,5.556422E-2,-1.5273248E-1,2.4279162E-1,6.8356496E-1,-4.5059687E-1,1.4518687E0,1.6396558E0,-2.4029087E-1,1.3514837E0,-2.4244718E-1,2.3509364E-1,-3.2623116E-2,-4.951268E-2,2.1303257E-1,2.0925985E-1,-5.29731E-1,-2.4283545E-1,-9.612985E-2,-1.5986449E-1,5.141957E-2,-1.23319454E-1,1.8034838E-1,2.0083106E-1,-3.7540137E-3,7.726556E-2,-1.5250456E-1,1.577996E-1,-3.3207197E-2,-4.0362615E-2,1.748032E-1,-7.802271E-3,-1.5391468E-1,-9.8435385E-3,2.1047242E-1],"split_indices":[2,24,5,9,21,4,0,9,5,8,18,20,0,2,3,0,0,0,8,23,6,8,22,0,10,0,0,0,4,13,22,21,0,0,0,0,0,0,0,0,0,0,0,0,0,0,0,0,0],"split_type":[0,0,0,0,0,0,0,0,0,0,0,0,0,0,0,0,0,0,0,0,0,0,0,0,0,0,0,0,0,0,0,0,0,0,0,0,0,0,0,0,0,0,0,0,0,0,0,0,0],"sum_hessian":[9.481503E1,6.294923E1,3.1865807E1,2.4501902E1,3.8447327E1,2.9795572E1,2.070234E0,1.6957214E1,7.5446877E0,2.0241924E1,1.8205402E1,2.7812828E1,1.9827437E0,1.0903842E1,6.053373E0,1.7422876E0,5.8024E0,9.679606E0,1.0562318E1,7.6562333E0,1.0549169E1,2.3757147E1,4.0556827E0,3.5264876E0,7.377354E0,4.1682262E0,1.8851464E0,1.5169647E0,9.045353E0,2.8604085E0,4.7958245E0,9.5422735E0,1.0068951E0,2.2699774E1,1.0573719E0,2.410269E0,1.6454138E0,2.356833E0,1.1696544E0,2.5648665E0,4.8124876E0,7.777289E0,1.2680645E0,1.3775543E0,1.4828541E0,1.0750389E0,3.7207856E0,1.019357E0,8.522917E0],"tree_param":{"num_deleted":"0","num_feature":"30","num_nodes":"49","size_leaf_vector":"1"}},{"base_weights":[3.800081E-2,1.0958563E-1,-4.401347E-1,1.7725955E-1,-2.2286807E-1,-1.5457727E-1,6.1293386E-2,2.9792362E-1,-8.411273E-2,-3.760266E-1,1.6746269E-1,4.0615433E-1,-1.6305806E-1,1.8045549E-1,-1.6792108E-1,-1.5358025E-1,1.7241904E-1,-1.3127896E-1,4.9368587E-1,-1.4376007E-1,2.1126394E-1,4.7132906E-2,-4.565481E-1,1.720474E-1,-9.183421E-2,1.2584145E-1,-1.3964349E-1,-1.12159014E-1,1.6462478E-1,1.2939234E-1,-9.404644E-2,1.6667761E-1,-7.802394E-2,-4.7932696E-3,-1.5747297E-1],"categories":[],"categories_nodes":[],"categories_segments":[],"categories_sizes":[],"default_left":[0,0,0,0,0,0,0,0,0,0,0,0,0,0,0,0,0,0,0,0,0,0,0,0,0,0,0,0,0,0,0,0,0,0,0],"id":21,"left_children":[1,3,5,7,9,-1,-1,11,13,15,-1,17,19,-1,21,-1,23,25,27,-1,29,31,33,-1,-1,-1,-1,-1,-1,-1,-1,-1,-1,-1,-1],"loss_changes":[3.2393372E0,1.8819642E0,7.026932E-1,2.1885552E0,1.9198239E0,0E0,0E0,2.4187837E0,1.3908185E0,1.0235541E0,0E0,1.8746915E0,1.2466638E0,0E0,1.3115486E0,0E0,7.97387E-1,1.3324662E0,1.7956676E0,0E0,7.2708154E-1,2.1464248E0,2.6169276E-1,0E0,0E0,0E0,0E0,0E0,0E0,0E0,0E0,0E0,0E0,0E0,0E0],"parents":[2147483647,0,0,1,1,2,2,3,3,4,4,7,7,8,8,9,9,11,11,12,12,14,14,16,16,17,17,18,18,20,20,21,21,22,22],"right_children":[2,4,6,8,10,-1,-1,12,14,16,-1,18,20,-1,22,-1,24,26,28,-1,30,32,34,-1,-1,-1,-1,-1,-1,-1,-1,-1,-1,-1,-1],"split_conditions":[8.143266E-1,5.232044E-1,2.0507462E0,-8.076978E-3,1.1638732E0,-1.5457727E-1,6.1293386E-2,9.0326977E-1,-9.877675E-1,6.113337E-1,1.6746269E-1,-9.446196E-1,1.3331407E0,1.8045549E-1,-2.9746264E-1,-1.5358025E-1,1.1834481E0,-6.9567615E-1,-9.8273253E-1,-1.4376007E-1,1.407639E0,-5.1983124E-1,-1.3333235E0,1.720474E-1,-9.183421E-2,1.2584145E-1,-1.3964349E-1,-1.12159014E-1,1.6462478E-1,1.2939234E-1,-9.404644E-2,1.6667761E-1,-7.802394E-2,-4.7932696E-3,-1.5747297E-1],"split_indices":[18,2,17,7,24,0,0,3,10,13,0,5,6,0,27,0,13,24,4,0,24,19,9,0,0,0,0,0,0,0,0,0,0,0,0],"split_type":[0,0,0,0,0,0,0,0,0,0,0,0,0,0,0,0,0,0,0,0,0,0,0,0,0,0,0,0,0,0,0,0,0,0,0],"sum_hessian":[9.223289E1,8.0892715E1,1.1340175E1,6.759912E1,1.32935915E1,1.0335798E1,1.0043763E0,4.6152637E1,2.1446484E1,1.1547804E1,1.7457871E0,3.7473442E1,8.679195E0,1.6631389E0,1.9783344E1,9.307846E0,2.239958E0,5.1784678E0,3.2294975E1,4.553365E0,4.12583E0,1.1816013E1,7.9673305E0,1.1106524E0,1.1293056E0,1.8592787E0,3.319189E0,1.5818903E0,3.0713083E1,3.0323505E0,1.0934796E0,4.145847E0,7.670167E0,1.2359209E0,6.7314095E0],"tree_param":{"num_deleted":"0","num_feature":"30","num_nodes":"35","size_leaf_vector":"1"}},{"base_weights":[-2.9364267E-1,1.433774E-1,-3.1564462E-1,2.3125766E-1,-3.4421366E-1,1.460722E-1,-1.8193051E-2,1.564794E-1,-3.7617E-1,-1.02087416E-1,5.0899035E-1,1.9666904E-1,-4.011089E-1,4.3308757E-2,1.8871073E-1,-9.241139E-2,1.8471223E-1,1.460466E-1,-4.267128E-1,-1.01795085E-1,1.8797664E-1,-1.3874835E-1,-3.5343144E-2],"categories":[],"categories_nodes":[],"categories_segments":[],"categories_sizes":[],"default_left":[0,0,0,0,0,0,0,0,0,0,0,0,0,0,0,0,0,0,0,0,0,0,0],"id":22,"left_children":[1,-1,3,5,7,-1,-1,9,11,-1,13,15,17,-1,-1,-1,-1,19,21,-1,-1,-1,-1],"loss_changes":[1.3169274E0,0E0,1.1324949E0,3.2381374E-1,1.0899849E0,0E0,0E0,9.739345E-1,9.484911E-1,0E0,4.38025E-2,8.6865693E-1,8.841171E-1,0E0,0E0,0E0,0E0,9.9799603E-1,5.6772804E-1,0E0,0E0,0E0,0E0],"parents":[2147483647,0,0,2,2,3,3,4,4,7,7,8,8,10,10,11,11,12,12,17,17,18,18],"right_children":[2,-1,4,6,8,-1,-1,10,12,-1,14,16,18,-1,-1,-1,-1,20,22,-1,-1,-1,-1],"split_conditions":[-1.3522903E0,1.433774E-1,-1.0613084E0,-5.4046994E-1,-1.2231827E0,1.460722E-1,-1.8193051E-2,-2.8851172E-1,-1.1130544E0,-1.02087416E-1,-6.606643E-1,-4.4005424E-1,-1.3103669E0,4.3308757E-2,1.8871073E-1,-9.241139E-2,1.8471223E-1,-2.3881021E-1,1.3121352E0,-1.01795085E-1,1.8797664E-1,-1.3874835E-1,-3.5343144E-2],"split_indices":[19,0,28,2,17,0,0,2,27,0,27,22,18,0,0,0,0,25,5,0,0,0,0],"split_type":[0,0,0,0,0,0,0,0,0,0,0,0,0,0,0,0,0,0,0,0,0,0,0],"sum_hessian":[6.768959E1,1.3021932E0,6.63874E1,2.9435606E0,6.3443836E1,1.2130796E0,1.730481E0,3.5725365E0,5.98713E1,1.497239E0,2.0752976E0,2.210509E0,5.766079E1,1.059555E0,1.0157425E0,1.122916E0,1.0875931E0,2.3673115E0,5.5293476E1,1.3239576E0,1.0433538E0,4.9107853E1,6.185624E0],"tree_param":{"num_deleted":"0","num_feature":"30","num_nodes":"23","size_leaf_vector":"1"}},{"base_weights":[1.1045861E-2,-2.21332E-1,9.338446E-2,3.8791135E-1,-3.0670628E-1,2.4616131E-1,6.687955E-2,6.1372896E-3,1.9053185E-1,1.2560244E-1,-3.7073702E-1,-1.5435913E-1,1.208221E-1,-4.421737E-1,1.1831669E-1,2.4696112E-1,8.569508E-2,4.152566E-2,-4.826337E-1,-2.0077705E-1,1.8846385E-1,-1.5879643E-1,2.7727926E-2,1.8479455E-1,-1.1268087E-1,7.310235E-2,-1.3084583E-1],"categories":[],"categories_nodes":[],"categories_segments":[],"categories_sizes":[],"default_left":[0,0,0,0,0,0,0,0,0,0,0,0,0,0,0,0,0,0,0,0,0,0,0,0,0,0,0],"id":23,"left_children":[1,3,5,7,9,-1,11,-1,-1,-1,13,-1,15,17,-1,-1,19,-1,21,23,25,-1,-1,-1,-1,-1,-1],"loss_changes":[1.8084426E0,1.4059083E0,1.288341E0,3.0333823E-1,1.1891036E0,0E0,2.2052312E0,0E0,0E0,0E0,1.3213584E0,0E0,1.4922143E0,5.2872825E-1,0E0,0E0,1.8466351E0,0E0,5.484562E-1,2.6167655E0,1.6834271E0,0E0,0E0,0E0,0E0,0E0,0E0],"parents":[2147483647,0,0,1,1,2,2,3,3,4,4,6,6,10,10,12,12,13,13,16,16,18,18,19,19,20,20],"right_children":[2,4,6,8,10,-1,12,-1,-1,-1,14,-1,16,18,-1,-1,20,-1,22,24,26,-1,-1,-1,-1,-1,-1],"split_conditions":[-4.1592556E-1,-1.0536419E0,-8.060763E-1,1.3085794E-1,-7.959865E-1,2.4616131E-1,-9.2093915E-1,6.1372896E-3,1.9053185E-1,1.2560244E-1,2.498373E0,-1.5435913E-1,-1.181177E0,-1.1720932E0,1.1831669E-1,2.4696112E-1,-5.2366847E-1,4.152566E-2,2.4657402E0,-1.0412667E0,1.264463E0,-1.5879643E-1,2.7727926E-2,1.8479455E-1,-1.1268087E-1,7.310235E-2,-1.3084583E-1],"split_indices":[2,5,13,26,24,0,16,0,0,0,6,0,29,3,0,0,19,0,28,3,0,0,0,0,0,0,0],"split_type":[0,0,0,0,0,0,0,0,0,0,0,0,0,0,0,0,0,0,0,0,0,0,0,0,0,0,0],"sum_hessian":[9.243601E1,2.3742193E1,6.8693825E1,2.4825685E0,2.1259624E1,1.3622767E0,6.733154E1,1.4338771E0,1.0486913E0,1.2751586E0,1.9984467E1,4.991635E0,6.2339912E1,1.8663977E1,1.3204885E0,1.9006408E0,6.043927E1,1.0581814E0,1.7605797E1,1.5705599E1,4.4733673E1,1.6357323E1,1.2484732E0,2.3241467E0,1.3381453E1,4.166108E1,3.0725927E0],"tree_param":{"num_deleted":"0","num_feature":"30","num_nodes":"27","size_leaf_vector":"1"}},{"base_weights":[7.7929795E-2,-3.1942257E-1,3.2564467E-1,-4.15813E-1,2.5120864E-2,2.2682142E-1,6.0812825E-1,-4.9566767E-1,-1.15611315E-1,-1.1825138E-1,2.1604735E-1,3.4132794E-1,-1.4865887E-2,6.8121403E-1,1.3443298E-2,3.9874434E-2,-1.6020977E-1,1.5054189E-1,-3.3021665E-1,-2.1075685E-1,5.6794065E-1,-1.1562219E-1,3.9707997E-1,2.510796E-1,-3.2628027E-1,2.207453E-1,3.6023278E-2,4.636287E-2,-1.3674612E-1,3.861851E-2,-1.1410422E-1,2.3900689E-1,4.87353E-3,5.885319E-1,1.9870825E-1,4.354589E-1,-1.1217185E-1,1.0876766E-1,-1.5575457E-1,-4.247383E-2,2.1185413E-1,-8.2898624E-2,1.5871702E-1,-2.168788E-2,1.7073002E-1],"categories":[],"categories_nodes":[],"categories_segments":[],"categories_sizes":[],"default_left":[0,0,0,0,0,0,0,0,0,0,0,0,0,0,0,0,0,0,0,0,0,0,0,0,0,0,0,0,0,0,0,0,0,0,0,0,0,0,0,0,0,0,0,0,0],"id":24,"left_children":[1,3,5,7,9,11,13,15,17,-1,19,21,23,25,-1,-1,-1,-1,27,29,31,-1,33,35,37,-1,-1,-1,-1,-1,-1,-1,-1,39,41,43,-1,-1,-1,-1,-1,-1,-1,-1,-1],"loss_changes":[9.7599325E0,1.2783065E0,1.5627847E0,6.591792E-1,8.2874596E-1,1.2982714E0,5.9503984E-1,6.329622E-1,1.1705915E0,0E0,1.175273E0,1.439379E0,1.4053866E0,3.215828E-1,0E0,0E0,0E0,0E0,4.498316E-1,2.7381063E-1,5.073614E-1,0E0,1.021605E0,1.221185E0,1.2241133E0,0E0,0E0,0E0,0E0,0E0,0E0,0E0,0E0,1.3665838E0,2.693604E0,5.5373955E-1,0E0,0E0,0E0,0E0,0E0,0E0,0E0,0E0,0E0],"parents":[2147483647,0,0,1,1,2,2,3,3,4,4,5,5,6,6,7,7,8,8,10,10,11,11,12,12,13,13,18,18,19,19,20,20,22,22,23,23,24,24,33,33,34,34,35,35],"right_children":[2,4,6,8,10,12,14,16,18,-1,20,22,24,26,-1,-1,-1,-1,28,30,32,-1,34,36,38,-1,-1,-1,-1,-1,-1,-1,-1,40,42,44,-1,-1,-1,-1,-1,-1,-1,-1,-1],"split_conditions":[5.74362E-2,6.0181534E-1,8.3244634E-1,2.5702822E-1,-2.9746264E-1,1.114361E-1,8.413459E-1,-1.0950508E0,6.1535585E-1,-1.1825138E-1,-7.2499645E-1,-7.758468E-1,3.4639397E-1,3.2275572E-2,1.3443298E-2,3.9874434E-2,-1.6020977E-1,1.5054189E-1,-9.2080986E-1,8.720446E-1,1.0505618E0,-1.1562219E-1,-3.0616975E-1,1.9154917E-3,-9.2302907E-1,2.207453E-1,3.6023278E-2,4.636287E-2,-1.3674612E-1,3.861851E-2,-1.1410422E-1,2.3900689E-1,4.87353E-3,-8.798842E-1,6.5721357E-1,-2.9898426E-1,-1.1217185E-1,1.0876766E-1,-1.5575457E-1,-4.247383E-2,2.1185413E-1,-8.2898624E-2,1.5871702E-1,-2.168788E-2,1.7073002E-1],"split_indices":[2,7,18,21,27,8,23,12,21,0,2,24,9,4,0,0,0,0,20,7,27,0,20,21,25,0,0,0,0,0,0,0,0,16,15,29,0,0,0,0,0,0,0,0,0],"split_type":[0,0,0,0,0,0,0,0,0,0,0,0,0,0,0,0,0,0,0,0,0,0,0,0,0,0,0,0,0,0,0,0,0,0,0,0,0,0,0,0,0,0,0,0,0],"sum_hessian":[9.70992E1,3.7176292E1,5.992291E1,2.8887732E1,8.288563E0,4.572838E1,1.4194531E1,2.2303743E1,6.5839863E0,2.2602742E0,6.0282884E0,3.0748224E1,1.4980152E1,1.23791485E1,1.8153827E0,1.1412172E0,2.1162527E1,1.3530369E0,5.2309494E0,2.9054296E0,3.1228585E0,1.7695124E0,2.8978712E1,8.184444E0,6.7957077E0,1.0997677E1,1.3814714E0,1.0290391E0,4.20191E0,1.0481653E0,1.8572644E0,1.89363E0,1.2292285E0,1.3745695E1,1.5233017E1,6.554135E0,1.630309E0,1.2943097E0,5.501398E0,1.8793405E0,1.1866355E1,6.315266E0,8.917751E0,1.4612734E0,5.0928617E0],"tree_param":{"num_deleted":"0","num_feature":"30","num_nodes":"45","size_leaf_vector":"1"}},{"base_weights":[7.020295E-2,2.2695734E-1,-3.073001E-1,-1.1884049E-1,3.1264237E-1,-3.865826E-1,2.8772208E-1,2.319685E-1,-2.70152E-1,4.0251112E-1,5.6960236E-2,-4.7573596E-1,9.2470095E-2,2.0901862E-1,-1.0142697E-1,1.5060878E-1,-9.403553E-2,-4.1017967E-1,1.14230394E-1,1.7444137E-1,5.241347E-1,-1.4767557E-1,2.8595263E-1,-1.5586135E-1,4.6319887E-2,1.5755701E-1,-1.1043521E-1,-1.4576785E-1,1.8053709E-2,-2.9991052E-1,3.8056695E-1,-2.5446825E-2,5.725107E-1,1.7902377E-1,5.8472343E-2,-1.4563131E-1,6.412028E-2,1.480446E-1,-9.4036095E-2,-1.0668469E-2,1.8330766E-1,1.5703472E-1,-5.4040223E-2],"categories":[],"categories_nodes":[],"categories_segments":[],"categories_sizes":[],"default_left":[0,0,0,0,0,0,0,0,0,0,0,0,0,0,0,0,0,0,0,0,0,0,0,0,0,0,0,0,0,0,0,0,0,0,0,0,0,0,0,0,0,0,0],"id":25,"left_children":[1,3,5,7,9,11,13,15,17,19,21,23,25,-1,-1,-1,-1,27,-1,29,31,-1,33,-1,-1,-1,-1,-1,-1,35,37,-1,39,-1,41,-1,-1,-1,-1,-1,-1,-1,-1],"loss_changes":[5.30808E0,1.9075165E0,1.3565423E0,7.665279E-1,1.1458306E0,1.0570843E0,1.1767455E0,8.251847E-1,1.0426917E0,9.4796944E-1,1.95095E0,6.366997E-1,1.1019888E0,0E0,0E0,0E0,0E0,3.3143508E-1,0E0,1.5349534E0,7.538047E-1,0E0,7.2799337E-1,0E0,0E0,0E0,0E0,0E0,0E0,5.765135E-1,9.8303246E-1,0E0,5.441551E-1,0E0,9.085256E-1,0E0,0E0,0E0,0E0,0E0,0E0,0E0,0E0],"parents":[2147483647,0,0,1,1,2,2,3,3,4,4,5,5,6,6,7,7,8,8,9,9,10,10,11,11,12,12,17,17,19,19,20,20,22,22,29,29,30,30,32,32,34,34],"right_children":[2,4,6,8,10,12,14,16,18,20,22,24,26,-1,-1,-1,-1,28,-1,30,32,-1,34,-1,-1,-1,-1,-1,-1,36,38,-1,40,-1,42,-1,-1,-1,-1,-1,-1,-1,-1],"split_conditions":[5.74362E-2,-7.6161325E-1,1.4172448E0,-6.269874E-1,4.5075044E-1,1.4326177E0,2.0386279E-2,-5.728235E-1,1.4156574E0,-5.4036963E-1,-5.682651E-2,1.5952926E0,3.3495894E-1,2.0901862E-1,-1.0142697E-1,1.5060878E-1,-9.403553E-2,1.2335597E0,1.14230394E-1,-1.7968053E-1,-8.716071E-1,-1.4767557E-1,-1.3802963E0,-1.5586135E-1,4.6319887E-2,1.5755701E-1,-1.1043521E-1,-1.4576785E-1,1.8053709E-2,3.4552094E-1,-3.223208E-2,-2.5446825E-2,-6.9379574E-1,1.7902377E-1,3.178276E-1,-1.4563131E-1,6.412028E-2,1.480446E-1,-9.4036095E-2,-1.0668469E-2,1.8330766E-1,1.5703472E-1,-5.4040223E-2],"split_indices":[2,18,4,2,12,20,18,6,20,5,18,11,2,0,0,0,0,0,0,0,22,0,2,0,0,0,0,0,0,18,14,0,13,0,17,0,0,0,0,0,0,0,0],"split_type":[0,0,0,0,0,0,0,0,0,0,0,0,0,0,0,0,0,0,0,0,0,0,0,0,0,0,0,0,0,0,0,0,0,0,0,0,0,0,0,0,0,0,0],"sum_hessian":[8.752241E1,6.2124584E1,2.5397825E1,1.2260024E1,4.986456E1,2.2720749E1,2.6770747E0,3.533864E0,8.72616E0,3.6471176E1,1.3393383E1,1.9161629E1,3.5591204E0,1.5504445E0,1.1266303E0,2.4167726E0,1.1170915E0,7.4856687E0,1.2404914E0,1.35313425E1,2.2939835E1,3.6028104E0,9.790572E0,1.8080347E1,1.0812827E0,1.7627568E0,1.7963636E0,6.4193296E0,1.0663391E0,3.9609997E0,9.570343E0,1.6327965E0,2.1307037E1,3.451584E0,6.3389883E0,2.9502811E0,1.0107187E0,8.479677E0,1.0906653E0,1.2737483E0,2.0033289E1,1.7448978E0,4.5940905E0],"tree_param":{"num_deleted":"0","num_feature":"30","num_nodes":"43","size_leaf_vector":"1"}},{"base_weights":[3.0284481E-2,8.7669E-2,-4.0669748E-1,3.9082855E-2,4.6365163E-1,-1.4778247E-1,5.7691135E-2,2.4594997E-1,-7.019248E-2,-9.107576E-2,6.1475605E-1,-4.832847E-2,4.0781662E-1,-1.18190115E-2,-1.4101774E-1,2.984334E-2,6.76714E-1,3.604314E-1,-1.4849214E-1,5.5376977E-1,8.012104E-2,-7.8286596E-2,4.9593785E-1,2.2965667E-1,5.0551094E-2,-4.724129E-2,1.7522797E-1,-3.910237E-2,2.0320477E-1,-1.1107491E-1,8.518234E-2,1.8177398E-2,-1.1979673E-1,2.2440709E-1,-9.467692E-3],"categories":[],"categories_nodes":[],"categories_segments":[],"categories_sizes":[],"default_left":[0,0,0,0,0,0,0,0,0,0,0,0,0,0,0,0,0,0,0,0,0,0,0,0,0,0,0,0,0,0,0,0,0,0,0],"id":26,"left_children":[1,3,5,7,9,-1,-1,11,13,-1,15,17,19,21,-1,-1,23,25,-1,27,29,31,33,-1,-1,-1,-1,-1,-1,-1,-1,-1,-1,-1,-1],"loss_changes":[2.251276E0,1.4236052E0,6.316427E-1,1.6218728E0,1.2230245E0,0E0,0E0,1.1990061E0,1.0967672E0,0E0,1.8167758E-1,1.9455882E0,7.2461677E-1,1.4642493E0,0E0,0E0,1.7745113E-1,7.444435E-1,0E0,1.014404E0,6.672388E-1,1.7277974E0,6.918278E-1,0E0,0E0,0E0,0E0,0E0,0E0,0E0,0E0,0E0,0E0,0E0,0E0],"parents":[2147483647,0,0,1,1,2,2,3,3,4,4,7,7,8,8,10,10,11,11,12,12,13,13,16,16,17,17,19,19,20,20,21,21,22,22],"right_children":[2,4,6,8,10,-1,-1,12,14,-1,16,18,20,22,-1,-1,24,26,-1,28,30,32,34,-1,-1,-1,-1,-1,-1,-1,-1,-1,-1,-1,-1],"split_conditions":[8.143266E-1,1.6420298E0,2.0507462E0,-7.901068E-1,-1.2413309E0,-1.4778247E-1,5.7691135E-2,-6.10694E-1,6.531686E-1,-9.107576E-2,-1.2489027E0,-2.8081533E-1,-1.1486143E-1,3.6329538E-1,-1.4101774E-1,2.984334E-2,-5.788304E-1,-6.314419E-1,-1.4849214E-1,-4.5579445E-1,7.388139E-3,-2.7715006E-1,9.092948E-3,2.2965667E-1,5.0551094E-2,-4.724129E-2,1.7522797E-1,-3.910237E-2,2.0320477E-1,-1.1107491E-1,8.518234E-2,1.8177398E-2,-1.1979673E-1,2.2440709E-1,-9.467692E-3],"split_indices":[18,19,17,18,8,0,0,20,5,0,17,2,29,5,0,0,17,25,0,4,29,5,12,0,0,0,0,0,0,0,0,0,0,0,0],"split_type":[0,0,0,0,0,0,0,0,0,0,0,0,0,0,0,0,0,0,0,0,0,0,0,0,0,0,0,0,0,0,0,0,0,0,0],"sum_hessian":[8.7356255E1,7.79228E1,9.4334545E0,6.998321E1,7.939592E0,8.405523E0,1.0279309E0,2.3757528E1,4.6225677E1,1.140344E0,6.7992477E0,8.679452E0,1.5078076E1,4.123557E1,4.9901075E0,1.0094714E0,5.7897763E0,4.632717E0,4.0467343E0,9.954518E0,5.1235585E0,3.721039E1,4.0251827E0,4.497536E0,1.2922403E0,1.4865239E0,3.1461933E0,1.5147042E0,8.439814E0,1.3418937E0,3.7816646E0,2.6540436E1,1.066995E1,2.440722E0,1.5844607E0],"tree_param":{"num_deleted":"0","num_feature":"30","num_nodes":"35","size_leaf_vector":"1"}},{"base_weights":[-2.6101226E-1,-1.548325E-1,-4.4961786E-1,-2.986255E-1,8.7883525E-2,4.2888924E-2,-4.8718882E-1,3.5189234E-2,-3.964943E-1,3.1865942E-1,-1.3379547E-1,2.4113167E-2,-1.5720676E-1,-2.9354545E-1,2.2574157E-1,-4.7170237E-1,6.936629E-3,-2.9558244E-1,7.1221507E-1,-1.3029608E-1,4.831654E-2,-1.5743302E-1,5.3268876E-2,1.4460231E-1,-1.1064075E-1,-1.3146195E-1,4.6108615E-2,8.774891E-1,5.360906E-3,3.0853477E-1,3.4764193E-2],"categories":[],"categories_nodes":[],"categories_segments":[],"categories_sizes":[],"default_left":[0,0,0,0,0,0,0,0,0,0,0,0,0,0,0,0,0,0,0,0,0,0,0,0,0,0,0,0,0,0,0],"id":27,"left_children":[1,3,5,7,9,-1,11,13,15,17,-1,-1,-1,19,-1,21,23,25,27,-1,-1,-1,-1,-1,-1,-1,-1,29,-1,-1,-1],"loss_changes":[1.1626897E0,1.4535397E0,5.514231E-1,8.603895E-1,2.1117861E0,0E0,4.7227144E-1,1.8224901E0,6.1362624E-1,3.0498056E0,0E0,0E0,0E0,4.1406158E-1,0E0,6.77953E-1,9.179031E-1,4.0653774E-1,8.3948255E-1,0E0,0E0,0E0,0E0,0E0,0E0,0E0,0E0,5.704727E-1,0E0,0E0,0E0],"parents":[2147483647,0,0,1,1,2,2,3,3,4,4,6,6,7,7,8,8,9,9,13,13,15,15,16,16,17,17,18,18,27,27],"right_children":[2,4,6,8,10,-1,12,14,16,18,-1,-1,-1,20,-1,22,24,26,28,-1,-1,-1,-1,-1,-1,-1,-1,30,-1,-1,-1],"split_conditions":[-1.5557124E-1,-3.4573266E-1,-1.1050422E0,-6.562682E-1,7.4692076E-1,4.2888924E-2,-1.0662346E0,-6.723153E-1,4.6633837E-1,-6.466695E-1,-1.3379547E-1,2.4113167E-2,-1.5720676E-1,2.720814E-1,2.2574157E-1,1.2667973E0,-4.261336E-1,2.964111E-1,1.14710934E-1,-1.3029608E-1,4.831654E-2,-1.5743302E-1,5.3268876E-2,1.4460231E-1,-1.1064075E-1,-1.3146195E-1,4.6108615E-2,-2.2600175E-1,5.360906E-3,3.0853477E-1,3.4764193E-2],"split_indices":[24,20,27,13,12,0,28,13,12,25,0,0,0,4,0,9,13,2,25,0,0,0,0,0,0,0,0,13,0,0,0],"split_type":[0,0,0,0,0,0,0,0,0,0,0,0,0,0,0,0,0,0,0,0,0,0,0,0,0,0,0,0,0,0,0],"sum_hessian":[6.0534966E1,3.989571E1,2.0639257E1,2.4908653E1,1.4987058E1,1.0633062E0,1.957595E1,5.7923446E0,1.9116308E1,1.0745291E1,4.2417665E0,1.120966E0,1.8454985E1,4.377064E0,1.41528E0,1.5969945E1,3.146364E0,4.293366E0,6.4519253E0,3.3761833E0,1.0008811E0,1.4940378E1,1.0295666E0,1.2646105E0,1.8817536E0,3.2775455E0,1.0158203E0,4.998399E0,1.4535263E0,3.879141E0,1.1192578E0],"tree_param":{"num_deleted":"0","num_feature":"30","num_nodes":"31","size_leaf_vector":"1"}},{"base_weights":[1.507951E-2,2.809592E-1,-3.9712273E-2,3.99055E-2,2.158259E-1,-2.498474E-1,9.246395E-2,4.2220032E-1,-3.6206812E-1,-3.412626E-1,1.7890157E-1,1.8989794E-1,-2.6169476E-1,-1.0430533E-2,5.417079E-1,2.636114E-2,-1.4254789E-1,8.110079E-2,-4.0230235E-1,-9.7195156E-2,1.7483458E-1,-1.3104717E-1,2.4948272E-1,-4.0394637E-1,6.857958E-2,1.8845421E-1,6.25832E-2,-1.6135326E-1,-8.061114E-2,8.032593E-2,-1.1223559E-1,3.061014E-1,-1.2156253E-1,-1.516833E-1,5.2863248E-2,1.6848555E-1,-7.9129584E-2,1.4600205E-1,2.9549925E-2],"categories":[],"categories_nodes":[],"categories_segments":[],"categories_sizes":[],"default_left":[0,0,0,0,0,0,0,0,0,0,0,0,0,0,0,0,0,0,0,0,0,0,0,0,0,0,0,0,0,0,0,0,0,0,0,0,0,0,0],"id":28,"left_children":[1,3,5,7,-1,9,11,13,15,17,19,21,23,-1,25,-1,-1,-1,27,29,-1,-1,31,33,-1,-1,-1,-1,35,-1,-1,37,-1,-1,-1,-1,-1,-1,-1],"loss_changes":[1.3086591E0,1.5928274E0,2.0985246E0,1.8368462E0,0E0,1.2024976E0,1.6577338E0,3.5077608E-1,3.409509E-1,1.0177355E0,7.0052487E-1,1.4953575E0,8.2290685E-1,0E0,9.474993E-3,0E0,0E0,0E0,9.394884E-1,5.333985E-1,0E0,0E0,1.4043074E0,5.8928883E-1,0E0,0E0,0E0,0E0,1.0724875E0,0E0,0E0,1.1651125E0,0E0,0E0,0E0,0E0,0E0,0E0,0E0],"parents":[2147483647,0,0,1,1,2,2,3,3,5,5,6,6,7,7,8,8,9,9,10,10,11,11,12,12,14,14,18,18,19,19,22,22,23,23,28,28,31,31],"right_children":[2,4,6,8,-1,10,12,14,16,18,20,22,24,-1,26,-1,-1,-1,28,30,-1,-1,32,34,-1,-1,-1,-1,36,-1,-1,38,-1,-1,-1,-1,-1,-1,-1],"split_conditions":[-7.344965E-1,-4.9929318E-1,-2.6575718E-3,-5.73489E-1,2.158259E-1,1.4912039E0,1.8042898E-1,-3.2504013E-1,-7.235054E-1,-7.540139E-1,2.3308404E-1,-9.769861E-1,9.683932E-1,-1.0430533E-2,3.197295E-1,2.636114E-2,-1.4254789E-1,8.110079E-2,9.017724E-2,-7.617565E-1,1.7483458E-1,-1.3104717E-1,1.6346381E0,4.575687E-1,6.857958E-2,1.8845421E-1,6.25832E-2,-1.6135326E-1,1.3887663E-1,8.032593E-2,-1.1223559E-1,-3.6445022E-1,-1.2156253E-1,-1.516833E-1,5.2863248E-2,1.6848555E-1,-7.9129584E-2,1.4600205E-1,2.9549925E-2],"split_indices":[24,18,9,11,0,16,13,25,19,13,25,16,24,0,10,0,0,0,21,25,0,0,19,23,0,0,0,0,21,0,0,16,0,0,0,0,0,0,0],"split_type":[0,0,0,0,0,0,0,0,0,0,0,0,0,0,0,0,0,0,0,0,0,0,0,0,0,0,0,0,0,0,0,0,0,0,0,0,0,0,0],"sum_hessian":[8.806506E1,1.4342014E1,7.3723045E1,9.95825E0,4.3837633E0,2.8122826E1,4.560022E1,5.0782704E0,4.87998E0,2.3348627E1,4.7742E0,3.612542E1,9.474801E0,1.1997558E0,3.8785145E0,1.0249993E0,3.8549807E0,1.8076547E0,2.1540972E1,3.2867148E0,1.487485E0,2.5867243E0,3.3538696E1,7.480541E0,1.9942596E0,2.3758583E0,1.5026563E0,1.4682641E1,6.858331E0,1.4322782E0,1.8544366E0,3.1359158E1,2.1795394E0,6.4744716E0,1.0060693E0,1.0633446E0,5.7949867E0,1.6052454E1,1.5306703E1],"tree_param":{"num_deleted":"0","num_feature":"30","num_nodes":"39","size_leaf_vector":"1"}},{"base_weights":[6.404351E-2,-2.6206437E-1,2.9363024E-1,-3.5583377E-1,-1.193385E-2,-1.13542095E-1,3.2288057E-1,-4.851725E-1,-4.547265E-2,2.621796E-1,-1.298519E-1,6.256227E-1,2.2984122E-1,3.7867885E-2,-1.5793441E-1,5.990319E-1,-3.702289E-1,-1.0330052E-1,4.8204434E-1,6.8063146E-1,8.637494E-3,3.1369856E-1,-2.1662955E-1,2.6187321E-2,2.3966588E-1,2.4085062E-2,-1.3935974E-1,-2.3517726E-2,7.296391E-1,2.2080217E-1,4.2748347E-2,-4.3355104E-2,4.1627362E-1,-1.573646E-1,1.2895171E-1,2.7131468E-1,7.202652E-2,-1.07156046E-1,1.458359E-1,2.054155E-1,6.2956095E-2],"categories":[],"categories_nodes":[],"categories_segments":[],"categories_sizes":[],"default_left":[0,0,0,0,0,0,0,0,0,0,0,0,0,0,0,0,0,0,0,0,0,0,0,0,0,0,0,0,0,0,0,0,0,0,0,0,0,0,0,0,0],"id":29,"left_children":[1,3,5,7,9,-1,11,13,15,17,-1,19,21,-1,-1,23,25,-1,27,29,-1,31,33,-1,-1,-1,-1,-1,35,-1,-1,37,39,-1,-1,-1,-1,-1,-1,-1,-1],"loss_changes":[6.890133E0,8.899679E-1,1.1813393E0,1.0896714E0,1.4322451E0,0E0,1.3256049E0,5.571656E-1,2.1578732E0,1.1721064E0,0E0,3.639574E-1,1.6211429E0,0E0,0E0,2.8630376E-1,3.248657E-1,0E0,8.8341045E-1,2.125678E-1,0E0,1.3121338E0,1.6489987E0,0E0,0E0,0E0,0E0,0E0,1.4444804E-1,0E0,0E0,1.634409E0,1.3825059E0,0E0,0E0,0E0,0E0,0E0,0E0,0E0,0E0],"parents":[2147483647,0,0,1,1,2,2,3,3,4,4,6,6,7,7,8,8,9,9,11,11,12,12,15,15,16,16,18,18,19,19,21,21,22,22,28,28,31,31,32,32],"right_children":[2,4,6,8,10,-1,12,14,16,18,-1,20,22,-1,-1,24,26,-1,28,30,-1,32,34,-1,-1,-1,-1,-1,36,-1,-1,38,40,-1,-1,-1,-1,-1,-1,-1,-1],"split_conditions":[1.5552285E-1,2.0792338E-1,-7.7274203E-1,2.7484027E-1,5.201775E-1,-1.13542095E-1,-8.497404E-1,-1.2582961E0,-3.6231178E-1,-1.2450739E0,-1.298519E-1,1.5649307E0,4.26894E-1,3.7867885E-2,-1.5793441E-1,-6.450255E-1,-4.8823965E-1,-1.0330052E-1,-3.1507736E-1,2.0173696E-1,8.637494E-3,-2.3068334E-1,1.0374081E0,2.6187321E-2,2.3966588E-1,2.4085062E-2,-1.3935974E-1,-2.3517726E-2,1.5652949E0,2.2080217E-1,4.2748347E-2,-6.618822E-2,-3.7836766E-1,-1.573646E-1,1.2895171E-1,2.7131468E-1,7.202652E-2,-1.07156046E-1,1.458359E-1,2.054155E-1,6.2956095E-2],"split_indices":[2,18,24,29,3,0,8,23,17,2,0,27,10,0,0,18,21,0,28,9,0,18,0,0,0,0,0,0,19,0,0,10,20,0,0,0,0,0,0,0,0],"split_type":[0,0,0,0,0,0,0,0,0,0,0,0,0,0,0,0,0,0,0,0,0,0,0,0,0,0,0,0,0,0,0,0,0,0,0,0,0,0,0,0,0],"sum_hessian":[9.000012E1,3.7125347E1,5.287477E1,2.6695206E1,1.0430141E1,1.7072407E0,5.116753E1,1.8445179E1,8.250027E0,6.544902E0,3.8852394E0,1.0682688E1,4.0484844E1,1.0363262E0,1.7408854E1,2.4812434E0,5.7687836E0,1.5907012E0,4.9542007E0,9.652616E0,1.0300722E0,3.4333595E1,6.1512465E0,1.1003906E0,1.3808529E0,1.0242671E0,4.7445164E0,1.727453E0,3.2267475E0,8.418622E0,1.2339938E0,7.791051E0,2.6542545E1,4.2943845E0,1.8568623E0,1.7534789E0,1.4732687E0,5.0959563E0,2.6950948E0,1.0530607E1,1.6011938E1],"tree_param":{"num_deleted":"0","num_feature":"30","num_nodes":"41","size_leaf_vector":"1"}},{"base_weights":[5.7505526E-2,2.0376496E-1,-2.633463E-1,1.6062828E-2,3.1951877E-1,-1.4825843E-1,-5.66888E-2,-2.1831425E-1,2.3908274E-1,5.632586E-1,2.3357464E-1,1.4582014E-1,-1.372307E-1,9.271656E-2,-3.7189993E-1,4.395072E-1,-2.7291232E-1,1.79023E-1,4.7483627E-2,5.8002796E-2,4.3828806E-1,4.2412618E-1,-1.3710065E-1,7.9657316E-2,-1.5396723E-1,1.9163676E-1,7.5100034E-2,1.0964982E-2,-1.1696021E-1,4.6908095E-1,-2.3489782E-1,-1.00635394E-1,5.380031E-1,-9.2400245E-2,6.6910774E-1,-1.2319441E-1,2.3536873E-1,8.638919E-2,-9.0175234E-2,1.890799E-1,1.4137427E-2,-1.5981019E-1,4.404006E-3,1.8157364E-1,4.2064525E-2,2.6968554E-2,2.5199538E-1,3.079632E-3,1.0300991E-1],"categories":[],"categories_nodes":[],"categories_segments":[],"categories_sizes":[],"default_left":[0,0,0,0,0,0,0,0,0,0,0,0,0,0,0,0,0,0,0,0,0,0,0,0,0,0,0,0,0,0,0,0,0,0,0,0,0,0,0,0,0,0,0,0,0,0,0,0,0],"id":30,"left_children":[1,3,5,7,9,-1,11,13,15,17,19,21,-1,-1,23,25,27,-1,-1,29,31,33,35,-1,-1,-1,37,-1,-1,39,41,-1,43,-1,45,-1,47,-1,-1,-1,-1,-1,-1,-1,-1,-1,-1,-1,-1],"loss_changes":[3.869079E0,1.2205126E0,1.2072899E0,1.2319896E0,5.982592E-1,0E0,1.2671739E0,1.0486563E0,1.3557484E0,1.910162E-2,9.617566E-1,8.9159054E-1,0E0,0E0,9.8140955E-1,6.083629E-1,1.5920153E-1,0E0,0E0,2.0291853E0,1.1470578E0,1.2069502E0,7.084568E-1,0E0,0E0,0E0,4.3270117E-1,0E0,0E0,4.4400048E-1,7.4906385E-1,0E0,2.2225642E-1,0E0,3.6951613E-1,0E0,7.37406E-2,0E0,0E0,0E0,0E0,0E0,0E0,0E0,0E0,0E0,0E0,0E0,0E0],"parents":[2147483647,0,0,1,1,2,2,3,3,4,4,6,6,7,7,8,8,9,9,10,10,11,11,14,14,15,15,16,16,19,19,20,20,21,21,22,22,26,26,29,29,30,30,32,32,34,34,36,36],"right_children":[2,4,6,8,10,-1,12,14,16,18,20,22,-1,-1,24,26,28,-1,-1,30,32,34,36,-1,-1,-1,38,-1,-1,40,42,-1,44,-1,46,-1,48,-1,-1,-1,-1,-1,-1,-1,-1,-1,-1,-1,-1],"split_conditions":[-3.944562E-2,-4.6405232E-1,-1.2180457E-1,-6.991784E-1,-1.2322743E0,-1.4825843E-1,7.80245E-1,-1.372495E0,8.4605694E-2,3.4831111E0,1.3727854E0,6.631659E-2,-1.372307E-1,9.271656E-2,-1.1720932E0,-6.048621E-1,-7.2873485E-1,1.79023E-1,4.7483627E-2,-1.2776604E-1,-1.0041212E-2,-7.160018E-1,1.4305011E0,7.9657316E-2,-1.5396723E-1,1.9163676E-1,-3.344359E-1,1.0964982E-2,-1.1696021E-1,-5.0936675E-1,5.601594E-1,-1.00635394E-1,1.8053994E0,-9.2400245E-2,-3.418774E-1,-1.2319441E-1,-1.4663202E-1,8.638919E-2,-9.0175234E-2,1.890799E-1,1.4137427E-2,-1.5981019E-1,4.404006E-3,1.8157364E-1,4.2064525E-2,2.6968554E-2,2.5199538E-1,3.079632E-3,1.0300991E-1],"split_indices":[2,24,6,20,2,0,2,2,28,28,15,25,0,0,3,22,12,0,0,6,6,25,20,0,0,0,2,0,0,10,6,0,27,0,24,0,7,0,0,0,0,0,0,0,0,0,0,0,0],"split_type":[0,0,0,0,0,0,0,0,0,0,0,0,0,0,0,0,0,0,0,0,0,0,0,0,0,0,0,0,0,0,0,0,0,0,0,0,0,0,0,0,0,0,0,0,0,0,0,0,0],"sum_hessian":[8.0304344E1,5.541053E1,2.4893812E1,2.1570833E1,3.38397E1,1.1101462E1,1.3792351E1,1.0527903E1,1.1042931E1,7.3737574E0,2.646594E1,9.584935E0,4.2074156E0,2.1462E0,8.381702E0,8.03798E0,3.0049503E0,6.373285E0,1.0004725E0,1.4937863E1,1.1528076E1,4.580273E0,5.0046625E0,1.3615907E0,7.020112E0,4.709538E0,3.3284423E0,1.0127385E0,1.9922119E0,5.964852E0,8.973012E0,1.0461749E0,1.0481902E1,1.0838747E0,3.4963982E0,2.8264048E0,2.1782575E0,2.2736685E0,1.0547739E0,3.9588947E0,2.0059571E0,3.5740068E0,5.3990045E0,8.520124E0,1.961777E0,1.1441642E0,2.3522341E0,1.0612692E0,1.1169883E0],"tree_param":{"num_deleted":"0","num_feature":"30","num_nodes":"49","size_leaf_vector":"1"}},{"base_weights":[2.8683782E-2,7.666109E-2,-3.7555563E-1,1.9702636E-1,5.1112104E-2,-1.4225863E-1,5.7238806E-2,1.2886886E-1,-1.1316347E-1,3.105367E-2,4.57268E-1,-4.39042E-1,4.6732515E-2,1.3275512E-1,-2.6375222E-1,5.404361E-1,-2.177872E-2,-1.500549E-1,-9.623377E-3,3.9530477E-1,-1.3617653E-1,-6.665711E-2,6.637466E-2,4.4028655E-2,-1.4760903E-1,1.9775675E-1,-2.4802737E-2,2.1955515E-1,-8.85927E-3,-1.16688706E-1,6.270894E-2],"categories":[],"categories_nodes":[],"categories_segments":[],"categories_sizes":[],"default_left":[0,0,0,0,0,0,0,0,0,0,0,0,0,0,0,0,0,0,0,0,0,0,0,0,0,0,0,0,0,0,0],"id":31,"left_children":[1,3,5,-1,7,-1,-1,9,11,13,15,17,19,21,23,25,-1,-1,-1,27,29,-1,-1,-1,-1,-1,-1,-1,-1,-1,-1],"loss_changes":[1.6332104E0,1.0747316E0,5.902555E-1,0E0,9.4334507E-1,0E0,0E0,1.5860815E0,1.2654314E0,1.2180482E0,5.3985596E-1,1.8202472E-1,1.1333232E0,9.915484E-1,1.0520098E0,7.8983927E-1,0E0,0E0,0E0,8.913584E-1,1.1152182E0,0E0,0E0,0E0,0E0,0E0,0E0,0E0,0E0,0E0,0E0],"parents":[2147483647,0,0,1,1,2,2,4,4,7,7,8,8,9,9,10,10,11,11,12,12,13,13,14,14,15,15,19,19,20,20],"right_children":[2,4,6,-1,8,-1,-1,10,12,14,16,18,20,22,24,26,-1,-1,-1,28,30,-1,-1,-1,-1,-1,-1,-1,-1,-1,-1],"split_conditions":[8.143266E-1,-1.2559354E0,2.5805943E0,1.9702636E-1,-8.076978E-3,-1.4225863E-1,5.7238806E-2,-1.5914263E-1,-3.0493504E-1,-3.566212E-1,1.5308015E0,7.397282E-1,5.8650725E-2,-6.664657E-1,-7.948308E-1,7.804699E-1,-2.177872E-2,-1.500549E-1,-9.623377E-3,-6.241615E-1,7.592087E-1,-6.665711E-2,6.637466E-2,4.4028655E-2,-1.4760903E-1,1.9775675E-1,-2.4802737E-2,2.1955515E-1,-8.85927E-3,-1.16688706E-1,6.270894E-2],"split_indices":[18,25,18,0,7,0,0,7,17,1,0,27,17,19,18,25,0,0,0,11,25,0,0,0,0,0,0,0,0,0,0],"split_type":[0,0,0,0,0,0,0,0,0,0,0,0,0,0,0,0,0,0,0,0,0,0,0,0,0,0,0,0,0,0,0],"sum_hessian":[8.172629E1,7.378003E1,7.9462543E0,2.0701978E0,7.170984E1,6.90615E0,1.0401047E0,4.881819E1,2.2891644E1,3.8457893E1,1.03603E1,6.960299E0,1.5931344E1,2.90024E1,9.455493E0,8.937506E0,1.4227945E0,5.852047E0,1.108252E0,5.083135E0,1.0848209E1,5.486286E0,2.3516113E1,3.5066102E0,5.948883E0,7.4582148E0,1.4792906E0,2.4330542E0,2.6500807E0,6.1892357E0,4.6589737E0],"tree_param":{"num_deleted":"0","num_feature":"30","num_nodes":"31","size_leaf_vector":"1"}},{"base_weights":[-2.3674889E-1,-1.3376679E-1,-4.2944068E-1,-1.9152112E-1,3.55928E-1,3.3199955E-2,-4.6995437E-1,-4.3690398E-1,-6.0748197E-2,-8.488199E-2,1.9470286E-1,2.1187972E-2,-1.5314189E-1,1.2301919E-2,-1.4858559E-1,1.1771045E-1,-1.4084972E-1,-2.8992683E-1,2.7389485E-1,3.572586E-2,-1.2750797E-1,-5.8625516E-2,1.2661603E-1],"categories":[],"categories_nodes":[],"categories_segments":[],"categories_sizes":[],"default_left":[0,0,0,0,0,0,0,0,0,0,0,0,0,0,0,0,0,0,0,0,0,0,0],"id":32,"left_children":[1,3,5,7,9,-1,11,13,15,-1,-1,-1,-1,-1,-1,17,-1,19,21,-1,-1,-1,-1],"loss_changes":[1.0312929E0,1.1204953E0,4.6025586E-1,1.0623548E0,9.8412514E-1,0E0,4.2036772E-1,3.449545E-1,1.75471E0,0E0,0E0,0E0,0E0,0E0,0E0,1.1628087E0,0E0,3.37932E-1,9.7369E-1,0E0,0E0,0E0,0E0],"parents":[2147483647,0,0,1,1,2,2,3,3,4,4,6,6,7,7,8,8,15,15,17,17,18,18],"right_children":[2,4,6,8,10,-1,12,14,16,-1,-1,-1,-1,-1,-1,18,-1,20,22,-1,-1,-1,-1],"split_conditions":[-1.5557124E-1,1.2298506E0,-1.1050422E0,-3.344359E-1,-5.175646E-1,3.3199955E-2,-1.0662346E0,-9.398261E-1,5.063986E-1,-8.488199E-2,1.9470286E-1,2.1187972E-2,-1.5314189E-1,1.2301919E-2,-1.4858559E-1,-5.191771E-1,-1.4084972E-1,-7.259886E-1,-4.690551E-1,3.572586E-2,-1.2750797E-1,-5.8625516E-2,1.2661603E-1],"split_indices":[24,5,27,2,9,0,28,28,2,0,0,0,0,0,0,8,0,4,28,0,0,0,0],"split_type":[0,0,0,0,0,0,0,0,0,0,0,0,0,0,0,0,0,0,0,0,0,0,0],"sum_hessian":[5.386537E1,3.620838E1,1.765699E1,3.293316E1,3.2752223E0,1.1112189E0,1.654577E1,1.0635579E1,2.229758E1,1.0408812E0,2.2343411E0,1.101882E0,1.544389E1,1.1901987E0,9.44538E0,1.6016764E1,6.2808166E0,4.199601E0,1.18171625E1,1.0721645E0,3.1274366E0,2.7589183E0,9.058244E0],"tree_param":{"num_deleted":"0","num_feature":"30","num_nodes":"23","size_leaf_vector":"1"}},{"base_weights":[1.771887E-2,-1.7743444E-1,7.972492E-2,-4.1161534E-1,3.375791E-2,-4.219657E-3,2.6577085E-1,2.8689403E-2,-1.4482611E-1,-1.2096863E-1,2.0608665E-1,1.15447216E-1,-4.360553E-1,2.8079038E-2,4.5596957E-1,-9.461784E-2,3.2894272E-1,1.8949462E-1,-2.761581E-1,2.862929E-2,-1.5310657E-1,2.6224113E-1,-1.270282E-1,5.8005184E-1,-3.6940563E-2,1.4627583E-2,2.0114432E-1,7.621511E-2,6.183466E-1,-1.4508729E-1,7.463325E-2,4.2376798E-1,-9.058E-2,3.851812E-2,6.869222E-1,1.0681765E-1,-1.0942453E-1,6.405485E-2,-1.0188936E-1,-4.4376947E-2,2.508788E-1,1.6286136E-1,-6.5925284E-3,2.253056E-1,6.565424E-2],"categories":[],"categories_nodes":[],"categories_segments":[],"categories_sizes":[],"default_left":[0,0,0,0,0,0,0,0,0,0,0,0,0,0,0,0,0,0,0,0,0,0,0,0,0,0,0,0,0,0,0,0,0,0,0,0,0,0,0,0,0,0,0,0,0],"id":33,"left_children":[1,3,5,7,9,11,13,-1,-1,-1,15,17,19,21,23,-1,25,27,29,-1,-1,31,-1,33,-1,35,-1,37,39,-1,-1,41,-1,-1,43,-1,-1,-1,-1,-1,-1,-1,-1,-1,-1],"loss_changes":[1.028866E0,1.0292228E0,1.0057514E0,4.0018177E-1,9.6558356E-1,2.3918529E0,8.920926E-1,0E0,0E0,0E0,6.8458796E-1,1.1040635E0,4.4521964E-1,1.1643624E0,8.6566925E-1,0E0,8.304265E-1,1.4634923E0,7.927617E-1,0E0,0E0,7.820708E-1,0E0,3.5963655E-1,0E0,7.90252E-1,0E0,1.5420883E0,1.1851885E0,0E0,0E0,3.3027124E-1,0E0,0E0,5.3838253E-2,0E0,0E0,0E0,0E0,0E0,0E0,0E0,0E0,0E0,0E0],"parents":[2147483647,0,0,1,1,2,2,3,3,4,4,5,5,6,6,10,10,11,11,12,12,13,13,14,14,16,16,17,17,18,18,21,21,23,23,25,25,27,27,28,28,31,31,34,34],"right_children":[2,4,6,8,10,12,14,-1,-1,-1,16,18,20,22,24,-1,26,28,30,-1,-1,32,-1,34,-1,36,-1,38,40,-1,-1,42,-1,-1,44,-1,-1,-1,-1,-1,-1,-1,-1,-1,-1],"split_conditions":[-4.1592556E-1,8.238513E-2,2.7484027E-1,-8.567515E-1,-9.158831E-1,-2.987683E-2,-6.972623E-1,2.8689403E-2,-1.4482611E-1,-1.2096863E-1,-1.3150156E0,7.584026E-1,-5.908863E-1,-9.94281E-1,3.2326286E0,-9.461784E-2,1.9353704E-1,5.7725567E-1,6.670311E-1,2.862929E-2,-1.5310657E-1,1.2888107E0,-1.270282E-1,6.631659E-2,-3.6940563E-2,-4.321669E-1,2.0114432E-1,-4.3256456E-1,-5.908863E-1,-1.4508729E-1,7.463325E-2,3.6178246E-1,-9.058E-2,3.851812E-2,1.0701184E0,1.0681765E-1,-1.0942453E-1,6.405485E-2,-1.0188936E-1,-4.4376947E-2,2.508788E-1,1.6286136E-1,-6.5925284E-3,2.253056E-1,6.565424E-2],"split_indices":[2,9,29,22,0,12,3,0,0,0,2,5,29,3,22,0,26,14,26,0,0,0,0,25,0,13,0,12,29,0,0,25,0,0,16,0,0,0,0,0,0,0,0,0,0],"split_type":[0,0,0,0,0,0,0,0,0,0,0,0,0,0,0,0,0,0,0,0,0,0,0,0,0,0,0,0,0,0,0,0,0,0,0,0,0,0,0,0,0,0,0,0,0],"sum_hessian":[8.285641E1,1.952941E1,6.3327E1,8.810675E0,1.0718735E1,4.4311028E1,1.9015974E1,1.0413198E0,7.769355E0,2.6525607E0,8.0661745E0,3.5269955E1,9.041071E0,8.962787E0,1.0053186E1,1.2391709E0,6.8270035E0,3.0095417E1,5.174539E0,1.0740094E0,7.967062E0,6.1779428E0,2.7848442E0,8.277885E0,1.7753016E0,4.0982466E0,2.728757E0,2.4738548E1,5.356869E0,3.7651615E0,1.4093776E0,4.9963307E0,1.1816118E0,2.0051343E0,6.272751E0,2.1893423E0,1.9089044E0,1.8963778E1,5.774769E0,1.2572229E0,4.099646E0,3.7708526E0,1.2254784E0,4.9855614E0,1.2871892E0],"tree_param":{"num_deleted":"0","num_feature":"30","num_nodes":"45","size_leaf_vector":"1"}},{"base_weights":[5.3398922E-2,-2.7015376E-1,2.301999E-1,-4.5523927E-1,-1.0007791E-1,2.8893697E-1,-1.177801E-1,2.1482509E-2,-1.5049258E-1,-3.6895913E-1,1.320402E-1,2.0486668E-1,5.623528E-1,2.8935266E-1,-3.4789836E-1,-1.4081672E-1,4.4727348E-2,-2.9853272E-1,4.8282123E-1,-1.7436339E-1,2.589937E-1,1.9883867E-2,1.8640935E-1,1.374159E-1,-2.3110494E-2,-1.562168E-1,4.2866252E-2,2.1759335E-2,-1.2351574E-1,6.267021E-1,-4.1996576E-3,-1.3691482E-1,1.1627274E-1,-1.2884292E-1,3.1706956E-1,3.2066118E-2,2.2410129E-1,7.9043835E-2,-1.5150215E-1,1.6403224E-1,3.2207202E-2],"categories":[],"categories_nodes":[],"categories_segments":[],"categories_sizes":[],"default_left":[0,0,0,0,0,0,0,0,0,0,0,0,0,0,0,0,0,0,0,0,0,0,0,0,0,0,0,0,0,0,0,0,0,0,0,0,0,0,0,0,0],"id":34,"left_children":[1,3,5,7,9,11,13,-1,-1,15,17,19,21,23,25,-1,-1,27,29,31,33,-1,-1,-1,-1,-1,-1,-1,-1,35,-1,-1,-1,37,39,-1,-1,-1,-1,-1,-1],"loss_changes":[4.834811E0,8.9692736E-1,1.147778E0,3.7954688E-1,1.1025312E0,9.6308756E-1,9.0449375E-1,0E0,0E0,4.9070013E-1,1.624044E0,8.1391466E-1,2.6499248E-1,2.6053238E-1,5.778601E-1,0E0,0E0,2.405642E-1,4.2205346E-1,1.0129197E0,7.881124E-1,0E0,0E0,0E0,0E0,0E0,0E0,0E0,0E0,2.0187676E-1,0E0,0E0,0E0,8.756624E-1,1.3452349E0,0E0,0E0,0E0,0E0,0E0,0E0],"parents":[2147483647,0,0,1,1,2,2,3,3,4,4,5,5,6,6,9,9,10,10,11,11,12,12,13,13,14,14,17,17,18,18,19,19,20,20,29,29,33,33,34,34],"right_children":[2,4,6,8,10,12,14,-1,-1,16,18,20,22,24,26,-1,-1,28,30,32,34,-1,-1,-1,-1,-1,-1,-1,-1,36,-1,-1,-1,38,40,-1,-1,-1,-1,-1,-1],"split_conditions":[5.74362E-2,-3.726671E-1,4.8813084E-1,-1.1423559E0,-2.0503192E-1,9.2739445E-1,-6.6969365E-1,2.1482509E-2,-1.5049258E-1,-2.2998124E-2,-6.652364E-1,-8.583204E-1,-5.220919E-1,1.7496668E-2,2.282219E-1,-1.4081672E-1,4.4727348E-2,-6.344458E-1,2.3308404E-1,3.4945387E-1,-1.0300837E0,1.9883867E-2,1.8640935E-1,1.374159E-1,-2.3110494E-2,-1.562168E-1,4.2866252E-2,2.1759335E-2,-1.2351574E-1,-7.4035525E-1,-4.1996576E-3,-1.3691482E-1,1.1627274E-1,-8.239578E-1,-2.8121305E-1,3.2066118E-2,2.2410129E-1,7.9043835E-2,-1.5150215E-1,1.6403224E-1,3.2207202E-2],"split_indices":[2,18,19,19,21,18,3,0,0,13,2,16,24,4,13,0,0,24,25,23,3,0,0,0,0,0,0,0,0,6,0,0,0,6,20,0,0,0,0,0,0],"split_type":[0,0,0,0,0,0,0,0,0,0,0,0,0,0,0,0,0,0,0,0,0,0,0,0,0,0,0,0,0,0,0,0,0,0,0,0,0,0,0,0,0],"sum_hessian":[8.2430984E1,2.8940582E1,5.3490402E1,1.3055843E1,1.5884739E1,4.591062E1,7.5797825E0,1.0128565E0,1.2042987E1,7.086426E0,8.798313E0,3.6451687E1,9.458933E0,2.6441886E0,4.935594E0,6.014398E0,1.0720277E0,4.016783E0,4.78153E0,4.2754226E0,3.2176266E1,1.2313051E0,8.227628E0,1.639231E0,1.0049577E0,3.605103E0,1.3304911E0,1.0228192E0,2.993964E0,3.5050333E0,1.2764964E0,2.9718096E0,1.3036131E0,4.0319505E0,2.8144314E1,1.0136466E0,2.491387E0,2.1202197E0,1.911731E0,1.26648445E1,1.5479469E1],"tree_param":{"num_deleted":"0","num_feature":"30","num_nodes":"41","size_leaf_vector":"1"}},{"base_weights":[4.8198625E-2,2.0254417E-1,-1.9860615E-1,2.7741594E-2,3.1447214E-1,-4.4376662E-1,2.2556704E-2,1.5948984E-1,-2.8658432E-1,4.163891E-1,1.0182725E-1,-1.5142407E-1,3.792648E-2,1.4108275E-1,-1.1798203E-1,-2.2901453E-1,2.6160398E-1,4.6549007E-2,-1.3873948E-1,5.097528E-1,1.2343076E-1,-1.3157134E-1,3.2604963E-1,-1.086134E-1,2.5546524E-1,-1.072909E-1,1.25605175E-2,5.021762E-1,-1.4476938E-2,5.7904893E-1,1.3982736E-1,-1.0200458E-1,2.967784E-1,1.5774794E-1,1.9064888E-2,5.0091773E-1,-7.6776735E-2,1.7781578E-1,9.928943E-3,1.1517931E-1,-1.2812132E-1,1.9135717E-1,2.0977618E-2,-3.0841267E-2,1.06221035E-1,1.4066386E-1,-1.0981085E-2,6.717507E-2,-6.636762E-2,1.9944198E-1,7.478472E-4,1.1304224E-1,-1.2647155E-1],"categories":[],"categories_nodes":[],"categories_segments":[],"categories_sizes":[],"default_left":[0,0,0,0,0,0,0,0,0,0,0,0,0,0,0,0,0,0,0,0,0,0,0,0,0,0,0,0,0,0,0,0,0,0,0,0,0,0,0,0,0,0,0,0,0,0,0,0,0,0,0,0,0],"id":35,"left_children":[1,3,5,7,9,11,13,15,17,19,21,-1,-1,23,-1,25,27,-1,-1,29,31,-1,33,-1,35,-1,-1,37,39,41,43,-1,45,-1,47,49,51,-1,-1,-1,-1,-1,-1,-1,-1,-1,-1,-1,-1,-1,-1,-1,-1],"loss_changes":[2.8581748E0,8.9143026E-1,1.5806315E0,8.348643E-1,5.6336665E-1,5.431771E-1,8.5297537E-1,6.181116E-1,5.368255E-1,4.450438E-1,1.4007194E0,0E0,0E0,8.594789E-1,0E0,1.3558596E-1,7.7829087E-1,0E0,0E0,2.7185965E-1,5.6748784E-1,0E0,4.750582E-1,0E0,9.7181004E-1,0E0,0E0,2.4503827E-1,1.2122902E0,2.929461E-1,2.1781051E-1,0E0,2.9031062E-1,0E0,2.54099E-1,5.4688466E-1,1.054981E0,0E0,0E0,0E0,0E0,0E0,0E0,0E0,0E0,0E0,0E0,0E0,0E0,0E0,0E0,0E0,0E0],"parents":[2147483647,0,0,1,1,2,2,3,3,4,4,5,5,6,6,7,7,8,8,9,9,10,10,13,13,15,15,16,16,19,19,20,20,22,22,24,24,27,27,28,28,29,29,30,30,32,32,34,34,35,35,36,36],"right_children":[2,4,6,8,10,12,14,16,18,20,22,-1,-1,24,-1,26,28,-1,-1,30,32,-1,34,-1,36,-1,-1,38,40,42,44,-1,46,-1,48,50,52,-1,-1,-1,-1,-1,-1,-1,-1,-1,-1,-1,-1,-1,-1,-1,-1],"split_conditions":[-1.755771E-1,-4.6405232E-1,-1.4125514E-1,-2.6575718E-3,1.1515255E-1,1.688127E0,7.80245E-1,-8.049346E-1,-9.8373294E-1,2.1303257E-1,-1.21721834E-1,-1.5142407E-1,3.792648E-2,-9.505162E-1,-1.1798203E-1,-5.2929306E-1,-4.1031104E-1,4.6549007E-2,-1.3873948E-1,2.0076437E0,-7.10549E-1,-1.3157134E-1,3.036885E-1,-1.086134E-1,-3.025186E-1,-1.072909E-1,1.25605175E-2,4.2060998E-1,-9.454605E-1,-3.6535802E-1,-7.340239E-2,-1.0200458E-1,-1.926085E-1,1.5774794E-1,1.0240196E0,1.1662521E-1,3.0661857E-1,1.7781578E-1,9.928943E-3,1.1517931E-1,-1.2812132E-1,1.9135717E-1,2.0977618E-2,-3.0841267E-2,1.06221035E-1,1.4066386E-1,-1.0981085E-2,6.717507E-2,-6.636762E-2,1.9944198E-1,7.478472E-4,1.1304224E-1,-1.2647155E-1],"split_indices":[2,24,5,9,7,28,2,22,5,4,18,0,0,18,0,2,22,0,0,27,12,0,9,0,21,0,0,5,2,2,10,0,7,0,3,10,14,0,0,0,0,0,0,0,0,0,0,0,0,0,0,0,0],"split_type":[0,0,0,0,0,0,0,0,0,0,0,0,0,0,0,0,0,0,0,0,0,0,0,0,0,0,0,0,0,0,0,0,0,0,0,0,0,0,0,0,0,0,0,0,0,0,0,0,0,0,0,0,0],"sum_hessian":[7.297507E1,4.5007706E1,2.7967363E1,1.8056292E1,2.6951416E1,1.2786703E1,1.5180659E1,1.3070464E1,4.985827E0,1.757154E1,9.379875E0,1.1655002E1,1.1317016E0,1.2327588E1,2.8530712E0,2.4617474E0,1.0608717E1,1.4533458E0,3.5324812E0,1.2763793E1,4.8077474E0,2.4702823E0,6.9095926E0,1.8823961E0,1.0445192E1,1.4520277E0,1.0097198E0,5.2313023E0,5.3774147E0,1.0273923E1,2.4898698E0,1.0470333E0,3.7607143E0,3.753832E0,3.1557605E0,5.715228E0,4.7299643E0,4.1639814E0,1.067321E0,2.7710812E0,2.6063335E0,8.983407E0,1.2905166E0,1.4114933E0,1.0783765E0,2.212254E0,1.5484602E0,1.7402796E0,1.415481E0,4.049788E0,1.6654401E0,2.002627E0,2.7273371E0],"tree_param":{"num_deleted":"0","num_feature":"30","num_nodes":"53","size_leaf_vector":"1"}},{"base_weights":[2.6420334E-2,1.15475506E-1,-1.6389273E-1,7.465828E-2,5.768546E-1,1.8523758E-2,-4.2169955E-1,1.5703452E-1,-3.118309E-1,4.395172E-2,2.3992774E-1,1.5619367E-1,-3.1555897E-1,-1.4614335E-1,2.24455E-2,6.569057E-2,4.4068006E-1,-1.4177088E-1,5.5509627E-2,2.610266E-1,-1.036201E-1,1.0015332E-2,-1.2462958E-1,1.9325568E-1,-2.2613278E-1,9.9235445E-2,5.846689E-1,-4.407552E-2,4.2522615E-1,-1.20842665E-1,8.314656E-2,1.06388606E-1,-9.956556E-2,-9.18463E-2,9.890156E-2,1.9266814E-1,4.3704532E-2,1.01388745E-1,-1.1845746E-1,1.7502642E-1,9.808695E-3],"categories":[],"categories_nodes":[],"categories_segments":[],"categories_sizes":[],"default_left":[0,0,0,0,0,0,0,0,0,0,0,0,0,0,0,0,0,0,0,0,0,0,0,0,0,0,0,0,0,0,0,0,0,0,0,0,0,0,0,0,0],"id":36,"left_children":[1,3,5,7,9,11,13,15,17,-1,-1,19,21,-1,-1,23,25,-1,-1,27,-1,-1,-1,29,31,33,35,37,39,-1,-1,-1,-1,-1,-1,-1,-1,-1,-1,-1,-1],"loss_changes":[1.3388816E0,9.67117E-1,1.1947918E0,1.654538E0,2.8679347E-1,7.731747E-1,3.7766433E-1,1.0653305E0,8.218104E-1,0E0,0E0,7.1142584E-1,1.854757E-1,0E0,0E0,1.2767212E0,4.391719E-1,0E0,0E0,5.368513E-1,0E0,0E0,0E0,1.2911943E0,7.6475614E-1,4.936628E-1,8.1005335E-2,7.397919E-1,4.0426385E-1,0E0,0E0,0E0,0E0,0E0,0E0,0E0,0E0,0E0,0E0,0E0,0E0],"parents":[2147483647,0,0,1,1,2,2,3,3,4,4,5,5,6,6,7,7,8,8,11,11,12,12,15,15,16,16,19,19,23,